832 128
346 -0.07324262 0.12933011 -0.16885418 -0.14709051 0.07704215 0.01059877 0.04294817 -0.017393524 -0.25046667 -0.050474368 0.11274413 0.0691496 0.14194821 -0.02999573 -0.08070525 0.0418393 -0.1452522 -0.13978128 -0.18960354 -0.076640435 0.23644458 0.23520644 -0.028863104 -0.21201062 -0.041655537 -0.14263313 0.016731855 0.00892496 0.08608267 -0.14426428 0.1293983 -0.16564217 0.105628684 0.114713214 -0.12671077 0.0075447187 0.04810771 -0.13796082 -0.1509748 0.06272462 -0.24372554 0.24082534 -0.024626516 0.16285145 -0.25453857 -0.070307784 -0.1830893 0.09729707 0.11156376 -0.101449646 0.15934554 0.12805265 -0.10308964 -0.115131006 -0.08829902 -0.085383266 0.053892497 0.12865241 -0.1115186 0.17317167 -0.1493355 0.04534996 0.05319071 0.049778942 -0.11240154 -0.17762876 -0.23861654 -0.017949091 0.10741738 -0.17434801 -0.1806433 -0.2867438 0.020131163 0.035143264 0.029570607 0.10316488 -0.25832844 -0.14952585 0.081571385 0.107177325 -0.05337759 0.006076167 -0.14419599 0.08106118 -0.07786495 0.05858153 -0.08861164 0.07712111 -0.046642225 -0.072085425 0.047184996 -0.013805432 -0.29875532 -0.06663508 0.09877432 -0.020840593 -0.10704416 0.23091699 0.09274597 0.30037484 0.16420437 0.05022694 0.26715493 0.11590275 -0.09083921 -0.23908685 -0.12730673 0.18029773 0.09380264 -0.03741527 -0.026986793 -0.16456527 -0.30526006 0.023455244 -0.36005375 -0.15315142 -0.13038464 0.05140093 0.12654516 0.07183343 0.05545853 0.19522887 0.11901075 0.2301706 0.07225672 -0.1932968 -0.014429665 -0.10452465
742 -0.09838103 0.18704897 -0.07200956 -0.21717986 0.08388302 0.25954035 0.073646076 0.12566908 -0.20523341 0.05269024 0.16285287 0.21389808 0.1788097 0.025092375 -0.14879641 0.13465494 -0.0803537 0.016136829 -0.15249337 -0.12897858 0.12418911 0.050768252 -0.083945125 -0.13355246 -0.083470464 0.028024795 0.24795283 -0.023641061 -0.07934653 -0.102912694 0.1484197 -0.15793884 -0.016351368 0.12576547 -0.08906103 0.047961827 -0.0067864517 -0.05999458 -0.15417983 0.048831455 -0.33310482 0.112527 0.01400799 0.13019733 -0.22241561 -0.028881155 0.10636352 0.1680896 -0.028138041 -0.03939817 0.09006018 0.17958815 -0.09007823 0.07503059 -0.19273946 -0.070228 0.07881317 -0.029313399 -0.112772584 0.008326529 -0.17508385 -0.07664072 0.027269121 0.17519063 -0.15348332 -0.32430163 -0.16811372 -0.017549397 -0.07565856 -0.16290134 -0.18234952 -0.16070774 -0.057414275 0.23130211 0.016906852 0.21427397 -0.21096267 -0.0956904 -0.042481273 -0.020095304 -0.045978706 0.016414931 0.039797727 0.00025934502 -0.13806674 0.056808755 -0.19891271 0.0047142818 0.007895996 0.18650262 -0.050084237 -0.11026564 -0.20006128 -0.028852493 0.043900304 0.12236089 -0.01671556 0.15988682 0.26000854 0.22061513 0.17946352 -0.048174877 0.07566268 0.18549958 -0.13779595 -0.09888112 -0.06339499 -0.030044304 0.13591452 0.10142758 -0.013040344 -0.1099209 -0.31177694 0.043553766 -0.35519165 -0.029145436 -0.18205144 0.02123152 -0.02817032 0.1167909 0.15101418 0.06928142 0.13548946 0.17953397 0.23111664 -0.17001672 -0.030577661 -0.06797999
367 -0.11634382 0.090572126 -0.12930775 -0.2692552 0.11403557 0.05224526 0.17500412 0.049867164 -0.35789827 -0.094122164 0.14380006 0.2033621 0.17071004 -0.14320941 -0.04991832 0.07194299 0.054808084 -0.1886083 -0.3438955 -0.20719843 0.3375899 0.37384173 -0.06600436 -0.35858098 -0.019079221 -0.22228663 -0.1798428 0.0034983123 0.07629145 -0.14581764 0.18059187 -0.111833446 0.12813559 0.07383463 -0.28426814 -0.07230185 0.085016206 -0.18937379 -0.15460818 0.006867787 -0.19911371 0.14236994 -0.030165497 -0.043337274 -0.25915512 -0.00930124 -0.074725725 0.13544327 0.07129283 -0.2213499 0.12061899 0.11640896 0.002859084 0.006327747 -0.066589534 0.031243926 0.116874196 -0.036802094 -0.056050517 0.12556392 -0.1314511 -0.00735837 0.07961437 0.09138563 -0.0041827736 -0.194266 -0.25854003 -0.016078385 0.17026186 -0.06436636 -0.14321525 -0.23659453 0.0713339 0.1963262 0.134848 0.11909224 -0.07942994 -0.07049787 0.10864835 0.015100268 0.13804904 0.017801274 -0.10014877 0.06472693 -0.069431104 0.06807085 -0.15789 0.1575307 -0.040243126 -0.09387871 0.15488662 -0.12007859 -0.1451539 0.052386113 0.3156521 0.0762923 -0.1047183 0.14729206 0.21345302 0.28323397 0.12509707 0.14535636 0.27621347 0.19665785 -0.021180606 -0.27186167 -0.056100585 0.1190741 0.03992566 0.03557358 -0.029586362 -0.16222708 -0.3054826 0.037440848 -0.46336138 -0.06927229 -0.16925567 0.012987046 0.057105497 0.026895393 0.006018976 0.38684508 0.15290213 0.31319916 0.039659217 -0.13420169 0.083160795 0.09161627
365 -0.10828734 0.1724734 -0.12003953 -0.28547615 0.20921375 0.15951064 0.22775644 0.16942048 -0.4134858 -0.057600886 0.19527692 0.28335112 0.24331619 -0.042173397 -0.0308835 0.018609058 -0.052979693 -0.16820176 -0.2867136 -0.12621847 0.29157424 0.37040934 -0.071501814 -0.41582996 -0.07789502 -0.2151183 -0.08222583 0.020940507 0.09491497 -0.1590481 0.11378919 -0.09443192 0.00091375865 0.13453645 -0.1503248 -0.010057665 0.08854991 -0.17153391 -0.12641312 -0.016084082 -0.26196268 0.24223076 -0.0027526473 0.17176946 -0.22263357 -0.050404616 -0.08291576 0.2050879 0.121107794 -0.29626435 0.09282197 0.11082825 -0.17767528 -0.09856174 -0.07721273 -0.1269424 0.12075131 0.18262467 -0.10558073 0.09956958 -0.20565355 0.0119006075 0.10615995 -0.04116972 -0.07560047 -0.24777426 -0.12595473 -0.079482175 0.1965965 -0.052486964 0.011354776 -0.21782535 -0.006104305 0.100911774 -0.07484278 0.07754249 -0.22101887 -0.166708 0.08065316 -0.044593237 0.009421768 0.035296544 0.017176485 -0.022376874 -0.07629264 0.02333877 -0.09646259 0.10441893 -0.06418612 -0.010090626 0.1348752 -0.12727924 -0.14061764 -0.0005402757 0.18428905 0.01647448 -0.06733742 0.22886948 0.23911805 0.29830322 0.10526566 0.113711126 0.36575764 0.08149542 -0.056167968 -0.23709363 -0.09680952 0.06484227 -0.011940641 -0.13730368 0.03253046 -0.1302661 -0.37304726 0.04609198 -0.28452557 -0.07608363 -0.13800158 0.052056614 0.120842054 0.14713511 0.08657536 0.34415314 0.15092827 0.20581222 0.049467914 -0.0676032 0.06798302 0.13479841
357 0.008176604 0.24663743 -0.17676394 -0.1959694 0.14747487 0.1042253 0.09404418 0.08291267 -0.16615717 -0.03440361 0.12164087 0.094353475 0.06222555 -0.01054477 -0.08271302 -0.022438169 -0.12919843 0.0015233464 -0.16379304 -0.1827146 0.20051144 0.24409376 -0.17501968 -0.29026127 -0.22440171 -0.09128317 0.09947155 -0.029336931 -0.072463855 -0.20978622 0.13658504 -0.13694112 0.025949828 0.17228305 0.004729962 0.12377493 0.0006862875 -0.1320649 -0.07587561 -0.030932399 -0.3284548 0.32232064 -0.059456404 0.23889503 -0.27114004 -0.11521401 -0.12805022 0.12600157 0.08037543 -0.19085693 0.24062428 0.12968448 -0.12051618 0.012081978 -0.18820682 -0.17979413 0.2763556 0.066617586 -0.20240536 0.20350285 -0.18655966 0.0037099242 0.029315434 0.031868353 -0.32362095 -0.19890283 -0.19006677 -0.057584915 0.088796504 -0.112397864 -0.1923941 -0.25899395 -0.02282856 0.09447629 0.017173208 0.16825706 -0.24920627 -0.19258206 0.0691568 0.069748916 -0.03178185 0.017987506 -0.1190127 0.08302688 -0.0966927 0.07606789 -0.060638417 0.09397932 -0.007881471 -0.0038872445 -0.009663779 -0.08818159 -0.2698782 0.021660764 0.028592236 0.018112041 0.021678738 0.14180166 0.12022956 0.2630578 0.1334197 -0.037271455 0.11609016 0.14561142 -0.14991096 -0.3784786 -0.1311051 0.047523156 0.10360462 0.036235135 0.1522636 -0.24462223 -0.29266998 0.12890254 -0.27438116 -0.24975254 -0.27909726 0.07901702 0.18257579 0.15276836 0.0066405833 0.29720291 0.10522354 0.16938913 0.01888598 -0.18233371 -0.044799197 0.06842241
829 -0.046855338 0.031773552 -0.034218367 -0.1388312 0.015607542 0.15651762 0.21562356 0.009231991 -0.18356651 -0.04311112 0.07407039 0.25046065 -0.03162023 -0.026217122 -0.08573272 0.049693905 -0.03679416 -0.025013655 -0.18522789 -0.13980517 0.20533521 0.18564546 -0.039968908 -0.17737877 -0.22753131 -0.06801147 -0.12676693 0.105638966 0.14487398 -0.18771133 0.19207183 -0.13571067 0.1719893 0.09656163 -0.21782048 0.07379874 0.12842976 -0.14252575 -0.06901212 -0.034843154 -0.25827846 0.08177838 -0.010060894 0.13561994 -0.33660692 0.032905914 -0.11709433 0.004486678 0.03754525 -0.20830366 0.10424004 0.16381007 -0.0107435305 -0.078097545 -0.11694883 -0.014010974 0.12792008 0.026070604 -0.08189019 0.113757364 -0.16920947 -0.0028004036 -0.012637678 -0.11920238 -0.104563855 -0.21430114 -0.24389997 -0.056397874 0.044421688 -0.023677047 -0.10974873 -0.1569896 -0.02740125 0.24984151 -0.02511771 0.0794967 -0.20512971 -0.122488335 0.01968176 0.027435904 -0.05373714 -0.07554901 -0.07369492 0.016580958 -0.05998523 0.041725453 -0.21224473 0.14262995 -0.025488503 0.007612824 0.14584967 -0.030890826 -0.18430722 -0.07713217 0.1357483 0.07255524 -1.3591365e-05 0.08582598 0.059058167 0.16416217 0.011208396 -0.011141059 0.22622067 0.13570538 -0.0767251 -0.20803364 0.06805573 0.055697463 0.018430684 0.08944338 0.03038891 -0.19217761 -0.15834373 0.018452376 -0.22418939 -0.10938693 -0.121004306 -0.036060926 0.116996646 0.1466157 0.030911488 0.17596774 0.15440606 0.28933924 0.07203067 -0.12101122 0.05040336 0.07302804
769 -0.03959422 0.13606544 -0.18654105 -0.24469346 0.03291036 0.17449059 0.197786 0.055480566 -0.1924524 0.022070441 -0.055446222 0.16196421 0.099840455 -0.06331413 -0.026240151 0.16268148 0.1387784 -0.12462533 -0.10929217 -0.17376684 0.23320809 0.24749112 0.0684035 -0.21104725 -0.09021077 -0.23133771 -0.068704106 0.18447699 0.072954826 -0.3374926 0.3234581 -0.2791585 0.3074773 0.07719157 -0.16373175 0.10863174 0.14382976 -0.26018485 -0.006705935 0.07854705 -0.3409893 0.17245764 -0.08683583 0.18736374 -0.21730357 0.056583352 -0.18385912 0.057726216 -0.008845698 -0.23304385 0.3126454 0.17784134 -0.011368345 0.08378668 -0.18143044 -0.055112574 0.14749368 -0.0015607045 -0.23986976 0.22450899 -0.23484038 0.002786533 -0.07511322 0.11976693 -0.15931624 -0.35908383 -0.30709106 0.13857673 0.005118896 -0.2066773 -0.23533653 -0.22320044 0.10378381 0.22135909 0.1747568 0.17631263 -0.27084234 -0.005417242 0.15227836 0.1315028 -0.06276488 -0.051615704 -0.2802791 0.21923654 -0.19540305 0.047728423 -0.1725881 0.14863878 -0.058585778 -0.06054581 -0.016691275 -0.02710533 -0.23367031 0.077855036 0.13610886 0.25897107 -0.026417047 0.15023112 0.10310211 0.20735249 0.00935056 0.086841166 0.12962307 0.23429066 -0.05441559 -0.3109351 -0.009667897 0.14788777 0.20010282 0.10047332 0.03033735 -0.22579806 -0.32059732 -0.07270059 -0.17461313 -0.14487372 -0.28886285 -0.030139875 0.14741415 0.04619773 -0.035060935 0.20503661 0.08104237 0.27463865 0.14922066 -0.087725826 -0.012875486 0.14056417
289 -0.016983354 0.12924121 -0.2689346 -0.31125823 0.061054114 0.084706195 0.014390325 0.115733065 -0.16322042 0.028335257 0.070227556 0.1475631 0.19343938 -0.16424072 -0.10051366 -0.018873448 -0.27036804 -0.20305632 -0.34828004 -0.010546291 0.1827303 0.42172205 -0.105430946 -0.38023704 -0.21009728 0.0026119018 0.07110149 0.08407603 -0.09372075 -0.17844227 0.013200506 -0.22892997 0.21975453 0.22086017 -0.113968395 -0.018719915 0.117836386 -0.04491144 -0.0043582655 0.12606145 -0.33465573 0.32684064 -0.013692396 0.25284052 -0.23747414 -0.11165715 -0.33552766 0.07152759 0.09225763 -0.17997007 0.19823463 0.06342402 -0.11161154 0.0026526938 -0.09270743 -0.16906367 0.16497838 0.26045367 -0.21082635 0.11622282 -0.16672637 0.102644645 0.0069473144 -0.018784849 -0.3309001 -0.28866753 -0.3178204 -0.07273302 0.25758532 -0.10086096 -0.030888407 -0.2949791 0.046243925 -0.01228211 0.046159558 0.11276874 -0.39338762 -0.18742526 0.03193578 0.030826766 -0.079795316 -0.008448511 0.019421034 0.12153466 -0.031582702 -0.016687648 -0.03197083 0.19705409 -0.006949778 0.050478917 -0.028102852 0.15536685 -0.30484262 -0.15355082 0.047320325 -0.025285088 -0.04337203 0.26654798 0.10681907 0.34131458 0.13834201 0.0033806947 0.18211098 0.09158481 -0.11534105 -0.39367878 -0.14505182 0.16903101 0.012043052 -0.07054067 0.15638392 -0.24710746 -0.282232 0.10586669 -0.23266697 -0.07831456 -0.12645398 0.17636436 0.21685134 0.08474035 0.10169075 0.13588855 0.20960207 0.22987495 0.12679967 -0.17999183 -0.019445168 -0.06915217
345 -0.07649658 0.03166583 -0.20174092 -0.27006784 -0.043970857 0.12782724 0.018243898 -0.002565986 -0.18546794 -0.0153904315 0.09716982 0.23530665 0.20096253 -0.12333053 -0.039924666 0.1975838 -0.08318112 -0.15811568 -0.20043038 -0.17165926 0.1830917 0.17615221 -0.17222625 -0.20476073 -0.15666667 -0.21991462 0.10391074 0.009561333 -0.1558354 -0.3123478 0.24202955 -0.25382861 0.07476692 0.14101137 -0.16905193 0.1310805 -0.007843932 -0.15827268 -0.11824984 0.10592863 -0.21363476 0.21378022 -0.057549123 0.092316985 -0.19749802 -0.050516956 -0.008386629 0.037811995 0.08255638 -0.08422887 0.19618584 0.16267341 -0.10303476 0.042819783 -0.14808881 -0.055720698 0.07154445 -0.056322727 -0.20160572 0.03616523 0.03925876 -0.18829177 0.14050096 0.14141874 -0.14641081 -0.24735397 -0.2966218 -0.0070107006 -0.030012751 -0.10829813 -0.10763547 -0.21154436 -0.022991551 0.14772326 0.17065826 0.23435503 -0.16083422 -0.03988365 0.108978674 0.05557297 0.108542435 0.015678935 -0.06881643 0.068039656 -0.11583493 0.17200927 -0.042802576 0.16248628 -0.14239593 0.07998251 0.0054867286 -0.13179703 -0.07818709 0.04111708 0.029024618 0.029912114 -0.15035078 0.17643481 0.31197014 0.24423221 0.1378404 0.09158812 0.094682455 0.17835175 -0.019042687 -0.25392225 -0.09262745 0.1085221 0.13821986 0.07300983 0.060283344 -0.13808617 -0.33971527 0.22920954 -0.3837706 0.012923711 -0.2209908 0.12436777 0.15188697 0.018571222 0.116834775 0.18119138 0.019904377 0.16722015 0.022131652 -0.21049482 -0.030991782 0.03649815
679 -0.07429737 0.055712212 -0.044665925 -0.22222966 0.0024227346 0.25073904 0.19036701 -0.08254635 -0.34937993 0.11907145 0.17005014 0.20099463 0.073737 -0.19418228 -0.23615178 0.126628 0.02462911 -0.07494993 -0.36858645 -0.18725194 0.2826037 0.17170055 -0.1328429 -0.19750902 -0.102405936 0.116668925 0.07062444 0.10663261 -0.022349827 -0.15306579 0.23769015 -0.16950665 0.36906058 0.014372842 -0.21138369 0.03257832 0.11145667 -0.18967529 -0.2242324 -0.08162119 -0.3484563 -0.05215426 -0.041980315 0.15067938 -0.16464582 0.034749717 -0.23899156 0.035811283 -0.0062323003 -0.097438164 0.1697308 0.19727236 -0.03713176 0.0030248736 0.05129028 -0.0026992017 -0.06324163 -0.13330603 -0.1149832 0.08242164 -0.25347877 0.0034785375 -0.022097295 -0.017425185 0.060472365 -0.386379 -0.2998539 -0.029998485 -0.11069024 -0.279943 -0.32112163 -0.051401973 -0.15275048 0.32027814 0.1691998 0.109472014 -0.17142797 -0.08136522 0.039881583 0.12371605 -0.067338854 -0.23591205 -0.035172656 -0.075577445 -0.056250732 0.08803835 -0.29238006 0.14512472 -0.06839205 0.02159507 0.16801223 0.02983282 -0.37231523 0.007591852 0.23477627 0.088481516 0.0066855308 0.19105247 0.16802269 0.39443567 0.053510703 0.039631832 0.21146803 0.22811277 -0.134394 -0.003435395 -0.16711846 0.00032208665 0.258603 0.20222159 -0.024958257 -0.017132338 -0.25807104 0.119671494 -0.4228451 -0.14488856 -0.02922782 0.0022360503 -0.08935511 0.04784743 0.16061889 -0.09285292 0.093125604 0.35942408 0.26924735 -0.15613669 -0.1237113 -0.08574406
824 -0.014759733 0.15673037 -0.20974098 -0.19529755 0.0728011 0.23628452 0.18957196 0.05291709 -0.29516745 -0.10763402 0.11982267 0.14829795 0.11904533 -0.041353736 -0.10778503 0.02086577 -0.036444094 -0.13526443 -0.22463486 -0.19204229 0.26560763 0.33922845 0.03567039 -0.27202278 -0.121663645 -0.23070064 -0.04288993 -0.030215733 0.07718184 -0.21277843 0.15990129 -0.20800376 0.13670453 0.093682095 -0.24283619 0.014913861 0.14623994 -0.20953849 -0.014990374 -0.024125297 -0.26465398 0.29015112 -0.075048074 0.110346176 -0.17660598 -0.14710741 -0.16747856 0.08126314 0.16955711 -0.27946687 0.3986661 0.2927853 -0.1408083 0.023009315 -0.06470155 -0.10172106 0.04010142 -0.020363724 -0.2716271 0.16568428 -0.24007356 0.07379768 0.06106185 0.12408162 -0.122326344 -0.25119272 -0.34404692 0.12697448 0.079506636 -0.21123947 -0.20455103 -0.12080715 0.032234814 0.1197806 0.20193774 0.09764664 -0.25697592 0.0373546 0.18219881 0.06758533 -0.0019638455 -0.01758492 -0.021242248 0.06159477 -0.10421592 0.22626238 -0.07883743 0.11225692 -0.1660254 -0.118619606 0.11445139 -0.28135902 -0.2249432 0.096503794 0.14978895 0.24383923 0.010579169 0.18654715 0.053301375 0.30345547 0.12545201 0.051306646 0.1775017 0.24023712 -0.041996233 -0.34828192 -0.19354394 0.05234155 0.18568727 0.011038356 -0.041267622 -0.09611737 -0.3765541 -0.05033909 -0.19293036 -0.050871503 -0.239067 -0.037025064 0.14154266 0.038311947 0.021829445 0.32564306 0.09359485 0.21146815 0.1436418 -0.0042688698 0.079303056 0.16460215
680 -0.12158974 0.06108247 -0.15777461 -0.32556134 -0.028228946 0.1580902 0.19300482 -0.08944615 -0.3660637 0.00064568495 0.116536476 0.256456 0.06984726 -0.22151549 -0.20529415 0.24805412 0.16350846 -0.15447159 -0.35601985 -0.23986253 0.26283476 0.07428719 -0.10670062 -0.21166715 -0.0916449 -0.07307271 -0.06976956 0.22816412 -0.053242285 -0.2249151 0.2756484 -0.19508643 0.2726259 0.18380627 -0.30196136 0.024701945 0.11808486 -0.18841794 -0.26781654 0.033412352 -0.36145312 -0.031045968 -0.0572785 0.25138304 -0.27122006 0.19158362 -0.25777 0.005723062 -0.016826237 0.009068818 0.16740906 0.25959843 -0.12140408 -0.04911727 0.08284677 0.04501967 -0.0410813 -0.11560231 -0.14413688 0.077860944 -0.060821123 -0.16820881 0.030736895 0.0013406258 0.026114037 -0.3924731 -0.27233145 -0.080924414 -0.14590123 -0.16637766 -0.28535867 -0.014105211 -0.069352016 0.25775638 0.31946865 0.17635976 -0.13102455 -0.10204005 0.048778944 0.123809144 0.015952282 -0.19889872 -0.08126296 0.029597359 -0.19532031 0.09682019 -0.12174992 0.12233777 -0.046844006 0.05774392 0.17603172 0.0799384 -0.32386965 0.015483456 0.221953 -0.026222337 -0.16039263 0.21639995 0.21385592 0.39063063 -0.029739074 -0.0014580316 0.21978936 0.25950006 -0.12904364 -0.013089075 -0.08209437 0.06104213 0.27173668 0.23321478 -0.030741198 -0.07559068 -0.1099196 0.26955363 -0.5630302 -0.117216215 -0.13220836 -0.08125246 0.02102704 0.025961548 0.11227575 -0.10000284 -0.03203445 0.35776255 0.20731233 -0.23130997 -0.16982567 -0.042341053
813 -0.07843573 0.27146992 -0.094817795 -0.23768936 0.21821634 0.18790352 0.068062074 0.022395162 -0.2391417 -0.07966872 0.06432905 0.3010709 0.12475393 -0.035465177 -0.12371041 0.095636375 0.030380925 -0.07240083 -0.102604285 -0.30950385 0.30319002 0.16700815 -0.16353628 -0.32407385 -0.1032729 -0.2992856 0.023774017 0.044677302 -0.10344051 -0.17167874 0.22676165 -0.14062098 0.03431255 0.15591656 -0.1890892 0.09930855 0.109492235 -0.20703389 -0.1285848 0.06933258 -0.43290827 0.22618821 -0.054312527 0.30524915 -0.3327017 -0.046188448 -0.06880199 0.16557539 0.013090691 -0.056971762 0.16091141 0.031935845 -0.1633561 0.041821122 -0.20288391 -0.1405542 0.2931 -0.05545316 -0.14677086 0.23862232 -0.17475367 -0.04499246 0.04557365 0.11369828 -0.18766949 -0.27858362 -0.08713446 0.06751776 -0.15132947 -0.061900504 -0.31911126 -0.25584954 0.017520392 0.13586979 0.18389961 0.19021592 -0.14628536 -0.11778707 0.1669554 0.061788976 -0.12213164 0.03355123 -0.23281589 0.19652207 -0.13701423 0.11203817 -0.086253345 0.117964454 -0.017386347 0.0382163 -0.06418193 -0.033886433 -0.26838696 -0.033818528 -0.057222947 0.08274707 -0.07355305 0.14193648 0.13857359 0.35104412 0.039909117 -0.09170528 0.063590415 0.21695867 -0.2754309 -0.21010104 -0.057215594 0.06562934 0.12794234 0.15002725 0.1476876 -0.25903204 -0.42753646 0.1424706 -0.46582317 -0.079779334 -0.23147233 -0.042056058 0.085367486 -0.016727183 0.05318602 0.17929454 -0.05474902 0.14397186 0.12794864 -0.004590907 -0.10974765 -0.049233373
828 0.041544463 0.19134536 -0.15697955 -0.22222197 0.086755805 0.31161785 0.22328596 0.056261446 -0.20210855 -0.17782158 -0.13704069 0.33633435 0.15276088 -0.074694484 -0.21140526 -0.079362355 0.08655412 -0.0057368306 -0.22668669 -0.18045749 0.30511567 0.25434497 -0.034222588 -0.23840754 -0.27087572 -0.11586436 -0.0478064 0.056032855 -0.047425978 -0.18443765 0.12865554 -0.16234787 0.10988991 -0.017505862 -0.28239927 0.081521414 0.059042852 -0.11063534 0.046488345 -0.1638533 -0.260506 0.17805734 -0.16560866 0.018045027 -0.20003007 -0.076681875 0.0028073182 0.022584073 -0.090109326 -0.14960492 0.14380375 0.21823496 -0.055766426 0.084927395 -0.18176563 -0.020610617 0.20021847 0.11586657 -0.122600146 0.0974712 -0.08261047 -0.012953233 0.010515167 0.105592184 -0.08120908 -0.068531126 -0.31910545 0.2535112 -0.09809338 -0.1758158 0.031124327 -0.23375766 0.025448456 0.3120446 0.14940187 0.038866684 -0.092855185 -0.026213214 0.11690607 -0.022606052 0.100983545 0.17162654 0.013761593 0.06544811 -0.12183185 0.043303475 -0.27854708 0.13388528 -0.093301915 0.15263073 0.103437215 -0.061862364 -0.11542461 0.17307594 0.168883 0.25775927 0.02529697 0.13346912 0.28633156 0.05172436 0.020084677 0.028078904 0.08628032 0.23472926 -0.16605416 -0.16874558 0.018101446 -0.043613702 0.09308648 0.0466354 -0.032115687 -0.14741035 -0.13666268 -0.034704823 -0.13218999 -0.07956138 -0.18041627 -0.0124749 0.12280075 0.049988598 0.07566683 0.2759937 0.0008075377 0.3011216 0.106402375 0.1067624 0.12252193 0.098638505
374 -0.00031723498 0.11295234 -0.039915144 0.042857233 0.17746632 0.11020259 0.18070391 0.1778353 -0.14649336 -0.00838837 0.016141975 0.14456137 0.18691763 0.086758055 -0.092160955 -0.19849083 -0.017254077 -0.11649238 -0.064125836 -0.17801356 0.3034813 0.17585139 -0.024594411 -0.2382426 0.07731947 -0.028214118 0.13023385 -0.045279592 0.029041653 -0.09458561 0.21981885 -0.106286585 0.07398738 0.03834983 -0.0695266 0.02254622 0.023160528 -0.011982999 -0.11420436 -0.03901656 -0.15107082 0.12751341 0.032188237 0.058972362 -0.24172065 0.0101776915 -0.016796907 0.111355774 0.17393218 -0.049073573 0.10678685 0.11510934 -0.10098953 -0.15617053 -0.17913525 -0.07435675 -0.011950842 0.1598197 -0.08088943 0.15948944 -0.2944614 -0.08421811 0.14026725 0.09386174 0.02349981 -0.09930881 -0.18267372 -0.041304834 -0.014147742 -0.09876413 -0.07158944 -0.1267503 -0.05511034 0.10540507 -0.20679095 0.11361415 -0.12198677 -0.13879614 0.009769811 -0.030095665 0.09103884 0.038761504 -0.2052876 0.021365715 -0.09772415 0.023187056 -0.17031187 0.0056896308 0.0550138 -0.00093312544 0.047460187 -0.15710925 -0.16235511 -0.028708646 0.06725864 0.07275331 -0.13543491 0.23981161 0.2534085 0.17430319 0.22988561 0.04307297 0.0807965 0.2477628 -0.11287714 -0.10856522 0.024429355 -0.030575603 0.026408644 -0.008607877 0.055012044 -0.17848614 -0.19867317 -0.19186805 -0.36607206 -0.10450455 0.0051160795 -0.009970596 0.058906347 0.12784372 0.070240356 0.1438681 0.18909974 0.05133704 0.23681855 -0.0019474172 0.12494147 -0.07085208
767 -0.0255055 0.02633821 -0.19629517 -0.24670647 -0.045656607 0.08876592 0.17579326 0.14595127 -0.08586325 -0.041929033 0.10274753 0.2501877 0.05734442 -0.02924836 -0.10977294 0.2275855 0.030835783 -0.04755451 -0.19636498 -0.13153824 0.12047519 0.07558372 -0.15258391 -0.15130876 -0.3580573 -0.24919152 0.039622348 0.0274601 -0.05429139 -0.2691333 0.12848246 -0.22242013 0.050066147 0.14821295 -0.17786501 0.063564554 0.13233571 -0.19074805 -0.115777396 -0.0003452431 -0.30329862 0.30038154 -0.16428888 0.03756259 -0.16177912 0.07095095 -0.021042852 0.13224167 0.04405331 -0.23704997 0.3331362 0.37912396 -0.08791229 0.042682517 -0.23607509 -0.19084111 0.041384637 -0.05378511 -0.38503036 0.041233335 -0.03983703 -0.03832801 0.027823364 0.08818084 -0.18983114 -0.34393993 -0.3885016 0.14541575 0.04817894 -0.11371239 -0.16323976 -0.20544982 0.011931715 0.2512408 0.2063407 0.20919381 -0.32550186 0.0811755 0.09491226 0.08868726 -0.034381304 -0.10359807 -0.093584165 0.16517973 -0.17026383 0.14531149 -0.077989824 0.17672585 -0.13958636 6.0112507e-07 0.15596758 -0.29268336 -0.023645023 0.018444348 -0.070929274 0.28224623 0.006316813 0.08730568 0.13487273 0.22802956 0.004543062 0.004978612 0.050556377 0.19671372 -0.14439335 -0.36554334 0.18638945 -0.0322786 0.16705374 0.1151123 -0.020671664 -0.046061065 -0.21156223 0.14810131 -0.2019066 -0.09604561 -0.2585853 -0.23255569 0.20028399 0.12400853 0.092763714 0.453482 0.13162492 0.20463108 0.063514054 -0.2705544 -0.1116051 0.13492121
666 -0.16295233 0.30040357 -0.020168465 -0.15756325 0.06430663 0.13776866 0.13878064 -0.018465688 -0.18868175 -0.024675552 0.06900872 0.12273812 0.22323535 -0.30303416 -0.122679435 0.15233085 -0.023395507 -0.06141968 -0.103541754 -0.2646764 0.30462852 0.2659086 -0.15656775 -0.33241057 -0.09199957 -0.07156115 0.17414284 0.027897863 0.07696815 -0.21270417 0.24635862 -0.02158794 0.11472643 0.09095153 -0.24340414 0.0011624191 -0.009578696 -0.21955535 -0.16587237 0.009655454 -0.29177424 0.035770547 0.01641965 0.015238034 -0.3197901 -0.0054276306 0.16908896 0.029556075 0.07628097 0.085466705 -0.011780993 0.18476926 -0.24745354 0.059271507 -0.070935965 0.05305936 0.14559686 -0.14204401 -0.18869415 0.076792814 -0.21270579 -0.058360714 0.14349134 0.20641878 -0.11664554 -0.16146721 -0.11672832 0.016706975 -0.10897665 -0.072697364 -0.29989177 -0.085491404 -0.06915211 0.19849166 0.25780097 0.21802978 0.052228 -0.06988805 0.067872904 -0.08927991 0.11794206 0.04657999 -0.18539377 0.033679407 -0.16622089 0.36121428 -0.16795754 0.07701079 -0.011543721 0.20391925 0.082903825 -0.08573833 -0.2043372 -0.059201375 0.01757295 0.13626704 -0.17964765 0.19554496 0.18803 0.27748805 0.1096789 -0.08217118 -0.04581125 0.2725734 -0.13547511 0.10348229 -0.24124935 -0.098739676 0.15545021 0.027303219 0.16187334 -0.14769757 -0.29832497 0.12557729 -0.47854483 -0.033649158 -0.18531196 -0.031775 -0.072620414 -0.017508237 0.06717253 0.07752277 0.0755534 0.11275344 0.16364458 -0.10720576 0.05177951 0.063928984
391 -0.0796866 0.015426587 -0.15587309 -0.110858396 -0.029092526 0.067683406 0.12830344 0.076279365 -0.1429369 0.034561444 0.07906647 0.14563675 0.16514927 -0.11783399 -0.06457103 -0.001526603 -0.17303364 -0.047490813 -0.18433124 -0.1320534 0.14110482 0.26138481 -0.14393888 -0.16124432 -0.21415177 -0.03574576 0.1426686 -0.105946794 -0.016846657 -0.22261673 0.0771356 -0.12898655 0.19085015 0.05633212 -0.13296399 0.112737544 -0.00539175 -0.10206058 -0.16456427 -0.0015577378 -0.14478974 0.1661109 -0.0275771 0.015900176 -0.1131597 0.003961592 0.026114386 0.07111502 0.035922665 -0.096071824 0.15945776 0.2770177 -0.111991294 0.042502157 -0.24470188 -0.04761726 0.0029842802 0.03882151 -0.20332864 -0.01782182 -0.027851753 -0.10130435 0.15027617 0.15178071 -0.071267836 -0.15043898 -0.25286907 -0.0047040554 0.06831331 -0.19192308 -0.07161693 -0.2390502 -0.043692935 0.084534205 0.029774858 0.15394482 -0.13746679 0.004918737 -0.07276669 0.07896488 0.038019232 -0.032623414 -0.081746005 0.010926592 -0.10882993 0.08017098 -0.17901579 0.1758772 -0.05286314 0.06937509 0.10232727 -0.12797327 0.014705022 -0.00062215194 -0.03755064 0.16228342 -0.082170345 0.12715559 0.25326532 0.17214385 0.1382021 0.07940428 0.018261984 0.15967476 -0.055094082 -0.2591887 0.071705714 0.032971248 0.18519293 0.13045922 -0.007585609 -0.10724797 -0.17993733 0.12749155 -0.28816837 -0.09467773 -0.13882725 -0.002473057 0.11036194 0.05568889 0.18631586 0.27445072 0.14298521 0.14165151 0.03380076 -0.2035576 0.000645395 0.07803899
401 -0.020947443 0.027655603 -0.182507 -0.25791815 0.017640544 0.08674847 0.13270499 -0.084897585 -0.14529675 0.07564528 0.25924137 0.2727889 0.17547916 -0.08828248 -0.11524572 0.115075536 0.09514146 -0.048557755 -0.14901644 -0.11850431 0.12653609 0.16469167 -0.13311805 -0.10004921 -0.1202201 -0.0935215 0.15204576 0.059726026 -0.0409756 -0.19300675 0.2870812 -0.15636809 -0.04350126 0.082177214 -0.09613316 -0.0056927423 0.03496213 -0.18588343 -0.1730187 0.073625386 -0.3407916 0.15849255 -0.025597379 0.200555 -0.25478753 -0.1164497 -0.1410734 0.06635765 0.015802335 -0.17248125 0.22496258 0.11604933 -0.089963235 -0.052351296 -0.14731032 -0.09464205 0.023850933 -0.019187009 -0.03299582 0.112230636 0.0047898227 -0.0013764509 -0.034864068 0.011042127 -0.13521235 -0.31214064 -0.24701042 -0.10402216 0.022328435 0.0020087599 -0.27466673 -0.0603852 -0.05876829 0.13755226 -0.07034084 0.15681383 -0.18319094 -0.15267555 0.08431244 -0.0042671976 -0.07459895 -0.042769946 -0.10390576 0.10015055 -0.11075587 0.063698985 -0.15619457 0.09298922 -0.09313327 0.006013996 -0.04914065 -0.024711514 -0.27053863 0.028386096 0.095548674 -0.10674806 -0.027096331 0.1438484 0.21255668 0.28951612 0.11650843 0.018268658 0.18170267 0.25100443 -0.1264003 -0.2390998 -0.10754557 -0.0054373173 0.16661657 0.15959834 0.022037286 -0.067648545 -0.24516393 0.12494714 -0.26574117 -0.322568 -0.2037045 0.023854254 0.04324842 0.17544277 0.1024027 0.17004952 0.069864616 0.16223188 0.084042765 -0.40088642 -0.05467589 -0.024165327
350 -0.1587597 0.14889498 -0.27404636 -0.24990982 0.016682556 0.20528516 0.2386622 -0.06954819 -0.2384485 -0.027204826 0.15806285 0.08346549 0.18810463 -0.14744325 0.01473092 -0.04591083 0.071789555 -0.3331644 -0.041732833 -0.24122785 0.24620166 0.3073474 -0.033414226 -0.12624651 -0.026398648 -0.190177 0.081573874 0.10428804 0.14466394 -0.31773704 0.26649255 -0.31696457 0.18302135 -0.09746121 -0.32621908 0.12033573 0.13031888 -0.07543783 -0.13728766 -0.07617538 -0.31420317 0.112266615 -0.13382624 0.108378574 -0.23488428 0.08158993 -0.18258606 -0.0015747163 0.15895994 -0.077371664 0.32264647 0.1990921 -0.23054425 -0.036256526 -0.015123167 -0.03898595 -0.1676573 0.017947411 -0.21523198 0.17089142 -0.09266259 0.009603026 0.081348516 0.11842623 -0.009654018 -0.16437398 -0.30300364 0.03648602 0.034425024 -0.14849874 -0.27517575 -0.029534735 0.076954275 0.03789443 0.05985552 0.3561719 -0.12572211 0.07016916 0.08507238 0.12554505 0.02810931 -0.103074566 -0.18986 0.031913072 -0.15667479 0.13353162 -0.011496908 0.034659125 -0.20329425 -0.0036833882 0.0015007302 -0.2613317 -0.2049766 0.06534262 0.12702101 0.079445004 -0.29691756 0.23628935 0.2171917 0.18404032 0.14277717 0.16652414 0.07029644 0.33503625 0.0010853108 -0.25634128 -0.10725258 0.02988476 0.31789884 0.15511258 0.12341695 -0.27480525 -0.14360586 0.030037047 -0.38080534 -0.11756331 -0.21977192 -0.063566215 0.12313091 0.028295068 0.182418 0.06680186 0.11113136 0.19315885 0.15715094 -0.17744254 0.078922234 0.2049778
746 -0.26017037 0.19652288 -0.13121125 -0.37054697 0.12581027 0.04896256 0.13089779 0.09887777 -0.2759348 0.10146124 -0.016381053 0.1387367 0.12941417 -0.055126667 -0.023230765 0.035816077 0.0024900187 -0.13369784 -0.06277375 -0.25768057 0.16077071 0.08013763 -0.141089 -0.072178096 -0.015649118 -0.19050847 0.03211875 0.108976096 0.07869713 -0.3702447 0.25101146 -0.26340327 0.31877163 -0.02174723 -0.111069255 0.18953593 0.05370358 -0.06615001 -0.09446132 -0.0061384887 -0.36654812 0.13755198 -0.06815626 0.18919072 -0.22704498 0.22056228 -0.07468587 0.14053911 -0.0038406844 0.007238579 0.23532431 0.06512785 -0.0063622543 0.1229964 -0.27300137 -0.09312658 0.097619034 -0.06551793 -0.21285367 0.26642495 -0.14865418 -0.0058604646 0.024018783 0.07653841 -0.0910727 -0.22705497 -0.2045144 0.044822406 -0.08951466 -0.19862528 -0.31577474 -0.2542765 0.12456891 0.23004231 0.20485237 0.3533518 -0.19804402 -0.013847097 0.14961497 0.063047975 -0.09139666 -0.18752638 -0.36213627 0.18166752 -0.24023889 -0.03416744 -0.16578598 0.10467664 0.08555144 0.0033999379 -0.09911505 0.05827458 -0.28234777 -0.06558386 -0.020150648 0.14369117 -0.116891846 0.16390488 0.25182542 0.21309301 -0.035226393 0.12296908 0.029101279 0.36482134 -0.06569507 -0.10846671 0.119294986 0.19910596 0.2049766 0.17555162 0.06665854 -0.15759695 -0.15510984 0.06539412 -0.4336706 -0.11992729 -0.15363799 -0.14402725 0.017965464 -0.0038105797 0.074246 0.12546702 0.041470964 0.16758966 0.07233832 -0.10132826 -0.088479795 0.14205551
395 0.02599288 0.17146029 -0.20439135 -0.0968783 0.20942232 0.11912473 0.1284266 0.09348849 -0.17175674 -0.017349876 0.20104946 0.14259622 0.08265383 -0.026438082 -0.05098134 -0.14390664 -0.22685064 -0.13503087 -0.13532776 -0.114776164 0.18431015 0.30290073 -0.12241813 -0.22208478 -0.20818403 -0.0629123 0.09485569 -0.046424355 0.067024395 -0.23779745 0.04647089 -0.24077226 0.15127593 -0.015010159 -0.17131133 0.08820802 0.15179119 -0.035700943 -0.08290689 -0.12460464 -0.25403985 0.33996272 -0.08059944 0.15709957 -0.2924864 -0.15132402 -0.13010977 0.13501571 0.11920306 -0.23716253 0.21638776 0.07109482 -0.14803772 -0.12690422 -0.2586716 -0.15666007 0.081333354 0.1363581 -0.1875188 0.16312245 -0.08661012 0.07108961 0.10815724 -0.075027674 -0.21317944 -0.1411757 -0.2570367 -0.0797176 0.15074351 -0.09225233 -0.026209068 -0.20180207 -0.019520264 -0.02312463 -0.14069878 0.09502742 -0.27189818 -0.16533458 0.06765531 0.043659598 -0.063409865 -0.014547505 -0.07741989 -0.010519993 0.0056387624 -0.017931184 -0.1884466 0.11876222 -0.059479494 -0.059424188 0.021859352 -0.16484557 -0.220635 -0.03976848 0.015835164 0.037798718 -0.06656639 0.16762948 0.19201174 0.19013236 0.20354502 0.04893234 0.18635769 0.10440957 -0.058866873 -0.40598822 -0.0201963 0.014289968 0.040008944 0.046622213 0.16001698 -0.19395755 -0.17560863 0.051152233 -0.22687742 -0.21653281 -0.101820245 0.07424733 0.16765523 0.15986396 0.19385412 0.3148731 0.25842622 0.13586512 0.06848129 -0.1174046 0.024133971 0.07718185
661 -0.034458466 0.24073724 -0.09886572 -0.049647797 0.1395432 0.1701871 0.2134033 0.035385046 -0.2492871 -0.03259566 0.026695965 0.2357219 0.12324078 0.021080662 -0.08327357 0.09058835 0.037940968 -0.07595723 -0.045468066 -0.23881519 0.29448488 0.17175403 -0.08110688 -0.2906116 -0.00087040575 -0.17855166 0.075753614 0.074073225 0.0016828236 -0.292158 0.38692474 -0.12447639 0.18671593 0.07869736 -0.1497471 0.12362326 0.07764424 -0.19434237 -0.13360171 -0.10611732 -0.36877117 0.08073527 -0.012103134 0.22083811 -0.23580262 0.039190676 0.093720384 0.10484842 0.057452638 -0.13538295 0.14779866 0.16013242 -0.17125228 0.026364248 -0.19927108 -0.044986162 0.18837275 -0.043942284 -0.2098772 0.24151257 -0.27571392 -0.15444368 0.15092857 0.092414476 -0.08747119 -0.25777957 -0.07965213 0.022972042 -0.09707899 -0.21726774 -0.19524091 -0.17591502 -0.03768365 0.181275 0.08866304 0.14577113 -0.01055832 -0.025922475 0.1118729 0.1711078 -0.10632897 0.011908683 -0.2587905 0.02863268 -0.22261687 0.01493911 -0.17674877 0.08600546 0.0534385 0.0032047003 -0.01143773 -0.09404136 -0.21905708 0.056146435 -0.05006194 0.20803703 -0.10606037 0.23279154 0.2227483 0.22708772 0.11138295 0.055716973 0.13135779 0.24444912 -0.10844764 -0.08238057 -0.08007069 0.17390409 0.21126068 0.119791016 0.106211446 -0.2743255 -0.4150589 -0.030726615 -0.4303986 -0.11924047 -0.21225949 -0.08615771 0.04947559 0.090443924 0.08747595 0.03915679 0.04137702 0.119905494 0.20400442 0.017950444 -0.008062887 0.052762873
823 -0.09435465 0.097291 -0.09638821 -0.40728697 0.11611747 0.17176914 0.31209406 0.20746571 -0.4811666 -0.12416268 0.17384115 0.27150208 0.11347394 -0.024929987 -0.13270858 0.028028803 -0.087817825 -0.14239988 -0.40951255 -0.16526207 0.30333275 0.37445718 -0.027913563 -0.45374766 -0.25356036 -0.1932494 -0.24448313 -0.092862554 -0.041917775 -0.1698602 0.024927266 -0.16870351 0.14763266 0.049600415 -0.3550441 -0.06300161 0.11117334 -0.17622133 -0.026613144 -0.06955799 -0.2853283 0.25939098 -0.009795936 -0.049572363 -0.1647629 -0.20844421 -0.14262936 0.20475246 -0.0052867215 -0.40118384 0.16912764 0.055029027 0.09036358 0.1727682 -0.13045797 -0.08035118 0.18471973 0.00845887 -0.09616591 0.006777379 -0.16802847 0.09766093 0.0645745 0.04175745 -0.080657944 -0.39700365 -0.28985995 -0.005441406 0.32431 -0.08450181 -0.07637756 -0.3404761 0.05067824 0.27782816 0.17050332 -0.013730056 -0.28266412 0.07121106 0.12600192 -0.10251164 0.087065496 -0.005698086 0.13297796 0.046730243 -0.024572935 0.044030994 -0.29644886 0.1440503 0.03747624 -0.09632793 0.24760737 -0.29096034 -0.097723626 0.06726584 0.334779 0.25346565 0.063162126 0.076330684 0.10671334 0.32609743 0.09254648 0.19082157 0.3406254 0.05689873 -0.034827866 -0.34693378 -0.011368382 0.14885195 -0.029536603 -0.009879828 -0.1872051 -0.09222087 -0.2860156 0.067122154 -0.20164955 0.028909054 -0.2250034 -0.029396405 0.110610455 0.107482865 0.025951827 0.51744044 0.08324195 0.3315043 0.003174243 -0.03452827 0.051947966 0.17340752
804 0.03511262 0.1050582 -0.15775755 -0.11297773 0.16611968 0.100293465 0.19052054 -0.05806395 -0.05827744 0.020798177 0.06379379 0.05079103 0.10145721 -0.06605193 -0.21733294 -0.087164834 0.01197722 -0.07715814 -0.16463529 -0.22424236 0.32184643 0.22575338 -0.08395195 -0.22746952 0.035168905 -0.004334829 0.03174825 -0.09717353 -0.020312931 -0.25067076 0.25978094 -0.2327762 0.24667811 -0.009242645 -0.2182838 0.074657254 0.08902992 -0.107307956 -0.16386642 -0.11293694 -0.2876662 0.1331003 -0.050606992 0.13191341 -0.26096144 -0.056641467 -0.21300656 -0.11750334 0.13974753 -0.082657054 0.19733217 -0.020829339 -0.004160835 -0.08930247 -0.2892885 -0.17090252 0.025986861 -0.1296959 -0.17851998 0.2892135 -0.26542002 0.046288103 0.017127186 0.09875145 -0.10171911 -0.22142355 -0.24396217 -0.053532064 -0.10563053 -0.035077915 -0.23598434 -0.062418 0.14167912 0.06998403 0.0724826 0.033303794 -0.17747936 -0.11890529 0.054155555 0.04566578 0.020607507 -0.13980542 -0.30527407 0.0955094 -0.13299364 0.075237624 -0.18730953 0.24552594 0.091737844 -0.038420174 0.10539161 -0.09335659 -0.35593712 -0.0593127 0.05879457 0.18760677 -0.2075326 0.19793426 0.14259744 0.24734066 0.11379841 0.074558035 0.19692454 0.28216493 -0.016269721 -0.28206638 -0.12579915 0.21317819 0.16442978 0.07174161 0.035073854 -0.25912195 -0.26763278 0.081221096 -0.3476398 -0.16280194 -0.10798588 -0.013720079 0.007262589 0.027559895 0.07071804 0.20829388 0.20665783 0.18077657 0.19536306 -0.018778555 -0.044342667 -0.0054956856
288 -0.08229766 0.19651012 -0.30819088 -0.32886115 0.06381447 0.22772038 -0.08519278 0.1171678 -0.16672374 -0.07530738 -0.0007313496 0.1618306 0.33654767 -0.18967228 -0.13808629 -0.065004505 -0.121625125 -0.19846627 -0.30116466 -0.11703107 0.23219948 0.4402265 -0.1692878 -0.43191975 -0.103288144 -0.18372211 0.07353567 0.11468533 -0.00056836405 -0.04688907 -0.0055405865 -0.13020064 0.15674673 0.20642245 -0.10270631 -0.0822136 0.111771636 0.0059518255 -0.0039320467 0.20245515 -0.2771938 0.4153984 -0.03682001 0.31059518 -0.29060724 -0.09625668 -0.12209576 0.16444671 0.17515276 0.028759023 0.21939562 0.20810167 -0.27552637 -0.13986403 -0.19556512 -0.19828832 0.064874426 0.38183388 -0.16972367 0.12309211 -0.26228574 -0.008791341 0.05274324 0.0648667 -0.34014088 -0.14227389 -0.20243053 -0.044532347 0.17389561 -0.09333556 0.092577726 -0.21243687 0.116667695 -0.0068938984 -0.026989864 0.2468458 -0.29873052 -0.23936063 0.047300342 0.09032174 -0.07009741 0.097062804 0.014078039 0.1167657 -0.09616523 -0.04768598 0.13541886 0.10671598 0.002768893 0.02351614 -0.07650928 0.23522043 -0.25996163 -0.1875139 -0.04671695 0.046992846 -0.12777454 0.33489978 0.20308048 0.31926832 0.17004858 -0.10487786 0.10083592 0.27733716 -0.18949383 -0.31679007 -0.047656927 -0.034690294 0.12459485 -0.05396975 0.20844837 -0.28326133 -0.33060393 -0.004093982 -0.40512347 0.05624533 -0.1498104 0.15208384 0.094532415 0.08133871 0.12965874 -0.00023406793 0.29964867 0.19129054 0.25446826 -0.030079976 0.038071807 -0.087515004
314 -0.2550404 0.11710219 -0.15247302 -0.29151887 0.15926419 0.18137436 0.11192844 0.19207835 -0.38141146 -0.003658892 0.16528393 0.22870667 0.18326655 -0.058529694 -0.080782644 0.12683362 0.0013435369 -0.19990532 -0.28251007 -0.17480613 0.13311991 0.14255996 -0.094207235 -0.36127388 0.0018165618 -0.03869122 0.029974658 0.07829333 0.04022133 -0.09387992 -0.077103116 -0.16598278 0.220413 0.14200109 -0.20739031 -0.020213746 0.2630392 0.079526946 -0.14373183 0.1387154 -0.28963628 0.13200162 0.08160861 0.16153897 -0.22325158 0.06170803 -0.09671199 0.25017223 0.0165579 -0.07411516 0.13393597 0.13781412 -0.1250121 -0.02131252 -0.06502799 -0.042367987 -0.05302383 0.09638193 -0.07135031 0.053404905 -0.14707927 -0.08054192 0.02350621 -0.0046851668 -0.065131344 -0.3482242 -0.20934613 -0.10310819 0.09432046 -0.10894578 -0.024238756 -0.14915675 -0.06825016 0.11324122 0.045610443 0.21059377 -0.31332403 -0.08556913 0.055036426 0.007715796 0.05719346 -0.05451902 0.08414288 -0.057005767 -0.020927439 -0.14242095 -0.1376142 0.122568645 0.0764796 -0.027669512 -0.012875852 0.02528045 -0.25064617 -0.17403875 0.1330381 0.048993003 -0.064811945 0.16481234 0.30253178 0.24808554 0.16141523 -0.067934126 0.12759611 0.21640803 -0.092564106 -0.08922257 -0.02076021 -0.03678056 0.011579316 0.11846975 0.061260823 -0.07313346 -0.13434304 0.14596494 -0.57425344 0.11494744 -0.07365127 0.08429713 -0.01896986 0.08504692 0.14758773 0.004375898 0.15734254 0.2003499 0.2856809 -0.04848654 -0.10050859 0.0064032585
349 -0.21359414 0.15388377 -0.08636587 -0.1580548 0.106164 0.032782618 0.15819477 0.11440472 -0.3481555 -0.12742434 0.1891582 0.23262735 0.2549925 -0.12535204 -0.017326819 0.08685625 -0.00244164 -0.07566188 -0.25573295 -0.15339282 0.28491032 0.44505268 -0.11721206 -0.37462002 -0.0178512 -0.22661364 -0.017808618 0.053015426 0.18761884 -0.08723648 0.088796735 -0.049523715 0.08290631 0.055100426 -0.2812055 -0.11563076 0.081183806 -0.24310517 -0.20489752 0.038092487 -0.23168865 0.19732025 0.047727622 0.033170234 -0.2618888 -0.06734184 0.0047902213 0.15297925 0.044677943 -0.21252383 0.13705043 0.30721048 -0.2088243 -0.12645474 -0.071161784 0.056601953 0.07678742 0.023367288 -0.05564913 0.1291863 -0.14968915 -0.029743187 0.11874709 -0.003080535 -0.09840963 -0.17884038 -0.23453195 -0.04415661 0.1674532 -0.075577386 -0.041016445 -0.17343278 0.04630387 0.11017461 0.051004842 0.11130856 0.030663138 -0.03197158 0.12809461 -0.03268167 0.08121271 0.076831296 -0.029654006 -0.062822886 -0.026046874 0.102591276 -0.10928463 0.08894263 -0.064597525 -0.04274601 0.0767827 -0.07197981 -0.117050335 -0.002374135 0.22608483 -0.007076775 -0.06788063 0.19389033 0.23742579 0.27467537 0.2563575 0.096410446 0.24906391 0.21274929 -0.0656846 -0.1849867 -0.105644494 -0.04986879 0.1304592 0.011269877 0.052040983 -0.036870055 -0.28193715 0.01952451 -0.44662666 -0.13660692 -0.09529849 -0.043055065 0.06462297 0.07102135 0.06300496 0.2826836 0.13621826 0.19011258 0.11934934 -0.09851143 0.1581129 0.09912105
723 -0.018237632 0.17459738 -0.1936915 -0.17444009 0.08837355 0.2212772 0.050132953 0.04880488 -0.15192388 0.056847047 0.05297102 0.15749332 0.09213538 -0.033938356 -0.12599185 -0.06781114 -0.05375306 -0.011635563 -0.19966246 -0.16733003 0.18073356 0.12971191 -0.18407732 -0.21599574 -0.12835355 0.067677885 0.25445032 -0.08583422 -0.1741317 -0.21933667 0.16863732 -0.19268076 0.13328975 0.04708201 -0.013467512 0.22280021 -0.106207356 -0.09823232 -0.15729326 -0.10234017 -0.22070713 0.08144953 -0.05653053 0.044203214 -0.111566566 0.0074393684 0.05899592 0.096652746 0.11720268 -0.008451511 0.14563605 0.10543004 -0.12794442 0.124867596 -0.17455958 0.033031303 0.07722954 -0.07107443 -0.20817877 0.02992785 -0.092264526 -0.18670058 0.1678544 0.19880319 -0.029696396 -0.15008286 -0.17554851 0.0059493743 -0.035776727 -0.18598157 -0.17721364 -0.16336071 -0.041804727 0.24333258 0.1846171 0.24284388 -0.17160454 -0.09898248 0.034319144 0.13703942 0.10704353 -0.032618463 -0.121673435 -0.05258032 -0.23357946 0.12813759 -0.18221763 0.111377954 0.04674437 0.14543091 0.101284124 -0.19554414 -0.18623044 0.017439159 0.009824263 0.11874249 -0.027219685 0.18388554 0.33081096 0.2166105 0.16537876 -0.03347904 -0.02836172 0.24326734 -0.047407795 -0.043575674 -0.1148896 -0.059663635 0.1792653 0.1506268 0.061466645 -0.19788723 -0.22704417 0.116506174 -0.41393006 -0.11747697 -0.18145414 0.02289719 -0.0028618404 0.082473695 0.13181105 0.055671923 0.12952961 0.114879966 0.16477574 -0.16807461 -0.05453724 -0.056641567
688 -0.02419824 0.19039792 -0.038432136 -0.013960482 0.021352407 0.28753552 0.20350315 -0.16031022 -0.342023 -0.100641906 0.2492092 0.1524916 0.03324884 -0.20069036 -0.27871102 0.18828136 0.016146552 -0.049957104 -0.22573957 -0.21370023 0.31038392 0.310822 -0.08665319 -0.32500923 -0.09062573 0.10204296 0.1344388 0.08273744 -0.027780103 -0.03171873 0.12524813 -0.19599883 0.2669866 -0.014389447 -0.3063175 0.009320833 0.2001905 -0.24181324 -0.22728933 -0.062035587 -0.47753197 -0.004342156 -0.019294718 0.08562947 -0.2054164 -0.09083261 -0.16742085 -0.05959287 0.061370887 -0.12070827 0.1331155 0.2659991 -0.24382544 -0.06644779 0.022305295 0.0031918352 -0.021511812 -0.13391162 -0.0989982 0.08640847 -0.2544709 -0.0190744 -0.028512806 0.0958329 -0.09495989 -0.37171394 -0.18969922 -0.039581224 -0.053838387 -0.17321487 -0.24335794 0.0067876717 -0.08616904 0.27379936 0.15220138 0.013007789 -0.03744688 -0.081150256 -0.101088695 0.105004184 -0.021755183 -0.02919601 -0.017276995 -0.13280971 0.026537409 0.24077989 -0.3236746 0.09376185 -0.05628512 0.1353721 0.2683827 -0.082472235 -0.2682735 0.014940716 0.17874467 0.13841864 -0.119198084 0.17746796 0.0123357745 0.38800684 0.20392583 -0.13110058 0.2536384 0.13567646 -0.15067445 -0.00021862586 -0.26235408 -0.051063772 0.22041506 0.084746815 0.005250576 -0.16046384 -0.3270157 0.18487824 -0.4174326 -0.1301568 -0.07541136 0.037705876 -0.107995935 0.105243936 0.14292896 -0.108537234 0.15606408 0.30377504 0.3851641 0.00701737 -0.11271184 -0.06162568
389 -0.27947158 0.0019561772 -0.21979888 -0.13277693 -0.106465735 -0.03918919 0.20650156 -0.027704423 -0.2112894 0.004833026 0.17778252 0.13985278 0.23115738 -0.041023176 -0.040151447 0.1656454 0.1450747 -0.22063512 -0.13211706 -0.1001778 0.1821256 0.21599564 -0.005822396 -0.1700702 0.15457694 -0.17756818 0.022117103 0.1906409 0.15324359 -0.25103232 0.34402043 -0.026825927 0.04950824 0.09339018 -0.12302972 -0.056851044 0.0028477793 -0.14176832 -0.21086025 0.08116405 -0.22105448 0.005421281 0.026443208 0.17859477 -0.11848397 0.051903754 -0.032744642 0.047513846 0.020139523 -0.051691893 0.30479681 0.3343436 -0.15012683 -0.026155183 0.01045967 0.02031442 -0.12667656 0.09910289 -0.10748795 0.20869252 -0.12918599 -0.10876375 0.04718578 0.0005355448 0.13256542 -0.17378397 -0.35794136 -0.06325343 -0.010882681 -0.25426692 -0.2190725 -0.0658118 -0.06272751 0.12141902 -0.05865998 0.2613666 -0.11621797 0.0014490283 0.26298928 0.11963664 -0.011118582 -0.038315635 -0.29321274 -0.0040277774 -0.26795533 0.010155786 -0.08481895 0.022452101 -0.095750295 -0.13431744 -0.065139 0.047723096 -0.2483912 0.18068756 0.18123841 -0.05758872 -0.1846151 0.33227605 0.35036352 0.16750968 0.14247128 0.22818436 0.27047718 0.3608922 0.043017462 -0.12501712 -0.08990217 0.18544279 0.29447114 0.13493694 -0.0437259 -0.12836489 -0.32434544 -0.12680562 -0.48507434 -0.22017385 -0.18621439 -0.117942385 0.049620915 0.15992981 0.060126234 -0.11949025 -0.03726469 0.1571232 0.1836024 -0.3366397 0.08540712 0.058700282
766 -0.12345231 0.08002579 -0.071885526 -0.24666062 0.023706654 0.015373017 0.22752348 0.089996435 -0.3606591 0.0023407356 0.20885393 0.07659073 0.15713637 -0.03649156 -0.034419894 0.20373046 -0.059698626 -0.11600715 -0.19783022 -0.17156711 0.16280417 0.13316183 -0.077192254 -0.20301133 0.014835339 -0.19212447 0.023446744 -0.07142691 -0.009347301 -0.1418099 0.22876349 -0.08310282 0.2468456 0.06179001 -0.14923184 -0.052677363 0.058881793 -0.20593736 -0.093891345 0.114215925 -0.19187184 0.21984537 -0.0022105465 0.09095796 -0.2269928 -0.14920333 -0.10578011 0.18439832 -0.01433831 -0.12577185 0.2831923 0.17469269 0.063166104 0.11418045 -0.13033378 -0.010006765 0.16902871 -0.12345242 -0.16262767 0.10901972 -0.18061428 -0.021876428 0.05233117 0.11832642 -0.023859305 -0.3822107 -0.26500773 -0.06275413 -0.0062026973 -0.19020411 -0.2194576 -0.24150468 0.027195318 0.16113257 0.18587989 0.053867545 -0.14334875 -0.008478323 0.08322833 -0.051140647 0.08787969 -0.027974904 -0.11468785 0.058157694 0.0037115905 0.017160466 -0.24496725 0.13525873 0.028896207 -0.0726441 0.07344933 -0.16218427 -0.1621278 0.094228834 0.24534301 0.15183988 -0.045520213 0.16388579 0.1292229 0.34523007 0.11597191 0.16819923 0.13709761 0.15169534 -0.05102371 -0.28337067 -0.15573342 0.09668144 0.045250278 0.07501101 -0.059183605 0.018406596 -0.44589543 -0.014946035 -0.34219006 -0.090160705 -0.20099908 0.07371584 0.062557966 0.039719492 0.08893059 0.25852704 -0.077092655 0.19742577 0.035356548 -0.122177385 0.019788796 -0.010967474
716 -0.059239313 0.14101847 -0.029491492 -0.25642335 0.059815727 0.2810215 0.15554054 -0.048235707 -0.23994969 0.027174406 0.1619435 0.30481803 0.10516843 -0.05185139 -0.2049886 0.112580344 0.07849958 0.10147338 -0.23165146 -0.1385526 0.102521725 0.07003063 -0.19564043 -0.23810102 -0.07798349 0.063781984 0.17907707 0.034584817 -0.09741932 -0.15743546 0.16763984 -0.10198212 0.14049521 -0.0020452375 -0.033134233 0.0869271 -0.011327083 -0.0666565 -0.19222742 -0.13318129 -0.4300792 0.055368647 -0.0899025 0.23620878 -0.165538 -0.015615441 0.029134376 0.06153462 -0.00038766034 -0.060974024 0.2355201 0.17549536 -0.12229069 0.18620104 -0.13331369 -0.13390717 0.10864013 -0.056732945 -0.1784646 0.10542163 -0.17754322 -0.092873186 0.053059064 0.042105988 -0.11655371 -0.2538268 -0.13594596 0.02804373 -0.0053920406 -0.18653521 -0.12882386 -0.13968095 -0.0772412 0.27542442 0.18515338 0.05908798 -0.1268129 -0.12005619 0.042060595 0.10233008 -0.15689239 -0.065274835 -0.12104865 0.034193844 -0.11959981 -0.11675625 -0.28556293 0.09053861 0.09368355 0.13207471 0.05656893 0.011076331 -0.2947746 0.07071845 0.081696905 0.152084 0.06464166 0.1473208 0.15903777 0.27334934 0.0868322 -0.07342868 0.1764889 0.22242293 -0.20115702 -0.09935544 -0.017486142 -0.03210091 0.18633911 0.10547567 -0.0035914537 -0.19274226 -0.24762349 0.14131944 -0.36161545 -0.102331996 -0.0928363 -0.093486406 -0.056328632 0.031729788 0.18675195 0.001631118 0.106265046 0.21848843 0.22118764 -0.12493451 -0.1324733 -0.00045538245
270 -0.24770778 0.18899643 -0.26665902 -0.48797897 0.03541794 0.18369855 0.07000654 0.11355984 -0.13953727 -0.045153294 -0.0010322386 0.051356804 0.2559784 -0.16921608 -0.17312185 0.026982328 0.0447826 -0.21674407 -0.25428155 -0.18110406 0.08464392 0.30687925 -0.13693894 -0.48673588 -0.05525875 -0.16835922 0.03969282 0.09663243 -0.08493484 -0.08694956 -0.15405656 -0.22036527 0.31816754 0.10616969 -0.18290241 -0.08265711 0.16443494 0.09780791 -0.11208911 0.27837166 -0.29871488 0.45620602 -0.06203783 0.38935417 -0.21043654 0.05752524 -0.19874808 0.21137553 0.07510576 0.18447237 0.31270444 0.26200834 -0.19450535 -0.037927806 -0.25516337 -0.055716045 0.013135653 0.24148667 -0.24230967 0.03162964 -0.13181804 -0.018276948 0.08269327 0.050985232 -0.19801882 -0.24850784 -0.23240879 -0.1259399 0.11467877 -0.06501347 0.18685366 -0.11921283 0.23480041 -0.064962424 0.12269912 0.32584748 -0.3072777 -0.098886445 0.09965286 0.041170504 0.21975496 0.023990527 -0.0072985375 0.07381563 -0.1373323 -0.12983073 0.20537484 0.2572806 0.14892898 -0.025535345 0.039878882 0.16242033 -0.1697545 -0.12192371 0.08431065 0.06545444 -0.14793536 0.26628825 0.28990248 0.27690127 0.20060791 -0.098273784 0.0018469705 0.28842357 -0.16619052 -0.33994102 -0.048212573 -0.080545686 0.19152762 0.006027443 0.078704596 -0.10585842 -0.12712307 0.26793793 -0.5030781 0.112695865 -0.14487192 0.04672712 0.05021761 -0.15334441 0.35896167 0.037220143 0.18467888 0.19475025 0.2989028 0.11101848 -0.07348045 0.015898725
472 0.027510528 0.12205167 -0.10878732 -0.18662398 0.037801202 0.3181771 0.06390178 -0.055143144 -0.27250242 0.069216885 0.035237398 0.20465887 0.20063564 -0.0855362 -0.15323748 0.0023838195 -0.21459232 -0.012692658 -0.21885608 -0.2522251 0.32240185 0.12337143 -0.14632973 -0.22939955 -0.26876327 0.046288222 0.12772019 -0.06642732 -0.2083248 -0.21846236 0.2991542 -0.2793422 0.08208541 0.23162945 -0.21531852 0.076858096 -0.13720593 -0.063716024 -0.1814792 -0.17166361 -0.26098377 0.092633985 -0.08356782 0.039834853 -0.26544 -0.08190097 0.06585658 0.14114195 0.19894929 -0.005061594 -0.026291596 0.049316667 0.019219553 0.15001279 -0.009087924 -0.011880082 0.09919834 -0.0077177864 -0.07049683 0.0108758025 -0.18898307 -0.14642079 0.2692285 0.10722783 -0.17290331 -0.25396892 -0.12893447 -0.14861569 0.01578837 -0.18489307 -0.18281141 -0.21198331 -0.056365084 0.32474175 0.16646351 0.22729157 -0.17524144 -0.14741985 0.001656907 0.16910355 0.074377745 -0.06862357 0.11673111 0.008866045 -0.23576109 0.090667956 -0.19845532 0.03971034 -0.03504427 0.10278098 0.08394797 -0.087664284 -0.21272369 0.061904855 0.09219863 0.12560786 -0.0009961613 0.16260341 0.23621213 0.30716372 0.27165768 0.028399363 0.10694366 0.1490714 -0.11286489 -0.0841639 -0.16683947 0.220691 0.15481597 0.10551309 0.029324798 -0.1147822 -0.20661826 0.2638368 -0.370029 0.023474054 -0.17221507 0.1448392 -0.002822324 0.04471659 0.16699497 0.0076585757 0.106327064 0.2999829 0.09465841 -0.122121856 -0.002973952 -0.0014399576
685 -0.11715543 0.22764681 -0.021354849 -0.25615332 0.06790985 0.19892982 0.16391417 -0.0027243167 -0.10949621 -0.010718021 0.06667505 0.21121427 0.20078678 -0.16139388 -0.25234306 0.042751774 -0.0027165355 -0.01881535 -0.2492487 -0.25106764 0.40307587 0.20483187 -0.21628058 -0.37795457 -0.036569554 0.008086738 0.030105988 -0.0120285135 -0.123299986 -0.16588366 0.30310604 0.044417024 0.10216697 0.17887494 -0.09367271 0.052742887 -0.120360225 -0.19279703 -0.24893232 -0.08728526 -0.31034064 -0.047698278 -0.088226035 0.16304815 -0.26499978 0.104126096 0.10883017 -0.035006166 0.029773246 0.07384461 -0.028229514 0.018477913 -0.10689285 0.10153073 -0.10659064 -0.028970724 0.3000375 -0.15263012 -0.23725095 0.11888644 -0.30804995 -0.100984976 0.12021526 0.1491241 -0.022446577 -0.22569114 -0.11328241 -0.026166974 -0.2537457 -0.06564258 -0.19287898 -0.084667645 0.049615283 0.23505048 0.2640549 0.08925677 -0.048234407 -0.17314513 0.07863658 -0.010008223 0.14964987 -0.026005853 -0.23656811 0.010210758 -0.22774012 0.20618029 -0.13650675 0.31870687 0.1368778 0.2026857 0.15307212 -0.041153263 -0.25310397 -0.06290165 0.068003714 0.13901703 -0.13673784 0.2309959 0.22960459 0.27675745 0.025555465 -0.020235416 0.08129552 0.25063765 -0.04737778 0.047126062 -0.23795396 0.027703155 0.102095015 -0.03946532 0.13733663 -0.2641669 -0.4215499 0.12911883 -0.52657706 -0.036769334 -0.18797255 -0.10132596 -0.0106899245 0.0029071888 0.02628107 0.045390975 0.06375732 0.20643346 0.17849639 -0.06239163 -0.008692564 -0.10213181
326 -0.06592701 0.12094927 -0.25497603 -0.20340906 0.07866255 0.17337076 0.147979 0.016733462 -0.30871865 0.008682797 0.07315613 0.12599984 0.30700755 -0.10535358 0.019345405 -0.031000411 0.03246255 -0.23847176 -0.2001282 -0.17612518 0.2976441 0.34347603 -0.052029423 -0.23848107 0.044564504 -0.1617614 -0.0293982 0.121609226 0.099815816 -0.23724744 0.25149116 -0.18751821 0.1355022 0.07366814 -0.16448864 -0.028480165 0.08312584 -0.13058099 -0.0771514 -0.016813112 -0.14923316 0.20713207 0.009755572 0.12913437 -0.22153075 -0.023837449 -0.04838944 0.10445316 0.16770458 -0.15472926 0.29595208 0.28477088 -0.2049348 -0.18042833 -0.004355149 0.02370381 -0.06521275 0.13268612 -0.15433183 0.17352015 -0.15408695 -0.107318565 0.19232878 -0.021026518 -0.064040616 -0.107697524 -0.28443542 -0.06665009 0.07670521 -0.17817141 -0.06752155 -0.042837515 -0.032903288 0.08659549 0.026034962 0.2507194 -0.1083707 -0.047587253 0.2554359 0.09302852 0.06769522 -0.01935502 -0.06098393 -0.052165303 -0.15211311 0.08601384 0.01782019 0.015255917 -0.12908073 -0.15983503 -0.038155317 -0.07471303 -0.24712066 0.034297198 0.17538051 -0.06058222 -0.09608756 0.26336226 0.36834857 0.21597204 0.21564354 0.17063898 0.1530664 0.3276725 0.024862302 -0.16303426 -0.25785223 -0.0021685578 0.2906455 0.14553283 0.04567513 -0.06288391 -0.20417914 -0.026046557 -0.38692266 -0.13651331 -0.103187084 0.04571757 0.085546985 0.07535353 0.08022299 0.04537945 0.08953583 0.20094143 0.14466184 -0.10364458 0.13105622 0.1359798
745 -0.16449805 0.10438891 0.042679895 -0.32367754 0.07493056 0.1340788 0.11979387 -0.048540346 -0.054964773 0.015698873 0.05033187 0.35084876 0.026160037 -0.07071239 -0.23281267 0.074928775 0.084333844 0.10228497 -0.32402664 -0.2201965 0.20579416 0.08112343 -0.25009787 -0.1283803 -0.116607025 -0.007761209 0.03552672 0.054383855 -0.051126316 -0.22610177 0.24330531 0.02144979 0.02339883 0.07687602 0.041962516 0.07273505 -0.16938831 -0.21895455 -0.24059598 -0.11556246 -0.34253553 -0.11519419 -0.061635282 0.26668936 -0.33351654 0.21739452 0.13878624 -0.11074191 -0.07384131 0.15999018 0.06083051 0.055606596 -0.097682215 0.16152436 -0.106617495 -0.06880082 0.28765446 -0.23504455 -0.23053263 0.114726946 -0.16329272 -0.17353909 0.09667382 0.033139635 -0.00035141758 -0.15730621 -0.19431715 -0.0015017437 -0.33220255 -0.004915555 -0.24420719 -0.096183 0.06459823 0.3631932 0.31466806 0.08747528 -0.024971988 -0.16094133 0.037074666 -0.044185385 0.06898721 -0.09658094 -0.25415564 0.015843637 -0.2428369 0.18410157 -0.18119182 0.22070238 0.106389925 0.2915332 0.14246283 0.031916548 -0.28666887 -0.01888265 0.11185761 -0.007272242 -0.0914154 0.19790547 0.2511452 0.28742373 -0.05600647 -0.0740993 0.10441756 0.2554601 -0.05272817 0.09561892 -0.021852445 0.09845243 0.15299913 0.03135546 0.015753997 -0.29337686 -0.2758944 0.111892365 -0.5664307 -0.18762039 -0.106300496 -0.3019978 -0.07998834 0.09342854 0.011661169 0.03765404 0.06428664 0.24548379 0.09681815 -0.12671489 -0.040905472 -0.09930113
786 -0.19107276 0.10973038 -0.060692117 -0.261188 -0.028942006 0.08862726 0.2566701 -0.0737618 -0.35542086 -0.15777041 0.14304036 0.065686986 0.05539142 -0.03276423 -0.13442603 0.22325428 0.14457104 -0.041211378 -0.09918876 -0.25019372 0.25233912 0.12054553 0.053775124 -0.31306866 -0.1524642 -0.27149636 -0.272108 -0.039364655 -0.033584163 -0.17261042 0.17840865 -0.18007275 0.18592449 0.07667736 -0.33692285 -0.034657847 0.1403598 -0.3093525 -0.13852614 0.019939773 -0.23866487 0.16661899 -0.12482716 0.1651168 -0.22138372 -0.2141224 -0.17154935 0.08220618 -0.08234085 -0.18244867 0.32728228 0.23655207 -0.0027410383 0.1690416 -0.108816475 -0.028907286 0.16003475 -0.10346814 -0.19344307 0.07602375 -0.077968754 0.032058556 -0.0022933995 0.011906339 -0.0033435116 -0.46345952 -0.33483198 0.06498889 0.005647084 -0.11550755 -0.25023973 -0.1701557 0.103958696 0.2667189 0.29160962 0.011189949 -0.22505052 0.1019993 0.23020647 -0.052356534 0.11482838 0.006533134 -0.06829337 0.03556281 -0.12013923 0.1353002 -0.20082214 0.16915222 -0.02278212 -0.25651324 0.19954014 -0.34935266 -0.15233874 0.20967205 0.36941534 0.15025307 -0.057021208 0.033999898 -0.035932995 0.3435582 0.03273049 0.13474175 0.30161956 0.0923166 -0.06798624 -0.26549038 -0.16309118 0.14610602 0.13358933 0.056022003 -0.26896772 0.0047691385 -0.24006525 0.32102993 -0.30673578 -0.037896957 -0.3747043 -0.10156016 0.11757143 -0.021436993 0.05175168 0.34952235 -0.18055758 0.3656556 0.031665165 -0.019067101 -0.023021193 0.07280868
339 -0.0038706511 0.025959276 -0.19785517 -0.34172225 -0.005727969 0.13347544 0.10791434 0.04207264 -0.22108853 0.08065349 0.2796272 0.3116075 0.14445637 0.0050002085 0.11144999 0.17249191 0.0992881 -0.20367162 -0.26971537 -0.040344328 0.21318613 0.250562 -0.15080485 -0.17165105 -0.17525135 -0.30646303 0.09562644 0.16819209 0.04081258 -0.3102915 0.3170407 -0.28532428 -0.058391355 0.12559108 -0.08114867 0.09770402 -0.011834206 -0.26547226 -0.2093205 0.064488135 -0.2268261 0.20162071 -0.059242193 0.22031707 -0.15633895 0.057954006 -0.194802 0.1400681 0.22239387 -0.3735398 0.27033684 0.22495894 -0.18464687 -0.11487919 -0.07198381 -0.04359319 0.007876866 0.07734825 -0.20408033 0.08638538 -0.08987439 -0.051346835 0.07744964 -0.005459068 -0.07299661 -0.21703771 -0.33596915 -0.00096397405 0.21310487 -0.028534843 -0.21658206 -0.19082133 -0.12723088 0.15465724 -0.054000866 0.31295952 -0.28190297 -0.13674389 0.19029924 0.08735033 -0.093398586 -0.048753668 -0.10471271 0.093596295 -0.13483049 0.15600829 0.058284596 0.047823865 -0.33234712 -0.055415567 0.0016192272 -0.20655143 -0.15989368 0.050238464 0.13817993 -0.15556276 -0.0037092452 0.21531525 0.22030114 0.31073835 0.11969827 0.109851286 0.23933606 0.20319685 -0.042049877 -0.43337575 -0.02711756 -0.11055644 0.1524841 0.11512048 0.063844636 -0.16042534 -0.33939883 0.10116468 -0.3267912 -0.16456401 -0.23540148 -0.0032737963 0.21222547 0.10569174 0.07724944 0.29531536 0.08549891 0.26155272 0.0464838 -0.4978164 0.03180762 0.04752193
706 0.028440243 0.20987377 -0.13226351 -0.22417 0.0033538577 0.092769034 0.17756556 0.058347784 -0.20801523 0.014661475 0.05917143 0.18815576 0.11830426 -0.12003214 -0.11314374 0.0897056 0.0031833497 -0.13809475 -0.06576448 -0.1564679 0.2310448 0.05618816 -0.18980715 -0.17736165 -0.12838444 -0.09794541 0.15718856 0.1403657 -0.13740523 -0.2904997 0.42234316 -0.1578892 0.10981507 0.036817066 -0.12063823 0.10675344 0.004646299 -0.18230426 -0.07189394 -0.10394968 -0.35713667 0.122152716 -0.1387455 0.20961575 -0.31845605 -0.009853238 -0.11374906 0.044432007 0.062400147 -0.083898984 0.09592233 0.109657295 -0.07982012 -0.022561217 -0.14591569 -0.15989423 0.18872651 -0.021941893 -0.121749386 0.15332805 -0.093639456 -0.117542125 0.064283825 0.08986044 -0.18606722 -0.2868503 -0.10312305 -0.09129562 -0.020502659 -0.05272047 -0.19600214 -0.09554242 -0.10792949 0.24302511 0.09198745 0.18377589 -0.08675694 -0.18744722 -0.003696271 -0.00078622537 -0.09189763 -0.024515612 -0.22382493 0.22220019 -0.15146519 0.10402971 -0.24796101 0.021397222 0.07395452 0.20862195 0.03128495 0.0066939374 -0.28837007 0.096048236 0.0070556947 0.05892019 -0.081224896 0.22827686 0.19629484 0.3265627 0.021445505 0.11662907 0.19255999 0.1849285 -0.21153693 -0.12533844 -0.086632475 -0.03661069 0.09306003 0.07396265 0.12609082 -0.17562923 -0.28909463 0.041423928 -0.27681428 -0.22914909 -0.20005448 0.042245876 0.08978423 0.16818076 0.012401974 0.050473686 0.019568974 0.13879263 0.06388178 -0.25265697 0.012849341 -0.009346193
508 -0.15434603 0.23206381 -0.16865183 -0.079188295 -0.011267059 0.12216064 0.077649355 0.030237261 -0.29359084 -0.053097956 0.12057275 0.22121479 0.16551165 0.0025551536 -0.05680552 0.17592676 -0.11877123 -0.076552436 -0.09664212 -0.2634654 0.21272899 0.10765262 -0.08225883 -0.16091433 -0.11022846 -0.19902569 0.2811113 -0.003150223 -0.03866697 -0.2453787 0.24373163 -0.20186272 0.04691007 0.18581022 -0.1227569 0.05149859 0.0031424048 -0.1643993 -0.13633707 -0.030526217 -0.32787657 0.13185291 -0.024476252 0.1675865 -0.25761798 -0.014821554 0.035311025 0.09969871 0.16932695 0.02825926 0.2684513 0.35111943 -0.1915037 0.16178244 0.02766263 0.04122512 0.1464731 -0.061558314 -0.27720714 0.097049996 -0.14070497 -0.15499133 0.19571887 0.15862043 -0.15693866 -0.19284824 -0.23160012 0.074348666 -0.086739235 -0.24492085 -0.2954991 -0.12743394 -0.07261084 0.15774922 0.23376614 0.21345748 -0.0148257455 0.055164143 0.08181239 0.08398118 -0.0066105993 0.037932746 -0.08043649 0.021572039 -0.12204566 0.21865809 -0.071934804 -0.06834802 -0.17843528 0.11506754 -0.03274632 -0.18409808 -0.22797215 0.18069233 0.023297522 0.07210671 -0.10522864 0.23941392 0.11868422 0.2833849 0.21919842 0.017028729 -0.018024473 0.20781116 -0.12324873 -0.1406226 -0.16478933 0.08020955 0.17065552 0.0744346 0.024659442 -0.09169942 -0.3552099 0.01112085 -0.4535706 -0.07181528 -0.22362821 -0.07612049 0.0934928 0.03775313 0.06757267 -0.01712922 -0.090868935 0.14203246 0.20137928 -0.09576157 0.065918066 -0.025778778
818 0.13187064 0.15743236 -0.15510982 -0.26518288 0.10557309 0.33683783 0.22621374 0.055378206 -0.2919281 -0.19209358 0.0706453 0.27253774 0.12365603 -0.08192376 -0.19430026 -0.09279451 0.07603937 0.024453918 -0.25184432 -0.1215183 0.2938401 0.29610705 -0.024675326 -0.2680373 -0.3539769 -0.15941313 0.010305233 0.021130355 -0.037722602 -0.1506696 0.16060196 -0.18859872 0.0920594 -0.0004901546 -0.3090144 -0.031799685 0.109136954 -0.13628373 0.025508868 -0.15638316 -0.3261181 0.25323495 -0.13041602 0.07232587 -0.22683159 -0.21616195 -0.08893773 0.11068508 -0.003133283 -0.29104233 0.2319901 0.22921301 -0.15380557 0.039376903 -0.089586146 -0.0986602 0.074464016 0.08751663 -0.06386356 0.070442975 -0.102042764 0.0056651295 0.010546536 -0.046187647 -0.2186355 -0.24038467 -0.3435362 0.049160067 0.124552645 -0.063915536 -0.05321483 -0.15689972 -0.014680922 0.22690357 0.089766905 -0.0044532823 -0.1625868 -0.07479468 0.04471692 -0.034673564 0.08866576 0.089401886 0.17994745 0.033748653 -0.10868447 0.0038059165 -0.24804045 0.094738424 -0.16116019 0.01982154 0.114734314 -0.16422816 -0.21077533 0.12756377 0.21224645 0.21656996 0.061600115 0.20212694 0.14354084 0.2809006 0.053225152 -0.021486992 0.13559635 0.17867814 -0.13111891 -0.25051534 -0.048958585 0.040334493 0.08743984 0.032887314 0.004919258 -0.056240465 -0.09110903 0.053742923 -0.094625436 -0.16537917 -0.2509498 0.036785383 0.1078984 0.14590214 0.16331823 0.329941 0.11139022 0.32678333 0.06039234 -0.045367077 0.1202423 0.13798493
816 -0.06267458 0.107621595 -0.19476615 -0.23796092 -0.014174884 0.17216837 0.2221623 0.021864729 -0.11393971 0.11700459 -0.079877615 0.21542975 0.0940277 -0.04403955 -0.032097682 0.03197115 0.0037305108 -0.15378994 -0.14775275 -0.12571035 0.23779161 0.26989365 0.00090832484 -0.12762402 -0.09317225 -0.0999137 -0.0026575758 0.14444117 0.058599044 -0.33969077 0.32328817 -0.2684589 0.36339828 0.0016059785 -0.22168668 0.109301485 0.07543735 -0.17856352 -0.13004756 -0.02648673 -0.2719734 0.1384293 -0.0796343 0.2750519 -0.19469416 0.14744602 -0.16965683 0.046422884 -0.07190855 -0.08190198 0.15888976 0.12281329 0.053404517 -0.00047622778 -0.28869674 0.045763038 0.13753128 0.05350285 -0.21544391 0.16213752 -0.2527745 0.04633114 0.061329234 0.082395345 -0.030016381 -0.33790097 -0.21549003 0.008832378 -0.073881276 -0.20100686 -0.1861287 -0.161444 0.13668022 0.18059643 0.07811684 0.17407136 -0.16949834 0.00034062506 0.08528523 0.12816663 -0.09771208 -0.10359442 -0.28490564 0.17889568 -0.26534513 0.011711796 -0.13593291 0.14975561 0.0062585077 -0.0028493186 0.017626157 0.09140497 -0.2029252 0.044154547 0.043913905 0.14333755 -0.059606694 0.18063231 0.17893477 0.1379283 0.0693976 0.17635503 0.08368314 0.23845825 -0.079024084 -0.24031813 0.048086572 0.12461179 0.308132 0.15675396 -0.002447551 -0.18191846 -0.19653924 -0.12531273 -0.21273287 -0.20830268 -0.22047736 -0.14006753 0.11475546 -8.132534e-05 0.082569875 0.07399197 0.058825925 0.27214468 0.17809571 -0.101167016 0.005991068 0.004035752
718 -0.12727839 0.2758547 -0.1432088 -0.31503263 0.071688965 0.3236578 0.2724897 0.0035137166 -0.33330473 -0.10645341 0.2689532 0.31321225 -0.048190292 0.04340879 -0.17028528 0.37438685 0.06168487 -0.049471643 -0.23235136 -0.2660262 0.10097272 0.010842259 -0.13778639 -0.25336224 -0.1821499 -0.24101166 0.0010452035 0.104383916 -0.026064998 -0.26424962 0.08216619 -0.09370806 -0.024482576 0.28071582 -0.11246821 0.030049263 0.13274947 -0.13613328 -0.113736026 0.06137934 -0.48008552 0.16994546 0.01661571 0.24683973 -0.2823288 -0.028375374 0.1687937 0.118735686 -0.055533584 -0.0016118848 0.31424654 0.240094 -0.19654512 0.12785399 -0.04001331 0.00033890392 0.21712232 -0.11971234 -0.25393656 -0.002204098 -0.13407457 -0.101554714 0.1307952 0.08867172 -0.18870786 -0.3855444 -0.04756004 -0.062038805 -0.07369642 -0.09996814 -0.286545 -0.043002903 -0.08011746 0.24593459 0.35165447 0.2250232 -0.21727346 -0.03086727 0.1539352 0.095193505 -0.063210964 -0.08828328 -0.007212848 -0.10655597 -0.21916018 0.14510487 -0.0022440455 0.01607062 0.0007019194 0.059482798 0.08829641 -0.21018544 -0.24986784 0.01604462 0.047436237 0.08181317 -0.013554621 0.08865648 0.16905604 0.29191953 0.051808376 -0.21087557 0.09871203 0.23552081 -0.14077826 -0.04366435 -0.09557204 -0.054239042 0.23386772 0.15337846 0.06542537 -0.18928653 -0.27274427 0.26718333 -0.47166637 -0.0041827937 -0.3052061 -0.1496448 -0.030765045 0.11001492 0.14065129 0.008869389 -0.021865275 0.14720176 0.20001304 -0.09309695 -0.23930213 0.13932285
693 -0.09208225 0.16455914 0.059461664 -0.0064290636 0.022038082 0.14303514 0.24388614 -0.0431607 -0.278839 0.011591564 0.2848259 0.045095716 0.03222482 -0.14497316 -0.308173 0.09683112 -0.047469262 -0.007157492 -0.24821536 -0.11806645 0.24451122 0.29871973 -0.0863474 -0.23100556 -0.03781964 0.19732194 0.21697043 -0.0029194423 0.014240789 -0.026743004 0.06351329 -0.104212984 0.16466753 -0.050797608 -0.26172182 -0.022018742 0.05494033 -0.20699611 -0.30844513 -0.15750155 -0.43249208 -0.078977376 0.065187514 0.076976255 -0.1771472 -0.08677763 -0.06456721 -0.08104327 0.036124192 -0.112741634 0.065864824 0.23657216 -0.23560973 -0.017505163 0.0089598205 -0.057906467 -0.09491393 -0.15814875 -0.12937364 0.01701536 -0.26904893 0.005010421 -0.057232793 0.10251504 0.0065613743 -0.42552805 -0.26650134 -0.056562543 -0.020063175 -0.22192372 -0.24187036 0.022762312 -0.119919695 0.27322772 0.03274996 0.002091588 -0.055148758 -0.04083045 -0.1757593 0.013708572 0.0033382557 -0.08710552 0.02186101 -0.20266631 0.016145783 0.28439048 -0.3606324 0.09232314 0.009670302 0.19929151 0.27579778 -0.20308654 -0.26801553 -0.0005590207 0.23034115 0.09918825 -0.09528093 0.1770741 0.099824876 0.3782023 0.23318583 -7.1427203e-06 0.3314456 0.10421486 -0.06934121 0.009608809 -0.25486898 -0.027158057 0.24511114 0.0011891689 -0.10039797 -0.11981756 -0.3239532 0.08060722 -0.461977 -0.17716172 -0.03092782 -0.06703199 -0.08617876 0.197559 0.11598493 -0.07656197 0.26565018 0.35202736 0.4129643 -0.13207057 -0.038325097 -0.107543685
731 -0.15132481 0.10573 -0.101433694 -0.12266369 0.054172155 0.32433563 0.13690989 -0.04806461 -0.27628338 -0.002424567 0.07962931 0.12933569 0.11962289 -0.101945065 -0.2763238 -0.03003775 -0.08408787 -0.0687698 -0.27917454 -0.08568695 0.28054917 0.1722603 -0.051394925 -0.20998344 -0.052202012 0.11578596 0.17231065 0.019898696 0.00082361064 -0.18818788 0.18600288 -0.27061892 0.38464218 -0.08163987 -0.28882158 0.025387995 0.12979656 -0.058897637 -0.21593331 -0.10631959 -0.21445923 -0.015513165 -0.054608155 0.11322108 -0.11646888 0.10062458 -0.16325347 0.09724041 -0.007350959 0.008610327 0.15630984 0.2286893 -0.1319021 -0.02715373 -0.111511335 -0.0050892956 -0.17442624 -0.009173215 -0.15359886 0.044850305 -0.2323047 0.0028944756 0.08513309 0.048776224 0.08138551 -0.3315043 -0.30271533 -0.015634064 -0.044064872 -0.27881518 -0.20293066 -0.023681141 -0.09551156 0.19236028 0.15225749 0.07855378 -0.21181992 -0.08612916 -0.013008719 0.10203132 -0.037115525 -0.18170096 0.006364585 -0.080792814 -0.13617525 0.004473298 -0.2506597 0.076237746 -0.01736008 -0.0067675193 0.19731466 -0.02906608 -0.3829374 -0.024691451 0.16644388 0.14450708 -0.08245619 0.27479845 0.1709216 0.37459362 0.081656985 0.02069365 0.22981754 0.22179677 -0.074418716 0.05302184 -0.104942486 0.04555285 0.2562714 0.075491264 -0.06816274 -0.02851857 -0.12607364 0.12914535 -0.36607227 -0.092711546 -0.04045946 -0.027441313 -0.10381774 -0.027501935 0.23327847 -0.049246788 0.18258138 0.27098924 0.23018917 -0.06570913 -0.044349875 -0.09783196
366 -0.06458524 0.06564333 -0.028357062 -0.20167552 0.1380767 0.0014372362 0.30284175 0.24069536 -0.26928955 0.040387627 0.22593227 0.31384796 0.23267503 0.058496013 -0.11455995 -0.06583272 -0.01931937 0.14758755 -0.31606057 -0.07682098 0.23339339 0.27907798 -0.14637662 -0.29221046 -0.20357831 -0.08810895 0.09929593 -0.17272569 -0.016372759 -0.083745256 0.10766871 0.0055050817 -0.19300584 0.21717466 -0.12513374 -0.052597445 -0.13847956 -0.2297762 -0.2091412 -0.057429574 -0.30329323 0.14582594 0.16066206 -0.0004309953 -0.19616753 -0.21364358 0.03961214 0.16303203 0.031711612 -0.28922573 0.08770557 0.1657695 -0.07626114 -0.04940936 -0.023678329 -0.061765697 0.054628123 0.06893959 0.015491653 0.060925286 -0.18325774 -0.012646073 0.1054845 -0.016557414 -0.11782879 -0.28870705 -0.2709381 -0.078214005 0.21092793 -0.05656729 -0.21272357 -0.21272907 -0.037015498 0.28072566 -0.099963255 0.068280585 -0.16518894 0.005049843 0.10625716 -0.16457842 0.094255626 -0.022846345 0.096726984 -0.06889599 -0.08396886 0.109745786 -0.18196891 0.073520295 0.0127350995 -0.010893168 0.067433774 -0.27076438 -0.18062615 -0.06333017 0.1446741 0.0026889108 0.030471092 0.15640876 0.29220083 0.3234393 0.20903514 0.14608009 0.2285039 0.14745723 -0.127203 -0.17338592 -0.057968434 0.064389564 0.07784147 -0.06451454 -0.09065139 0.062257614 -0.24878725 -0.019587656 -0.30810687 -0.24622048 -0.07700689 -0.08136831 0.10620099 0.26727077 0.01509524 0.36590397 0.07992969 0.21390818 0.0502021 -0.25090155 0.10069776 0.02859524
721 -0.0973814 0.110913604 -0.10317123 -0.24475369 0.028911425 0.279609 0.01136466 -0.051998954 -0.21546431 -0.06302024 0.043532576 0.13486235 0.07927494 -0.09648654 -0.25650954 -0.03068228 -0.117921606 -0.08291853 -0.2953855 -0.12568925 0.20064154 0.25513184 -0.11581191 -0.2778971 -0.10239385 -0.0015024152 0.16251062 -0.041042026 -0.07956816 -0.20071141 0.02695953 -0.25931606 0.2965674 -0.0843148 -0.20010372 0.098180994 0.017626086 -0.06294298 -0.17088842 0.021070274 -0.19639812 0.126376 -0.028660715 0.053587735 -0.09254056 -0.026141917 -0.031432547 0.029320668 0.051476553 0.069184124 0.13204303 0.1352551 -0.14947039 0.05352159 -0.196489 -0.0032045518 -0.079806544 -0.022134926 -0.13711038 -0.039114203 -0.105726436 -0.083557256 0.11867392 0.20791118 0.025229763 -0.2403946 -0.22716175 -0.00989533 0.0048091677 -0.25654736 -0.106034584 -0.14661945 -0.035956047 0.19433995 0.22168005 0.13590993 -0.18457134 -0.122925125 -0.027287645 0.121237904 0.16436219 -0.06781608 0.032945685 -0.049157932 -0.08533101 0.1348701 -0.16154258 0.12809214 0.018096281 0.114936665 0.20428734 -0.104611695 -0.13516124 -0.007706587 0.1255468 0.15227358 -0.09448872 0.1964235 0.23169823 0.3095474 0.19809742 -0.043293644 0.16096358 0.23550278 -0.041080903 -0.0556401 -0.10743908 0.033305455 0.2782161 0.019190421 -0.08283757 -0.13284113 -0.20193063 0.22056213 -0.41510165 0.007883156 -0.07722313 0.08444391 -0.05894876 -0.0583688 0.24657767 0.03616492 0.21738869 0.25252143 0.17907082 -0.0362576 -0.10025614 -0.044582944
347 0.015953783 0.18136431 -0.30711958 -0.23273106 0.22438745 0.14005795 0.0031958707 -0.008791199 -0.30429816 -0.037291467 0.17187138 0.14958939 0.13079715 0.06294148 -0.07459411 -0.04367101 -0.09194139 -0.16314642 -0.18726313 -0.14492756 0.24515207 0.26896936 -0.088106744 -0.20541649 -0.039240062 -0.21236876 0.073664464 0.038590185 0.11404858 -0.1876928 0.20958811 -0.20978963 -0.012698308 0.06616324 -0.07983584 0.07796562 0.0047456548 -0.14719519 -0.15221018 0.017006509 -0.33478117 0.3462252 -0.053785034 0.34056655 -0.19440098 -0.19425769 -0.14116003 0.2235445 0.22483343 -0.13641767 0.27316663 0.17917585 -0.22939248 -0.14500602 -0.1801726 -0.1921505 -0.021391092 0.13770834 -0.08070728 0.26510596 -0.15951991 0.00473703 0.064210795 0.03941952 -0.14000224 -0.137095 -0.1763413 -0.062322624 0.08093944 -0.25207785 -0.23895808 -0.3013131 -0.0659861 6.551811e-05 -0.14065681 0.22166339 -0.30819097 -0.21698558 0.13739501 0.21970302 -0.23902626 -0.025790572 -0.17853554 0.12974635 -0.16192226 0.013179133 -0.046847284 -0.119051 -0.09741658 -0.16717532 -0.1099786 -0.06781924 -0.30823505 0.056583356 -0.005003948 -0.01643397 -0.0709195 0.23067683 0.14546634 0.33868003 0.23911546 0.0060897996 0.30153042 0.19070552 -0.121854484 -0.2939162 -0.059344243 0.19007982 0.2242753 0.07693272 0.020210827 -0.26097932 -0.3707493 0.024093062 -0.36790684 -0.2552207 -0.22376831 0.07319077 0.086164825 0.15890327 0.120855756 0.119782746 0.14017658 0.17400268 0.0725387 -0.21724644 -0.10626368 -0.05871458
412 -0.109787874 -0.02388539 -0.04916462 -0.15178064 0.08982149 0.010057771 0.34245726 0.2331326 -0.2841246 0.03955798 0.2389289 0.2911115 0.3262433 -0.008385282 -0.025994869 0.07093627 0.14074433 0.04703965 -0.34334671 -0.065128244 0.22427303 0.32040942 -0.06809726 -0.33998096 -0.04545108 -0.088191845 0.08360777 -0.03249044 0.071199104 -0.042173967 0.16058867 -0.03985295 -0.058065817 0.17634885 -0.191423 -0.12822992 -0.004061569 -0.24987718 -0.25749314 0.043796275 -0.23145287 0.13926847 0.17637198 0.071698315 -0.21049409 -0.05050963 -0.121394195 0.15425023 0.033971533 -0.28769094 0.120761745 0.32042485 -0.17998521 -0.26266512 -0.0059004896 -0.0013177937 -0.07165088 0.11321763 0.005682348 0.055758946 -0.20316327 -0.095317066 0.078586064 -0.03380437 -0.024332084 -0.3575913 -0.3022916 -0.1904716 0.18922551 -0.008813208 -0.034053203 -0.051632296 -0.032842115 0.19525886 -0.18199784 0.041490454 -0.03329694 -0.07240999 -0.0055798925 -0.13915332 0.17498986 -0.021070769 0.07645067 -0.12847519 -0.07888716 0.039197445 -0.14393052 0.11009399 -0.04101275 0.04836314 0.12985702 -0.14576286 -0.1183495 -0.03812938 0.29982156 -0.1052595 -0.080297925 0.21194817 0.36663872 0.33383885 0.25062808 0.15086113 0.30661333 0.16623427 -0.090077855 -0.18429145 -0.09362273 -0.05331521 0.12057995 -0.02521263 -0.060500145 0.11518116 -0.21950674 -0.010969703 -0.34402868 -0.2629887 -0.017762156 -0.024376038 0.13004805 0.23951903 0.06762123 0.30792108 0.13843654 0.18083115 0.15772569 -0.19810705 0.16352864 0.08235698
422 -0.1102144 0.03504697 -0.18236485 -0.4213177 0.028082732 0.13748573 -0.021048008 -0.110433914 -0.251745 -0.04715633 0.10951204 0.2775546 0.09724123 -0.13132586 -0.03629962 0.1680013 0.03900724 -0.12317232 -0.22205806 -0.17695308 0.10421506 0.06026127 -0.20353417 -0.11806504 -0.10548389 -0.19251135 0.04187185 0.07623294 0.018579822 -0.13087198 0.20162609 -0.16318358 0.04876357 0.0050224783 -0.06862122 0.068464935 -0.030286534 -0.062384613 -0.12028389 -0.00042998922 -0.2607647 0.18249208 -0.13076785 0.21351528 -0.2956828 0.034118194 -0.03466242 0.097183615 0.17199916 0.069878474 0.15071692 0.17029518 -0.11803299 0.053494513 -0.07986183 -0.08826096 0.0925568 0.00712589 -0.093949504 0.08935513 0.047964003 -0.15254013 0.052384876 0.11242207 -0.08273929 -0.07840017 -0.1834904 0.030081347 -0.008654306 -0.11887143 -0.060312368 -0.18460636 0.010437288 0.2776884 0.14292917 0.22299221 -0.118494265 -0.26459762 -0.0041677677 0.14883475 0.008915147 -0.030351989 -0.06901189 0.15922523 -0.036718395 0.04704953 -0.12773268 0.056706514 -0.02651042 0.22392444 0.044690717 -0.014434697 -0.102027774 -0.005713272 0.10606189 -0.034951728 -0.12507494 0.13192727 0.20701885 0.24291274 0.10763455 -0.06206588 0.15879443 0.29898864 -0.13324675 -0.17623945 0.022422576 -0.03999442 0.10114327 0.09840411 0.0367819 -0.23201975 -0.31095368 0.13735697 -0.44602624 -0.087302655 -0.18776414 0.061878964 0.031015031 0.08399879 0.09625415 0.040269624 0.11197149 0.29507986 0.11055318 -0.24134825 -0.06302418 -0.023140442
440 -0.10151908 0.22645193 -0.24907786 -0.32818237 0.17837164 0.28565374 0.03587174 -0.067154214 -0.49846038 -0.023240754 0.03315623 0.31591645 0.29226843 -0.06469842 -0.029790908 0.17972602 -0.001271846 -0.20350675 -0.2144877 -0.31305277 0.3531713 0.084572926 -0.09819073 -0.2418889 -0.083280295 -0.29686606 0.0045642043 0.14890896 -0.041547988 -0.3812472 0.3775318 -0.25458547 0.1229106 0.21771085 -0.12251956 0.2220365 0.006308691 -0.21093144 -0.12829676 0.043145802 -0.30443403 0.10430141 -0.09600556 0.2576812 -0.3366905 0.0670774 -0.057430014 0.1321727 0.17182049 0.052328605 0.1251597 0.12831728 -0.24301368 -0.011131933 -0.0028525025 -0.013784767 0.102077015 0.019965526 -0.12150581 0.1742158 -0.07010854 -0.27209744 0.20178023 0.12436309 -0.07037391 -0.20583765 0.036672834 -0.07861835 -0.13792104 -0.17856207 -0.27337438 -0.24206398 -0.11611193 0.18396594 0.26454347 0.22448407 -0.08991759 -0.25810558 0.059274554 0.17431535 -0.049066722 -0.06138598 -0.102179505 0.101249926 -0.22029063 0.14256181 -0.10277144 -0.08619781 -0.056348342 0.1121359 -0.052084483 -0.024801137 -0.2611285 0.05076716 0.03394639 -0.065164454 -0.251412 0.2227677 0.29300615 0.40483534 0.08729161 0.05252625 0.20867668 0.20341465 -0.11431363 0.07033133 -0.17428388 0.22883178 0.18152657 0.060779165 0.014729166 -0.18293448 -0.33556235 0.25785604 -0.50717145 -0.06837388 -0.21726948 0.15956038 0.04907186 0.05083118 0.114124686 -0.05261667 -0.076248795 0.17835109 0.03337976 -0.07279411 -0.11257439 0.030132296
442 -0.113864765 0.28993878 -0.1363474 -0.15863761 0.08480959 0.14298485 0.18933582 0.13581456 -0.20016323 0.008350007 0.05744769 0.16113895 0.091330506 -0.061941676 -0.20473117 0.073204264 -0.025209397 -0.093235835 -0.20285909 -0.21968895 0.28273836 0.14659287 -0.16814625 -0.20129995 -0.15879421 -0.10290512 0.28662077 -0.040555127 -0.14087392 -0.07536738 0.0968268 -0.18158863 -0.017852096 0.124904364 -0.10726104 0.11183638 -0.055728003 -0.18294398 -0.21799935 -0.0129946 -0.3551677 0.099950746 -0.003400479 0.021349324 -0.18436766 0.10003197 0.07908909 0.1578931 0.04083176 0.059618488 0.04295838 0.31265712 -0.12779738 0.008707592 -0.017057346 0.18796799 0.11284747 -0.07936145 -0.14530525 0.047617905 -0.117478244 -0.11422176 0.032647137 0.25436264 -0.028377675 -0.15612327 -0.2132864 0.02167138 -0.16410123 -0.16300733 -0.23239197 -0.14568035 0.055382486 0.2697187 0.1508152 0.35674736 -0.036848273 -0.003285422 -0.032785174 -0.14556956 0.32355794 0.07373381 -0.08829596 -0.07617869 -0.21022223 0.39715135 0.009071691 0.071993 -0.10862765 0.25095496 0.084823854 -0.27586424 -0.10626537 -0.01575814 0.12463482 0.0040182457 -0.16725141 0.21471454 0.33234724 0.15768062 0.23542969 0.039962377 -0.15245354 0.2201734 -0.12649116 -0.04870869 -0.17245701 -0.13159798 0.099565804 0.10569641 0.01799985 -0.0749922 -0.26570275 0.039137967 -0.5016149 -0.21878736 -0.19908042 -0.059672043 0.060696814 0.05384223 0.08175061 0.07665676 0.0035521507 0.16521366 0.16592373 -0.10153497 0.08630174 -0.05329232
354 0.01296769 0.12173358 -0.17200005 -0.10782869 0.12048907 0.15412466 0.11852224 -0.0019022092 -0.21379164 -0.06515453 0.07852635 0.08839936 0.2600439 -0.19628215 -0.11949461 -0.13236685 -0.024464572 -0.07508304 -0.12968983 -0.11650653 0.26357493 0.36943182 -0.113635115 -0.29796678 -0.055935472 -0.10951778 0.16726921 -0.018937018 0.10747779 -0.15984797 0.17505601 -0.08988394 0.15228601 -0.09930727 -0.28309083 0.0028903447 0.09707213 -0.05223811 -0.083494276 -0.054132473 -0.2227856 0.25819528 -0.026975952 0.17393216 -0.23259252 -0.2618214 -0.06384615 0.045854166 0.17236267 -0.050254308 0.12167626 0.13483886 -0.25909007 -0.18045042 -0.24097462 -0.1670695 -0.10854475 0.14840883 -0.08639699 0.19152266 -0.21307135 0.029547049 0.08368186 0.03813861 -0.12322465 -0.11692532 -0.15986632 -0.052829884 0.02592506 -0.1940513 -0.056579188 -0.14791095 -0.051355798 0.046100963 -0.14365119 0.06428253 -0.1368179 -0.15537286 0.082134455 0.06795491 -0.07983929 0.030779751 -0.083476454 0.06484143 -0.046503607 0.036595944 -0.16820261 0.077354774 0.0083442945 -0.017232077 -0.008527057 -0.037934102 -0.20714833 -0.033074275 -0.023789797 0.16950968 -0.17887385 0.23737 0.22715057 0.23882732 0.22196485 0.031352032 0.20682476 0.30222577 -0.14824936 -0.17983927 -0.11252452 -0.007133018 0.23470762 0.027216494 0.14951171 -0.17578638 -0.2700296 -0.0032422398 -0.32200918 -0.10183557 -0.09325553 0.13386124 0.015619368 0.045071304 0.20957376 0.14981876 0.18776882 0.094937354 0.22800496 -0.00925342 0.08005588 0.10438588
822 0.08097243 0.12118978 -0.20565397 -0.26343688 0.16893767 0.24011403 0.050794594 0.053929377 -0.2407562 -0.07263455 0.22961462 0.31286454 0.06885652 0.032972224 -0.12962578 0.021878486 -0.04049259 -0.11246753 -0.2027393 -0.105361134 0.20938507 0.16791353 -0.14830434 -0.27995926 -0.10536253 -0.15070698 0.16047445 -0.0580975 -0.17475462 -0.16420121 0.14530896 -0.31154054 0.008244554 -0.04650023 -0.20966198 0.092098035 0.10008129 -0.044478297 -0.087939374 -0.057053935 -0.369082 0.3265017 -0.0943909 0.12441356 -0.24072433 -0.2647446 -0.16939236 0.1305358 0.16974045 -0.23807706 0.23284054 -0.01852905 -0.06800923 0.05954162 -0.2798544 -0.17115164 0.15287986 0.0010052467 -0.06789373 0.13844712 -0.09214308 -0.039667856 0.06379411 0.13105944 -0.19329344 -0.2423371 -0.25313616 0.033198148 0.099600196 -0.06355007 -0.059889942 -0.22568205 -0.033291917 0.16320801 0.05189025 0.08785258 -0.2608095 -0.24923834 0.12098224 0.04450136 -0.03857358 0.048764747 -0.011277504 0.15951411 0.039404187 -0.063475475 -0.28934714 0.14980297 -0.03614675 0.07452276 0.05387416 -0.14276586 -0.20893309 0.05915896 0.08224446 0.10841867 0.016663799 0.15820152 0.21910676 0.28738087 0.25226888 -0.012770184 0.20835106 0.22827004 -0.12498147 -0.41537556 -0.068112604 0.011772972 -0.0169704 0.05329139 0.07424505 -0.17841944 -0.39876285 0.03027589 -0.2847085 -0.09163024 -0.17539719 0.1689662 0.09705403 0.09330392 0.14017083 0.2645895 0.15729256 0.22530748 0.19457242 -0.102777086 -0.055344205 -0.067732185
497 -0.12205421 0.1474572 -0.08351013 -0.30149028 0.0892788 0.24671154 0.08829551 0.017074212 -0.31396273 0.121531606 -0.08397031 0.259641 0.25495976 0.027426993 -0.036246747 -0.013588588 0.073827684 -0.0046694633 -0.24759641 -0.1710368 0.2506558 0.082883544 -0.04695621 -0.0886918 -0.089799605 -0.0171601 0.09371734 0.108881965 0.025037747 -0.24013974 0.23542838 -0.19684479 0.13681121 0.17811817 0.07952121 0.10988636 -0.17475839 -0.12887461 -0.19248576 -0.05182401 -0.16984254 0.007969072 -0.09207118 0.20700741 -0.21443015 0.17527732 0.008137 0.10651015 -0.02430306 0.114667006 0.086643584 0.18245561 -0.013671022 0.012696393 -0.032326415 0.032767244 0.0765697 0.14170127 -0.13047242 0.083764315 -0.08620798 -0.13738802 0.05732228 0.07391006 -0.03277988 -0.15586628 -0.22035936 0.059469055 -0.12847829 -0.26514772 -0.11988597 -0.26079392 0.0438964 0.3708239 0.031528827 0.19882816 -0.1373284 -0.129975 -0.075207874 0.01731318 0.06917358 0.029081266 -0.07863753 -0.028807305 -0.19791819 0.07061996 -0.0736375 -0.103647634 -0.035960875 0.11715823 -0.051690873 -0.06980724 -0.2298532 0.10884433 0.23901047 -0.10852936 -0.19191417 0.1503381 0.2731529 0.18757057 0.047386006 0.16875097 0.15821022 0.07908641 -0.11164067 -0.013502219 0.028027501 0.08466181 0.19078435 -0.069378026 -0.13358863 -0.14388564 -0.07785635 0.12627177 -0.3820318 -0.2168814 -0.14204988 0.029265624 0.076360926 0.10325515 0.09099996 -0.0071143666 -0.010559997 0.36576802 0.021658782 -0.1384236 0.02574711 -0.08714266
199 -0.24444345 0.12550597 -0.022237122 -0.104894 0.0031478195 -0.01119761 0.15380642 0.038139652 -0.20850086 -0.010920408 -0.0003406573 0.18533927 0.18949723 -0.24020104 -0.19100359 -0.0401657 0.04671041 0.035367183 -0.107831 -0.12744792 0.2068025 0.24657819 -0.19972593 -0.27384952 -0.18181074 -0.12065547 0.14117779 -0.04289643 -0.01212242 -0.1503398 0.13436614 -0.04561132 0.07052743 -0.06008052 -0.19863386 0.065840065 -0.05121147 -0.18916765 -0.28423813 -0.0044523957 -0.20172095 -0.008352262 -6.215936e-05 -0.0043789274 -0.3075869 0.03056055 0.07893384 0.15058489 -0.14766632 0.08444832 -0.036764763 0.10500179 -0.14288774 0.12070823 -0.1836438 0.030826623 0.051862307 0.020257073 -0.074400574 0.006742903 -0.10681779 -0.016577143 0.1482064 0.20436965 0.07683952 -0.14837094 0.0041495976 0.029542705 0.031165624 -0.08554926 -0.2921757 -0.24042277 0.07161398 0.2612089 0.20796177 0.13062456 -0.06996735 -0.009156267 0.0020906776 -0.039117698 -0.02246297 0.06733274 -0.19009827 0.13143368 -0.21680316 0.09004712 -0.2475691 0.07107554 0.082727134 0.036344726 0.16230097 0.023807287 -0.106039554 -0.03624929 0.02428197 0.09073235 -0.062275026 0.18133534 0.14682849 0.24517238 0.0929662 0.04120559 0.02938458 0.19975199 -0.23610261 0.12759754 0.03970993 -0.03016675 0.22322997 0.08107657 -0.05602257 -0.12792625 -0.124937035 0.019219186 -0.43028897 -0.18872681 -0.14979391 -0.15637483 -0.07962615 -0.035485677 0.0018776924 0.19523825 0.026660642 0.06942191 0.050637282 -0.20755175 0.014886049 -0.109853104
790 0.024712596 0.02125161 -0.050226115 -0.33171487 0.07528126 0.030185746 0.30399567 0.13333301 -0.28481993 -0.050214674 0.098370604 0.22754633 0.11774628 0.0066907974 -0.17855565 -0.08524594 0.06946915 0.14046203 -0.3085512 -0.11284544 0.22527638 0.25118324 0.0031538003 -0.14279935 -0.24802989 -0.19432303 -0.061141383 -0.06648571 -0.033797037 -0.17123522 0.15809947 -0.15164377 0.06774911 0.077194996 -0.2987258 0.008526371 -0.0042116055 -0.2792997 -0.06103636 -0.06719296 -0.3515979 0.15409477 0.06887056 0.095958345 -0.24494992 -0.14622149 -0.23478128 0.05405684 -0.0088146245 -0.29236266 0.22146523 0.16741109 -0.052774593 0.067395896 -0.1096425 -0.12779643 0.07423053 -0.019079134 -0.060840264 0.09837568 -0.19375277 0.041679785 -0.04013602 -0.01049769 -0.104079135 -0.44977346 -0.3744688 0.04000696 0.13358353 -0.081858076 -0.2866591 -0.18425392 0.07879387 0.30319792 0.14978343 -0.026899366 -0.19432211 0.009481004 0.056784377 -0.1256833 0.07013835 -0.10122213 0.055758297 0.12944883 -0.12303009 0.06326852 -0.2618648 0.1747297 0.005203409 -0.025734296 0.1287346 -0.13599709 -0.28058138 0.0063964096 0.24524707 0.16664198 0.04179888 0.18400672 0.10967663 0.39939684 0.024176603 0.08991662 0.24960212 0.20170751 -0.086181365 -0.25232846 -0.004907626 0.25778168 0.14598933 -0.023817332 -0.20088893 0.06846709 -0.16448765 -0.030937877 -0.20958482 -0.22782631 -0.19672294 -0.094243675 0.15366554 0.15864038 -0.027249068 0.40045214 0.053207286 0.36028942 0.031889603 -0.14594965 0.08310357 0.050792273
386 -0.032188404 0.07230206 -0.21514706 -0.38917503 0.008901322 0.10989486 0.046365067 0.0059928903 -0.27284035 -0.08377157 0.23107618 0.23078798 0.24555402 -0.18142447 -0.024455927 0.19784963 -0.010704488 -0.16006349 -0.24795754 -0.1471623 0.23288313 0.2351571 -0.24143855 -0.20951696 -0.20378913 -0.34851316 0.070144966 0.030192645 -0.07023352 -0.21390353 0.17572264 -0.21013996 0.010284684 0.00010239468 -0.24144636 0.038714457 0.039800934 -0.22328255 -0.16815093 0.104135275 -0.1989912 0.34226102 -0.12237241 0.0715804 -0.2429941 -0.09615153 -0.10122907 0.12760855 0.13763954 -0.1237397 0.20758124 0.23854136 -0.2063157 -0.069841065 -0.17412046 -0.07328061 0.044350863 -0.044857875 -0.19019523 -0.013733439 0.05585306 -0.08228139 0.1451195 0.16269624 -0.12147202 -0.25039124 -0.23790245 -0.021361988 0.080853134 -0.016576726 -0.10173965 -0.18389706 -0.058727477 0.10418737 0.18771419 0.22089837 -0.13428372 -0.14277358 0.09548086 0.033389933 0.044386163 -0.01149184 -0.031191358 0.16695385 -0.022287449 0.19191208 -0.059287354 0.12794703 -0.14278857 0.056575015 0.10090544 -0.15951234 -0.0493175 0.018801242 0.08759661 -0.0035822208 -0.10410287 0.13344637 0.23876508 0.37913707 0.15881786 0.03777354 0.16915528 0.22163318 -0.11237001 -0.27949277 -0.07839818 -0.13136917 0.16530009 0.049647838 0.01838558 0.016125612 -0.30962077 0.22555265 -0.34203747 -0.045619324 -0.19417296 0.06391593 0.11749572 -0.017697688 0.17438096 0.39730006 0.07369861 0.17386925 0.03854143 -0.26147595 -0.017277313 0.050856855
784 -0.05241755 0.123125054 -0.29041713 -0.34548405 -0.022069905 0.10514683 0.2271153 0.16588703 -0.23735778 -0.10221671 0.131841 0.26123387 0.0066608833 -0.06146728 -0.1709716 0.27056938 -0.0056558982 -0.1106218 -0.32316965 -0.07294945 0.1975467 0.19927779 -0.057652626 -0.25276384 -0.3989868 -0.36767563 -0.082123235 0.027569003 0.06680676 -0.30166152 0.12728608 -0.21851605 0.08021695 0.24296074 -0.2162554 0.024888165 0.17669888 -0.31775993 -0.054042332 0.021313842 -0.36980098 0.29508847 -0.12295086 0.12452221 -0.15382953 -0.021775883 -0.15757588 0.07899686 0.015770031 -0.2749347 0.3357507 0.45982966 -0.14581957 -0.0070167915 -0.07403627 -0.101568945 0.0808616 -0.04199902 -0.3401395 0.07601276 -0.062053546 0.041597247 -0.021403205 0.072390094 -0.26836908 -0.4159293 -0.42057857 0.11643487 0.10171996 -0.18194109 -0.22461097 -0.1697157 0.04659886 0.22356792 0.33070955 0.1406835 -0.336127 0.07938865 0.09900088 0.029898152 -0.05939435 -0.11758521 -0.0028222508 0.123494536 -0.1926539 0.29115748 -0.058001492 0.18619148 -0.16656104 -0.02867298 0.20938852 -0.32208562 -0.14648463 -0.050721545 -5.4081193e-05 0.22890869 -0.06698533 0.15631182 0.0012388354 0.3544425 -0.046227485 0.045102004 0.15434502 0.15536748 -0.06637464 -0.30903456 0.034187526 0.06627902 0.1612509 0.0036114196 -0.06994493 -0.006817136 -0.32157338 0.06047051 -0.14313075 -0.17025472 -0.35835674 -0.26451677 0.20995525 0.20371908 0.0067517287 0.38336125 0.10138799 0.23899591 0.061119836 -0.2264611 -0.07856194 0.1383416
179 -0.08364136 -0.024735302 -0.026326472 -0.120804586 -0.0771579 0.17122984 0.101476185 0.02839841 -0.08743202 0.11684047 0.063286215 0.21088928 0.18915594 -0.0358713 0.0647414 -0.09074349 -0.15114136 -0.045654513 -0.043256674 -0.19282295 0.070894115 0.19386524 -0.027632866 0.013060611 -0.2570629 -0.07637314 0.29618543 0.0036452606 0.055254057 -0.14703633 0.25571346 -0.1850294 0.0668407 -0.010279205 -0.12090907 0.08376772 -0.012285934 -0.15986937 -0.12785818 0.111133836 -0.060606927 0.14460218 -0.06082323 0.023919417 -0.22143187 0.054576777 -0.17381968 0.16928616 0.047435503 0.003118699 0.059517384 0.1411909 -0.08331257 0.010288159 -0.20914519 0.010187292 0.043767642 0.16741274 -0.07564869 -0.092325084 -0.10239915 0.003984436 0.12690552 0.12702358 0.0928194 -0.12350516 -0.16825329 -0.09963112 0.088516474 0.0014613266 -0.24050559 -0.13541327 -0.10603608 0.15674466 -0.1722662 0.23616706 -0.14340618 -0.15258658 -0.053291183 -0.003842284 -0.089585066 -0.05569401 -0.13268301 0.18621498 -0.21341778 0.097112246 -0.1234218 -0.011063914 -0.14171554 0.05787885 0.011661455 0.028154507 -0.012711309 0.012494761 0.051818542 -0.07073898 0.1053106 0.16099924 0.0840044 0.2628787 0.13638344 -0.026843166 -0.07140635 0.20370805 -0.26304784 -0.23394503 0.13650036 -0.1670099 0.11793322 0.17458755 -0.032354694 0.023330603 -0.0793081 -0.110209584 -0.1399214 -0.23270872 -0.123397365 -0.053194445 0.05826455 0.03085151 0.28700966 0.26895642 0.09131057 0.01697312 0.010781222 -0.31429303 0.17806095 -0.042389806
371 -0.17663924 0.033544093 -0.16820845 -0.3916897 0.09244751 0.13571656 0.14879028 -0.0142515525 -0.30321407 -0.06933237 0.3743773 0.1456778 0.2139611 -0.18357125 -0.0018193035 -0.045200046 0.16902456 -0.21529418 -0.22510068 -0.17435451 0.1702683 0.44246304 -0.13852265 -0.27316797 -0.032277733 -0.13834295 -0.010056669 0.024978312 0.11286392 -0.048124116 0.046097893 -0.08529474 0.010393829 -0.16883425 -0.18482195 0.002160958 0.07630692 -0.049216002 -0.14950773 0.08776746 -0.2856038 0.18606037 -0.119914964 0.010286704 -0.15602322 -0.222516 -0.21542129 0.09956562 0.072356045 -0.19939964 0.2744719 0.0059765633 -0.09224958 0.051620282 -0.1047934 -0.22637817 -0.12240812 0.044926096 -0.032223657 0.11020638 -0.10235252 0.1711122 -0.13632587 0.08042675 -0.02110362 -0.16058642 -0.31955457 0.013261553 0.13464819 -0.088734 -0.2248039 -0.21365236 0.061655626 0.1702669 -0.13963768 0.25197288 -0.30081213 -0.09108375 0.071214825 -0.020080889 -0.012062358 0.00071151735 -0.08366716 0.075367704 0.067731865 -0.05362596 -0.18678425 0.06973033 -0.12705353 -0.07283529 0.021876745 -0.22630046 -0.1174166 0.10190767 0.3124084 0.105604246 -0.13994806 0.07490005 0.21753937 0.23280361 0.18241319 0.07985391 0.23588489 0.32138056 -0.064731054 -0.42148632 0.04868037 -0.09526012 0.11566663 0.06401306 0.108467184 -0.29508686 -0.25354162 0.07266787 -0.35397023 -0.054762945 -0.20863223 0.117171295 -0.028091116 0.11792014 0.21149123 0.32469192 0.20831642 0.24308945 0.13377297 -0.23953976 -0.0018792476 0.16150287
797 0.064255 0.14559941 -0.18048304 -0.23357505 0.24247877 0.13738073 0.20459445 0.09084817 -0.13773583 0.0031661196 -0.00399893 0.059702735 0.04073366 -0.055661686 -0.09061248 -0.12706922 -0.10333966 -0.18762784 -0.15692125 -0.2285404 0.26562527 0.19525228 -0.18367769 -0.16819139 -0.044548213 -0.12681192 -0.007878513 -0.03714013 0.018857846 -0.24636407 0.16010617 -0.28758335 0.2955465 -0.012818632 -0.22465913 0.1687095 0.110460214 -0.010532077 -0.060880225 -0.07194757 -0.24636355 0.28495792 -0.04749251 0.13157775 -0.2729421 0.073586635 -0.057945322 0.059632234 0.1538117 -0.08196371 0.1307478 0.00027665508 -0.0199031 -0.12455587 -0.34805268 -0.051990334 0.057857495 -0.03566936 -0.18495846 0.21359478 -0.18234085 -0.039352473 0.11422362 0.08251754 -0.12384365 -0.11741212 -0.1988236 -0.07326476 -0.044919614 -0.024929706 -0.07141754 -0.15855132 0.1512572 0.08315249 0.08043769 0.1921015 -0.177407 -0.118370764 0.06277608 0.016121168 0.122964375 -0.13681234 -0.22995813 0.09958825 -0.10307788 0.045384314 -0.09705069 0.25716075 0.12360039 0.008946929 0.088033356 -0.1394395 -0.19883819 -0.18836914 -0.061207496 0.17709781 -0.16569111 0.16375762 0.30893332 0.12883604 0.11713646 0.07231288 0.02680751 0.3497622 0.0019643975 -0.2505308 0.011122816 0.06873978 0.079241164 0.10053334 0.1604105 -0.20697403 -0.13138911 0.07413602 -0.35139373 -0.09894585 -0.057393257 0.031197784 0.06779101 0.009887547 0.14477165 0.27207074 0.22694877 0.16066992 0.11214991 0.041051447 -0.012531733 0.13335513
406 -0.22430804 0.19029608 -0.29857078 -0.11591929 -0.035071712 -0.016023751 0.1188384 -0.04709744 -0.20296986 -0.16175163 0.065911025 0.24678649 0.1055814 -0.19719665 -0.076110944 0.19424605 0.07690048 -0.21092309 -0.0019833872 -0.33411875 0.24080203 0.2093801 -0.2024248 -0.22175275 -0.16655187 -0.34012493 0.11291687 0.12478346 -0.08506428 -0.2998786 0.2544422 -0.11835313 0.120430745 0.028933877 -0.27884835 0.103040256 0.13278307 -0.2448219 -0.15057544 0.079977416 -0.35634783 0.08310065 -0.08245821 0.10112946 -0.30083698 0.102586165 -0.03639507 0.062486917 -0.015001279 0.104175605 0.19043265 0.28764528 -0.23311481 0.10569319 -0.10554565 0.110741645 0.18669426 -0.04445391 -0.15446672 0.15438122 0.036377177 -0.19571048 0.15093203 0.17718104 -0.04127569 -0.10002476 -0.120280676 -0.0009531109 -0.14987504 -0.060459796 -0.36585072 -0.1427385 0.062196225 0.10132594 0.29796532 0.322071 0.09413872 0.07241395 0.126325 0.08091888 0.034833007 0.05267959 -0.31886816 0.13414718 -0.2531299 0.13763168 -0.08817787 0.08043394 -0.117511645 0.0822056 0.009386414 0.09504116 -0.15227303 0.12547198 -0.05939228 0.009968873 -0.21203627 0.23230127 0.26696223 0.19677316 0.05469383 0.006878255 -0.15177253 0.37142846 -0.20802803 -0.0758515 -0.0058130156 0.07017128 0.21752718 0.34211627 0.12959597 -0.19075835 -0.20251316 0.07880221 -0.54583555 -0.21103185 -0.2991027 -0.14691664 0.048135538 0.045762397 0.053896923 0.017740497 -0.17566602 0.027700223 0.08388779 -0.14699301 0.004663843 0.06678188
713 -0.08889811 0.09694575 -0.09287341 -0.35648936 -0.01981645 0.21493803 0.23963574 -0.15393788 -0.30892888 0.052733902 0.14700443 0.09798895 -0.075905606 -0.15448627 -0.13517512 0.25764796 0.055034064 -0.060052417 -0.33927804 -0.23446798 0.04899734 0.08659464 -0.1388848 -0.16660054 -0.14124006 -0.06924783 -0.026219867 0.062453046 0.01473713 -0.16433807 0.022754993 -0.2591545 0.26155528 0.005995801 -0.17692232 0.11869932 0.006331974 -0.1351039 -0.17230348 0.013913383 -0.2702182 0.15763111 0.026536778 0.03920271 -0.18108645 0.06310581 0.08993103 0.067141935 0.023783183 0.02187426 0.23213658 0.2326956 -0.065685615 0.057862148 -0.090769745 0.15523863 -0.055477735 -0.14870012 -0.14693265 -0.12075261 0.032344107 -0.14176156 0.11507147 0.1706312 0.015615402 -0.2958075 -0.15689272 -0.09997203 0.06955668 -0.20615189 -0.16718261 -0.0670484 -0.063809484 0.37641445 0.33777004 0.2930368 -0.1320438 -0.09885878 -0.00036300306 0.22821313 0.20585991 -0.18115698 -0.057814542 -0.11849944 -0.18639526 0.2666845 -0.0811917 0.100650705 0.062124837 0.14341487 0.31183347 -0.20329848 -0.0450103 -0.049886853 0.24661145 0.014779864 -0.03394553 0.034646656 0.26531354 0.25284043 0.158154 -0.102745086 0.19773102 0.22175327 -0.050509606 -0.08617635 -0.06473213 -0.12708394 0.31930372 0.2596024 -0.076984294 -0.13831721 -0.08346698 0.3934064 -0.49305487 -0.083955064 -0.1245829 -0.020029169 -0.08159 -0.044167865 0.21234477 0.06979572 0.21050614 0.30962 0.16445044 -0.23059951 -0.2571325 0.1977737
