832 128
346 -0.16179125 -0.06849998 -0.0677432 -0.020503363 -0.108348794 -0.03135589 0.19269936 -0.09460111 -0.019295778 0.054155987 0.045538668 0.0567848 0.2248154 -0.055024818 0.06979826 0.02569888 0.07127423 -0.07116482 0.07887017 0.073226586 0.007328678 0.10999443 -0.01005379 -0.024801383 -0.12483795 0.097879946 -0.0028404351 -0.026966821 -0.07292909 0.18537068 -0.09950044 0.07569921 0.13400568 0.112532206 -0.05518896 0.025655491 0.0012257609 0.12749748 0.16258165 -0.08963168 -0.0037339716 -0.090596244 -0.0018998877 -0.10080202 -0.14541349 -0.1474803 -0.19270477 0.054613687 0.046577875 -0.11761698 -0.016247947 -0.13447347 0.10348569 0.21139906 -0.013573707 -0.15531394 0.10129998 0.17143486 -0.14391816 -0.20373587 0.13542868 -0.0852606 0.21644542 0.06849572 0.19591235 0.025599847 0.15582076 0.08448378 -0.115325026 -0.10294108 -0.079373166 -0.070219316 -0.101415 -0.07389877 -0.080318585 0.19326735 0.04425801 0.301615 0.16063672 -0.08486244 0.38540143 0.075358205 0.074990295 0.19746692 -0.16212066 -0.32493436 -0.20708057 0.12556262 0.161248 -0.19421242 0.0037278424 0.112198934 -0.07807726 0.048172306 0.19349019 -0.23750669 0.09953176 0.14834154 0.044915825 -0.064041495 0.18958734 -0.16819432 -0.06574183 0.10787684 -0.039732557 -0.21482846 0.13931578 0.1743654 -0.16183801 -0.005287533 -0.08929834 -0.13820222 0.03284729 -0.0012052514 0.07253523 0.04793205 -0.18878962 -0.09462748 -0.11639768 0.009033966 0.051481083 0.33838433 -0.041682158 -0.04741431 0.04111166 0.04510113 -0.19302921 0.30238152
742 -0.06513541 -0.11968816 -0.011785633 0.067263775 -0.08680234 0.046630688 0.04242853 -0.006446573 -0.1004846 0.046941385 -0.031702325 0.051501494 0.15987809 0.043881807 -0.021127261 0.07826986 0.06292314 -0.19155042 0.11454383 0.041009676 0.061214726 0.13098913 -0.06202851 -0.0052703386 -0.106768444 0.039026774 -0.0802913 -0.2028122 -0.0048249434 0.13075215 -0.21502967 0.09919292 0.006646779 0.051014606 -0.23020647 -0.030942699 0.14732297 0.12907772 0.011411084 -0.14930364 0.22951913 -0.07265668 -0.0065927836 -0.108537585 -0.018081952 -0.056388013 -0.16395634 0.009906801 0.05587823 -0.07506554 -0.026758024 -0.0020681922 -0.039578456 0.14639871 0.09975878 -0.09040893 0.0041840486 0.095791355 -0.08290698 -0.1803563 0.1385209 -0.007968414 0.08856483 0.015780034 0.16629012 0.08805167 0.070770994 0.093728945 -0.03390933 -0.17554778 0.046820957 -0.055003244 -0.16558051 -0.046171702 -0.09647166 0.14965114 0.061566878 0.23861684 0.0538857 -0.120128155 0.24040717 -0.027402015 0.016119905 0.0011417598 -0.08222526 -0.24002664 -0.097890966 0.15440637 0.15063581 -0.2093481 0.06786065 0.098193064 0.03502785 0.061207473 0.008362892 -0.21472919 0.056639332 0.09632783 -0.10746799 -0.035409644 0.28235468 -0.10831171 -0.0054265354 0.11587015 0.0187716 -0.013625062 0.121654496 0.106313504 -0.15958725 -0.04195147 0.03402747 -0.060933214 -0.12518522 0.11156567 0.08581128 0.15539466 -0.17344832 -0.051436294 -0.14477345 -0.036519814 0.17336345 0.2001282 -0.15590465 -0.10647511 0.03666333 0.055654597 -0.08853946 0.27538785
367 -0.11843491 -0.08776847 -0.025245212 -0.059699696 -0.14582984 -0.004290738 0.36123788 -0.07034196 -0.09438481 -0.028962985 -0.1268896 0.10001764 0.3407497 0.029183244 0.103204235 -0.0699114 0.06596634 -0.17827508 0.20667797 0.08170784 0.029172743 0.21016446 0.0005649518 -0.05439517 -0.20282881 0.06374121 -0.044469915 -0.12270232 -0.23145603 0.08986136 -0.1609491 0.014905205 0.1351731 0.07772848 -0.1587089 -0.1040412 0.043581463 0.20296814 0.1634952 -0.19782716 0.10285215 0.034724087 0.009099202 -0.15913364 -0.16411096 -0.10969667 -0.15836914 0.06636603 -0.03950507 -0.085967064 -0.067730784 -0.084123224 -0.019188412 0.102913454 -0.005409511 -0.11692442 0.03163409 0.22059087 -0.15898205 -0.2470898 0.095309064 -0.11549865 0.11502056 -0.041977637 0.14666611 0.062020566 0.1396757 0.043430723 -0.022839596 -0.08814287 -0.05371899 0.020491878 0.020643843 -0.094339386 -0.12978686 0.122506425 0.06916598 0.32906562 0.21897863 -0.049066722 0.33208698 0.0033552872 0.0497366 0.26804766 -0.25692382 -0.27934483 -0.098387346 -0.0011652103 0.16248931 -0.15605018 -0.121562466 0.082647 -0.09816687 -0.012021456 0.12988172 -0.24707834 0.13629085 0.06296008 -0.06339396 0.0030218328 0.30562428 -0.12218245 -0.11164203 0.10198687 -0.08118665 -0.37153676 0.11317458 0.15379527 -0.24170667 0.02017584 -0.0673051 -0.2761449 0.08580301 -0.03884865 0.104150966 -0.01817576 -0.19556837 -0.039585005 -0.19004793 0.10262034 0.01311742 0.3142356 -0.037769437 -0.09344602 0.015218537 0.20469987 -0.056884017 0.41818005
365 -0.26595026 -0.23575035 -0.044448487 -0.0690043 -0.11423788 -0.07935954 0.34561035 -0.031050546 -0.114156954 0.062095344 -0.16002177 0.006629176 0.3022959 0.055912595 0.03550463 0.07117997 0.037603606 -0.19097611 0.069918126 0.090374455 0.05644049 0.089421004 -0.09071639 -0.096288376 -0.102643676 0.11602902 -0.020414047 -0.19406025 -0.16927229 0.14640045 -0.1439846 0.1681337 0.06968166 0.08143072 -0.019808369 -0.048344776 -0.00022170984 0.24535309 0.21191473 -0.2408917 0.09690551 -0.18961968 0.018857503 -0.13240112 -0.17321122 -0.20156184 -0.1529732 0.12392784 -0.11086504 -0.09165162 -0.048781432 -0.017711326 0.14222544 0.2393975 0.03168793 -0.081069924 0.0043337573 0.16311905 -0.14668013 -0.28728437 0.06667934 -0.050293177 0.20089954 0.088587776 0.22884299 -0.027255757 0.19197558 0.05453343 -0.03850366 -0.084617555 -0.0726459 -0.01456546 0.0015423103 -0.05143776 -0.13003731 0.14882578 0.052082047 0.36610863 0.13020931 -0.03809666 0.40712377 0.046611242 -0.019269636 0.28949237 -0.20910373 -0.21258742 -0.071143575 0.08170047 0.18374516 -0.109654106 -0.0056368294 0.0141167585 0.04125044 0.027042992 0.29101378 -0.17186344 0.036704466 0.10834897 -0.015150426 -0.054580856 0.3330864 -0.20423518 -0.015454759 0.10892176 -0.10248021 -0.31166336 0.11878988 0.065394066 -0.22761594 -0.029294537 -0.010022061 -0.21367475 0.002031359 0.0063762227 -0.046849485 0.11960006 -0.19347227 -0.056036323 -0.14510085 0.1239069 0.13370663 0.38578725 -0.12435135 -0.07383758 0.08278232 0.07569631 -0.14961015 0.35306805
829 -0.16020063 -0.061859276 0.04123555 0.011866905 -0.11188137 -0.0011932463 0.210456 0.051198713 -0.17074458 0.018586276 0.027159523 0.13778584 0.2660614 0.0062444177 0.097334675 -0.047571626 0.025875466 -0.11869381 0.0780762 0.13017832 0.07228383 0.24183689 -0.04545285 -0.04403005 -0.18115786 0.12878524 -0.020270616 -0.18059643 -0.15261482 0.11199675 -0.15642865 0.052573968 0.10722122 0.080464505 -0.058013212 -0.022278883 0.0754886 0.16285221 0.008484439 -0.1893866 0.088190615 -0.08763124 0.096378855 -0.11606577 -0.15224446 -0.07153082 -0.243843 0.068921655 0.09960563 0.025497042 -0.086368114 0.010173588 -0.054335497 0.13174607 -0.02594205 -0.078152336 0.1136689 0.18546206 -0.0746345 -0.12442773 0.13816875 -0.05826429 0.11612029 -0.015683008 0.17535728 -0.029322071 0.07781131 0.062938325 0.007975525 0.028637592 -0.022269065 0.022818938 -0.028891295 -0.111577496 -0.10605431 0.13604231 0.0817356 0.1593609 0.12172843 0.06477087 0.38366246 -0.0034252927 0.14283654 0.1098625 -0.18754521 -0.19504558 -0.02415346 0.10124261 -0.027889634 0.02937399 -0.044933487 0.1512502 -0.02912187 0.115780674 0.056253634 -0.17290044 0.1857698 0.064041846 -0.08081181 -0.0773105 0.2206205 -0.035981596 -0.00560966 0.07635334 -0.08000411 -0.14967872 0.07939382 0.026907925 -0.113220096 -0.10319115 -0.059021518 -0.23349316 0.13684563 -0.043077502 0.2107472 0.0030356771 -0.13240191 -0.0485934 -0.21052079 0.017699322 -0.067532614 0.23772639 -0.033426832 -0.0724662 0.058422767 0.11421291 -0.08946564 0.26626456
357 -0.2331598 -0.14590499 -0.116961315 -0.0055053607 -0.08818376 -0.084701866 0.23188059 -0.09764802 -0.09217608 0.061106507 0.09698719 0.060186226 0.2813709 0.0037006703 0.07873734 -0.01714737 -0.035601582 -0.15161747 0.034707837 0.020727871 0.0019211754 0.15135056 -0.111971445 -0.030406198 -0.123353004 0.13824464 -0.024468366 -0.16481516 0.042387687 0.28914732 -0.11360463 0.13330524 0.06082271 0.080972806 -0.061314087 0.024896327 0.16718182 0.14796919 0.16732852 -0.12650783 0.089329585 -0.19126011 -0.012230921 -0.103803836 -0.08629981 -0.1152196 -0.32330096 0.099663086 -0.024079878 -0.043515425 0.054584287 -0.07789883 -0.00081794703 0.377864 0.006881379 -0.19930741 0.039373826 0.15866499 -0.09703957 -0.25820798 0.15145168 -0.08281043 0.18328547 0.14608526 0.15382704 -0.07524374 0.04219703 0.16170199 -0.05546794 -0.0996569 -0.12063484 -0.06431698 -0.0642947 -0.05429336 -0.034514833 0.28450915 0.041481867 0.2951349 0.12689093 -0.008683468 0.28228173 0.14850834 0.092715174 0.15027249 -0.11370607 -0.2501058 -0.234058 0.086250536 0.13546807 -0.10478701 0.0590143 0.056195937 0.041609894 0.042692035 0.27885345 -0.26257962 0.09503418 0.1874061 -0.07075278 -0.16054007 0.22336377 -0.2073326 -0.017639682 0.028209176 -0.00065152213 -0.20484847 0.045649737 0.07500326 -0.26881534 -0.0012038278 -0.022515383 -0.09722037 -0.06256015 0.094465815 -0.0054751355 0.0782119 -0.23975235 -0.15784061 -0.07943233 -0.043993164 0.08243051 0.3062208 -0.08195767 -0.09864393 0.0842809 -0.00069057394 -0.25257128 0.2572203
289 -0.25599962 -0.31108692 -0.061290905 -0.041292183 -0.124727964 0.002591149 0.18091622 0.0006802465 0.02802376 0.08702997 -0.082325354 -0.023868918 0.20139083 0.07163395 0.086585745 -0.08148616 0.081461795 -0.029615935 0.10266759 0.054648984 0.028712152 0.1806323 -0.020295668 -0.07803657 -0.1294467 0.116509534 0.0025008994 -0.046494156 -0.06634473 0.19212762 -0.08887889 0.021804724 -0.012443724 0.16593072 -0.048818104 0.03452281 0.09082034 0.19873962 0.12872638 -0.20481509 0.22138101 -0.13336511 0.022362048 -0.18729809 -0.19921915 -0.09109927 -0.30729082 0.16658549 0.13987479 -0.09876166 0.04114057 -0.18620524 0.15458243 0.3790251 0.0006126536 -0.27543464 0.061940797 -0.013204742 -0.18756066 -0.24400252 0.07432254 -0.058471896 0.30739567 0.19622421 0.27015617 -0.13509059 0.1527147 0.045696232 -0.049327806 -0.16249253 -0.08402671 -0.16999334 0.04344629 -0.045788333 -0.11751154 0.15593567 -0.029827176 0.2825428 -0.027273992 0.010740513 0.32021305 0.08240294 -0.09216915 0.14233375 -0.2601937 -0.2665854 -0.17044899 0.10690559 0.08608107 -0.1309133 0.049744878 -0.10524729 0.09465493 -0.082142554 0.3077812 -0.26542538 -0.0119092185 0.2471435 0.06747561 -0.0068407706 0.14266129 -0.13430643 -0.018928248 0.07542036 -0.06026585 -0.27121186 0.09328238 0.10662934 -0.12313431 0.10684103 0.04340445 -0.100487426 -0.05653093 -0.08352568 -0.03441364 0.09765971 -0.10445382 -0.12002801 -0.010082256 0.11434083 0.035754483 0.3935762 -0.17616984 -0.094662786 -0.00055512093 -0.041338164 -0.28045693 0.25958824
769 -0.23803976 -0.013273531 -0.20900546 -0.084910646 -0.017803172 -0.06971723 0.23386604 -0.13767104 -0.19829148 0.0890178 0.13272828 0.15681475 0.3746649 -0.051361896 0.17505705 -0.16598399 0.07606333 -0.31345147 0.22134702 0.048618607 -0.026542552 0.2700205 -0.09420081 0.008358899 -0.25961557 0.11853181 0.08841499 -0.1832099 -0.02766299 0.09543049 -0.18376777 0.009089104 0.07277775 0.042307597 -0.2150591 0.018036785 0.13879728 0.14677039 0.09281996 -0.13988821 0.072081625 -0.032182474 -0.01664872 -0.07094605 -0.16314054 -0.03730688 -0.3694497 -0.06973549 -0.058338825 -0.016377209 0.03287353 -0.15597667 -0.12921664 0.24683887 -0.19100258 -0.12552024 0.20760356 0.080642015 0.019561308 -0.20848206 0.044788748 -0.088108376 0.09587626 -0.03184899 0.05210096 -0.08710554 0.003915775 0.059475787 -0.14632767 -0.006628914 -0.031155579 -0.037461095 -0.060997702 -0.07125087 -0.012028029 0.16052333 -0.008107709 0.3436864 0.1606485 -0.006960459 0.27960157 0.11369642 0.05474381 0.0724246 -0.22511242 -0.364718 -0.16281368 -0.007557626 0.07966169 -0.20953557 -0.016662091 -0.015137013 -0.00043260277 -0.06425729 0.18467848 -0.30981204 0.13931735 0.09003074 -0.10916532 -0.22942953 0.32156736 0.029936051 0.009469885 0.021662774 -0.012959532 -0.244417 0.028543416 0.1017137 -0.25699815 0.073945 -0.102076754 -0.12861034 0.000875933 -0.064206816 0.17011501 0.03950708 -0.22200528 -0.23360746 -0.123890065 0.0983973 -0.10654042 0.30475917 0.07120836 -0.06871798 -0.061760448 0.090424515 -0.12910156 0.33821687
679 -0.015489469 -0.078688815 -0.098961875 -0.15176177 -0.01952986 0.07605384 0.1199096 0.15682182 -0.19319615 0.23170228 -0.035034947 0.15650554 0.25057164 0.09192056 -0.04053236 0.03737416 0.081310116 -0.23982887 0.063809425 0.05691458 0.0046809795 0.24576822 -0.11368674 0.08944758 -0.2939213 0.16658589 -0.07837324 -0.32482243 -0.09320017 -0.03985315 -0.36844674 0.22296229 0.009084732 0.080856554 -0.22734573 0.011956236 0.15215506 0.21323422 0.092963785 -0.2540506 0.13281982 -0.051358953 0.064339906 -0.10929238 -0.24969171 -0.09446814 -0.1855901 0.04988263 -0.086048014 -0.17140742 0.07536317 -0.100852035 -0.0066164047 0.23677923 -6.3839e-05 0.014660064 0.09345935 0.1540219 0.0247354 -0.41976684 -0.025700152 0.05007493 0.15402216 -0.07797273 0.28457114 0.03278251 -0.11031803 0.042760104 -0.012203673 -0.10155371 0.1476717 -0.045430608 -0.19948798 0.048943296 -0.18208776 0.24526626 0.26840177 0.4827126 -0.072515436 -0.12788418 0.3169747 0.005000397 0.052569654 0.14998266 -0.07175615 -0.2783377 -0.042689662 0.026097972 0.15454231 -0.10325303 -0.16793638 0.008061974 -0.08815601 -0.06135887 0.15305597 -0.16982365 0.21950689 0.04165563 -0.15884943 0.0800318 0.3943985 -0.07373199 -0.09404246 0.21269329 -0.07024975 -0.2489217 0.074773505 0.19945964 -0.029810859 -0.12673283 -0.08515357 -0.29935563 0.029191015 0.035642322 0.19115174 0.13279206 -0.21923608 -0.08862827 -0.34619486 0.23725347 0.13774018 0.258253 0.028289804 -0.20100391 0.09065154 0.20455106 -0.12887534 0.30592707
345 -0.09553773 -0.24955912 -0.0069890846 0.010161707 -0.05599142 0.0033018705 0.2272416 -0.10257557 -0.046160664 -0.019233886 -0.13346173 0.008912977 0.19866905 0.049092066 0.13784763 -0.10537892 0.05887306 -0.14217852 0.23076133 -0.0026643004 -0.00016217942 0.17580287 0.034190904 -0.05361781 -0.1471243 0.152988 0.017023139 -0.18219769 -0.07079052 0.059568197 -0.0140695125 0.024812758 0.010612913 0.06766039 -0.17665137 -0.050418064 0.17511383 0.14355306 0.12365688 -0.18579781 0.24669257 0.08862124 -0.08268834 -0.11008926 -0.08728443 -0.11842742 -0.17350332 0.13170943 0.08820719 -0.09701991 -0.01674134 -0.21223673 -0.03283044 0.23752536 0.0061152778 -0.24406372 0.07216042 0.09456847 -0.08243932 -0.23709357 0.11479685 -0.1466603 0.06916915 0.107310064 0.15018766 0.080959246 0.1364493 0.1306957 -0.1175142 -0.20042986 -0.015012047 0.05250681 0.0024820927 -0.14099233 -0.16520733 0.26625088 0.09370018 0.34349144 0.14329933 0.02588261 0.23453608 0.014313899 0.0378717 0.036231857 -0.25288975 -0.3201698 -0.1406089 -0.08573779 0.22471894 -0.13728392 0.021420522 0.0075038737 -0.056262504 -0.02833365 0.20079504 -0.36274916 0.12758626 0.21355891 -0.054036353 -0.039076444 0.31466058 -0.2069041 -0.05220572 0.130657 0.009442314 -0.11068493 0.061880007 0.056262355 -0.34434873 0.006436782 -0.052482065 -0.07823608 -0.08901941 0.08865693 -0.016958963 0.034185838 -0.25900474 -0.18350358 -0.062620856 -0.019706141 0.10568379 0.22464538 -0.32638484 -0.2387681 0.05180667 0.12810525 -0.13776691 0.29943436
824 -0.26651868 -0.13933986 -0.19491094 -0.112578735 -0.06617332 -0.09052396 0.4550276 -0.08447379 -0.1993175 -0.000764581 -0.01460755 0.1499083 0.3841055 -0.04682417 0.21200702 -0.10415902 -0.017024541 -0.30399954 0.22356902 0.048088335 -0.014927288 0.24071239 -0.10988304 -0.05516405 -0.15635341 0.17966904 0.023356574 -0.15909289 -0.07963093 0.24964777 -0.13569218 0.060699247 0.120229 0.11868285 -0.05076073 -0.049082223 0.15092759 0.08714695 0.23641576 -0.2532318 0.11870757 -0.06559328 0.036118794 -0.11045692 -0.09243464 -0.08361956 -0.31452885 0.08332694 -0.025571521 -0.06312532 -0.050588712 -0.068442285 -0.036576197 0.3081838 -0.14849263 -0.1866488 0.07399049 0.23733158 -0.088655286 -0.22008552 0.0034997826 -0.11024493 0.069001496 0.016066631 0.1604638 0.0032221724 0.007058059 0.15362552 0.014077084 -0.10266476 -0.10242349 0.01375051 -0.0043596453 -0.070332944 -0.08021941 0.19713308 0.08944489 0.3727327 0.16409904 0.0012857282 0.22879378 0.058783695 0.17619318 0.21262491 -0.21582529 -0.3083538 -0.1839798 -0.08184654 0.14003198 -0.095469035 -0.0061502038 0.018967737 0.04502152 0.113748394 0.2577433 -0.40450183 0.17606981 0.12064786 -0.112738535 -0.15602164 0.28775954 -0.17224005 -0.016365472 -0.021458056 -0.035469513 -0.42631772 0.009174271 0.027982157 -0.29524916 -0.018152751 -0.04268407 -0.2066696 0.022606095 -0.04409387 -0.07190113 0.055446558 -0.18914673 -0.0737965 -0.15501755 0.059700876 -0.06870691 0.1567341 -0.049805384 -0.07058511 0.07550881 0.16556446 -0.17093104 0.29276237
680 -0.0169182 -0.104892366 -0.014829114 -0.13311055 -0.066597514 0.020962989 0.023773955 0.15463966 -0.26159796 0.18846913 -0.022414051 0.15593621 0.25019366 -0.053331405 -0.020077264 0.098774105 0.08667002 -0.19279404 0.052842185 -0.016535277 -0.014630653 0.25320947 -0.03894234 0.11468232 -0.346873 0.07431648 -0.04779992 -0.276767 -0.049309533 -0.16125898 -0.27589872 0.22243592 -0.06052452 0.050850436 -0.22898807 0.018410675 0.19629651 0.3618065 0.05755517 -0.18694264 0.20264333 -0.06083671 0.030028965 -0.035461366 -0.2828838 -0.10244827 -0.20464404 -0.05513084 0.07086813 -0.089939356 -0.086092874 -0.28593507 -0.07567492 0.27303877 -0.08604194 -0.04350652 0.14158814 0.118043214 0.16508369 -0.39948654 0.096915394 -0.0008947741 0.112310536 -0.09963538 0.14579333 0.10462684 -0.023237776 0.023903873 -0.0927657 -0.049687102 0.21942581 0.03525667 -0.2736672 -0.124585144 -0.19446145 0.2724507 0.273143 0.5561627 -0.019188985 -0.02358073 0.42569882 -0.0034461974 0.041460853 0.034033403 -0.15718432 -0.35631287 0.045737576 -0.009102887 0.13110031 -0.010177624 -0.055026185 0.05253539 -0.14553571 0.0145097105 0.09522819 -0.24569546 0.21934763 0.061391395 -0.08176128 0.040169742 0.32991317 -0.10293089 -0.0086905975 0.26700383 0.022759303 -0.101592384 0.0179028 0.18067652 -0.108659565 -0.22430909 -0.13238387 -0.1862092 -0.13650686 0.081516944 0.27678776 0.06438678 -0.29228753 -0.32296407 -0.35636014 0.17282103 0.223482 0.3066825 -0.09173344 -0.28666252 0.13877389 0.2281441 -0.12828949 0.32793677
401 -0.044035777 -0.10813121 -0.045977604 -0.0124750035 -0.029400248 -0.06990705 0.14158085 -0.0073892106 -0.19138864 0.08882759 0.050546102 -0.00602156 0.17633814 -0.015004272 0.035554707 0.0047642007 0.03962976 -0.088213585 0.07300899 0.032734655 0.01046725 0.09005891 -0.03714533 -0.016488208 -0.19406943 0.20649323 -0.039521284 -0.2070281 0.014280852 0.07470874 -0.10960312 0.11947004 0.094787054 -0.001755595 -0.2216456 0.0072177877 0.060325973 0.116337575 0.038730003 -0.010126636 0.05553098 -0.059250236 -0.17751068 -0.10046927 -0.14301108 -0.21542262 -0.17725538 0.19219837 0.01997797 -0.045468528 0.06684322 -0.06658926 0.013173507 0.30980277 -0.026646273 -0.18466133 0.1279217 0.15222697 -0.03297617 -0.19473442 0.17381512 -0.04421028 0.16083235 0.020301664 0.24951294 0.073262185 0.13961546 0.036316548 -0.22448838 -0.026812574 -0.07012402 -0.061598442 -0.118961066 -0.028086266 -0.02548779 0.2846929 0.04044307 0.36630136 0.12735386 0.031193335 0.40942731 0.09952283 0.09787528 0.05019002 -0.1776768 -0.33113107 -0.24343862 0.044493478 0.20455648 -0.134016 0.065191865 0.094268784 -0.10616259 -0.0437274 0.1985364 -0.22282563 0.15148272 0.25136772 -0.059718024 -0.16611063 0.3552912 -0.11070802 -0.097156666 0.10022332 -0.072566226 -0.13461326 0.045672696 0.12671119 -0.27099884 0.06556581 -0.13239276 -0.08549412 0.049597807 0.16431312 0.06581735 0.06732332 -0.24809158 -0.21110772 -0.07605227 0.021081563 0.061262354 0.30850008 -0.10751834 -0.16946158 0.086301014 0.0016022807 -0.20198016 0.3912463
828 -0.27288428 -0.044469915 -0.039248325 -0.14369433 -0.054389335 -0.09442706 0.2885741 0.008839497 -0.17262413 -0.014954526 -0.03232188 0.09615094 0.2612531 0.03671713 0.12807569 -0.19277832 0.037220247 -0.27604198 0.23792423 0.017917065 0.08381971 0.36862043 -0.08870572 -0.1234789 -0.22665691 0.05936355 0.12539056 -0.17202003 -0.010588764 0.22541307 -0.14400041 -0.0705486 0.07141298 0.07730351 -0.14966793 0.007482904 0.21892247 0.049515095 0.08873166 -0.14704104 0.21141982 -0.071617275 0.06455909 -0.24158297 -0.03763511 -0.035885397 -0.37861815 0.121754855 0.06887938 0.036892768 -0.042356122 0.02284856 -0.15194461 0.12513812 -0.030008284 -0.16203809 0.12902719 0.15431567 -0.15452802 -0.18996693 -0.045693625 -0.022148483 -0.035292607 0.004001852 0.12827824 0.06514027 0.0952086 0.097607724 0.19761918 -0.08606559 -0.026999658 -0.01205008 0.04780884 -0.085298575 -0.103562035 0.10536969 0.06201723 0.16144651 0.253931 0.012179244 0.26648003 0.0036756308 0.11339486 0.13182417 -0.19385836 -0.23666243 -0.03694248 -0.024269322 0.034844264 -0.15153502 0.066473536 0.1294551 0.03703737 0.12840886 0.10442357 -0.43463624 0.15293784 0.022977345 -0.13302028 -0.13134913 0.21912897 -0.09461274 -0.09027175 0.062416147 -0.07128671 -0.36314252 0.117082864 0.038298614 -0.23000795 -0.025860831 -0.0070614475 -0.092217825 0.059264418 -0.10850284 0.078598864 0.12179201 -0.1268316 0.036770787 -0.1629273 0.0048493943 0.032507192 0.124553174 -0.109893285 -0.031119568 -0.04535528 0.20121336 -0.15342107 0.2779677
350 -0.148171 -0.0041452465 -0.12964064 -0.1481619 0.012941575 -0.053516306 0.28895444 -0.17597854 -0.38043794 0.1041081 -0.02723964 0.12002949 0.39916283 -0.12443454 0.004805532 -0.014965619 -0.044917148 -0.22996105 0.19844119 0.002998982 0.008825723 0.25204542 -0.31313324 -0.07822705 -0.31333417 0.106680416 0.058672085 -0.11577069 0.05381956 0.106313 -0.21136221 0.032309026 0.05067325 0.11292452 -0.16248786 0.06483726 0.16157682 0.1357809 0.24207255 -0.18666762 0.22600509 -0.15739974 -0.11431931 -0.16291758 -0.17438261 0.011814576 -0.076963305 0.016669309 -0.054320663 -0.12746257 -0.12452856 -0.07576884 0.043606695 0.34964037 -0.23964956 -0.12592913 0.047954347 0.05827502 0.052881043 -0.27375215 -0.010651594 -0.013099591 0.070435114 0.003065568 -0.021978645 0.073663354 -0.04151181 0.05472798 -0.06268113 -0.0823928 0.062325004 0.05286883 -0.122386046 -0.113300696 -0.08608225 0.17534742 0.0815988 0.46242177 0.15142666 -0.211694 0.31581688 0.014851847 -0.026797988 0.09681355 -0.18098176 -0.41719216 -0.03549064 0.010240064 0.24188869 -0.17238706 0.023877509 -0.005967875 0.008212429 0.0071983305 0.0799606 -0.31998676 0.26998582 -0.02338991 0.054426987 -0.21017864 0.25559333 -0.22417551 -0.034484483 -0.00013662326 0.09560972 -0.24906468 -0.039492775 0.24859071 -0.18120396 -0.021999665 -0.07232422 -0.032377027 0.032875914 0.018856846 -0.13692887 0.06980046 -0.17038672 -0.057654373 -0.17182557 0.30459383 0.1159797 0.2064037 0.062356677 -0.13115714 0.0901231 0.23634079 -0.07551892 0.14694333
395 -0.22988419 -0.1485611 -0.10848021 -0.07017016 -0.09054923 -0.10514822 0.2999258 -0.11112202 -0.027493263 0.07769767 0.040195122 -0.085894726 0.21258654 0.034897298 0.10054823 0.02681616 0.02381607 -0.14959577 0.056706224 0.0011488278 0.09903393 0.17779677 0.0036876411 -0.13296723 -0.102179535 0.14070748 -0.002202539 -0.1320181 -0.021402508 0.35726872 -0.14296469 0.056357477 0.15083429 0.17679074 -0.03484113 0.08484595 0.10843387 0.17268033 0.21620908 -0.10432118 0.088529885 -0.19358404 0.0014590749 -0.16028792 -0.11441326 -0.078544475 -0.32666925 0.17458087 -0.0379778 -0.17228553 0.04026452 -0.03172787 0.19469692 0.31962985 0.017234948 -0.17852594 0.088118516 0.17627725 -0.19714458 -0.26675844 0.08138552 -0.016055893 0.25592908 0.07784154 0.21083604 0.003825268 0.07758652 0.060172457 0.021791857 -0.12787955 -0.14950685 -0.13986272 -0.08323168 -0.03240324 -0.07364336 0.13017106 -0.10125858 0.32408032 0.1596331 -0.058513314 0.29260808 0.058999117 0.015609021 0.16718943 -0.19224605 -0.22307658 -0.23056749 0.020039335 0.20093775 -0.15443186 0.13740832 -0.006633659 0.064315386 0.0075854245 0.31945318 -0.25820094 0.10786272 0.17100339 0.03868649 -0.09291133 0.13905372 -0.16306171 0.019062473 0.08011577 0.020965103 -0.29767227 0.06643429 0.047510136 -0.13467011 0.062974505 -0.05108136 -0.08163051 0.06544734 -0.049748935 -0.024627859 0.09986032 -0.14476463 0.007047395 -0.061385997 0.019791624 0.040855657 0.34932363 -0.09530195 -0.05022939 0.068131186 -0.017061938 -0.23465042 0.30418187
661 -0.18737479 0.015788775 -0.13479413 -0.08936188 -0.043689344 -0.07192005 0.10213899 -0.020279381 -0.23378098 0.13772632 0.12472548 0.17772658 0.2685637 -0.0118319625 0.056854203 0.0050548706 0.021222897 -0.218587 0.053082872 0.024525266 0.04386902 0.12983884 -0.13208178 0.08786848 -0.2430415 0.035701714 -0.06561883 -0.2365231 0.120154165 0.2069673 -0.24940732 0.09936254 0.012338321 0.03288995 -0.18369316 0.04099904 0.1827868 0.18072638 0.20281821 -0.14998971 0.26882088 -0.173034 -0.017520318 -0.13298479 -0.1387931 -0.04115283 -0.22882369 0.054247715 -0.07591751 -0.14551283 -0.035972737 -0.12153539 -0.0297026 0.32657382 -0.040253997 -0.08683602 0.05437257 0.13017301 -0.055710807 -0.28554466 0.09864235 -0.08978542 0.09548944 0.08777723 0.013578712 0.009570705 -0.009941546 0.14419946 -0.06321352 -0.09022891 0.042055827 -0.058095183 -0.19666134 -0.10168581 -0.104370594 0.21421795 0.08957779 0.41804338 0.10076079 -0.095986895 0.26490813 0.08925587 0.03495853 0.06275095 -0.033869926 -0.3577467 -0.12621774 0.024837108 0.17709272 -0.11448553 0.11975721 0.059436705 0.020139724 0.03539986 0.1484593 -0.3425937 0.11537095 0.009732253 -0.09400697 -0.11692863 0.26273307 -0.14567173 0.021165693 0.075907394 -0.010885875 -0.09820945 0.03067055 0.15278864 -0.20723994 -0.12160023 0.025702955 -0.13284308 -0.05869689 0.050758563 0.13151081 0.09528522 -0.17365763 -0.14491582 -0.23600735 0.15815103 0.184187 0.32082814 -0.06058599 -0.07433975 0.04218527 0.14546774 -0.20270799 0.24619384
666 -0.10744389 -0.03601365 -0.15128368 0.040485874 -0.08417508 0.024373183 0.18597431 0.061042093 -0.28541195 -0.000880233 -0.0017987376 0.112556085 0.30458233 0.010751821 0.0386505 0.103913106 -0.103829734 -0.43538293 0.049643528 0.050038815 0.13091569 0.10816234 -0.16455606 0.01941634 -0.084777154 0.13075933 -0.23265539 -0.31264699 0.1391771 0.118200876 -0.2709493 0.14800246 -0.017037068 0.051868152 -0.1245932 -0.032752644 0.19169642 0.18859558 0.23308486 -0.17398095 0.353018 -0.14588718 -0.039993856 -0.010862932 -0.057948604 0.030679319 -0.16331702 0.06854808 -0.10401585 -0.025329866 -0.1577384 -0.005296185 -0.0037035253 0.27274263 0.09136027 0.035574358 -0.022409093 0.26067466 0.021997577 -0.3236326 0.17960277 -0.13300918 0.030413548 -0.07363861 0.11442945 0.07839289 -0.022969408 0.12041925 0.01700593 -0.14190772 0.09227035 0.060879413 -0.12482276 -0.15207627 -0.10366297 0.24370891 0.11159116 0.41221598 0.044321112 -0.1392004 0.1671742 -0.13790363 0.020815672 0.06390586 -0.02885192 -0.21762931 -0.005602838 -0.031634487 0.2086382 0.009162168 0.14565864 -0.011211491 0.1312825 0.012154443 0.09403835 -0.21689929 0.09625766 -0.024559643 -0.15790075 -0.03607899 0.29045898 -0.17338367 0.06133038 0.020358598 0.14802656 -0.030534046 -0.031715028 0.07265031 -0.19219573 -0.21570662 0.05335629 -0.20991528 -0.020207535 0.16511902 0.14132945 0.060842622 -0.13532406 -0.043346714 -0.34223753 0.12586425 0.18126293 0.2496301 -0.18823269 -0.115183406 0.118424006 0.12025221 -0.21083975 0.28475302
391 -0.18064739 -0.19405259 -0.0042562 0.03796187 0.025630038 -0.14180148 0.24130079 -0.03420143 -0.06522676 -0.016389186 -0.13358663 0.006288787 0.27638918 0.01895027 0.07357286 -0.08735653 0.015894303 -0.2606522 0.23848367 -0.016803823 0.12432876 0.24062914 -0.20029357 -0.11676783 -0.11499898 0.08748971 -0.011486337 -0.09557666 0.055748552 0.07012252 -0.08956439 -0.03208218 -0.0852787 0.06621082 -0.07730896 -0.13459454 0.23072022 0.10402516 0.0547887 -0.06775106 0.20745137 -0.052872308 -0.12486076 -0.13470757 0.008017519 -0.10730076 -0.17050721 0.074290425 0.10493805 0.0061222743 -0.09734914 -0.05233901 -0.045371354 0.18504052 -0.07175011 -0.17273381 0.05290826 0.12383226 -0.036106706 -0.10570835 0.106287114 -0.10168487 -0.066893615 0.013881449 0.14871173 0.1965616 0.13839357 0.046611004 -0.044962242 -0.1275088 0.030540561 0.124029875 0.14275913 -0.124203086 -0.072290525 0.16945203 0.083021715 0.2047231 0.14796768 -0.05053394 0.20066355 -0.113255605 -0.006014125 0.093908444 -0.20698874 -0.21077894 0.039992984 0.06991346 0.16660523 -0.13872449 0.06795464 -0.048968 0.08407761 0.071320586 0.14303935 -0.23518847 0.063221134 0.13108924 -0.008095774 -0.080072515 0.21048982 -0.10589703 -0.000109003486 0.036300883 0.0055053043 -0.14242612 0.101749755 0.043796867 -0.2981231 -0.012162282 -0.0012231255 -0.030581752 0.019369526 0.107653975 0.022026233 0.09625654 -0.22922705 -0.1200772 -0.1538212 0.08048242 0.073501386 0.23745203 -0.254176 -0.08257642 -0.05845498 0.021705484 -0.1396907 0.24376695
813 -0.17520028 -0.032845046 -0.18745066 -0.029941661 -0.15148994 -0.07997433 0.18709268 0.06989436 -0.054541256 -0.06388641 0.1391516 0.14850369 0.2525438 0.029533366 0.028279139 -0.026545672 -0.044195708 -0.066028014 0.0682506 0.02486755 0.029613445 0.0773278 -0.025764856 0.16583128 -0.07009265 0.052598048 -0.1925675 -0.109729856 -0.030091513 0.2092884 -0.16826142 0.056803145 0.06380997 0.012372147 -0.10436995 0.0013718886 0.35669103 0.18018702 0.21900108 -0.09951045 0.21036981 -0.08542891 0.00049583346 -0.07095548 -0.036637824 -0.016140703 -0.32968566 0.14512551 0.01949774 -0.04110691 -0.043158356 -0.15724504 -0.1996487 0.36954606 -0.04846923 -0.25943232 0.082732216 0.1692297 -0.12860765 -0.39240235 0.23164158 -0.13793515 0.00052016927 0.029996915 0.12505409 -0.015442616 0.019910432 0.18279558 0.06843213 -0.16155621 -0.14910147 -0.065168895 -0.005542611 -0.16142964 -0.052526537 0.39636645 -0.029202176 0.4476537 0.029519424 0.05337364 0.3215981 0.09548349 0.12520987 0.04194891 0.014674274 -0.27974892 -0.19144045 0.04441737 0.10437665 -0.077556334 0.13629824 0.0033569492 0.031736232 -0.058229446 0.24639836 -0.45232525 0.11760464 0.15993354 -0.18760422 -0.12314397 0.21175016 -0.17522041 -0.01590909 -0.0422106 0.10612514 -0.17022581 -0.043214615 0.09226445 -0.39874277 -0.12748307 0.09116145 -0.22880855 -0.17384437 0.026604068 0.106717445 0.12860273 -0.35526404 -0.28466395 -0.16136996 -0.02637704 0.13291109 0.39338374 -0.15592782 -0.17734946 0.12538385 -0.014629453 -0.21671247 0.22685896
804 -0.2238054 0.05343691 -0.21202843 -0.03045385 -0.11328642 -0.005127313 0.24164876 -0.11195651 -0.1969966 -0.022095662 0.10145308 0.13494058 0.3633179 -0.09178797 0.0027534612 -0.11845618 0.009453812 -0.27992806 0.19021697 0.05749952 -0.0132924775 0.20770216 -0.1753297 -0.0041732555 -0.27031118 0.15340756 0.0009812862 -0.21490571 -0.06355307 0.167211 -0.23791786 0.060327873 0.18597649 0.20572755 -0.2193709 0.08921737 0.10850437 0.14716575 0.28811604 -0.20739286 0.09025972 -0.11377196 0.053503618 -0.09632379 -0.11679366 -0.012385385 -0.30922905 0.00998683 -0.048554692 -0.023739114 -0.0024364665 0.0122490795 -0.0706719 0.20339678 -0.06875364 -0.061637364 -0.010042979 0.07406107 -0.15302777 -0.27943176 0.15280496 -0.054797523 0.13370483 -0.020578247 0.086388476 -0.0037647027 0.0224823 0.09796266 -0.061566964 -0.040814377 -0.066339865 -0.012754417 -0.013104916 -0.03657703 -0.13880685 0.19909178 -0.051893216 0.2985251 0.17598704 -0.100002065 0.32663962 -0.03340003 0.043670066 0.0504745 -0.050003737 -0.31784043 -0.15345703 0.043434527 0.083987914 -0.17252602 -0.017998382 0.123718105 -0.0059564393 -0.0029702832 0.13719475 -0.2470576 0.1965437 0.042771682 -0.09117234 -0.22967033 0.22297198 -0.111161456 -0.1347595 -0.04157457 0.11182673 -0.10357348 0.003109188 0.18394898 -0.1489382 -0.13663152 -0.024325587 -0.16346905 0.0010247543 -0.073179856 0.077992275 0.1343523 -0.1725298 0.008262157 -0.107830726 0.03581999 -0.03401212 0.23088373 0.063685074 -0.102895364 0.06866456 0.07718577 -0.126926 0.09885852
374 -0.16983542 -0.077237345 0.07174358 -0.0034487194 -0.038299162 -0.086480424 0.11669462 -0.03473491 -0.12765235 0.16983362 0.03297675 0.11444157 0.1523792 0.054413266 0.1485271 -0.09725377 0.06300647 -0.12707189 0.16012903 -0.00082333817 0.14083228 0.2666847 -0.12973498 -0.0937462 -0.13378799 -0.065053195 0.030722251 -0.059562888 -0.0104078585 0.29756436 -0.25205413 -0.042081684 -0.00987474 0.10287113 -0.07508192 -0.0007166288 0.087777846 0.14797032 -0.0024418894 -0.14327396 0.2063402 -0.14121544 0.097310364 -0.19933188 0.017516218 -0.0008191028 -0.23244731 0.039452143 0.026665425 -0.13277815 -0.0337766 0.00805324 0.06488916 0.17771988 -0.032555033 -0.119081184 0.12167559 0.1709893 -0.11533256 -0.061406728 0.084255256 -0.015677137 0.1519547 0.088459246 0.11128206 0.025298145 0.01971375 0.12843578 0.031562805 -0.16994943 0.016679933 -0.042890437 -0.18645386 0.008726826 -0.10965622 0.079313554 0.036520947 0.19010289 0.11041237 -0.14986014 0.14970593 0.008742529 -0.041235033 0.17783962 -0.20640092 -0.2655068 -0.11101404 0.17933327 0.08072187 -0.17327504 0.080030285 0.058327008 0.033297528 0.12728298 0.056132186 -0.13910168 0.06948576 0.06699179 0.01944778 -0.0696107 0.10529157 -0.0513153 0.09865373 0.14517327 -0.015771372 -0.18096906 0.16164505 0.06494452 -0.060823567 0.050362304 -0.017927054 -0.098664075 0.13583137 0.04480442 0.1752968 0.084777966 -0.03162087 0.1261883 -0.27478397 0.06082298 0.03599043 0.19466229 -0.04593042 0.031846367 0.013626944 0.14266942 -0.11535743 0.209809
723 -0.030030578 -0.18874775 -0.013082023 0.05827892 -0.029451124 0.008317557 0.104967326 -0.07490026 -0.14682575 0.070165165 0.006267734 0.0014702457 0.20507172 0.034555443 0.0034706392 -0.0068975133 -0.02764325 -0.18743512 0.09997037 -0.14523685 0.100929 0.25695273 -0.09517688 -0.0053338264 -0.18973193 0.010522805 -0.085486 -0.25034612 0.1482846 0.2132807 -0.17614911 0.08508926 -0.0944023 0.13279235 -0.21211478 0.010857489 0.34417334 0.20706393 0.0848883 -0.11470018 0.3212682 -0.098011814 -0.087935 -0.12755184 0.062182166 0.040046636 -0.27267978 0.0582033 0.049192246 -0.096538216 -0.026468012 -0.051934898 -0.05423223 0.2652299 0.051452126 -0.12812217 -0.021400789 0.11439297 0.0039423592 -0.2876386 0.10309281 -0.015071624 0.015160398 0.044019252 0.038726866 0.14286305 -0.060492452 0.15424414 0.0726516 -0.24853703 0.106779315 0.043774795 -0.13084549 -0.064254925 -0.13582847 0.22991176 0.13663471 0.28068772 0.09248475 -0.1483047 0.09516882 -0.017334681 0.023255682 0.0004623726 -0.034486625 -0.17714329 -0.10030657 -0.0045021637 0.21028823 -0.1450034 0.06450293 0.018064018 0.053624984 0.073084876 0.076252244 -0.22945856 0.16902521 0.10708858 -0.032972757 -0.022448175 0.16142215 -0.2246508 0.023807127 0.102135755 0.13054737 0.041262556 0.047979034 0.11235422 -0.20151636 -0.034473367 0.0077293455 0.063681014 -0.1227733 0.2195036 -0.008665955 0.14663446 -0.24722765 -0.05668241 -0.14583825 -0.05510105 0.27184814 0.12187698 -0.19071348 -0.17285739 0.0782436 0.1188539 -0.18196501 0.20841615
349 -0.16701959 -0.13905644 -0.062666416 -0.061725635 -0.120448634 -0.025302311 0.41457167 -0.016281836 -0.18775564 0.015262185 -0.17948054 0.09078122 0.3019019 0.016486684 0.063470095 0.035036903 0.017021935 -0.2413409 0.17876704 0.11191707 0.0653399 0.11163495 -0.097468466 -0.10999908 -0.14458904 0.1556488 -0.12501071 -0.16128342 -0.17496145 0.10414614 -0.20417874 0.097674765 0.14330749 0.07608297 -0.13045669 -0.054556027 0.009361425 0.22534426 0.22536601 -0.21142013 0.20535949 -0.11451098 -0.02523576 -0.14510907 -0.14416122 -0.14448251 -0.074337855 0.1639983 -0.052997716 -0.094867244 -0.08440187 0.0066666645 0.13460165 0.18621366 0.020209977 -0.07308921 0.004046701 0.21588193 -0.11893402 -0.21403506 0.07988223 -0.12981477 0.1756619 -0.030712035 0.21263453 0.036149677 0.17493606 0.029106768 -0.029538251 -0.05439083 -0.09640015 0.024730371 0.026319863 -0.08968062 -0.10151611 0.10553176 -0.0076526743 0.3606442 0.12688908 -0.07000123 0.35499865 -0.022774987 -0.01633874 0.246973 -0.1669435 -0.258403 -0.124000765 0.061264742 0.17999282 -0.07781576 0.0705817 -0.007933641 -0.0013470923 0.020747088 0.21462156 -0.18700609 0.08567959 0.09241328 -0.015211377 -0.028439732 0.31087312 -0.12865564 -0.046443142 0.052250687 -0.031227285 -0.32848772 0.020680904 0.13175462 -0.23523492 -0.01601449 -0.04378607 -0.23886076 0.094882324 0.025259158 0.01903218 0.026476402 -0.13343859 -0.033520624 -0.15499136 0.20419265 0.03335639 0.3232503 -0.09022266 -0.026010223 0.03655564 0.1328303 -0.09999289 0.35506776
718 -0.04822394 -0.2709852 -0.19268353 -0.011289803 -0.08073287 -0.03128373 0.1927419 0.08226743 -0.16314387 0.07101208 -0.04139253 0.11374884 0.25511113 -0.0017090247 -0.046306558 0.24457729 0.033246476 -0.29870382 -0.008686885 0.06368681 0.024068894 0.13504753 -0.0434316 0.08574512 -0.08986833 0.153732 -0.23131627 -0.2504969 -0.039431825 -0.031301044 -0.29436836 0.23407178 0.023982199 -0.062810935 -0.17849754 -0.09186672 0.35307947 0.2921116 0.14808404 -0.25295925 0.12721506 -0.12885503 -0.004704959 0.01786818 -0.10924688 -0.1013694 -0.18085691 0.039939083 -0.04857432 -0.020054042 0.014390766 -0.100617185 -0.1298128 0.3121193 0.1502019 -0.057720818 0.12776428 0.20518887 0.091848396 -0.40196764 0.13521661 -0.0062550646 -0.014238916 -0.062459134 0.25542685 0.13438816 -0.050702278 0.06804782 0.017279094 -0.14705914 0.050457735 -0.0050456347 -0.10156831 -0.049458083 -0.0761782 0.27344608 0.112349235 0.47515392 -0.055910796 -0.0059996163 0.33568862 0.07988319 0.13727964 0.030404018 -0.00075318717 -0.20658211 -0.10963326 0.06479246 0.14968587 -0.074388035 0.048736166 -0.11794269 0.034175575 0.05002629 0.18643779 -0.28446922 0.10476944 0.124844044 -0.22421664 0.026877124 0.34427795 -0.061737232 0.097196385 0.17263114 -0.033536088 -0.12942873 -0.07746663 0.053873304 -0.34916595 -0.1825957 -0.007558651 -0.20824718 -0.21432984 0.22983283 0.17754105 0.14879116 -0.34051114 -0.38433605 -0.24758655 -0.008533263 0.13788411 0.23525986 -0.17882474 -0.16625716 0.062221643 0.03417911 -0.11639611 0.4136655
767 -0.2686269 -0.15527272 -0.03553492 -0.010048988 0.08128398 -0.16984819 0.36360428 -0.090737596 -0.16380478 0.013256133 0.011554007 0.03697365 0.22803245 -0.040211935 0.12894046 -0.12303746 0.017264888 -0.2306075 0.23348305 0.049659856 0.03250124 0.30021837 -0.16412799 -0.13749321 -0.20285413 0.19561656 0.08459186 -0.25850403 -0.03468889 0.1508758 -0.09183677 0.0012994071 0.079889916 -0.009092538 -0.14909175 -0.08003616 0.24958825 0.13455461 0.013285517 -0.12956946 0.045999814 -0.091967754 -0.053863805 -0.16610835 -0.05281531 -0.23162757 -0.34367755 0.11667681 -0.025983714 0.06937524 -0.02929985 -0.017178947 -0.21393988 0.2535445 -0.13495307 -0.19265954 0.21815927 0.16637331 -0.03166688 -0.10995613 0.040228102 -0.11676766 -0.08187175 0.108631976 0.11671159 0.080719426 0.047938254 0.10261258 -0.118828416 0.046218876 -0.082562305 0.092097275 0.08308928 -0.0945233 -0.026114367 0.2903925 0.036108457 0.23368396 0.31260493 0.113316886 0.33098748 0.08368346 0.13020203 0.041588232 -0.27697128 -0.26100987 -0.045716107 -0.015472499 0.11318759 -0.07654205 0.051498353 0.00803276 0.045638222 0.11948723 0.27106163 -0.29103732 0.15087704 0.19163361 -0.14772047 -0.26953924 0.3657914 -0.015579313 0.03903444 0.07283014 -0.14586614 -0.19820073 0.033756796 -0.07285995 -0.41585302 0.05402116 -0.10538647 -0.031576164 0.04800969 0.08041894 0.095022716 0.11384778 -0.33090746 -0.25430983 -0.08021964 -0.0024426149 -0.03596083 0.29058132 -0.16559078 -0.1653574 -0.014355293 0.05671953 -0.10823952 0.30174583
746 -0.098855674 -0.036516763 -0.24860865 -0.055257883 -0.0057268837 0.010712989 0.09233489 -0.071180716 -0.10816221 0.03888267 0.07602433 0.17003554 0.35570464 -0.084618665 0.07951488 0.011899156 -0.0053169555 -0.21497191 0.1647072 0.026225705 0.023309628 0.14310959 -0.17213531 0.15943898 -0.16558497 0.034543175 -0.12789452 -0.047030643 0.08912559 0.048215814 -0.23794687 0.0918097 -0.009666078 0.05505839 -0.2563077 -0.064026915 0.2526756 0.15256853 0.10167823 -0.076780446 0.14378422 -0.03328019 -0.033961818 -0.059311017 -0.058570378 0.018110408 -0.30430004 -0.10132626 0.0038611721 -0.055065013 0.017837627 -0.16073166 -0.15526932 0.30355206 -0.16536473 -0.19923073 0.045928016 0.085907325 0.05105382 -0.3152394 0.14954577 -0.09897777 0.11588577 -0.09105553 0.084622614 -0.0013331914 0.032754812 0.10170087 -0.12205186 -0.12972382 0.0006792734 -0.05230026 -0.1426085 -0.1386629 -0.017653551 0.1565633 0.048312206 0.3528784 -0.03976702 -0.13505985 0.29745895 0.05805708 0.056537878 -0.016349642 -0.021621024 -0.33033943 -0.16084969 0.09051299 0.17329988 -0.22110745 0.09886695 -0.05214421 0.0005174029 -0.07962632 0.07263733 -0.31125396 0.028952675 0.06491 -0.0493717 -0.118518375 0.19242373 -0.12181754 0.022152407 -0.015274539 0.10176625 -0.13770321 -0.033024967 0.17708966 -0.20151792 0.02090815 -0.006402806 -0.055455476 -0.23363665 0.0740675 0.10015649 0.1546858 -0.22597656 -0.24537794 -0.13398647 0.05849243 0.07304244 0.3010413 0.044378396 -0.1414719 0.042457573 -0.036465213 -0.18222642 0.25238055
823 -0.3490881 -0.10435976 -0.10969285 0.046896443 -0.1519335 0.004170674 0.5365553 -0.08796208 -0.067601465 -0.08754091 -0.020020869 0.15534559 0.4432621 0.07354681 0.09005014 -0.1442339 0.015520517 -0.3020042 0.19166577 0.18545553 0.06357417 0.15371755 -0.056420237 -0.14454934 -0.14113177 0.30292854 0.060107827 -0.24779691 -0.21781957 0.19146404 -0.07319959 0.04610817 0.19907434 0.013837272 -0.098644555 -0.15580323 0.039272778 0.0698338 0.166764 -0.31390667 -0.03127921 -0.028863603 0.07358906 -0.20254233 -0.19342004 -0.20288686 -0.30350482 0.12912874 -0.09393145 -0.00050550705 -0.02107093 0.012176269 -0.06631157 0.13258915 0.05970732 -0.12527075 0.033611055 0.23200175 -0.23673643 -0.2246938 0.030846758 -0.17527828 0.098569945 -0.005055177 0.25829914 -0.05442489 0.107055575 0.071738064 0.013227579 -0.05823225 -0.09544768 -0.012490398 0.1887652 -0.08821584 -0.14139897 0.10552683 0.064260565 0.25056514 0.25409737 0.024596903 0.33793372 -0.049129765 0.18221663 0.3384803 -0.2580635 -0.22854966 -0.100121364 0.050331447 0.06022972 -0.18486297 -0.117898785 0.081496656 0.028864777 0.042334277 0.2389555 -0.28836548 0.18649901 0.08202326 -0.20038556 -0.055340413 0.49076778 -0.14165552 -0.1621146 -0.020610593 -0.10921343 -0.44940472 0.14078473 0.0630369 -0.3236554 -0.056734685 0.0226638 -0.36634877 0.10946801 -0.14975686 0.055458393 0.013057439 -0.19632259 0.01121639 -0.16149245 0.068556 -0.057057362 0.3508305 -0.0776505 -0.08254234 0.020384643 0.14309868 -0.13006628 0.44829953
314 -0.102981724 -0.2678519 -0.0031971156 -0.035767406 -0.13166761 0.01021746 0.13464913 0.08893281 -0.05171073 -0.016358908 -0.2099141 0.020623546 0.21346477 0.05070928 0.001747059 0.03611788 0.04557082 -0.092164025 0.13353962 0.06411313 0.11090665 0.04406243 -0.043120254 -0.054840412 -0.062584504 -0.032500103 -0.16293024 -0.068539396 -0.1800606 0.10681649 -0.23163107 0.04860049 -0.0384156 0.08927477 -0.1855308 -0.09207128 0.016113054 0.2150954 0.10074836 -0.17265813 0.21600258 -0.07481044 0.0279442 -0.16618675 -0.062423214 -0.10253241 -0.14455537 0.06252408 0.03348466 -0.074935414 0.01760044 0.0030798127 0.08860469 0.18389295 0.017821094 -0.23929687 -0.03375718 0.0061424845 -0.15374418 -0.21558335 0.08417034 0.0055407016 0.26521322 -0.037748367 0.34512776 -0.021525076 0.23327997 0.030614449 0.0059822584 -0.16199306 -0.01515162 -0.052961588 -0.0029504353 -0.029508514 -0.11117338 0.06252739 -0.053352486 0.39026865 -0.10609644 -0.06788995 0.4080245 -0.025058767 -0.14570902 0.17027211 -0.16054319 -0.2595785 -0.062785275 0.21874893 0.13114992 -0.24320967 0.06286202 -0.078794435 0.09411941 -0.083619535 0.2005521 -0.18425477 -0.07350873 0.14787075 -0.003843031 0.04614998 0.24931307 -0.16090037 -0.042764947 0.081652 -0.031119948 -0.24761955 0.11171529 0.18304668 -0.1818467 0.063901655 0.07583678 -0.19743642 -0.098629296 -0.02004782 0.018754775 0.17628628 -0.08944113 -0.084014736 -0.112879105 0.15602578 0.11349483 0.42754743 -0.14880343 -0.13248155 0.051483493 -0.00040177396 -0.10558998 0.3169905
688 -0.06621956 -0.09887443 -0.16169885 -0.13269164 -0.090854585 0.076722026 0.2001199 0.097974874 -0.24287428 0.20499068 -0.055385962 0.11193447 0.24629833 0.19247031 -0.07627988 0.09111178 0.06593055 -0.29338866 0.017319713 0.11699015 0.02562408 0.17030007 -0.08146574 0.03456617 -0.19804372 0.18715732 -0.11580111 -0.44644856 -0.026759509 0.13729486 -0.3344802 0.22958195 0.07007819 0.07910473 -0.16887109 0.03427779 0.16487122 0.20316966 0.21497956 -0.29672343 0.24651834 -0.08996625 0.12059226 -0.14512958 -0.23979726 -0.028499177 -0.1828614 0.14366727 -0.11584562 -0.19975959 0.08572992 -0.04133953 0.064817965 0.19319628 0.2517442 0.09777383 0.04757794 0.16552451 -0.05650813 -0.42475194 -0.008812286 0.042066436 0.16625462 0.027209692 0.20503585 -0.07001642 -0.09875885 0.100238934 0.11142623 -0.16532856 0.09738183 -0.066018134 -0.12086447 0.07727512 -0.25284958 0.15120073 0.20334463 0.40832096 -0.10123012 -0.17308293 0.26890314 0.020688051 0.04205043 0.12243578 0.004224588 -0.19519563 -0.071380675 -0.01685583 0.15230952 -0.071369246 -0.07978501 0.023755386 -0.010790986 0.0236103 0.1558966 -0.20408013 0.21161653 0.006454847 -0.23482123 0.090284884 0.39257213 -0.039119873 -0.027810507 0.19058383 -0.052517284 -0.1819131 0.020973153 0.11704808 -0.10911161 -0.12497497 0.0336969 -0.33962575 0.015214741 0.029873352 0.11503246 0.13753769 -0.2195769 0.007868944 -0.3126172 0.16744828 0.13673955 0.22972676 -0.07464162 -0.13981569 0.058067326 0.21364494 -0.12926099 0.28943467
766 -0.08336768 -0.1129768 -0.14329386 -0.04271388 -0.0835376 0.021988837 0.350586 -0.09142947 -0.026448127 0.026893651 -0.042537436 0.121744156 0.21828204 0.12162192 0.09566818 -0.123133175 0.074744694 -0.17818087 0.24826305 0.09247986 0.01724609 0.19544803 0.026658254 -0.008882389 -0.16817011 0.17926683 -0.039141472 -0.21506226 -0.16564842 0.1026449 -0.15216227 0.027009081 0.14142843 0.0073054796 -0.18813473 -0.13724695 0.15551613 0.118933044 0.12059502 -0.20058015 0.05004126 0.117498755 0.021684399 -0.14286844 -0.107660726 -0.15854676 -0.2254376 0.08759867 -0.08377753 -0.12771744 -0.0012982421 -0.15268041 -0.1201042 0.16070205 -0.016447317 -0.14525451 0.123997405 0.18558803 -0.1893947 -0.2364308 0.08017572 -0.14078483 0.025139827 0.05419302 0.15774527 0.08547468 0.0006063832 0.09076069 -0.0682224 -0.139799 -0.020053614 -0.0187791 0.13066714 -0.07728942 -0.12909046 0.22287947 0.0871709 0.3615449 0.13868883 -0.0717707 0.19051386 -0.00727137 0.10384828 0.1680446 -0.16865596 -0.3416112 -0.22013502 -0.042279273 0.18810396 -0.21689989 -0.11275093 -0.044017952 -0.07033098 -0.062202245 0.20538312 -0.31712046 0.12861419 0.12865138 -0.18869174 0.0027278578 0.37921345 -0.015481852 -0.056292765 0.06529362 -0.08388776 -0.30849648 0.059572037 0.14063488 -0.32716188 0.011995013 -0.037358288 -0.29245815 0.067632064 -0.026814029 0.14270777 0.07880022 -0.26074344 -0.11509486 -0.1676992 0.057890084 -0.017856037 0.28765818 -0.12636225 -0.17906523 0.011161893 0.08441829 -0.083918884 0.38610017
288 -0.18077826 -0.27206036 -0.12744227 -0.13449283 -0.13737212 -0.12942468 0.111401305 0.01912128 0.0046702027 0.06067061 -0.05865773 -0.1350187 0.23346333 0.03195607 0.10838535 0.053775027 0.0788048 -0.057455786 0.08943606 -0.027143745 0.07157693 0.18664719 0.070089795 -0.041840874 -0.022795623 -0.022420391 -0.12626171 -0.028479856 -0.03254914 0.31706712 -0.21745189 0.06172077 0.1212985 0.2088405 -0.07702315 0.036869295 0.29642123 0.32448876 0.21610431 -0.23653497 0.36534756 -0.15998863 0.0784478 -0.2459211 -0.13000505 -0.0004025991 -0.43960443 0.14684045 0.12859704 -0.025085459 -0.03732647 -0.24140224 0.123931855 0.4499978 0.0012033558 -0.34977862 0.110849455 -0.069507234 -0.09739135 -0.25700584 0.16080652 0.042160448 0.27296594 0.15518819 0.17843175 -0.078464895 0.14726654 0.03687667 0.11978239 -0.13416775 -0.09458713 -0.22903799 -0.021096652 -0.04017408 -0.069884546 0.08937391 -0.13999785 0.3436427 -0.06612593 0.015164677 0.27976003 0.15643191 -0.18867059 0.13772613 -0.21416324 -0.3071818 -0.2568366 0.10250329 0.013617297 -0.1362167 0.31213933 -0.10438739 0.14414692 -0.10090319 0.2896579 -0.37937906 -0.048612226 0.21361473 0.07538834 -0.040521726 0.008846862 -0.2024482 0.061855424 0.13324161 0.013004557 -0.36792895 0.0046134745 0.049382247 -0.26050857 0.106488414 0.046935134 -0.055466563 -0.19259445 0.026827209 -0.049814705 0.18656647 -0.06780191 -0.25984785 -0.033778366 0.031981423 0.061024334 0.3796957 -0.19413945 -0.060337044 0.026534308 -0.083671525 -0.19918256 0.2138941
339 -0.16820638 -0.2507901 0.022716349 -0.13943349 0.014334234 -0.21399267 0.26066512 0.025778625 -0.17661189 0.16312046 -0.076344185 -0.015879948 0.166416 0.0055626165 0.1632445 -0.04188867 0.12589331 -0.051982857 0.17886952 -0.0027710265 -0.011489296 0.25927687 -0.04995696 -0.08168573 -0.20182623 0.12616412 0.0031977575 -0.1536526 -0.14507973 0.11145343 -0.15654097 0.09945988 0.05790729 0.12258369 -0.13660762 0.040579505 0.08663293 0.32382244 0.14899096 -0.09253222 0.10050896 -0.121592656 -0.12484008 -0.10831886 -0.16842619 -0.2577413 -0.24077165 0.202942 -0.06845299 -0.049777973 -0.017960286 -0.15109053 0.04595858 0.37394792 -0.19566655 -0.23606941 0.2268596 0.13469552 -0.048684202 -0.24746297 0.08002764 -0.059079666 0.121344484 0.1732453 0.27022332 0.08134495 0.109380014 0.046751466 -0.2179165 0.020284122 -0.13777438 0.06740161 -0.05841112 -0.04298449 -0.017686468 0.37741295 0.040891785 0.43716162 0.18353279 0.17049134 0.4224354 0.19424587 -0.00532528 0.1856103 -0.2884574 -0.32650536 -0.1563953 -0.031704623 0.22471169 -0.00014442987 -0.02284307 -0.021172356 -0.05417591 -0.0029202509 0.39600664 -0.2502302 0.087597795 0.30852988 0.024207499 -0.21005464 0.2597567 -0.07837344 -0.013252096 0.20478188 -0.19736063 -0.289806 0.06582564 0.012126601 -0.29924917 0.08173649 -0.21029213 -0.102898546 0.16114809 0.11316613 0.08172018 0.047890835 -0.23391284 -0.3070204 -0.12838432 0.10185519 0.006505944 0.3917937 -0.16384724 -0.1085309 0.044989653 0.071561486 -0.19860579 0.29527944
508 -0.1102575 -0.16142261 -0.089270696 0.040046215 -0.115009345 0.038182102 0.23822239 0.027746394 -0.19394836 0.06937983 -0.10106788 0.2051324 0.2034455 0.033317532 0.1927884 0.028533693 -0.046129093 -0.2536495 0.02766744 0.06894541 0.06988929 0.114458166 -0.066569775 -0.023469836 -0.09532471 0.06851721 -0.21913826 -0.1345814 0.11753815 0.13471127 -0.13530484 0.06215617 -0.0881066 -0.15794992 -0.101050355 -0.10981215 0.17865783 0.097686194 0.06713413 -0.21361479 0.31590077 -0.0742957 -0.006144602 -0.015462622 0.025988992 -0.021611607 -0.117201515 0.0831402 0.0016561962 -0.029107595 -0.09463985 -0.10872152 -0.06806354 0.26281583 0.08918742 -0.13083616 0.043322045 0.2626687 0.0025726438 -0.24358629 0.104062624 -0.24303223 -0.005719375 0.019575426 0.10477402 0.063921824 -0.0053515183 0.17946175 0.043225527 -0.22096209 0.08124542 -0.0025376582 -0.077043444 -0.19412383 -0.12509333 0.19678901 0.18328969 0.34571984 0.031055883 -0.08407738 0.0930468 0.066295065 0.06809396 0.17052574 -0.057592347 -0.27034095 -0.1643898 0.06417845 0.17261083 -0.11681389 0.097953536 -0.10849949 0.11615459 0.08746535 0.09785501 -0.3566702 0.108206764 0.036858395 -0.11783759 0.099011175 0.30020824 -0.13444555 0.1262182 0.057712425 -0.05695698 -0.1560779 0.0106591685 0.1493921 -0.2930182 -0.09485786 0.091350146 -0.21615753 -0.03798019 0.18953523 0.16477597 0.029927446 -0.10656574 -0.14840849 -0.21682627 0.124760546 0.15292749 0.17675364 -0.22347607 -0.049537394 0.014365653 0.15865844 -0.16057688 0.43933886
406 0.0072558653 -0.049098924 -0.09015672 -0.109886274 0.008234596 -0.08241983 0.14627817 0.005312264 -0.35646313 0.08357611 -0.04150877 0.19272938 0.2733149 -0.0012338763 0.24835053 -0.009456247 -0.058461994 -0.07414809 0.18274717 -0.0172434 0.044410814 0.14618717 -0.11913665 0.0747702 -0.2074975 -0.06299283 -0.15349808 -0.049101256 0.07119737 0.06090938 -0.16341917 0.0655561 -0.12618317 -0.07032488 -0.13586292 -0.082940556 0.22408229 0.22460811 0.037053477 -0.07558108 0.37368822 -0.03420008 -0.21852963 -0.06855223 -0.02326296 0.038084403 -0.11349404 0.05754869 0.0048839906 -0.04044998 -0.16842206 -0.23841777 -0.13581142 0.42332715 -0.2565215 -0.19662914 0.099102095 0.17112243 0.15316948 -0.28861737 0.1709384 -0.22512211 -0.009180363 0.00028834282 -0.010865758 0.03307613 -0.020541437 0.17035572 -0.15237166 -0.083905175 0.074584216 0.07877362 -0.11822578 -0.24096051 -0.0149235735 0.29576346 0.21722054 0.4460158 -0.017212838 -0.033819657 0.2630394 0.1118072 -0.016095998 0.06922707 -0.06326935 -0.40997618 -0.12203991 0.016571699 0.21411708 0.008704686 0.13550653 -0.103199296 -0.0003633183 -0.021247784 0.07964512 -0.3426612 0.08316724 0.044866692 0.027667452 -0.0943678 0.18283427 -0.17023998 0.1832423 -0.038456257 0.048370212 -0.15071341 -0.14543614 0.13580467 -0.30392092 -0.0016832537 -0.0071767275 -0.10170501 -0.017064918 0.20331146 0.064806215 -0.010562512 -0.20813899 -0.27424425 -0.16638966 0.27464154 0.12029495 0.25822118 -0.06945443 -0.14522405 0.11004886 0.09995974 -0.09222041 0.22977036
440 -0.061920688 -0.11936534 -0.06950982 -0.036356602 -0.09765805 -0.019955562 0.116023615 0.012026734 -0.30611718 0.06998887 0.027405258 0.12536465 0.23510994 0.015942696 0.14981975 0.09038116 -0.013317354 -0.049129862 0.03455853 -0.0009023022 0.014149636 -0.0076404833 -0.033938233 0.17105027 -0.1805967 0.015259159 -0.1662264 -0.16493101 0.07975145 0.19275957 -0.114905946 0.16095282 -0.078471236 -0.071666315 -0.051398937 -0.026288092 0.18255574 0.27563247 0.16932404 -0.17719068 0.36352912 -0.12832591 -0.118457265 -0.08545168 -0.22484124 -0.0863208 -0.12420752 0.13686633 0.04112459 -0.13781726 -0.21350491 -0.3159527 -0.066520125 0.378144 -0.048993994 -0.09584811 0.06601718 0.12591146 0.08752764 -0.41774458 0.14909983 -0.14619087 0.039442707 0.17367092 0.010477773 0.04116812 0.0064907963 0.2218265 -0.092322074 -0.16077223 0.11481181 -0.026901158 -0.13795066 -0.1806851 -0.13538295 0.41209507 0.28736323 0.45847267 0.03860572 -0.06627658 0.26093423 0.14550158 0.06466056 0.1174876 -0.03420775 -0.41528213 -0.16635841 0.0073816273 0.21087013 0.03164212 0.030806461 0.07861498 -0.055986267 0.0017693728 0.12742363 -0.42575973 0.049051236 0.07693885 -0.027932217 -0.031846303 0.27705553 -0.29735762 0.08543591 0.04575437 -0.050205413 -0.055030793 0.009195597 0.17264119 -0.25466 -0.13457343 0.0035622418 -0.15192764 -0.12273151 0.14471953 0.08191073 -0.0014250893 -0.26943636 -0.2715045 -0.23596898 0.10953915 0.2604883 0.3180218 -0.19325493 -0.08606035 0.14959362 0.194048 -0.21338223 0.23460776
786 -0.24520597 -0.11112412 -0.15891472 -0.07657665 -0.10234502 0.024643134 0.45987278 -0.08163819 -0.18133774 -0.057458807 -0.05583529 0.21434352 0.4207554 0.01999656 0.08852835 -0.17458238 0.034306124 -0.2866981 0.2575313 0.116270885 0.0060354285 0.3099291 -0.023284975 -0.05439936 -0.3043157 0.22214814 0.023588663 -0.24818984 -0.17086166 0.04216554 -0.11013744 0.054352704 0.10302297 -0.01630531 -0.21588437 -0.082330704 0.1341733 0.03727567 0.22545947 -0.24027433 -0.066176526 0.077415824 0.031677596 -0.1218136 -0.13074425 -0.14788103 -0.31942597 0.1005284 -0.091501206 0.05577968 0.044812575 -0.04178977 -0.23892519 0.123103485 -0.018524487 -0.15684155 0.11096564 0.1808157 -0.1565714 -0.36177152 -0.03657528 -0.093541056 -0.04388238 -0.08345175 0.2492148 0.058224272 0.03902992 0.08920098 0.029337717 -0.08577354 -0.03559053 0.07239303 0.13474141 -0.09150366 -0.19287197 0.24190564 0.11094443 0.36604285 0.22864403 0.048377976 0.41062164 0.017365882 0.16782951 0.23793828 -0.16803288 -0.27065745 -0.052067682 -0.02806234 0.1069513 -0.23024455 -0.15445316 0.04769947 -0.0689553 -0.015029906 0.26159248 -0.39769104 0.25238338 0.03185438 -0.20130761 -0.05077166 0.42763892 -0.15628803 -0.19206253 0.044053044 -0.08115903 -0.39354816 0.061038654 0.13531104 -0.37787348 -0.1378817 4.6016165e-05 -0.27244166 0.060589902 -0.11088705 0.08381497 0.053816766 -0.27573192 -0.0930446 -0.15005383 0.0602592 0.03436777 0.2460065 -0.0632165 -0.2039898 0.043708522 0.18958005 -0.087431714 0.39277503
270 -0.122515455 -0.3373476 -0.17290159 -0.22089466 -0.06510904 -0.119103424 0.14927469 0.01921865 -0.12898466 -0.038405124 -0.39744702 -0.17202249 0.3833758 -0.01111144 0.08121896 0.115233585 0.08295987 -0.20040014 0.2817565 0.0023995405 0.120199434 0.14026193 0.02397379 -0.05814264 -0.068164736 -0.03572506 -0.23410457 -0.04051893 -0.19543466 0.032714624 -0.25345722 0.11019342 0.037733845 0.27754828 -0.18407835 -0.043747578 0.23728102 0.38484424 0.3582551 -0.2474588 0.3232146 -0.09666962 0.01768026 -0.15710653 -0.11103742 -0.02284897 -0.29600108 0.055579163 0.03879759 0.06633709 -0.07057237 -0.16761221 0.068390995 0.32106394 -0.03880923 -0.31050268 0.054157782 -0.22763868 -0.036921743 -0.4079089 0.08865474 0.077032365 0.16769159 -0.014323544 0.24310514 0.014983885 0.25641987 -0.052485343 0.041832507 -0.14083864 -0.011776107 -0.023020325 0.1614538 -0.05248147 -0.124364205 0.039021496 -0.13833489 0.37465525 -0.13778141 -0.005122949 0.44614956 0.02556237 -0.37334287 0.14451008 -0.14101695 -0.29051065 -0.027911162 0.056955215 0.058394216 -0.22156337 0.214821 -0.26255098 0.14590363 -0.21345863 0.2121981 -0.33155957 -0.15025207 0.15667133 0.17643996 0.0119011365 0.02666605 -0.172833 0.03534979 0.10757846 0.09243794 -0.40054289 -0.0067712613 0.10777451 -0.28746963 0.0643102 0.0432427 -0.04494456 -0.23382989 -0.014181186 -0.11159939 0.23425114 -0.06912575 -0.29529294 -0.0034664078 0.17002164 0.07358032 0.36542755 -0.120954186 -0.12960635 0.06843365 -0.14029959 0.021954067 0.17628048
389 0.014369607 -0.017887048 0.048298325 -0.084631845 -0.044294544 -0.05932135 0.10131689 0.0032309783 -0.24618717 0.16593237 -0.053070176 0.18577302 0.20355329 -0.054375816 0.038047705 -0.069009155 0.1221829 -0.12120208 0.17788655 -0.003039908 -0.036193796 0.22699453 -0.16823383 0.0069288705 -0.30516776 0.010178688 0.050671987 -0.07336844 -0.050822638 0.028809965 -0.30070844 0.06807899 0.076642886 0.12917827 -0.3030011 -0.05213199 0.015705368 0.20914522 0.050990526 -0.1354353 0.19960395 0.006819189 -0.086516075 -0.16280144 -0.11047121 -0.09055457 -0.051770378 -0.0053028087 0.019183831 -0.1996395 0.014431423 -0.10268848 -0.012679502 0.2819651 -0.15205272 -0.16674733 0.033399776 0.13312416 -0.02033683 -0.11302367 0.120431386 -0.02916089 0.16643327 0.027366837 0.17272615 0.12768184 0.081179515 0.08888551 -0.22381637 -0.06828251 0.043872252 -0.0049742456 -0.3134363 0.010919867 -0.09006301 0.17179644 0.17210793 0.40776622 0.09756614 -0.10955228 0.35927024 0.006545087 -0.0052524973 0.13664593 -0.22086442 -0.47025883 -0.1815216 0.10911798 0.22840875 -0.18552424 -0.019324785 0.068084255 -0.11581769 0.0031753331 0.01217021 -0.2081585 0.13402069 0.07139575 -0.027386459 -0.14858134 0.33361617 -0.12627192 -0.10448864 0.19231547 -0.08614467 -0.14023428 0.09378709 0.21421449 -0.16308951 0.020448063 -0.092076056 -0.11583123 0.034997717 0.1315631 0.09439935 0.0841801 -0.14504318 -0.09662819 -0.24420947 0.20974976 0.10109686 0.21335438 0.032977648 -0.13030954 0.04326889 0.21911836 -0.09384004 0.2448765
422 -0.037389554 -0.1839968 0.053771093 0.061503824 -0.017590713 -0.08668219 0.058987476 -0.025862817 -0.21781759 -0.040051766 -0.10230595 -0.10349245 0.15994866 0.0033559697 0.08206389 -0.0054280655 -0.015141437 -0.09023892 0.15231018 -0.03546529 0.0898472 0.11589487 -0.06712969 -0.027983842 -0.12676716 0.0481657 -0.097097345 -0.22686616 -2.1237654e-05 0.11468365 -0.09692266 0.06133177 0.016316082 0.11944166 -0.08664786 -0.03298636 0.16190448 0.23286776 0.10763509 -0.10188476 0.24566033 -0.01017512 -0.08883773 -0.10954156 -0.09420498 -0.093156084 -0.15027797 0.10035225 0.10596543 0.005389939 -0.18244363 -0.12358895 -0.09149381 0.2854047 -0.03104669 -0.15696432 -0.006374747 0.0061166678 -0.005262789 -0.22300114 0.23036954 -0.060449306 0.025698712 0.19451143 0.07363197 0.080922134 0.08183983 0.1489284 -0.14171737 -0.11083425 0.054751255 0.038597163 -0.011042964 -0.08442434 -0.18239081 0.3477956 0.13905945 0.24990322 0.116623834 0.0063782083 0.26438856 -0.05361565 -0.053602178 -0.05402296 -0.1823112 -0.31405553 -0.021959329 -0.058091033 0.16914153 0.011241195 0.059581645 0.10681956 0.0019086257 -0.022362895 0.051862556 -0.25956574 0.034103762 0.16997828 -0.035583455 -0.120619684 0.2504222 -0.1693999 0.036482655 0.08129117 0.038312595 0.08427409 0.060125787 0.009187877 -0.22007479 -0.034573026 -0.04782143 -0.017582312 -0.02805642 0.18177538 0.04887705 0.12783828 -0.20833561 -0.16000639 -0.18037456 -0.04932322 0.11320564 0.28551933 -0.2558322 -0.27082837 0.16833219 0.040651005 -0.11688194 0.16819942
472 -0.07244087 -0.24932052 0.048414577 0.08984282 -0.09784253 0.12685078 0.17086431 -0.12218797 -0.21961549 0.00866492 -0.045678876 0.00039343344 0.15706965 0.04490918 0.070672564 0.06754601 0.01724284 -0.13016252 -0.035322785 0.023635 0.091897056 0.16719289 0.03648261 -0.00034866502 -0.13803525 0.04664094 -0.13721135 -0.29202825 0.05913422 0.21764226 -0.08049334 0.042456206 -0.055806305 -0.049562298 -0.07225485 -0.04880626 0.18660025 0.1449976 0.14781229 -0.27737305 0.19603561 0.009389644 0.003960024 -0.12698217 -0.13924855 -0.034404248 -0.18680437 0.1847833 0.059471227 -0.098083116 -0.09712282 -0.052570105 -0.064225875 0.19169173 0.2066564 -0.07697193 0.030395737 0.19589715 -0.07637243 -0.39401585 0.058300123 0.0097177625 0.04641573 0.13180724 0.12728518 0.10624341 -0.059480492 0.15986082 0.09107222 -0.22044393 0.16102377 -0.027440881 -0.1901706 -0.06217696 -0.31474876 0.2313384 0.16265224 0.3241319 0.13904558 -0.11670478 0.25288454 0.020402895 0.08376688 0.061859787 -0.14749925 -0.19584194 -0.01876875 -0.00420011 0.24389778 -0.1472772 -0.029685486 0.11153248 -0.011923279 0.07795371 0.16582564 -0.29742444 0.15694472 -0.009120452 -0.10742838 0.071440406 0.29022753 -0.28955215 0.027020885 0.17122239 -0.112860315 0.030672336 0.10312201 0.041514423 -0.179183 -0.13428253 0.114562795 -0.09361244 -0.04968142 0.081414685 0.0026760001 0.051934432 -0.22419024 0.033108562 -0.18812776 -0.04045516 0.27011147 0.25567955 -0.2869118 -0.21051891 0.12030207 0.23975736 -0.16253778 0.36011305
745 -0.07121266 -0.032868844 -0.12043511 0.0808116 -0.12385201 0.14698313 0.0026622748 0.17179638 -0.12405431 -0.09812045 -0.001771667 0.17666017 0.1671771 -0.080203295 -0.110399485 0.088696696 -0.0001589567 -0.17946762 0.13317981 0.055494037 0.063266836 0.19077621 -0.24229637 0.107556514 -0.22922562 0.06840961 -0.32109335 -0.13787301 -0.004139189 -0.13257071 -0.2903813 0.14191823 -0.037710328 0.031374957 -0.3057263 0.025652573 0.209692 0.09466024 0.046869066 -0.0903212 0.21111839 -0.036971174 0.020319723 0.0677443 0.012348882 -0.042329557 -0.1870637 0.0022782083 0.1092495 0.068099976 -0.07537811 0.010740529 -0.2829159 0.18815224 -0.0070313956 -0.0740441 -0.08379034 0.18087497 -0.035698794 -0.37475863 0.25584823 -0.08790707 -0.032625806 -0.10844953 0.1997484 0.16400278 -0.0050281878 0.116645366 -0.033947337 -0.20397463 0.02914487 -0.05770623 -0.13297382 -0.16995834 -0.12857814 0.43693337 0.15322247 0.25929433 0.03730124 -0.08841021 0.3301445 -0.11237632 0.16921003 -0.066009365 0.07326554 -0.24897647 -0.09194906 0.14672783 0.13418755 -0.09727829 -0.0021595967 0.12690951 -0.016588466 0.04284152 -0.110811666 -0.2922541 0.091659315 0.09945685 -0.18384059 0.03637863 0.28031683 -0.11263639 -0.111327745 -0.0068374057 0.008972777 0.077031046 0.067469016 0.2515759 -0.057741188 -0.22475938 0.017234808 -0.09524952 -0.16245805 0.17952412 0.26715785 0.26052228 -0.1882873 -0.15724282 -0.24690741 -0.10386827 0.24687411 0.14980374 -0.12926075 -0.2282646 0.13580006 0.050731488 -0.13189329 0.26274964
706 -0.11977537 -0.033170756 -0.04370949 -0.0053308103 -0.11340895 -0.004833518 0.020677866 -0.009438632 -0.18652827 0.103929624 0.15551756 0.12589054 0.19243526 0.04417226 0.04365861 -0.074717075 -0.020904372 -0.034634296 -0.034189768 -0.045293797 0.044078514 0.15662983 -0.06750451 0.11993479 -0.2328689 -0.0810991 -0.029839884 -0.18236993 0.13429523 0.18558575 -0.15565129 0.017808523 -0.08467646 -0.05432152 -0.19519876 0.0035194445 0.21223797 0.18080178 0.038910307 -0.0069337916 0.23647222 -0.11876284 -0.056048024 -0.1441116 -0.10491571 0.014283688 -0.29592663 0.056798603 0.02625006 -0.07800607 -0.023129417 -0.1515892 -0.12122474 0.31392747 -0.041726492 -0.18277968 0.053553972 0.09982129 -0.04147338 -0.28646332 0.1677555 -0.034358274 0.10552569 0.09316862 0.0430358 -0.060228936 0.06810191 0.16572356 -0.054801024 -0.11445694 0.012607202 -0.07323667 -0.17809458 -0.10732359 -0.106368355 0.24443983 0.026607262 0.37904385 0.0601918 -0.047011435 0.3449732 0.10106875 0.039605185 0.023728203 -0.13870683 -0.32399252 -0.1092385 0.064854115 0.15934758 -0.16823651 0.06624822 0.10576665 -0.024413759 -0.05359038 0.14921989 -0.31354737 0.08212018 0.04483628 -0.11680569 -0.16891119 0.23646443 -0.14204954 0.018690722 0.045299694 0.02802774 -0.014883974 0.020602204 0.1305467 -0.22779481 -0.020960094 0.07676118 -0.09873599 -0.08437806 0.04040037 0.11514894 0.12196481 -0.29087064 -0.14184201 -0.17808922 0.043244854 0.18196528 0.41832197 -0.11798909 -0.1839878 0.09449888 0.08632268 -0.25396785 0.2631128
731 -0.04051981 -0.05511583 -0.08946645 -0.19109443 -1.59155e-05 0.08691979 0.100645065 0.0671112 -0.16834757 0.22083245 -0.0050698123 0.090924285 0.25508827 0.054427806 -0.06440118 0.035593614 0.11609149 -0.2367592 0.076635696 0.0125009585 0.008182042 0.28107876 -0.12697782 0.03059269 -0.27334434 0.115525246 0.06494176 -0.28905544 -0.034594893 0.10487776 -0.34294823 0.13733113 0.030188423 0.20666243 -0.2214585 0.024271464 0.14472705 0.13752775 0.061207127 -0.20260967 0.13391511 -0.06802166 0.12985396 -0.15486617 -0.20848557 0.016593443 -0.22414927 -0.058086984 0.057031296 -0.15973036 0.04170784 -0.06936842 0.079305686 0.15132539 -0.036836363 -0.02706824 0.13184805 0.069412395 0.001011133 -0.2506444 -0.019077316 0.13589507 0.20726174 -0.11844935 0.2920345 0.045583807 -0.044287 0.043450348 0.003662155 -0.094516456 0.14877158 -0.022934617 -0.22126694 0.07237569 -0.1664647 0.06624836 0.15493634 0.40449858 -0.07695538 -0.18253373 0.32709217 -0.07757525 0.009043228 0.04852463 -0.11725634 -0.25626612 0.043259773 0.07523109 0.1496268 -0.18763463 -0.08989972 0.07748651 -0.028720057 0.026928326 0.11085355 -0.12346091 0.23666483 -0.0048248414 -0.08165189 0.017804671 0.26362815 -0.03890386 -0.05589685 0.23398136 0.024940798 -0.16604058 0.07568943 0.15822878 0.04497439 -0.066241935 -0.08745821 -0.17961925 -0.04996542 -0.031324495 0.07547289 0.16918471 -0.1713983 -0.02716789 -0.26670697 0.18463798 0.053868707 0.24574386 0.01765228 -0.18147221 0.022393951 0.15257744 -0.12671411 0.19989285
685 -0.15294035 -0.052382864 -0.16741228 0.004072384 -0.19061327 0.11289709 0.1669053 0.1459307 -0.18556303 -0.035271056 0.032087225 0.17468926 0.30280912 0.028030364 -0.03161712 0.050478674 -0.048871584 -0.24550003 0.037802316 0.029415444 0.076168075 0.16027495 -0.16149914 0.10256566 -0.20704536 0.08673011 -0.263742 -0.269042 0.0027475185 0.07200516 -0.27049756 0.15178129 -0.049507912 0.077747285 -0.16583976 0.011977934 0.22036426 0.19086425 0.22321726 -0.20237495 0.30758494 -0.104703665 0.0014991129 -0.011243875 -0.09545461 0.041355636 -0.256423 0.101963624 0.009067142 0.031823855 -0.10439814 -0.053801946 -0.10216485 0.24781117 0.0723887 -0.040472165 -0.09617916 0.255129 -0.07734938 -0.5007244 0.20208676 -0.11093387 0.079240136 -0.10426218 0.17142142 0.02335313 -0.0499115 0.13530168 0.09613259 -0.1474594 0.049893595 -0.0016182564 -0.11759806 -0.15001786 -0.15338126 0.32161203 0.15858889 0.39070624 0.008658353 -0.089306295 0.27433878 -0.082235 0.11802437 0.09542704 0.111722544 -0.16366614 -0.0009766758 0.07063835 0.14680551 -0.004384584 -0.0016056718 0.105751134 0.024717323 0.04635214 0.13290273 -0.25138712 0.12648414 -0.0073664463 -0.14820357 0.08277362 0.21188961 -0.23395373 -0.0775128 -0.007724156 0.07280637 -0.056971822 -0.035166625 0.16128601 -0.06904239 -0.28654066 0.12544179 -0.26270905 -0.124004476 0.066312924 0.1329267 0.09533494 -0.18987504 -0.053254426 -0.24437879 0.09545794 0.23026344 0.2957302 -0.13308303 -0.18104245 0.14156766 0.13662821 -0.26810196 0.1968718
797 -0.2775674 -0.06449608 -0.15179299 -0.09652318 -0.029975675 -0.10239765 0.23842551 -0.05507044 -0.1540319 -0.018126728 0.06617961 0.08630604 0.40428096 -0.02657948 0.017488236 -0.09876325 -0.009654202 -0.24651107 0.22210519 -0.02931535 0.012505655 0.21534333 -0.19942826 -0.07223906 -0.17510884 0.15823841 0.064263485 -0.14553247 -0.08888475 0.1975425 -0.19731218 0.094674855 0.1459434 0.32733458 -0.13608313 0.09151881 0.18174 0.16474304 0.2779005 -0.2132664 0.19074048 -0.14963211 0.0350868 -0.17502399 -0.10173989 -0.024425175 -0.3410147 0.055804882 -0.007925043 -0.019430857 -0.038297135 -0.03974585 0.051927693 0.3376714 -0.17355362 -0.19539668 -0.00013774629 -0.0027236487 -0.11071191 -0.23418869 0.13850343 -0.0056574047 0.18652998 0.017010102 0.15623915 -0.0012618254 0.054260455 0.06846164 -0.023877174 -0.03751679 -0.06661097 0.040314585 0.027677448 -0.053423893 -0.09740652 0.17564392 -0.0157956 0.32503572 0.085827075 -0.019986348 0.27182034 -0.050471134 -0.035321627 0.13462843 -0.14678837 -0.26927602 -0.06280579 0.049871776 0.06075988 -0.07990737 0.065992385 0.07229762 0.07262175 -0.00451379 0.20820652 -0.25367898 0.19353329 0.14461067 -0.01830062 -0.17056814 0.15675963 -0.24252975 -0.1190346 0.001616666 0.14354078 -0.2530581 0.04671239 0.092980914 -0.1719721 -0.06171911 -0.052630488 -0.090529226 -0.047846913 -0.05096331 -0.09441242 0.13085237 -0.14737989 -0.07263011 -0.09602384 0.0790012 -0.0049923905 0.21097334 -0.014556741 -0.12943059 0.0576127 0.03955767 -0.13766742 0.02897455
693 -0.14062132 -0.101983696 -0.12594761 -0.104773946 -0.054135025 0.09505104 0.25111413 0.1424615 -0.17625308 0.20307896 -0.032529023 0.09561115 0.1231286 0.18507607 -0.17927745 0.12236534 0.079928145 -0.33277535 0.002801957 0.11352751 0.044881642 0.1779234 -0.20399302 -0.04769672 -0.2458263 0.33127978 -0.020335276 -0.48086542 0.010144802 0.10644382 -0.32010642 0.23738337 0.05113449 0.053219438 -0.22418003 0.027217794 0.0991513 0.10341273 0.09557602 -0.1784204 0.22828612 -0.17814447 0.052359026 -0.11947041 -0.24783042 -0.14807627 -0.11423362 0.18460982 -0.096966684 -0.23898739 0.068277985 0.047463346 0.16520858 0.16099714 0.18762966 0.105058 0.06642497 0.2222254 -0.09606941 -0.30643967 -0.02180505 0.04193803 0.15358551 0.0010676746 0.31943023 0.05819936 -0.011246149 0.037678715 -0.029418807 -0.11107831 0.039353214 -0.054521557 -0.1205463 0.04321689 -0.20488891 0.2403085 0.13067636 0.425343 0.002012141 -0.19717756 0.273497 -0.12546153 0.084737815 0.06581765 -0.078301795 -0.2202706 -0.003381034 0.029093208 0.24081704 -0.076492116 -0.11239144 0.05335148 0.016834721 0.041338935 0.20805278 -0.14911263 0.23362915 0.08315793 -0.253451 0.038226053 0.52917504 0.04719773 -0.06592958 0.18355066 -0.09297224 -0.10444815 0.06513317 0.12753224 -0.0099544 -0.10613887 -0.015651586 -0.2807953 0.069477804 -0.014977664 0.11943206 0.20722376 -0.2829447 0.030338638 -0.2781312 0.22486076 0.14252467 0.31233776 -0.19014885 -0.20236655 0.040711507 0.14498489 -0.18940742 0.3357011
818 -0.28174832 -0.17482705 0.059237044 0.018216986 -0.047829133 -0.11695094 0.27591205 0.0035807032 -0.17397676 0.063280255 0.00959503 0.067634545 0.29107052 0.14514793 0.065202884 -0.17606962 0.07399292 -0.2164691 0.13359605 0.043898333 0.1374518 0.3098636 -0.06908431 -0.14575213 -0.23786256 0.15018873 0.104073994 -0.30518472 -0.10591784 0.23648065 -0.14896607 -0.030164571 0.059835277 0.06192952 -0.10574361 -0.091614194 0.181417 0.1476834 0.019306868 -0.22437182 0.14328448 -0.10545696 0.04462885 -0.30889764 -0.17448954 -0.12377119 -0.33408934 0.19682428 0.06916241 0.023155903 0.013862979 0.015215733 -0.02190455 0.13163416 0.10549949 -0.15965614 0.13651189 0.08453557 -0.109032184 -0.07581079 -0.012224986 0.016534772 0.08978716 0.07591875 0.21724416 -0.03007518 0.11410606 0.04227359 0.15044789 0.030830955 0.0019986723 0.023278607 0.085119024 0.06529308 -0.13433842 0.0883577 0.03404605 0.16579615 0.18418263 0.08473605 0.31345063 0.048045132 0.0110344 0.21748066 -0.25582895 -0.15718524 -0.010721198 0.11174662 -0.056232326 -0.12169413 -0.00013506348 0.114389665 0.013870363 0.060586877 0.22518629 -0.22720334 0.17879246 0.08410575 -0.11661374 -0.079510026 0.29602617 -0.06341043 -0.13122897 0.15225992 -0.1745351 -0.31361538 0.16638072 -0.010434553 -0.2734386 0.033340782 0.0178954 -0.19301684 0.09662527 -0.09362297 0.067542434 0.021206591 -0.1591875 -0.029032493 -0.1493661 0.06208303 -0.012804435 0.27668655 -0.11071147 -0.045825206 -0.0436721 0.18386082 -0.12864457 0.31902742
199 0.04034407 -0.04359851 -0.07296096 0.019061541 -0.025176998 0.08431839 0.14808734 -0.011999959 -0.07800386 0.030859252 -0.041508522 0.07971484 0.27749985 0.082097925 0.029201118 -0.00312565 -0.045194052 -0.20246845 0.17737749 -0.060515333 0.1744653 0.20108314 -0.16523659 0.027373808 -0.1538034 -0.008572391 -0.17785794 -0.10982346 0.10918427 -0.010795473 -0.21933943 0.023272961 -0.11566241 -0.026638793 -0.24241404 -0.14961536 0.2412584 0.10227568 -0.020411234 0.0069376356 0.23418373 0.03193926 -0.14555985 -0.09383853 -0.022107428 0.06851969 -0.12524723 -0.04338093 -0.004185445 -0.02651578 -0.045970228 -0.11119928 -0.116119206 0.19822213 -0.018812701 -0.08904113 0.014393019 0.21204306 -0.0062892498 -0.28287524 0.13879232 -0.11259893 0.015854996 -0.13394374 0.11861208 0.1621959 -0.0228577 0.0819351 -0.04070729 -0.22720714 0.091606095 0.04288553 -0.052429624 -0.17869204 -0.060856003 0.15246221 0.17386529 0.28424588 0.04463306 -0.21232338 0.18883997 -0.18243812 0.013247879 0.09942393 -0.01658839 -0.21106702 -0.035391066 0.09872748 0.2606815 -0.20292628 0.037483823 -0.05357318 0.001835857 -0.07807517 0.018061103 -0.1400441 0.09126872 -0.0109213395 -0.00010801556 0.10627655 0.1709972 -0.14719118 0.023577962 -0.014569796 0.13440074 -0.1076053 -0.0034374762 0.1953736 -0.12967083 -0.0018899025 0.0020502429 -0.0861658 -0.031861126 0.12513131 0.13998993 0.08019406 -0.18371922 -0.062742844 -0.19314073 0.13513462 0.18360211 0.22440208 -0.093156196 -0.16923794 0.02903405 0.033513978 -0.1538342 0.29650357
386 -0.07545 -0.12626338 -0.015175625 -0.053211864 -0.0041074576 -0.0711277 0.3294599 -0.074313305 -0.20943934 -0.037344288 -0.17978418 0.016875472 0.23352747 -0.0073910197 0.08981774 0.02282507 0.005410545 -0.17796117 0.20371403 0.08336078 0.100764796 0.20503424 -0.08525126 -0.13000654 -0.1793988 0.12201768 -0.12379373 -0.12712152 -0.115603074 0.067473724 -0.15028231 0.021096405 0.1766605 0.04488415 -0.1520336 -0.042316627 0.16549514 0.25564235 0.25794137 -0.15708844 0.13597469 -0.01772985 -0.107872345 -0.15289398 -0.13402694 -0.13946112 -0.0709881 0.20465669 -0.05720696 0.008343053 -0.1626657 -0.053795498 -0.039933793 0.22640215 -0.025351517 -0.18770367 0.12737255 0.17732346 -0.08116907 -0.27894095 0.15177335 -0.15036938 -0.00816594 0.06356176 0.16560468 0.20193939 0.1329421 0.058344286 -0.092628844 -0.04643328 -0.0460484 0.12828901 0.043198746 -0.16026886 -0.13467845 0.28000957 0.025408953 0.34182906 0.25082937 -0.01441031 0.3707789 0.0021226052 -0.045021325 0.12752226 -0.18934454 -0.29567233 -0.030457983 -0.023037128 0.2558139 -0.053431273 0.08533931 0.010418612 -0.06457132 -0.045560103 0.18217525 -0.27699882 0.109446526 0.089896835 0.0034540936 -0.1116475 0.24412747 -0.1772648 -0.038085885 0.15142839 -0.007347292 -0.20217255 -0.0037242689 0.09565626 -0.32739633 -0.06640513 -0.11006817 -0.13226655 0.114586525 0.11647987 0.11864909 0.03614033 -0.19761409 -0.17349635 -0.20335965 0.13099901 0.08239931 0.34613746 -0.21103717 -0.15782209 0.085386164 0.10811897 -0.09028418 0.28255957
347 -0.18011375 -0.08875197 -0.076476775 -0.120662145 -0.036367606 -0.22855909 0.16977608 -0.11396729 -0.116118915 0.16310106 0.07048897 -0.03212087 0.25701886 -0.024864867 0.13038543 0.023499807 0.0847901 -0.041585 0.033258285 0.019034123 -0.002638046 0.12098148 -0.0040229005 -0.039659854 -0.1675375 0.10518511 0.022561746 -0.11190599 0.04007829 0.25680274 -0.16321638 0.14125359 0.16953076 0.14444222 -0.12729602 0.10346527 0.07736797 0.21033688 0.22359784 -0.07060756 0.086181976 -0.19835328 -0.10681698 -0.19188696 -0.15314206 -0.18506017 -0.25651562 0.16448358 -0.031742122 -0.14886633 0.09528697 -0.15370572 0.12716122 0.40374514 -0.06827341 -0.2366455 0.14117287 0.09758029 -0.12102728 -0.19545768 0.13265288 -0.017903429 0.2923569 0.16695769 0.1624713 0.012639266 0.15982698 0.07857321 -0.18206811 -0.027046064 -0.15100515 -0.10101964 -0.18553585 0.0056110686 -0.002760524 0.1902739 -0.0028524334 0.39128882 0.1970565 0.0010624116 0.43358895 0.2646387 0.017760813 0.20129351 -0.2132633 -0.36895615 -0.3460318 0.08092714 0.23110874 -0.17867108 0.18190666 0.09312124 -0.05593284 0.012016619 0.33198935 -0.2805535 0.099295266 0.22233883 0.07166255 -0.20414662 0.17812026 -0.2352595 -0.046075515 0.14521904 -0.083131365 -0.27829272 0.0963042 0.11482492 -0.30875412 0.07542786 -0.13614705 -0.046105176 0.029368052 0.11753706 -0.048479203 0.086965725 -0.17996375 -0.2112496 -0.043501273 0.064638086 0.08528144 0.35773742 -0.016017187 -0.010259886 0.03570945 0.0012800114 -0.22858529 0.29346368
179 -0.062458564 -0.094001986 0.08124354 -0.013520781 -0.0056136507 -0.031339575 0.19975057 -0.07814406 -0.16988933 0.14788395 0.0176547 0.04874391 0.112023875 0.052343898 0.1538894 -0.018323427 0.015848735 0.0046692304 0.10310704 -0.06145598 0.15288708 0.26323363 -0.119554654 -0.048504956 -0.13926445 -0.0917048 -0.013996141 -0.024981815 0.10734414 0.2248288 -0.122278616 -0.053951714 -0.13679777 -0.12016074 -0.109816365 -0.106421046 0.17196603 0.14088792 -0.18404587 0.054287214 0.1547078 -0.10467569 -0.119762436 -0.14521496 0.003801742 -0.029866511 -0.1844179 0.0026737142 0.028766556 -0.040108055 -0.16921167 -0.058716696 -0.07795698 0.20194495 -0.1570138 -0.13222058 0.21477172 0.20701481 0.010266413 -0.13584109 0.072828986 -0.06331501 -0.017604787 0.064974055 0.08964598 0.108503394 -0.030887421 0.10197767 -0.031144653 -0.10796573 0.03271514 -0.02422771 -0.0867571 -0.12860447 -0.0055635576 0.20884374 0.08702314 0.19949733 0.17369387 -0.12895457 0.19432537 0.0090235 0.008955281 0.12651712 -0.13829659 -0.2937865 -0.08128194 0.15547502 0.19335333 -0.18724704 0.0231569 -0.009811496 0.010932602 0.040431492 0.077783465 -0.13798276 0.07598127 -0.005296219 0.054605033 -0.10558122 0.1231209 -0.006010054 0.16912496 0.043730758 -0.06928782 -0.1440439 0.045969058 0.08466396 -0.122376636 0.15093745 -0.05127672 -0.00023381699 0.16409601 0.029515365 0.1523634 0.07611539 -0.15824947 -0.027490573 -0.13243414 0.05786342 0.068551265 0.29450068 -0.07758702 -0.039162014 0.022569668 0.035814304 -0.12472275 0.28298512
816 -0.24498782 -0.034346398 -0.07037023 -0.061235357 -0.02433155 -0.12023582 0.090704046 -0.15735714 -0.15365557 0.1263669 0.17609024 0.1464857 0.34384847 -0.07551171 0.13097218 -0.14734139 0.07231093 -0.13656922 0.13878626 -0.06602478 -0.028283093 0.30326608 -0.033992507 0.10032942 -0.30587742 -0.042629372 0.1576376 -0.16744237 0.027824873 0.10067821 -0.13895822 -0.007910599 -0.056904085 0.10578584 -0.18821251 0.020291355 0.24056883 0.2410379 0.06041742 -0.055257723 0.08924779 -0.13833772 -0.042642456 -0.11248182 -0.14891478 -0.001945951 -0.3898551 -0.14022724 0.010903351 -0.053734753 0.038311187 -0.218574 -0.120940275 0.29776827 -0.22906896 -0.18292323 0.21149097 0.0018271947 -0.0061375964 -0.23396404 0.06027722 -0.03267353 0.07602861 0.04684378 -0.012501575 -0.065283924 0.04583875 0.09679783 -0.14444245 -0.032545812 -0.018525423 0.023708295 -0.14577381 -0.081335686 -0.00740383 0.12323514 -0.00787961 0.3290379 0.20291409 0.06293219 0.4007103 0.13305701 0.049038198 0.044563122 -0.20508929 -0.3314718 -0.047197178 0.012081779 0.047956143 -0.20097093 -0.046929266 0.007387442 0.0044020433 0.024238875 0.17908232 -0.286721 0.13942571 0.047692426 -0.03214354 -0.24237475 0.18630888 -0.021259675 0.08608699 0.083659336 0.016359923 -0.13479501 0.086727604 0.059651457 -0.23399332 0.011637836 -0.06790382 -0.014193516 -0.07810777 -0.093865216 0.124926515 0.09064123 -0.30406338 -0.27249566 -0.11188729 0.043939892 0.026989102 0.35544923 0.0746228 -0.119260184 -0.012459705 0.080313794 -0.1514338 0.2338385
442 -0.050627157 -0.1946994 0.024584597 0.09492719 -0.049279056 -0.0024415427 0.16328141 0.08573172 -0.24408497 -0.054588076 -0.15958638 0.114178956 0.2581701 0.056864552 0.072937146 0.07723764 -0.08126238 -0.3316968 0.16199543 0.030841405 0.18391739 0.15369259 -0.19548908 -0.0670486 -0.040390857 0.100746974 -0.28682795 -0.1876659 0.07297012 0.14405549 -0.20615706 0.14025463 -0.12654008 0.018322816 -0.16452351 -0.14710206 0.21893813 0.13423955 0.0634226 -0.18512008 0.39558718 -0.08276727 -0.061683707 -0.0885391 0.05925814 -0.077510506 -0.12957932 0.11549565 -0.011152979 0.019479372 -0.14578654 0.0766958 -0.10444252 0.2504073 0.07320391 -0.09294391 -0.0676188 0.224601 0.046702147 -0.22742693 0.14647941 -0.103055924 -0.031893596 -0.009317087 0.19689426 0.1828195 -0.008718824 0.13095756 0.03186315 -0.212397 0.11153707 0.107991986 -0.07622799 -0.14716227 -0.07725441 0.30418816 0.20886879 0.29736868 0.029322268 -0.07018377 0.10198771 -0.105498545 0.037792977 0.15691401 -0.09183837 -0.17384332 -0.09051224 0.059258524 0.23261768 0.0060902233 0.08369364 -0.0087849265 0.13052522 0.056819227 -0.007812565 -0.23798573 0.051492535 0.0734493 -0.12762952 0.061602805 0.28324154 -0.24373256 0.013415841 0.05791077 0.020070337 -0.117861226 0.07637564 0.09544695 -0.21980095 -0.09368003 0.004635845 -0.1207299 0.0028887002 0.26543754 0.05675793 0.040940482 -0.100595586 -0.06413829 -0.30483672 0.035009596 0.20091 0.09839308 -0.24635974 -0.10375732 0.14457487 0.15969329 -0.103893004 0.30299315
716 -0.08786166 -0.13037272 -0.12403888 0.00017002458 -0.09867224 0.0584563 0.029668646 0.053965516 -0.018293157 0.09400689 0.024854848 -0.018491378 0.1456018 0.054353602 -0.10716972 0.068994366 0.058096 -0.19061536 -0.045812756 0.03031766 0.04046982 0.2009907 0.011210787 0.044457562 -0.14159054 0.1383827 -0.13365242 -0.3066478 0.06657724 0.097455435 -0.24853906 0.13785101 0.07384731 0.09625763 -0.19536653 0.04980825 0.26691082 0.13757904 0.10889583 -0.13769111 0.14147623 -0.10157159 0.10853654 -0.085218966 -0.06755057 -0.04819236 -0.32779178 0.098528594 0.040680777 -0.028713355 0.07026788 -0.019616479 -0.056669157 0.17125446 0.20846213 -0.09467786 0.05234677 0.05987783 -0.114770815 -0.28192833 0.1751223 0.062158003 0.09150797 0.025899997 0.22395535 0.05688217 0.039489068 0.06544771 0.057080995 -0.11774599 0.009697988 -0.10764402 -0.08151806 0.018851854 -0.17830518 0.21188265 -0.01799366 0.26277918 0.022507574 -0.053830672 0.28743497 0.030873658 0.052124236 -0.032489356 -0.040253095 -0.18465747 -0.10674873 0.05023469 0.092363484 -0.19937456 0.056878306 0.060544 0.032673605 -0.011835522 0.13408832 -0.2432421 0.13555352 0.08760245 -0.1933783 -0.017098542 0.22297703 -0.03272736 -0.065738246 0.20157696 -0.03447653 -0.00043340342 0.08498838 0.099817686 -0.15976699 -0.11331684 0.039200384 -0.15976943 -0.12547891 0.08879195 0.1925666 0.26104787 -0.20603777 -0.13391306 -0.15995422 -0.1119336 0.12770063 0.27907562 -0.16997157 -0.21282907 0.046023507 -0.010818723 -0.17656226 0.31043738
354 -0.1665928 -0.06636303 -0.056384813 -0.028559765 -0.057254154 -0.065742634 0.16643511 -0.1839689 -0.17033169 0.042548645 -0.0022716199 -0.039216354 0.32485422 -0.017570507 0.03195715 0.02344325 0.0026740055 -0.20222741 0.060390055 0.056660563 0.06214282 0.11628354 -0.09445729 -0.12063396 -0.13719775 0.13785984 0.0214662 -0.17296366 0.024478175 0.28428513 -0.18035443 0.11318567 0.1656077 0.17636566 -0.115712725 0.06107228 0.044346124 0.1292826 0.24251164 -0.17760365 0.10558105 -0.17394865 0.007705631 -0.21411875 -0.104494326 -0.10480504 -0.23307969 0.122396916 -0.019661456 -0.13630968 0.024127562 0.048413355 0.13832843 0.25646237 0.050785504 -0.1161019 -0.009508614 0.0693988 -0.117334485 -0.18529682 0.08313338 0.0028469202 0.26768467 0.0418298 0.12485122 -0.035685685 0.11192489 0.06915702 -0.026866252 -0.14266177 -0.053496324 -0.09387208 -0.14593454 0.04527643 -0.15012556 0.0444272 -0.011199834 0.26061085 0.15015386 -0.17648774 0.3175511 0.04948888 -0.04082398 0.15667567 -0.22563875 -0.26412278 -0.20497909 0.069700755 0.14789014 -0.21570763 0.12314137 0.107002296 0.015810067 0.017343054 0.13389489 -0.18029174 0.1349439 0.09052276 0.0224118 -0.13528351 0.2612469 -0.23919173 -0.051279534 0.063884005 0.06804218 -0.22315525 0.12001269 0.13520646 -0.17010249 0.06885379 -0.040868115 -0.07192841 0.03006514 0.04722605 -0.08021525 0.14670812 -0.12178915 0.09022159 -0.11697581 0.03661319 0.07155983 0.24653709 0.027633188 -0.065511025 0.107438326 0.061994266 -0.089049034 0.2607257
721 -0.06905023 -0.23109731 -0.07788832 -0.11988432 -0.040944036 0.077521 0.12708887 0.059085328 -0.12762314 0.08673981 -0.14373238 -0.017357629 0.1423417 0.05532296 -0.04129283 0.08134136 0.09226803 -0.265857 0.092079565 0.007163797 0.058278657 0.24066837 -0.07529698 -0.036600698 -0.183376 0.0878619 -0.044519432 -0.25280088 0.015712218 0.11765778 -0.21902607 0.11183607 -0.00020974253 0.13717623 -0.2065175 -0.023926605 0.2190235 0.16552716 0.14345503 -0.23076181 0.23807992 -0.042315684 0.06306569 -0.15705034 -0.14414999 -0.033871446 -0.23156351 0.061259672 0.08810887 -0.06407674 -0.03888988 -0.07582909 -0.0015782141 0.15707445 0.13108104 -0.09567297 0.08679027 0.06448347 -0.03899124 -0.3043042 0.004294246 0.08481038 0.06681492 0.02606929 0.2623082 0.13034947 0.02384279 0.09366488 0.061614577 -0.18096797 0.1276445 -0.02998874 -0.08554256 0.021404015 -0.23459266 0.16585214 0.117834635 0.32676426 -0.00064312975 -0.15398042 0.22536641 -0.08115723 -0.04675314 0.028670905 -0.10209316 -0.24407665 0.021420296 0.03930229 0.17570566 -0.19927292 0.031482898 0.015628392 0.022697043 0.010387038 0.12804028 -0.24513091 0.108399935 0.050212834 -0.08469026 0.05449802 0.24034432 -0.08447669 -0.020345427 0.20906451 0.0040724697 -0.113602586 0.0678589 0.105830856 -0.08700636 -0.05327703 -0.009216246 -0.108267345 -0.13636397 0.03486796 0.07155673 0.19573842 -0.19215064 -0.066652216 -0.19431421 0.056306303 0.14639021 0.22735544 -0.2105878 -0.18508942 0.0392438 0.09568515 -0.13922893 0.23408939
412 -0.20421836 -0.18258633 0.085055664 0.018388072 -0.10437903 -0.03780291 0.3530041 0.05342092 -0.17268799 0.050528456 -0.1326034 0.078886636 0.19792436 0.07814182 0.046844903 0.013651976 0.0813427 -0.1859235 0.12183885 0.15321806 0.09736674 0.099496394 -0.14240637 -0.1744536 -0.13676877 0.08740474 -0.0135972 -0.15360542 -0.2040588 0.14580698 -0.16691852 0.07962934 0.09031017 -0.024341444 -0.09744384 -0.14857022 -0.13223201 0.12440316 0.029985338 -0.19889764 0.070622504 -0.11356699 -0.022431903 -0.22224945 -0.21772845 -0.26355824 -0.0844604 0.17179161 -0.014092308 -0.055463087 -0.065989114 0.089161344 0.105629794 0.1064691 0.13209242 -0.05985277 0.021170266 0.24859938 -0.16238225 -0.100114025 0.050227713 -0.030945964 0.19273636 0.10774681 0.3198855 0.023061585 0.21946219 0.042189825 -0.08049928 0.006353163 -0.01231547 -0.015760465 0.033348102 0.005715864 -0.12016389 0.14150716 0.11540282 0.2034546 0.1785056 -0.090274304 0.363621 -0.023771323 0.02606903 0.33681282 -0.26905793 -0.25676438 -0.06880808 0.21830428 0.15864614 -0.14623001 -0.07298886 0.13033235 -0.043743145 0.0710138 0.15887506 -0.093722865 0.014861796 0.11373355 -0.0767805 -0.036917966 0.45918682 -0.06585961 -0.12997375 0.1057065 -0.25152528 -0.31904033 0.22067468 0.12511073 -0.1837858 0.054871988 -0.06382407 -0.27958912 0.15033843 0.029280523 0.11693108 0.021472195 -0.14125818 0.060379 -0.24024288 0.1311472 0.053686626 0.37059122 -0.12339166 0.03476846 -0.050706305 0.17290801 -0.15910469 0.46834657
822 -0.15024689 -0.121919245 -0.045568354 0.014150355 -0.11098517 -0.086335346 0.24111071 -0.07059132 -0.11100384 -0.03514629 0.041050155 -0.13204168 0.19900689 0.08085484 0.100184135 -0.06935266 -0.0025893007 -0.111187525 0.0805985 -0.017819759 0.07068151 0.1620417 0.03658837 -0.046972577 -0.0962215 0.14921485 -0.020736853 -0.28903857 -0.012038045 0.38943082 -0.08582843 0.0057662693 0.18635164 0.164709 -0.032669928 0.03165941 0.21963817 0.1518978 0.16877116 -0.09760671 0.1898829 -0.06530774 0.009042608 -0.16606113 -0.11886024 -0.082405955 -0.31679302 0.22756109 0.09651235 -0.095689096 -0.065424494 -0.06199903 0.031658594 0.26806906 0.056005247 -0.20193249 0.053227536 0.085873686 -0.14685698 -0.16627003 0.18446355 -0.03080056 0.09057616 0.17291857 0.1301461 -0.023589876 0.12264401 0.14829367 0.034393188 -0.084144875 -0.13385324 -0.090043776 0.035759386 -0.013475875 -0.11898049 0.2352517 -0.069651864 0.22864321 0.18201625 0.02988427 0.22892126 0.016312735 0.041600905 -0.021208882 -0.21225835 -0.26428783 -0.15114276 -0.116900325 0.08126948 -0.049237125 0.09118376 0.13450761 0.041582562 -0.0035473914 0.2182935 -0.3433899 0.11428127 0.20065771 -0.10331729 -0.1883137 0.22346225 -0.11842203 -0.002651861 0.059266847 0.013721442 -0.08298145 0.06765945 -0.043142 -0.2550071 0.054882783 -0.0011105887 -0.09376563 0.0046925335 -0.02416662 -0.020145653 0.124645926 -0.22320487 -0.06481732 -0.07196145 -0.11361507 -0.016835483 0.3352602 -0.22941658 -0.17450854 0.10035008 -0.0019426283 -0.19998677 0.23148048
326 -0.09590106 -0.122778386 0.0227809 -0.14079201 -0.10271008 -0.08451347 0.28311202 -0.037109863 -0.24678366 0.06835075 -0.15620685 0.108699575 0.27631724 -0.08048914 0.092807725 -0.015311776 0.03480273 -0.14520605 0.20124228 -0.0052318294 0.019962069 0.22514242 -0.08808818 -0.1432741 -0.24185954 0.0092829885 -0.053505335 -0.014231478 -0.12962267 0.16210267 -0.22805773 0.034234308 0.08081659 0.15372351 -0.1771468 -0.007505202 0.009813657 0.22402051 0.18035743 -0.19793291 0.25198054 -0.0818739 -0.052673336 -0.17802106 -0.062448535 -0.08883694 -0.102247804 0.1109942 -0.00020985107 -0.16684534 -0.046693485 -0.047673836 0.14592586 0.27059165 -0.09978952 -0.21266097 0.013646905 0.186301 -0.07288269 -0.16152087 0.05228237 -0.06737043 0.21700369 -0.067537025 0.16158159 0.10111091 0.12782033 0.050803185 0.0032775335 -0.10486066 0.009852219 0.019956099 -0.19278477 -0.08554444 -0.081468046 0.119108416 0.047152925 0.4553246 0.11662547 -0.10533563 0.32753655 0.09310696 -0.048214246 0.2762432 -0.24596538 -0.35795298 -0.19600375 0.08635612 0.19992316 -0.16247438 0.100337796 -0.014361587 -0.043139637 0.07373386 0.15235059 -0.25602382 0.16211915 0.11641127 0.07129734 -0.030142326 0.21378301 -0.24913706 -0.051588602 0.15562966 -0.013409022 -0.38425988 0.055321574 0.22253618 -0.20353436 0.031164879 -0.07048188 -0.1487469 0.04352852 0.06994731 -0.033938706 -0.03405082 -0.0797868 -0.041546807 -0.17392091 0.2192433 0.11015841 0.23655467 -0.02116367 -0.06857276 0.08261138 0.2527399 -0.07167313 0.3131569
366 -0.17663029 -0.24646765 0.15220033 0.15773098 -0.059223767 -0.042379208 0.2552182 0.00990811 -0.015380693 -0.0051896414 -0.07212642 0.02902838 0.1867506 0.10873904 -0.032667726 -0.036734495 0.016820878 -0.12483364 0.07309909 0.11258299 0.15630162 0.081400596 -0.19988906 -0.2274789 -0.07588991 0.15005201 -0.03090984 -0.16822958 -0.08848435 0.19835092 -0.105977155 0.06357575 0.026090141 0.0037854451 -0.11744787 -0.17818901 -0.03402138 0.050886203 -0.041726436 -0.13457043 0.050622236 -0.13777338 -0.062386557 -0.22099216 -0.009975722 -0.2502928 -0.087300755 0.20685905 0.007496785 -0.057008833 0.055253103 0.1774443 0.07369787 0.20284164 0.14351296 -0.15287247 -0.070568085 0.23898949 -0.2278493 -0.03619093 0.15156944 -0.104694605 0.15927142 0.11694084 0.31479406 0.03150627 0.19513789 0.06939723 -0.1176791 -0.10382636 -0.05334955 -0.0027275407 0.025304383 0.034267575 -0.09497237 0.2086287 0.081670806 0.14816873 0.18717869 -0.043672822 0.31611192 -0.025754593 0.052115865 0.25227252 -0.27902487 -0.15558723 -0.13736768 0.23928443 0.19602692 -0.14739744 -0.0016842576 0.06723467 0.063130096 0.096478745 0.16371016 -0.05087865 0.037839092 0.23079102 -0.104973055 -0.013099149 0.43452424 -0.14018852 -0.10546797 0.08844668 -0.19871694 -0.19525488 0.23962182 0.090933464 -0.2492684 0.088038065 -7.6191616e-05 -0.16949645 0.09757732 0.20527059 0.037511893 0.11279437 -0.18341336 0.06094569 -0.18873736 0.028315673 0.10838161 0.33977723 -0.18401358 -0.08531945 0.019941924 0.05882342 -0.19355379 0.47858232
750 -0.28475612 -0.16021456 -0.098128244 -0.16367541 -0.08787755 -0.041885886 0.468302 -0.08486745 -0.16152672 -0.040003907 0.0010069865 0.20232278 0.39848432 -0.009361429 0.13726033 -0.1999644 0.05545799 -0.13611928 0.2863877 0.052598175 -0.061218992 0.40599307 0.07262349 -0.07863949 -0.2841545 0.16186371 0.14115189 -0.14762707 -0.31337634 0.027696066 -0.028625129 0.031765386 0.08530302 0.10021232 -0.11505297 0.04808656 0.18125565 0.13452716 0.197218 -0.21549161 -0.107477486 -0.0068880445 0.103166685 -0.07892566 -0.10599756 -0.13119572 -0.4289865 0.08114578 -0.01433085 0.020696582 0.017450169 -0.097502284 -0.17554154 0.18495071 -0.20851484 -0.23216456 0.26378053 0.11969679 -0.12530059 -0.39502674 -0.09025177 -0.04038953 -0.0130507 -0.094831534 0.24679704 -0.0054998696 0.027398668 0.038932864 0.117636986 -0.10309665 -0.099591635 0.08570411 0.11614585 -0.09775567 -0.11345068 0.26918325 0.049330294 0.41232497 0.22056945 0.17960893 0.52407044 0.110371634 0.19525982 0.19377576 -0.2399887 -0.25005427 -0.046907462 -0.07599468 0.018447546 -0.142581 -0.197435 0.026659051 -0.07419377 0.036245428 0.31458157 -0.41432914 0.31186575 0.13839634 -0.11920851 -0.11559858 0.28407225 -0.14322099 -0.12118852 0.06337745 -0.059699103 -0.5030609 0.09135823 0.080433644 -0.36656836 -0.0530467 -0.07682328 -0.177821 0.069176435 -0.20836376 0.021445842 0.031819023 -0.33522758 -0.19524904 -0.10763862 -0.0071388897 -0.006769484 0.19390556 0.034159113 -0.19871072 0.08393273 0.1879817 -0.027229154 0.35582504
752 -0.3496202 -0.077502586 -0.16371164 -0.04098628 -0.07216361 -0.124978274 0.40396 -0.18672328 -0.1737318 0.029088274 0.13238935 0.16177632 0.42922658 -0.1286681 0.05866249 -0.020278327 0.0069915936 -0.32582387 0.14994122 0.08153432 -0.03518884 0.14072345 -0.19571686 -0.09343788 -0.20096762 0.2197611 0.13663101 -0.1664296 -0.12599936 0.25259787 -0.16590384 0.099598214 0.16587844 0.12682521 -0.07240608 0.0088572 0.075634435 0.19883867 0.22030485 -0.26578957 0.05973465 -0.2499556 0.0051397993 -0.16495599 -0.23500621 -0.16006278 -0.3073253 -0.012874046 -0.07909859 -0.09796809 -0.02598986 -0.05876146 0.073830366 0.33158416 -0.12654202 -0.10957122 0.112831876 0.14763536 -0.042304102 -0.18700525 0.021832252 -0.044498187 0.23767789 0.04503625 0.10740798 -0.0949806 0.014245969 0.058198787 -0.08431483 -0.0131548075 -0.075436346 -0.011647397 -0.01887054 -0.04315422 -0.041311834 0.16609381 0.017361352 0.40133044 0.20509557 -0.077626266 0.34665355 0.07055285 0.12275194 0.23182043 -0.25596535 -0.35115066 -0.19750644 0.109919444 0.0774544 -0.1208343 -0.02909409 0.01712342 0.040219784 0.09783204 0.28395617 -0.25746757 0.17763492 0.16261879 -0.066369936 -0.21710056 0.39730203 -0.10976517 -0.012609666 -0.04329843 0.0058280737 -0.345766 0.034312513 0.11993345 -0.27084783 0.027330402 -0.10525311 -0.19755661 -0.013946027 -0.09076028 -0.026094118 0.021704925 -0.2927289 -0.15132657 -0.13949484 0.12411708 -0.09301023 0.31544477 0.081651144 -0.01806512 0.01679928 0.124533795 -0.14164339 0.26783302
814 -0.15778857 -0.081695035 -0.17821427 -0.0360623 0.00053146656 0.039948877 0.21498108 -0.12360939 -0.09718916 -0.116235375 -0.11863738 0.030886779 0.31268236 -0.07953977 0.047567397 -0.08115138 0.04505532 -0.37078586 0.30687666 0.025607074 0.049327523 0.33222276 -0.081551746 0.026190931 -0.22091608 0.12686607 -0.05924287 -0.22386664 0.01160138 -0.078666136 -0.14850949 0.006362488 0.059816323 0.16332774 -0.28382042 0.01979898 0.30610806 0.14197107 0.31443557 -0.1600878 0.14243391 0.09194342 0.008756491 -0.081486665 -0.11795581 -0.053626385 -0.32835406 0.046127487 0.048658017 0.05189386 -0.026365815 -0.10205998 -0.23551746 0.1801807 0.028737402 -0.16122317 0.07923737 0.04564071 -0.092296824 -0.39785764 0.046147734 -0.04033487 -0.07109483 -0.012425885 0.11537023 0.1714758 0.07378269 0.1018391 -0.010286362 -0.184505 -0.01394479 0.03928229 0.08466983 -0.15022016 -0.22980791 0.21895818 0.03022882 0.2547926 0.23114878 -0.054257806 0.33222136 -0.1687198 0.03723071 -0.08011611 -0.16772152 -0.28719065 0.051829223 -0.16308272 0.18571413 -0.19856982 0.050613433 0.022726595 -0.014722693 -0.11371358 0.12544417 -0.4581422 0.09814908 0.05111017 -0.08329537 -0.10327149 0.25584236 -0.18102002 -0.12697974 0.06389107 0.103305146 -0.102359496 0.028886063 0.06072603 -0.29047996 -0.159203 -0.013927503 0.027493669 -0.12831931 -0.018190721 0.070610166 0.18942818 -0.21819149 -0.12643722 -0.13797358 -0.067352474 0.12464772 0.15315403 -0.22563699 -0.2287704 -0.00017722318 0.06829546 -0.1421867 0.20179865
497 -0.1313937 -0.1735307 0.04606724 -0.007820876 -0.030707533 -0.007404346 -0.06866894 0.06551856 -0.22769687 0.10553083 -0.04420961 0.08198992 0.08895389 0.041443784 0.14521725 -0.060263813 0.040797718 -0.16007821 0.1697588 -0.042243425 0.08284311 0.20382236 -0.092947595 -0.016366342 -0.30863386 0.030625641 -0.061884433 -0.21714467 0.09123298 0.0460404 -0.13921727 0.10129528 -0.16401525 0.015115138 -0.24193743 0.09236166 0.14990222 0.10910287 0.02981966 -0.17584945 0.39829117 -0.10487666 -0.0071894196 -0.07178479 -0.061868235 -0.088328116 -0.22176836 0.112961054 0.078268394 -0.114061944 -0.0142076835 -0.1613485 -0.06826106 0.28201392 0.024663415 -0.10398743 0.02072152 0.010845212 0.003635461 -0.30752084 0.049237814 -0.075422086 0.060481332 0.18360746 0.025167998 0.10942569 -0.0011078344 0.124529116 -0.0887367 -0.2689526 0.17922509 -0.08585916 -0.18154402 -0.104542956 -0.15647686 0.2959338 0.26684463 0.25929815 0.073064916 -0.032128055 0.088102244 0.09953059 0.032145455 0.04416923 -0.1468281 -0.31024757 -0.12970349 -0.054905806 0.13549283 -0.09002191 0.004365344 0.06937637 -0.0017567298 0.07281826 -0.04919595 -0.3791889 0.01623451 0.14889723 -0.04163257 0.09449487 0.24595144 -0.17764306 0.012154639 0.12821169 -0.1083451 -0.05181646 0.21567282 0.1857188 -0.065638065 -0.04694778 -0.016154267 0.05969602 -0.08698595 0.15013137 0.119511366 0.107751995 -0.05006774 -0.1007885 -0.2229963 -0.011222311 0.29969567 0.011328231 -0.18568271 -0.13897532 0.0595932 0.22072901 -0.14077841 0.32617855
337 -0.08009999 -0.03294487 -0.049275458 -0.17316703 -0.0632166 -0.13887611 0.2259064 -0.046415705 -0.17358938 0.0646945 0.010720438 0.04864323 0.21825853 0.058666315 0.13980472 -0.047656942 0.08249449 0.0030693025 0.15546636 0.04590471 0.044209953 0.0992872 0.041108463 0.04405871 -0.17668253 0.027858397 -0.07322379 -0.09842935 -0.06563968 0.21521068 -0.13530414 0.016798848 0.15483192 0.019405013 -0.16472779 0.026559072 0.130775 0.24444495 0.24707597 -0.05940735 0.13261986 -0.01825155 -0.10620071 -0.20182708 -0.1910445 -0.13970385 -0.17453696 0.23429796 -0.031909082 -0.12294494 -0.04480278 -0.1881545 -0.053228613 0.32103232 -0.08536573 -0.24985814 0.1552947 0.11730469 -0.15937945 -0.31688872 0.15285814 -0.093066886 0.07791774 0.15745485 0.12975089 0.057006173 0.10981164 0.12131246 -0.14114214 -0.058632486 -0.12423792 -0.028965125 -0.052545197 -0.10683186 -0.088550314 0.33233553 -0.01676456 0.43451655 0.20791027 0.02609612 0.41395038 0.15759698 -0.022888504 0.1088593 -0.13902837 -0.4309465 -0.22672583 -0.01576067 0.22994941 -0.11727035 0.09801218 0.058673345 -0.1086554 -0.13795082 0.24853447 -0.40203884 0.102646716 0.12785584 0.0012358373 -0.17244343 0.22888163 -0.17496812 -0.08649342 0.10723756 -0.053835515 -0.27216893 0.023204772 0.16210887 -0.3683833 -0.0006836115 -0.08647814 -0.14500223 0.063977554 0.0039436133 0.119278595 0.022205174 -0.21698949 -0.22530486 -0.15430425 0.11933406 0.11229868 0.461682 -0.1300095 -0.11345266 0.08002559 0.058916893 -0.17340128 0.29157946
