832 128
346 0.042181216 0.14723569 -0.20715903 -0.020540467 0.10820612 0.07885816 -0.046616495 0.03414626 -0.14249232 0.068732396 0.07259554 0.14753109 -0.08080146 0.054413468 0.020543884 0.22143346 -0.009207354 0.08655568 0.19396149 0.05394198 -0.04818759 -0.16109781 -0.06842169 0.05490214 -0.2794091 0.0033196853 0.045300722 0.03953205 -0.06262897 -0.20597956 0.261848 -0.026756093 -0.2069514 -0.15179709 0.045944326 -0.007355095 0.21792576 0.32329556 -0.21351475 -0.234818 -0.008766706 0.0366177 0.18444857 0.052612707 -0.09250158 0.08128634 -0.08360639 -0.06527231 -0.020248039 0.16224483 0.16174926 0.05122279 -0.10757003 -0.14808139 0.008191841 -0.030020492 -0.16420294 0.09764809 0.052407593 0.0035492186 0.0934973 0.093720816 -0.12728529 0.1225615 0.14090319 -0.21753068 0.07211069 -0.036346473 -0.10664074 0.05110669 -0.13096547 -0.07252366 0.19010513 0.10790157 -0.14451556 -0.06234413 0.28777164 -0.087559566 -0.05909137 0.05523599 0.21661916 -0.071820885 0.08293977 0.10284819 -0.06241635 -0.0998104 -0.027097713 0.05959972 -0.044601504 0.13757816 0.029360782 0.15612507 -0.099216335 -0.022878591 0.09293851 -0.01135154 0.020429697 0.0284813 -0.1447238 -0.015960252 0.18196122 -0.09040408 -0.006949673 0.00883233 0.10179921 0.049116954 -0.09257995 -0.10648458 0.08119944 -0.060566764 0.020164195 -0.045915976 0.26556754 0.034907103 0.2279119 0.23030332 0.025666615 -0.21101706 -0.11839621 -0.23477805 -0.030415963 -0.056441717 0.2873328 -0.07762005 0.122275256 0.05765402 0.06525507 -0.15300822
365 0.15112409 0.12572242 -0.16764107 -0.06383528 0.17878047 0.13119093 -0.034066774 0.13688892 -0.123104155 0.14844342 -0.07493348 0.20525698 -0.11964857 0.07631964 -0.039844878 0.34505466 0.00016090646 0.09873673 0.17391193 0.045368236 -0.087686956 -0.2158794 -0.13919818 0.012826931 -0.21983849 0.060676888 -0.038888544 0.11899675 -0.06386009 -0.2808426 0.22467142 0.023189988 -0.1792741 -0.09543973 0.010820546 -0.046264846 0.039181296 0.25299197 -0.1753033 -0.1676167 0.0033587927 0.04400904 0.14986116 0.07606258 -0.029302943 0.15622464 -0.035726205 -0.029522873 -0.05223799 0.19347592 0.2516071 0.05123717 -0.11412213 -0.21305615 0.01820868 -0.07144576 -0.09384513 0.192997 -0.017402066 0.020231737 0.08087213 0.18434708 -0.12767424 0.09337955 0.06927762 -0.30305928 0.11113652 -0.12561136 -0.13733675 -0.030847173 -0.111980245 0.045547046 0.0909165 0.11960558 -0.17614554 -0.02270823 0.26955247 -0.008443946 -0.03753968 0.03985503 0.06450501 -0.08056345 0.096979864 0.084004484 -0.13261764 -0.07822561 -0.011361535 0.039940316 0.112264805 0.1825806 -0.0014631238 0.11694449 -0.040060923 -0.04423467 0.10920971 0.030853927 0.055770595 -0.08031654 -0.1977544 0.021316096 0.18635243 0.03525076 0.13546756 0.08851807 0.23742801 -0.023054555 -0.22100951 -0.12493099 0.014364706 -0.080930024 -0.0014398718 -0.08065728 0.22307445 -0.03935401 0.24628155 0.23084676 -0.00020097004 -0.2679857 -0.13771896 -0.251321 -0.063551635 -0.10488534 0.2435742 -0.008285571 0.2539009 0.081846826 -0.0034707428 -0.1748384
742 0.029799854 0.040124405 -0.07098339 -0.056718826 -0.06326566 0.1490491 -0.1336891 -0.06696421 -0.055907194 0.20647812 0.10219192 0.048281316 -0.068831034 -0.09197776 0.014438164 0.054234773 0.04545913 0.0177996 0.11649459 0.0007547879 0.058252282 -0.14758857 0.00041318955 -0.04764531 -0.1984552 -0.017727556 0.026055312 0.015674934 -0.05894789 -0.12713394 0.15511791 -0.059869125 -0.24481359 -0.1393188 0.057097856 0.06824539 0.048756976 0.15729354 -0.19271508 -0.13128804 0.020377168 0.10420264 0.16740349 0.056109764 0.043982632 0.14367191 -0.07940296 -0.17448077 0.15089194 0.12382686 0.26929587 0.022264356 -0.030046517 -0.23147395 0.03466264 0.02896527 0.009444493 0.025735274 -0.023020191 0.030432366 -0.022824764 0.12706733 -0.0528645 0.1213902 0.13036373 -0.20403343 -0.018024037 -0.08349006 -0.018661985 -0.014454043 -0.015421368 0.067751735 0.04003217 0.20692877 -0.059792448 -0.022934766 0.26668313 -0.12395615 -0.01825695 0.034215927 0.23069994 -0.06720242 0.10900072 0.03701464 -0.10991719 0.066527836 -0.0635799 0.0019280947 0.07886873 0.1401468 0.106940515 0.06103468 -0.045708552 -0.03672051 0.12283188 -0.01854885 0.10683972 -0.01882395 -0.19570492 -0.044557072 0.03207903 0.038499393 -0.00673041 -0.027476741 0.041391216 0.064753786 -0.05021032 -0.21025336 0.050962966 -0.0651768 0.06426449 0.04619828 0.2649258 -0.055895977 0.111104995 0.09549402 0.09910101 -0.28657132 -0.0037747258 -0.14461724 -0.15143248 0.028028015 0.30383706 -0.058309857 0.14794815 0.019917011 -0.043799132 -0.060443226
367 0.1703511 0.14962643 -0.0928459 0.03154862 0.09533182 0.047498118 0.04182437 0.20187365 -0.015706414 0.1164874 0.0026107917 0.20914866 -0.06355546 0.03360671 0.042252935 0.30064234 0.010845677 0.094928235 0.17635143 0.055056732 -0.13590957 -0.16048768 -0.06785429 0.042558484 -0.23978685 0.07272242 -0.0630428 0.10353455 -0.054794937 -0.21082595 0.24879962 -0.0055021774 -0.10977681 -0.049074408 -0.02302719 -0.10315026 0.00056033174 0.2741102 -0.14781387 -0.19927438 0.04302959 0.014431687 0.06886189 0.056685764 -0.031872757 0.13910066 0.036615394 -0.073683895 -0.092105195 0.1590445 0.17559464 0.12117682 -0.13120303 -0.22788507 0.12475248 0.055419896 -0.19896834 0.26287165 0.05324773 -0.057468064 0.059055768 0.20759685 -0.05398145 0.06978037 0.07441465 -0.21215007 0.067367226 -0.10682665 -0.06569341 0.034076653 -0.1872579 -0.008236171 0.0337071 0.15609168 -0.15997973 -0.035663534 0.30918053 0.028135957 -0.05956031 -0.043294594 0.13456903 0.0045335507 0.18958157 0.10143071 -0.029019317 0.023171904 -0.024605516 0.040843762 0.17464319 0.25677225 0.025635734 0.10097165 0.005317582 -0.04088645 0.09994462 0.0373837 0.06883339 -0.025919732 -0.21604033 0.023598416 0.20356894 0.02892475 0.18357103 0.070559725 0.14849032 -0.009612391 -0.21743587 -0.05930141 0.06644387 -0.09097868 -0.055098757 -0.04029552 0.22098047 0.000595109 0.19223149 0.21150887 0.00088914024 -0.29352102 -0.06676511 -0.20448281 -0.09198291 0.010047362 0.2163379 -0.08991158 0.14182644 0.17798096 0.06968938 -0.17085251
829 0.034443814 0.14057493 -0.053063456 0.03714099 0.04452398 0.15629897 -0.07622241 0.072962075 -0.05691483 -0.0061563193 0.0991821 0.014147095 -0.0543635 0.0077932402 0.027770558 0.07412896 -0.058488216 0.0329142 0.21148168 0.05703526 -0.100372754 -0.16369484 -0.03294431 -0.041823637 -0.20688401 -0.046142057 0.029106423 0.04028513 -0.06490263 -0.12071888 0.22539191 -0.097518 -0.27248874 -0.104514726 0.019087907 -0.09143533 0.11053045 0.22660235 -0.07778371 -0.22667788 -0.012567015 -0.0034461725 0.04581582 0.16512175 -0.016290454 0.13026388 0.03803668 -0.11547989 -0.0042864545 0.14323832 0.14806318 0.057167657 -0.10274812 -0.24324684 0.052719615 0.026869362 -0.14034486 0.1373309 0.006981872 0.07185809 0.08985835 0.14607206 -0.13337553 0.079975426 0.0450071 -0.20232745 0.017412532 -0.058329735 -0.07502591 -0.052861862 -0.07795048 0.10874016 0.0049220016 0.044166468 -0.13406602 0.07285107 0.19815889 -0.030759098 0.008506583 -0.020575432 0.21735312 -0.024854772 0.113875166 0.08235548 -0.13803744 0.011334525 -0.03105175 0.0129974 0.06323101 0.1245321 0.055632055 0.1116391 0.03381562 -0.031537443 0.13742614 0.04634058 0.036937177 -0.0600886 -0.122792184 0.07047691 0.09246858 -0.023321355 0.019167855 -0.021888489 0.08210623 0.084507436 -0.16458112 -0.100741036 0.07123286 -0.08284496 -0.008096278 -0.061650526 0.30557108 0.027383847 0.1865804 0.14936881 0.030617861 -0.3303568 -0.07441631 -0.13952944 -0.028809013 -0.01866445 0.25996807 -0.101712406 0.08226455 0.026972592 -0.020653356 -0.1335558
289 0.1294947 0.03698115 -0.24019207 -0.09971798 0.043895066 -0.0027858962 -0.12337129 0.020206822 -0.17844692 0.11365755 0.16059197 0.02898911 -0.08863873 0.02463389 -0.025851237 0.11592858 -0.057534996 0.14022179 0.1741872 0.06468209 0.052553836 -0.17191839 -0.03511692 -0.025413577 -0.3433794 -0.055511884 0.0453204 0.11937617 -0.034072973 -0.36949956 0.28769895 -0.02272538 -0.36097372 -0.14329854 0.068063356 0.094286405 0.2201703 0.32685772 -0.28068164 -0.20165612 -0.037385907 0.08373616 0.19164835 0.08179918 -0.04454606 0.07970637 -0.09618403 -0.05225357 0.018890105 0.29300538 0.18801132 0.040158194 -0.13144177 -0.15994865 -0.050626326 -0.124617696 -0.16893403 0.063830785 -0.03910706 0.095103264 0.007034013 0.030723196 -0.10688645 0.14222518 0.17639071 -0.3522168 -0.004699085 -0.1046105 -0.065274954 0.0035587638 -0.100296415 -0.12119093 0.17640656 0.07190781 -0.1312413 -0.041905716 0.21638004 -0.111766264 0.0412966 0.12347337 0.14043236 -0.019613704 -0.045355298 0.14348418 -0.24601056 -0.11048846 -0.07962616 0.0730003 -0.13566881 0.117677756 -0.0065388163 0.23094966 -0.14934492 0.005613302 0.19542725 -0.012200718 0.00062140386 0.03318341 -0.22282985 -0.058977433 0.1440637 -0.0012088876 -0.004476491 0.09330273 0.21463104 0.057386953 -0.025436934 -0.23552746 0.025333289 0.0029768005 0.046128042 -0.00025079472 0.23343503 -0.0005266718 0.25976428 0.2034272 0.08584565 -0.16038428 -0.22470018 -0.28476924 -0.021331344 -0.14951509 0.27883607 -0.01890811 0.27016184 0.017205099 -0.046701144 -0.11468365
769 0.15778628 0.16309074 -0.21563977 0.015713133 0.02378699 0.025384082 -0.12898594 0.23171043 -0.08008389 0.1530364 0.10472339 0.16255638 -0.06369316 0.02591017 -0.020892287 0.12575756 -0.08230414 -0.07129839 0.39366463 0.042608075 -0.11704394 -0.16092247 -0.05729471 0.036265038 -0.30920085 0.07529742 -0.027564518 0.09987643 -0.10447224 -0.16189587 0.22934486 -0.008083248 -0.23725842 -0.17075998 -0.060599055 -0.08821048 0.1793799 0.28205875 -0.03575146 -0.17377637 -0.033932608 0.10751862 0.056551237 -0.048067376 -0.05992744 0.21923088 0.055448025 -0.11103592 0.0076198233 0.17943773 0.13813692 0.12339638 -0.0999764 -0.19093883 0.11813937 0.018455984 -0.24513505 0.13391928 0.109506525 -0.025253406 0.028201424 0.082481556 -0.0657813 0.02941685 0.048748665 -0.16206144 0.054487575 0.019702798 -0.14867699 0.010147216 -0.112203926 -0.08367278 0.13378312 0.06193723 0.0053045396 -0.09403699 0.20977505 -0.09111546 0.039536644 -0.112531506 0.24994288 -0.010481044 -0.0018680561 0.20717482 -0.059023943 -0.026722075 -0.18155254 -0.031089777 0.1725587 0.14716627 0.055553976 0.011038544 -0.06579541 -0.27994323 0.10049296 0.0055757165 -0.0020835157 0.10633025 -0.1766125 0.10429014 0.044026572 -0.03511057 0.15718445 -0.0056165904 0.05368675 0.17539573 -0.21999615 -0.03422847 0.15228681 -9.930914e-05 -0.024226878 -0.06985107 0.28319502 0.010599069 0.15278637 0.1276847 -0.016237728 -0.3383294 -0.040713545 -0.2375695 -0.126444 0.030229734 0.23963925 -0.13362178 0.01700379 0.13113463 0.064173125 -0.13640325
357 0.10509574 0.03395892 -0.24357997 -0.121879786 0.113809526 0.134038 -0.15581515 0.09122574 -0.11164751 0.14533786 0.06257713 0.124600746 -0.14080304 0.03337428 -0.09600283 0.22961512 -0.034132928 -0.026986787 0.2673655 0.061132945 -0.042291366 -0.26768136 -0.17213218 -0.0066497335 -0.21074168 0.020904707 0.01860723 0.06962491 -0.0861463 -0.27140075 0.1930353 0.01443787 -0.2492276 -0.22788933 0.012608875 0.10894397 0.12662806 0.27955917 -0.13508287 -0.122928895 -0.07719027 0.14392382 0.18666893 0.053581666 -0.04732203 0.164222 -0.059344534 -0.070180245 0.043518417 0.17126934 0.27207628 0.07709424 -0.060911894 -0.23062298 -0.037359986 -0.071292825 -0.03577075 0.035383895 -0.045628164 0.06858128 0.009339418 0.10166469 -0.15598924 0.10608891 0.17288855 -0.2994829 0.13102788 -0.12066902 -0.18363528 -0.0620362 -0.10387743 -0.08853325 0.15142713 0.13499172 -0.065051004 -0.08728807 0.2935902 -0.09321691 -0.00580862 0.0043116217 0.16055934 -0.09355968 -0.028188812 0.17497429 -0.2266863 -0.09226413 -0.12951332 -0.0036606432 0.061646905 0.14988746 0.01837076 0.12289154 -0.05580094 -0.09695505 0.08869515 -0.047687575 0.009620006 0.0071792635 -0.14009917 0.0097494535 0.079083025 -0.018062886 0.04112327 0.010213168 0.15261243 0.1370046 -0.045203015 -0.11519796 0.10075767 0.011833796 0.06665046 -0.06414239 0.23753758 -0.009613038 0.21521786 0.20717567 0.08575986 -0.23516786 -0.050096404 -0.2830262 -0.08332077 -0.060699236 0.34788054 -0.056100957 0.18833412 0.07612814 0.010524755 -0.161245
824 0.1816741 0.21395357 -0.2507517 0.011427799 0.10888372 0.1275515 -0.033162147 0.25683826 -0.032698914 0.20249642 0.007576298 0.19465142 -0.09280847 0.075669855 0.0509865 0.37273812 -0.05387917 0.048541367 0.26007086 0.034210503 -0.10290968 -0.14226444 -0.14784601 0.028392155 -0.27740803 0.11710395 -0.009018173 0.072959244 -0.103094 -0.23289251 0.229271 -0.037472967 -0.1542318 -0.1263762 -0.0058397567 -0.13915695 0.07865091 0.25950858 -0.0563364 -0.20004462 -0.06432102 0.023463432 0.086564995 -0.011073267 -0.10175051 0.24844134 0.12047994 -0.1227294 -0.04368188 0.14458029 0.22888629 0.109306484 -0.17448772 -0.2679611 0.14201765 0.055552963 -0.15026557 0.2133203 0.118978195 0.021400183 0.05103082 0.20516372 -0.15421289 0.08204841 0.1470336 -0.18998179 0.14604189 -0.09810016 -0.21778563 -0.038488287 -0.15152735 -0.04173793 0.09387328 0.093991995 -0.13373496 -0.035621654 0.22089893 -0.08081236 0.01615986 -0.05532731 0.0977301 -0.09781157 0.08280502 0.19142258 -0.06815937 -0.06948571 -0.06204903 0.010038643 0.16999944 0.22515605 0.013429752 0.086552374 -0.085656434 -0.18189609 0.090517916 -0.010579411 0.0018564267 -0.018631294 -0.22642407 0.11805486 0.12200359 0.04497142 0.21502754 0.04669118 0.21965261 0.06836178 -0.24535647 -0.0557658 0.112689614 -0.057294186 -0.00729413 -0.06833788 0.3345534 -0.006214355 0.13718638 0.22109754 -0.041630454 -0.3878329 -0.07784589 -0.28843647 -0.1599913 -0.037601378 0.18998452 -0.09053048 0.1556286 0.08108479 0.053486437 -0.15420182
345 0.14678021 -0.010959127 -0.12203297 -0.0483482 -0.014600769 0.07460925 -0.11807565 0.072668776 -0.111198194 0.20751132 0.1577073 0.11394594 -0.17694968 -0.042545233 -0.026481938 0.14282218 -0.0013476621 0.060752206 0.13043651 0.046708208 0.06342884 -0.22163853 -0.06731664 -0.02048193 -0.17595612 -0.009187032 0.061953895 0.0468943 0.043069273 -0.13586044 0.16025735 0.008175552 -0.16930148 -0.13460606 0.052394427 0.13797803 0.047889166 0.23313947 -0.13958567 -0.08702824 -0.03946103 0.103356466 0.1478729 0.0010876992 -0.006013905 0.11482381 -0.031609647 -0.12105063 0.12446759 0.22310117 0.18256402 0.09306853 -0.091911785 -0.21102777 0.0018318818 -0.0007398077 -0.09807641 0.20019571 -0.010970781 0.074881226 -0.057602372 0.1665592 -0.094245285 0.060868658 0.07736171 -0.20627207 0.08668582 -0.1521875 -0.1307575 -0.008377637 -0.0014636357 -0.049237113 0.024048047 0.21641584 -0.17925723 -0.01087584 0.2902362 -0.14541185 -0.011225395 -0.007135329 0.14639919 -0.035423744 0.026232513 0.09865392 -0.16584754 0.051703084 -0.13771373 0.0536795 0.18286325 0.20877568 0.040021617 0.17086163 -0.07194335 -0.029674312 0.112588115 0.049052812 0.0652157 -0.05772262 -0.16456117 0.023543026 0.06403676 -0.088399164 0.046080247 0.038612965 0.16439602 0.024396386 -0.0628949 -0.14953738 0.16870183 -0.08014217 0.0420242 0.049975246 0.25812927 -0.07195898 0.21271434 0.15303415 0.07575746 -0.29370406 0.04032779 -0.15892309 -0.16965327 0.016057754 0.24814594 -0.09496989 0.1629463 0.09636369 0.010969775 -0.09100239
679 0.016337946 0.20506057 0.042196363 0.005609818 0.13625441 0.23082075 -0.06271463 -0.0014842389 0.05536184 0.18907225 0.25740665 0.054948743 -0.07692274 -0.009309744 0.122943185 0.11467988 -0.11229915 0.059411425 0.1584817 -0.055850383 -0.10641105 -0.102873065 -0.01378558 -0.014213431 -0.3927274 0.025262801 -0.0044689323 -0.012800241 -0.035570297 -0.22325973 0.308429 -0.21257435 -0.2024411 -0.06437136 0.060239345 -0.054520592 0.28853628 0.2150525 -0.19298841 -0.33987924 0.11803853 -0.043444395 0.12326349 0.12875836 -0.057084452 0.12638345 -0.021771997 -0.09710738 0.07277484 0.07566799 0.21400315 0.15956154 -0.12598383 -0.28254914 0.08406692 0.10966941 -0.131236 0.17999682 -0.024015225 0.0053197965 -0.095269285 0.17233634 -0.013554765 -0.030224659 0.21360838 -0.23128475 0.0064551705 -0.20459865 0.07714248 -0.06252944 -0.23782265 -0.060423434 -0.074604854 0.1853339 -0.06641218 -0.041396797 0.33754382 -0.06988458 -0.044647075 -0.08834214 0.31671906 -0.15264238 0.2463173 0.16798504 -0.15343063 0.13938004 -0.01767518 0.03498826 0.10822997 0.17521754 0.17010626 -9.797591e-05 0.019716082 -0.031050803 0.075415835 -0.042341366 0.014426876 0.03615854 -0.16066195 -0.048491407 0.26453134 0.07319421 0.065012924 -0.03511362 0.029805953 -0.033114374 -0.09008003 -0.015850252 0.09892889 -0.14968833 0.08470197 0.017854057 0.26219785 -0.02663652 0.05942061 0.022030959 0.018941987 -0.22919336 -0.11198711 -0.18124178 -0.12225595 -0.056207623 0.35351187 -0.11441672 -0.03133856 0.0002808768 -0.031888355 -0.1743932
680 0.035674278 0.04147057 0.11205728 -0.036626216 0.11940856 0.15774493 -0.060867563 0.019796625 0.09367543 0.12393445 0.2986454 0.06048399 -0.0793721 -0.072744794 0.054406837 0.034611255 -0.12321175 -0.030572738 0.19065285 -0.0027304299 -0.18239199 -0.22497632 0.03708169 0.0056740534 -0.3459371 0.035541568 -0.035698555 0.052097082 -0.017052006 -0.27410474 0.29047924 -0.08317388 -0.23239946 -0.05682527 0.01659585 -0.023239939 0.14260112 0.25553071 -0.19835117 -0.27495822 0.11933921 0.043621838 0.056711543 0.10128557 0.036528558 0.08111697 -0.011441675 -0.03589011 0.0773848 0.08991962 0.14095236 0.19492221 -0.06691636 -0.33620313 0.05367028 0.1124635 -0.19091496 0.22129866 -0.17141177 -0.026459996 -0.123249196 0.1432487 0.038996518 -0.06744874 0.16679913 -0.25250152 0.029796414 -0.24686712 0.089019306 -0.032940008 -0.25678724 -0.09809641 -0.13023949 0.2623435 -0.044020724 -0.043929383 0.41541842 -0.012104584 -0.08920821 -0.17476484 0.31084225 -0.013268138 0.14477995 0.23550832 -0.26667622 0.19390617 -0.12461786 0.024006728 0.17522398 0.29657254 0.08257374 -0.032570638 0.14078484 -0.06384545 0.07097266 -0.08079955 0.07462528 0.058744863 -0.161761 -0.08622007 0.2620181 0.04231557 0.105407044 -0.0106155 -0.0014434588 0.0115019595 -0.056929603 0.015034255 0.11388664 -0.12428572 0.051667135 0.064641766 0.19333412 -0.0016187119 0.09232663 0.02113053 0.10668029 -0.17053977 -0.010131092 -0.15374285 -0.14615534 0.11607012 0.4070416 -0.15481757 -0.008425627 0.07017361 -0.01661399 -0.15798178
813 0.21065821 0.040637895 -0.30065498 -0.15305495 0.051324666 0.052998174 -0.12508766 0.046442263 -0.024421517 0.1638103 0.16336781 0.08380129 -0.11149689 -0.09027611 -0.07103132 0.10107476 -0.039048318 -0.049184687 0.2982464 0.089581534 -0.09164543 -0.28638804 -0.13548785 -0.008320379 -0.22972034 0.0716203 0.09047001 -0.052142587 -0.12155988 -0.27133143 0.13368258 -0.091573775 -0.384948 -0.2369063 0.011477647 0.041849427 0.044903778 0.26581532 -0.045514487 -0.09407671 -0.15397936 0.13311496 0.20952024 0.024726117 0.021008532 0.23163164 -0.022971662 -0.10300479 0.013589732 0.13429993 0.24381718 0.077522054 -0.094321296 -0.21913427 0.0033644536 0.050551303 -0.10899016 0.09421844 -0.11069499 0.047705133 0.010385723 0.044206545 -0.09738608 0.109551996 0.22359079 -0.14747043 0.10857015 -0.088374466 -0.09779418 -0.099231794 -0.14168583 -0.11168654 0.011206129 0.15886879 -0.0786992 -0.023942063 0.27937204 -0.13218865 0.0048598717 -0.027685104 0.1257683 -0.024730662 0.007857633 0.22904643 -0.2624392 -0.04676335 -0.087525174 -0.03526158 0.0046029687 0.18768728 0.019757777 0.13099603 0.05491441 -0.07257945 0.058928262 -0.08007853 0.110594876 0.09942541 -0.23108481 0.047717016 0.068617396 -0.021285202 0.08285963 -0.0045125415 0.10821469 0.14845178 -0.077204525 -0.11893354 0.0042522578 -0.01676769 0.05610101 0.08316921 0.25339082 0.018142922 0.22102123 0.19566801 0.07915238 -0.22507904 0.12917382 -0.22726086 -0.15494725 0.019620242 0.2868457 -0.1549815 0.16046119 0.1820351 0.0034920806 -0.1917671
828 0.0699171 0.25837946 -0.18109156 0.07151485 0.073874235 0.12969336 -0.011413037 0.122193806 -0.019552976 0.11380876 0.019999763 0.1518138 -0.015464051 0.0415736 0.015620127 0.29547918 -0.03544364 0.005399055 0.21104652 -0.0023638592 -0.12903036 -0.08701847 -0.07182619 0.052467108 -0.14620668 0.08369315 -0.0051295944 -0.014676239 -0.1540783 -0.07633199 0.08906281 -0.17305171 -0.21506213 -0.1118409 -0.009711319 -0.21727663 0.025062207 0.085149966 0.046308413 -0.17196405 -0.07086501 -0.020759614 0.13745905 0.021753505 -0.14701125 0.3159869 0.12488017 -0.0047477135 -0.0044475403 0.04357642 0.16831078 0.026449312 -0.12553734 -0.17664795 0.105985 0.05893811 -0.025889015 0.16867557 0.02974058 0.08252428 0.14626275 0.23124275 -0.13346599 0.12487532 0.07984579 -0.12650329 0.13217676 -0.021873325 -0.20830224 -0.08034694 -0.022594467 0.075104006 -0.009647391 0.027476773 -0.09997019 0.07349782 0.19508494 -0.16721752 0.021633117 -0.009855205 0.054976217 -0.13169079 0.13789144 0.0692811 -0.018323712 -0.0040285457 -0.036945593 0.013922365 0.18481326 0.14988391 0.15501556 0.028226187 -0.032618336 -0.13219972 0.16003954 0.026901588 0.03688324 -0.05213163 -0.16145681 0.19205974 0.09513339 0.08862037 0.17345273 0.01734947 0.19690773 0.028182918 -0.3085539 -0.114025034 -0.004720399 -0.06884996 -0.00733483 -0.07313325 0.40506938 -0.097569734 0.2243596 0.10438361 -0.09473706 -0.47297654 -0.037220415 -0.20677061 -0.12509547 -0.10565653 0.17309372 -0.18927751 0.1236986 0.09264842 -0.026745947 -0.06269775
395 0.15243132 0.10471706 -0.25104335 -0.06474826 0.07967313 -0.0010048344 -0.12236561 0.027857715 -0.21819338 0.1964676 0.010557934 0.1518971 -0.110472776 0.02124658 -0.03872593 0.18077227 0.015113374 0.12737195 0.13637976 0.03565515 -0.0029650219 -0.15909915 -0.04849451 0.023047708 -0.2741523 0.049158614 -0.0004034492 0.08732711 -0.08764426 -0.24579822 0.1832502 -0.00028647255 -0.25006917 -0.12979972 0.05554391 0.02801214 0.14673714 0.24116574 -0.20212643 -0.163638 -0.036693126 0.0669227 0.19013387 0.015251908 -0.037281487 0.13667226 -0.1024221 -0.03621612 -0.0011910705 0.18518212 0.20155457 0.026420405 -0.09417784 -0.08892876 -0.0052108034 -0.08507964 -0.071459815 0.09680988 -0.008777608 0.05203595 0.09241267 0.10058306 -0.102496624 0.13309465 0.13323027 -0.27339506 0.10567398 -0.022519533 -0.117404155 -0.05421757 -0.02690196 0.025093216 0.1329908 0.10147804 -0.11756952 -0.0453772 0.16828547 -0.1496379 -0.0017578827 0.076769054 0.1506677 -0.056269515 0.031363808 0.040405005 -0.106490545 -0.11143755 -0.055165645 0.029236827 -0.04214447 0.080214046 0.017757252 0.19133037 -0.14584763 -0.02002106 0.110361904 -0.005864748 0.042813826 -0.035710458 -0.15569928 0.005624011 0.13822216 0.010041537 0.042320848 0.07851229 0.21463373 -0.016264688 -0.13463664 -0.19645642 0.0021141926 -0.028792972 0.039039765 -0.019975465 0.24400531 -0.026269909 0.25220603 0.16918565 -0.01552841 -0.24909948 -0.14223483 -0.22094323 -0.07264043 -0.17690688 0.21195394 -0.06853995 0.22026263 0.050212424 -0.008414986 -0.11855674
288 0.19349022 -0.007514236 -0.3525067 -0.20307367 0.0055901906 -0.12823522 -0.26872993 -0.027333686 -0.20432654 0.25523114 0.12246849 -0.031134564 -0.06343909 -0.12602606 -0.1084552 0.0957336 -0.17920725 0.056100257 0.16908088 0.100490496 0.011722926 -0.12038091 0.077759996 -0.052394323 -0.28269452 0.015899202 0.03388586 0.07188826 -0.1284067 -0.29718387 0.2129116 -0.12088593 -0.47216868 -0.17198704 -0.039076578 0.10068152 0.2966884 0.3771314 -0.13620113 -0.0290784 -0.15201335 0.16569385 0.21082518 0.08271111 0.064137384 0.112491295 -0.12711851 -0.049174294 0.012049505 0.25982568 0.17546092 0.0680848 -0.1368451 -0.10330655 -0.12383617 -0.19592734 -0.121183194 0.18976317 0.009935141 0.12344362 0.0027564212 0.042649705 -0.11220964 0.19505145 0.2807785 -0.40693498 0.02870082 0.02621735 -0.036770176 -0.17688555 -0.017066168 -0.024614552 0.1954626 0.12011634 -0.039037686 -0.10938343 0.20519458 -0.22508346 0.07182519 0.115251355 0.20506386 0.039084293 -0.14634103 0.14907332 -0.2670949 -0.18477097 -0.13375804 0.08417568 -0.21407096 0.086108476 -0.012232044 0.30825734 -0.11752742 -0.066329524 0.10581529 0.03435476 0.1601259 0.008122815 -0.24921104 -0.011438675 0.22344562 0.05092224 0.07901375 0.06644121 0.2450842 -0.07129808 -0.16629983 -0.26120543 0.024734395 -0.018497733 0.021195922 0.1861921 0.28476983 -0.05991704 0.31301332 0.15112716 0.005719445 -0.14062905 -0.113076866 -0.34454826 -0.09485037 -0.25339654 0.25720322 -0.106142305 0.27526557 0.15739773 -0.0061563915 -0.12421541
401 0.14216639 0.037107207 -0.120485745 -0.044983376 0.053566396 0.08922858 -0.12161437 0.055333894 -0.091433 0.21833989 0.05117834 0.12375763 -0.16433074 -0.0072141658 -0.038773343 0.23664019 0.03718426 0.019662933 0.19444284 0.035165574 -0.02468162 -0.24842753 -0.119205154 0.004752125 -0.30659774 8.857195e-05 -0.0052824295 0.10704862 0.0021020963 -0.21607825 0.24685253 0.033340376 -0.16693051 -0.18173432 0.020136088 0.11262943 0.15445964 0.30160922 -0.27752164 -0.20562156 0.005130759 0.16248651 0.10742977 0.056150682 -0.029625883 0.062194183 -0.122595586 -0.19763553 0.016397474 0.22164458 0.2850195 0.10547697 -0.06101151 -0.2871855 0.050801147 -0.0038786237 -0.19199406 0.0935467 0.023456099 -0.08539775 -0.055594873 0.11889774 -0.07341084 0.11140424 0.14255793 -0.21301986 0.03476451 -0.1620097 -0.091476716 0.03829715 -0.19966763 -0.021651132 0.13280469 0.1996778 -0.08536173 -0.09027962 0.3018172 -0.041442703 -0.057509802 0.009561443 0.24161965 -0.034405846 0.093242325 0.10491966 -0.057492707 -0.010444309 -0.048084 0.0580586 0.11963497 0.20802554 0.015465081 0.08906109 -0.05290053 -0.041492168 0.05964611 0.011249871 0.08167409 0.025050903 -0.17446978 -0.092304096 0.08507176 -0.045342367 0.073004335 0.013284713 0.08671008 0.111531295 -0.041567877 -0.10874789 0.12819155 -0.053015787 0.015040476 -0.052215718 0.11396215 0.022453668 0.08381566 0.18809353 0.1080853 -0.20860113 -0.055417743 -0.17838843 -0.04377568 0.026729574 0.37361836 -0.04604494 0.1065787 0.10006467 0.09390211 -0.119198665
661 0.052529067 0.09831725 -0.15328889 -0.08224115 0.036985815 0.08722135 -0.09436679 -0.024560984 -0.05068181 0.23535714 0.060485505 0.1365382 -0.039158057 -0.04012294 -0.004190031 0.14407651 0.016101902 -0.038678862 0.25564483 0.01602524 -0.08816955 -0.16470169 0.012532748 0.014709964 -0.25500137 0.07176251 -0.05016152 0.025372922 -0.14743027 -0.18362325 0.17927332 -0.090365455 -0.23017235 -0.19651482 0.003568606 0.03287426 0.12687434 0.22906706 -0.14179695 -0.19910684 0.050422084 0.12353761 0.22664168 0.018113922 0.026301851 0.18266371 -0.06605764 -0.09679322 0.09707249 0.11118277 0.28796285 0.09957285 -0.03288267 -0.2204661 0.027641967 -0.0022911772 -0.045660105 0.029205456 -0.0025516422 -0.015184264 -0.013913607 0.05451861 -0.02235518 0.12773024 0.22715217 -0.23457168 0.01855783 -0.037862588 -0.0145853935 -0.04321754 -0.09386538 -0.07990719 0.10428097 0.16202387 0.05358596 -0.15210812 0.3804132 -0.07221242 -0.036636323 -0.05724607 0.291503 -0.056551505 0.07323556 0.11322178 -0.102222726 0.0024894376 -0.085768044 -0.024914661 0.020192584 0.17183022 0.11126423 -0.0010684035 -0.0055696745 -0.15259409 0.085661694 -0.10653025 0.13749483 0.111192785 -0.19643345 -0.05254246 0.10095846 0.078163624 0.034175575 -0.046653 -0.035324916 0.07218091 -0.100526534 -0.10037535 0.053499956 0.002303214 0.085366234 0.05415469 0.29533 -0.04239052 0.1426069 0.13092615 0.06455472 -0.18603067 0.028806003 -0.2481702 -0.10779085 -0.013670261 0.36619973 -0.09882134 0.09421167 0.13130166 -0.010340745 -0.15211298
374 0.068761356 0.14245501 -0.084110804 0.013095365 0.047451925 0.09812679 -0.10974285 -0.082470305 -0.16484304 0.12832063 -0.011084489 0.12217564 -0.040933996 0.02185756 0.0035412798 0.12635899 0.033627428 0.08165239 0.22095518 -0.007844835 -0.11078717 -0.14539379 0.058060545 0.06881619 -0.14637075 0.025459245 -0.0921873 0.06331162 -0.12066421 -0.0676818 0.19021857 -0.13623811 -0.19902584 -0.10940567 -0.036280192 -0.046772134 0.17634083 0.15319055 -0.10317002 -0.22429805 0.064934306 0.034487147 0.22187155 0.0693081 -0.016977632 0.14782806 -0.095161706 0.022741267 0.051952425 0.13372895 0.19741786 0.07135609 -0.09524046 -0.06502816 0.044536956 -0.04115693 0.0016752309 0.13300371 0.0075817094 0.023963569 0.12637025 0.16538177 -0.09519929 0.14760472 0.09343173 -0.24739896 0.04215825 0.0043351953 -0.08831769 -0.056366596 0.061874904 0.09302741 0.09426547 0.0041009644 -0.045221973 -0.027179075 0.24023516 -0.08057645 -0.03507916 0.0127834715 0.21066983 -0.06634881 0.075736836 -0.082145736 0.02964705 -0.03031055 -0.031130267 -0.011479953 0.013309817 0.06095451 0.16557693 0.030936709 0.0030418993 -0.038843133 0.1367826 -0.043922096 0.04114666 0.0022179333 -0.047841143 0.027705379 0.14651054 0.056257468 -0.03189237 -0.04661932 0.063102655 -0.06510273 -0.21278478 -0.105886355 0.0067001847 -0.022215571 0.03135117 -0.023797125 0.27163434 -0.04417073 0.23366049 0.05394736 -0.015617124 -0.22291215 -0.11342697 -0.094467804 0.025438584 -0.1879424 0.25406158 -0.10196544 0.086338125 0.01110767 -0.007495304 -0.061320446
723 0.095704556 -0.018905487 -0.07770668 -0.13420911 -0.039611008 0.1502538 -0.13541326 -0.090875395 -0.07327385 0.2806545 0.16152684 0.14742273 -0.105029926 -0.117304765 -0.01849497 0.085646376 0.009826081 -0.006517821 0.1341561 0.04019147 -0.009142918 -0.19765596 -0.01201041 0.040483337 -0.15089656 0.017519603 -0.031073635 0.029469052 -0.05512597 -0.073010325 0.06278084 -0.08702146 -0.24308807 -0.20198551 0.09548944 0.15424703 0.047684208 0.08432538 -0.10113602 -0.13484268 -0.0048302026 0.11576879 0.22254503 -0.030473007 0.0016367437 0.19298033 -0.09436918 -0.03154914 0.20419902 0.07756674 0.26873583 0.05349562 0.011037286 -0.18825571 -0.010300046 0.03288906 0.08960808 0.030161368 -0.1518849 0.07791176 -0.0012496631 0.1517125 -0.059679914 0.10251452 0.16717893 -0.1609576 0.104263335 -0.108679116 -0.11397395 -0.106159806 0.038499728 -0.03487823 -0.008026226 0.19201544 -0.07230311 -0.028365301 0.3178836 -0.16770521 -0.064418264 -0.08713351 0.18281467 -0.12598933 0.044263043 0.05044217 -0.1434547 0.13718179 -0.11376616 0.013956544 0.12883131 0.1517763 0.2013698 0.013096259 -0.01801735 -0.03439832 0.07718056 -0.071417645 0.080582224 0.032075644 -0.047598034 -0.049945306 0.028466396 0.0067708436 -0.0045366953 -0.0008892531 0.03434772 -0.024189413 -0.0073008635 -0.13536693 0.07409291 -0.050430436 0.09705306 0.08547145 0.27805606 -0.109590754 0.15909886 0.0754716 0.049086977 -0.24696654 0.084671564 -0.12064214 -0.17592631 -0.007201744 0.32229775 -0.13994043 0.08150199 0.054664757 -0.08939409 -0.054781105
746 0.16547965 0.12036917 -0.16352071 -0.17197767 0.031373043 0.046035033 -0.13805996 0.03585819 0.025203113 0.22401841 0.14923415 0.16751094 -0.065802895 -0.11640928 -0.019668663 -0.04661433 -0.13011011 -0.1445942 0.38490093 0.10999116 -0.23295628 -0.2016597 -0.02973877 0.10478864 -0.32001647 0.1315409 -0.0025703716 -0.015076259 -0.16067675 -0.14533608 0.16898605 -0.15811783 -0.3408564 -0.12291163 -0.10416708 -0.035910673 0.23376325 0.26246703 -0.066078775 -0.154065 -0.057956733 0.15119618 0.13407706 -0.036639992 0.022429226 0.2076353 -0.03892943 -0.024779089 0.03997209 0.16022302 0.17042421 0.16859563 -0.04271533 -0.22000474 0.07791952 0.056368314 -0.15370035 0.13339451 -0.12072669 -0.017956635 0.0406732 0.09627122 0.050735846 0.045507308 0.10719035 -0.11758793 0.007416929 0.06151731 0.042683158 -0.0780645 -0.12638539 -0.111097015 0.013861198 0.08966939 0.050892115 -0.11445167 0.2849455 -0.07720769 -0.019698171 -0.1737309 0.29946083 0.004475486 0.07409182 0.22842968 -0.10020491 0.0050836946 -0.19379607 -0.06484936 0.07171393 0.10199695 0.12372861 -0.045904372 0.026859442 -0.2139584 0.015574564 -0.060603198 0.09327872 0.2208012 -0.12292286 -0.011370427 0.14821117 0.026826708 0.09562921 -0.06743623 -0.040308714 0.09850514 -0.16589506 -0.023361148 0.05381398 -0.03828923 0.02316575 0.10039974 0.257149 0.0043005785 0.11563677 0.04460289 -0.02645023 -0.19165964 0.07930274 -0.11338691 -0.2003604 0.026260803 0.25822175 -0.25884488 -0.08906638 0.12331124 -0.013160257 -0.17864358
688 -0.042154267 0.22941105 0.014093975 0.08718023 0.13653415 0.26519313 -0.028641203 -0.032270353 0.042955834 0.14954525 0.1668648 0.005974081 -0.014899841 0.004252894 0.1080096 0.187575 -0.022320164 0.039414287 0.12840806 -0.10226044 -0.041443262 -0.098632306 0.017277673 -0.07197304 -0.3084564 0.06616194 -0.02229402 -0.021532502 -0.11435342 -0.29446477 0.227312 -0.1783385 -0.18372574 -0.00095373683 0.07433495 -0.117315836 0.13848922 0.21050164 -0.17026393 -0.33332244 0.07296659 -0.05884489 0.17544802 0.16689329 0.019988112 0.19166109 0.022424439 -0.17528217 0.053275798 -0.014903609 0.26015043 0.13034372 -0.14702114 -0.3000203 0.1252251 0.1268165 -0.01888741 0.13045454 -0.018242076 0.023446837 -0.056935526 0.17043476 -0.04779441 0.009216218 0.24069567 -0.24087971 0.055510893 -0.19133714 0.053324718 -0.10536731 -0.15449463 0.04348695 -0.07203908 0.2403911 -0.07651476 0.0017462571 0.35408902 -0.082788095 -0.02630939 -0.039545633 0.29991862 -0.17689192 0.2655298 0.14373694 -0.1755429 0.109613955 0.046686463 -0.03846692 0.12488711 0.21331403 0.14605239 0.044352174 0.040650986 0.015782049 0.11256363 -0.09127633 0.03501188 -0.047030203 -0.25855148 0.014661767 0.22354761 0.13881855 0.063402504 -0.044791296 -0.0069033247 0.045129996 -0.075906485 -0.042527046 0.025027724 -0.07182221 0.1330158 -0.013571641 0.28095526 0.015532367 0.054175545 -0.0018116675 0.09618847 -0.28229475 -0.081261024 -0.20157743 -0.11499179 -0.025127808 0.31317395 -0.0633312 0.09821551 -0.04087508 -0.05715657 -0.16968839
270 0.1744612 0.020657312 -0.29130504 -0.16270486 -0.0408664 -0.15755981 -0.152563 -0.07179174 -0.05953245 0.24009319 0.23003626 -0.08555528 0.022445237 -0.23417154 -0.044829767 0.06404475 -0.2272629 0.11035822 0.027848136 0.1098454 -0.004302681 0.00068546063 0.1944439 -0.040065423 -0.29865167 0.04100264 0.04559785 -0.06478036 -0.069461346 -0.31439918 0.17362833 -0.2282891 -0.40589258 -0.08279073 0.013681461 -0.025743054 0.21569325 0.35869953 -0.13505077 -0.04492788 -0.108413234 0.07632558 0.2330822 0.10431047 0.07665375 0.088901244 -0.098442376 -0.041765556 0.008183496 0.16344428 0.107948385 0.060281456 -0.16907254 -0.045492224 -0.084117495 0.0014096887 -0.21621849 0.32724988 0.02999577 0.12961209 -0.034578808 0.08962016 -0.043500528 0.14206019 0.32605937 -0.28986236 -0.046826392 -0.04352888 0.13641894 -0.111895 -0.11408478 -0.026980693 -0.008707899 0.24066146 -0.12154288 -0.03930046 0.28480926 -0.22470632 0.0053352504 0.15306997 0.1838842 0.1290878 0.03217235 0.14059426 -0.22769107 -0.058771685 -0.09902576 0.09665561 -0.16074428 0.14428759 0.045188844 0.35295984 -0.05834238 0.045999654 0.07606252 0.08846852 0.2603208 0.005083331 -0.31615204 -0.030994909 0.3127452 0.06062601 0.08180341 0.05975024 0.1950404 -0.18984024 -0.16952927 -0.2519058 -0.03318143 -0.117668666 0.0034673957 0.29860494 0.2543061 -0.1368759 0.31949916 0.0837066 -0.054820497 -0.14892508 -0.045148455 -0.26264897 -0.16865852 -0.14453523 0.15915011 -0.18018734 0.20514727 0.24376768 0.019862272 -0.06911872
823 0.1713248 0.2644706 -0.2768392 0.01801235 0.13261484 0.11009083 0.0447013 0.33817253 -0.010643399 0.06497477 -0.09328701 0.21155353 -0.035665695 0.07304082 0.017624136 0.32138637 -0.008165917 0.08714809 0.19999123 0.09453771 -0.106736824 -0.14203711 -0.26294476 -0.009355552 -0.27824947 0.1311748 0.06092905 0.05006021 -0.13707392 -0.28340963 0.19882193 0.023525428 -0.18950996 -0.037849694 0.019966291 -0.20356496 0.024089042 0.2813501 -0.0970046 -0.119309425 -0.11241863 -0.0017373306 0.027099933 0.046442233 -0.09968912 0.22432105 0.16679038 -0.15449262 -0.1450888 0.17112923 0.2015672 0.043069057 -0.14903985 -0.26575562 0.14300258 0.042031135 -0.17453943 0.15428746 0.09873445 0.046207286 0.15895426 0.18785837 -0.1561644 0.08733057 0.0029555517 -0.20127094 0.103597544 -0.022618921 -0.17020106 0.011025267 -0.17704368 0.0767954 0.062140018 0.092122704 -0.22170308 0.058195792 0.1702642 -0.07208658 0.0767951 0.016763333 0.04520315 -0.073343255 0.25615478 0.21710674 -0.05220764 -0.141798 -0.02508293 0.042580992 0.18291159 0.20339677 -0.05377303 0.18104815 -0.16210411 -0.08090755 0.14765511 0.17826824 -0.030640244 -0.10223181 -0.24694769 0.1164307 0.09524925 0.0013740651 0.22740373 0.11480756 0.29404598 0.16096501 -0.3116561 -0.17706215 0.037880573 -0.074115716 -0.076465435 -0.13364577 0.33493498 0.040369194 0.21059373 0.2738041 -0.06733867 -0.50595236 -0.1510035 -0.32001206 -0.17986204 -0.06114665 0.09726237 -0.064767465 0.23076117 0.070099756 0.016775342 -0.22508979
666 0.21681789 0.046825446 -0.051520355 -0.083789304 0.07715993 0.11107995 -0.033202812 -0.07530645 0.066623636 0.25659212 0.09172833 0.17891504 -0.107229955 -0.0896593 0.04972382 0.2208642 0.13203183 -0.018409261 0.12640329 -0.017847525 -0.09214546 -0.20769243 0.0065202652 0.07601512 -0.14993984 0.10247494 -0.0156109035 0.045506537 -0.16094197 -0.18976118 0.058886085 -0.17069227 -0.20079327 -0.0753558 0.0023190426 0.022153856 -0.017010028 0.116065785 -0.112292305 -0.14456916 0.0079497835 0.054212756 0.24361596 0.06748834 0.06551924 0.24162532 -0.028147794 -0.03876435 0.051344294 0.08995579 0.25340676 0.14339612 -0.074108765 -0.25042143 0.09490112 0.11367935 0.076782644 0.1528596 -0.17078304 -0.0045825746 -0.0529267 0.15266581 0.046801656 0.08305787 0.21695626 -0.19787323 0.13916816 -0.15523891 -0.025085153 -0.1349499 -0.040685385 -0.077699065 -0.015397054 0.25253433 -0.10269348 0.01189551 0.43915024 -0.10363715 -0.03573652 -0.14619322 0.17079051 -0.1118733 0.18037973 0.12992938 -0.13460764 0.1327852 -0.009450802 -0.057201385 0.1424056 0.28167692 0.17470834 0.040494103 0.08026506 0.036686007 0.12212908 -0.08656456 0.14956908 0.07109489 -0.26017213 -0.008540512 0.14652473 0.07505096 0.114059836 0.05605044 0.052441955 0.011650863 -0.0903009 -0.123233296 -0.006411359 -0.046834767 0.10096586 0.11761311 0.26294306 -0.051716875 0.17781849 0.0859657 0.12149538 -0.26333636 0.14262371 -0.07894991 -0.19403942 1.8971543e-05 0.28826725 -0.21647805 0.18997738 0.17542052 -0.035621233 -0.19593169
767 0.21786433 0.11316041 -0.23500058 -0.021964064 0.003938263 0.08324427 -0.10706263 0.23083794 0.010117937 0.19911236 0.080334805 0.13664293 -0.08814269 -0.028685652 -0.06433301 0.1951249 -0.13647424 -0.051499855 0.28362828 0.0867545 -0.05816702 -0.20906208 -0.11340258 -0.0043340987 -0.25840184 0.05399216 0.023745585 0.06564019 0.0048187426 -0.21558444 0.20112559 0.025010876 -0.1964545 -0.16797353 -0.07699025 -0.057115704 0.12320807 0.27348247 -0.088880084 -0.053996008 -0.10718724 0.13827968 0.010233849 2.9919625e-05 -0.088659346 0.14063722 0.07466798 -0.13231893 0.009437233 0.229382 0.15669079 0.124874786 -0.09483675 -0.2600057 0.06466944 -0.018507635 -0.24535252 0.17826153 0.0629553 -0.033163488 -0.011453681 0.18284975 -0.07490498 0.093560785 0.085389085 -0.17885615 0.044232816 -0.091959506 -0.18247981 0.03936412 -0.17519842 -0.021402556 0.097784445 0.10332604 -0.07310491 -0.010742219 0.20848905 -0.08149213 0.031317923 -0.043156162 0.11413496 0.0154993925 0.0083275745 0.25103554 -0.09944517 -0.022956975 -0.2164019 0.03570075 0.23204112 0.2085889 -0.0054122945 0.06333243 -0.0734363 -0.2540198 0.12359701 0.09956737 0.06806499 0.047882 -0.22726347 0.10031022 0.061875787 -0.06880249 0.22293784 0.042322326 0.15611392 0.16249816 -0.21298678 -0.08930213 0.16084214 -0.05749799 -0.053995613 -0.037167363 0.23704039 -0.013898554 0.16589068 0.19157799 0.020785073 -0.36220744 -0.07581408 -0.25616547 -0.15479876 0.05607483 0.259559 -0.118181154 0.099491514 0.14244643 0.09876309 -0.073892266
389 0.077478155 0.047437664 0.025077088 -0.0015079962 0.06896437 0.1033301 -0.08880233 -0.0056878785 -0.050311133 0.16151701 0.08852245 0.15859674 -0.09837273 -0.0039737155 0.026280254 0.20403828 -0.035124827 0.027763229 0.2266834 0.039393164 -0.09414229 -0.18054128 0.082015075 0.112090096 -0.23273765 -0.0036020714 -0.07578144 0.0948198 0.027243102 -0.09044511 0.29564354 -0.0260798 -0.061549667 -0.11299154 -0.0998854 0.046941902 0.1871311 0.27723345 -0.2084062 -0.19991797 0.15135884 0.08771299 0.11008926 0.046659026 -0.041607592 0.04195543 -0.12777759 -0.017990854 0.07396825 0.18110022 0.12570477 0.12664898 -0.0886677 -0.18389872 0.024717418 -0.013337947 -0.18313584 0.23186009 0.04447858 -0.11919936 -0.08199218 0.17118199 0.04558999 0.06942456 0.09950077 -0.28960046 0.012695656 -0.14672185 -0.0071428367 0.07714904 -0.09661011 -0.06397967 0.1043019 0.14618123 -0.06898577 -0.11954797 0.44248754 0.008497268 -0.12328235 -0.05010025 0.30567855 0.02666008 0.09037418 0.017631706 -0.0068780263 0.100115016 -0.084851675 0.036300115 0.17375378 0.21379122 0.13851868 -0.022426039 0.033881452 -0.1314159 0.12000872 -0.011554266 0.10982141 0.060566097 -0.15565886 -0.06426667 0.25416788 -0.026066292 0.042401068 -0.032196984 0.022780292 -0.054642465 -0.13525929 -0.022322338 0.16054782 -0.08898259 0.013143613 0.019972062 0.18006068 -0.06381483 0.17674233 0.08849922 0.06883689 -0.16739637 -0.055143688 -0.117802076 -0.009831302 0.04336733 0.34957194 -0.10062332 0.004477042 0.14604643 0.08583908 -0.06843723
314 0.15690267 0.06760839 -0.18421985 -0.23097365 0.015512497 -0.05169773 -0.04078009 0.04480713 -0.00017903233 0.19415887 0.09050658 0.023896007 0.04264257 -0.12429326 0.009776589 0.06605995 -0.10186453 0.10879646 0.09602233 0.041557536 -0.08132972 -0.107674204 0.072528325 -0.051950507 -0.3299049 0.02020373 -0.046493564 0.09359454 -0.043620072 -0.44183028 0.2395133 -0.103675075 -0.32525426 -0.011239995 0.03895448 -0.082102716 0.121179245 0.24159962 -0.24939291 -0.15777278 0.027478285 0.025025006 0.19361317 0.11839675 0.03594252 0.07148016 -0.0060651395 0.00518984 -0.03526312 0.19005087 0.19937274 0.07558509 -0.0985641 -0.14444983 0.00415535 -0.010540364 -0.11893978 0.1766999 -0.06387051 0.074471146 -0.005150551 0.08003068 -0.016580261 0.03040255 0.18140519 -0.36246812 -0.11160318 -0.1354427 0.097441375 -0.00067921594 -0.18049525 0.013066518 -0.010707775 0.1766636 -0.09964442 0.026541188 0.26988536 -0.05999177 -0.0039977846 0.13122374 0.08000929 0.04885275 0.13440438 0.17454174 -0.21856384 -0.016759463 -0.10131931 0.07954281 -0.017400747 0.16629624 0.016863735 0.15944743 -0.041651182 0.028348463 0.15229158 0.03301053 0.125523 0.022158077 -0.278666 -0.120460734 0.25136515 0.15862137 0.10909157 0.09998127 0.2017543 -0.09869915 -0.07250073 -0.26268938 -0.10413815 -0.055039797 -0.021549381 0.09565935 0.22014089 -0.077318035 0.23185375 0.095743895 0.023764957 -0.1307587 -0.22673835 -0.26602736 -0.12810376 -0.15852198 0.199299 -0.054314654 0.23988216 0.08654633 -0.057965737 -0.12037938
339 0.118767366 0.031617578 -0.15830806 -0.054287374 0.06804108 0.07447005 -0.080924846 0.23134276 -0.15003884 0.15378286 0.0055210185 0.14864586 -0.14384308 0.03479944 -0.07989212 0.3141068 -0.11837985 0.08371683 0.22465484 0.041697916 -0.060309436 -0.2650385 -0.08234489 -0.049921136 -0.19321021 -0.0018520294 -0.12181782 0.19042622 0.097306825 -0.26780263 0.32917753 0.13939211 -0.06823996 -0.19246633 -0.00081871345 0.07137615 0.11352066 0.36372072 -0.21482508 -0.15408921 0.020548105 0.08456136 0.0717018 0.061315116 -0.06658834 -0.017968081 -0.02835198 -0.08004134 -0.022380441 0.19574338 0.20275298 0.11890997 -0.13009363 -0.20326698 -0.027473034 -0.11966446 -0.21560185 0.19102514 0.11767021 -0.04324241 -0.038224578 0.16323213 -0.14530678 0.045314703 0.116207935 -0.34541366 0.10297125 -0.1982 -0.22807516 0.062392186 -0.19754596 -0.037401732 0.18864156 0.19283627 -0.14579135 -0.050714638 0.3241131 -0.02014095 -0.109969094 0.00071604474 0.18087827 0.027407782 -0.022070391 0.15296914 -0.101347186 -0.05791926 -0.189186 0.11435015 0.19706638 0.23093432 -0.04615542 0.13844196 -0.03577535 -0.103288144 0.08034271 0.0134446565 0.053169735 -0.07708034 -0.112888254 -0.024843842 0.16553518 -0.07588724 0.12672395 0.052831337 0.17751716 -0.014997686 -0.10326313 -0.049090423 0.21706608 -0.036704388 -0.08339454 -0.09190455 0.14799166 -0.024107948 0.19824281 0.2161656 0.045603547 -0.19591616 -0.17577602 -0.303041 -0.02108394 -0.028688233 0.36839482 0.0321983 0.1931604 0.09528668 0.17002138 -0.06430746
391 0.14930183 0.042548418 -0.06575265 0.032062143 -0.02144188 0.110527225 -0.08321388 0.048853207 -0.016778488 0.18069673 0.04518016 0.11848762 -0.06351738 -0.077552356 -0.0045780037 0.13170332 -0.043141104 0.04583138 0.08997698 0.05159056 0.0102437865 -0.1589971 0.012484499 0.024360709 -0.14854857 0.036740646 -0.022877708 0.070132405 0.035079975 -0.14376673 0.15414514 0.017580425 -0.11970538 -0.095217384 -0.022949534 -0.018890446 0.0012766444 0.17693655 -0.1518647 -0.04613176 0.010972168 0.06442653 0.029671125 0.03286385 0.02416353 0.09978298 0.007630109 -0.08686921 0.06146159 0.14680016 0.12134011 0.075206086 -0.05324546 -0.19715285 0.054274436 0.020135032 -0.07728143 0.24026217 -0.030350605 -0.012930846 -0.016220594 0.26186725 -0.033784863 0.10719041 0.046627216 -0.22651124 0.08427036 -0.09609921 -0.08901175 -0.0049557816 -0.027301079 0.102027185 0.0140083395 0.22745384 -0.14828058 0.041674968 0.243656 -0.077038005 -0.021998908 -0.015236996 0.17384881 0.033499476 0.09660749 0.06054158 -0.07089499 0.11447647 -0.12510686 0.042282548 0.24709724 0.21088204 0.04972043 0.08877428 -0.008806511 -0.069036394 0.15049484 0.07653672 0.10893539 -0.054969538 -0.19588995 0.05953431 0.11775012 -0.006023175 0.10514065 0.03427712 0.13199937 -0.0057738745 -0.173218 -0.1325591 0.085080616 -0.07935528 -0.028522873 0.042179104 0.1965861 -0.048571188 0.15057184 0.081826665 0.05236175 -0.29678398 -0.015261397 -0.12493602 -0.13385361 0.04249824 0.22053117 -0.116976425 0.14309727 0.087758094 0.021237748 -0.0032109795
508 0.21320054 0.034815483 -0.12812184 -0.07628209 0.023657365 0.084344395 -0.019545214 0.038361493 0.028940503 0.2375102 0.14803475 0.08741653 -0.07690635 -0.006000294 0.06345552 0.24388312 0.11116806 0.036979616 0.26684242 -0.006809313 -0.08930884 -0.20763452 0.03704883 0.04586652 -0.18650733 0.010107879 -0.033694662 0.081289925 -0.10954995 -0.27043658 0.19000052 -0.0790234 -0.1640127 -0.12592381 0.014490844 0.00021435041 -0.008216083 0.18676557 -0.10713102 -0.17966299 0.036810946 0.07065441 0.27262238 0.024648916 0.063977905 0.19146039 0.05883945 -0.06883501 0.12109697 0.110433556 0.24410658 0.1845043 -0.13228998 -0.18660378 0.10042004 0.10483165 -0.026458956 0.19789854 -0.02639975 0.05674275 -0.08312169 0.09355069 -0.06587037 0.036164954 0.20913157 -0.2347032 0.019026617 -0.24149999 -0.09158988 0.006998224 -0.04201091 -0.19609047 0.013562703 0.14367324 -0.06754681 0.017208533 0.41664895 -0.02708158 0.0095182685 -0.10530801 0.055276968 -0.059665803 0.04541573 0.1403457 -0.18217 0.08749239 -0.09625248 -0.047409434 0.13113785 0.2793192 0.119931325 0.05299537 0.07437094 -0.061155766 0.12796924 -0.09836926 0.08079772 0.107591085 -0.23239285 0.025231449 0.13623525 0.06820077 0.053664565 0.042768586 0.117389135 0.030812576 -0.07679051 -0.11015326 0.074156694 -0.020317614 0.098432794 0.059092354 0.2879845 -0.058156308 0.22644658 0.16943204 0.15179324 -0.2209226 0.03076713 -0.16488224 -0.13073385 -0.06323586 0.26697272 -0.11980745 0.20901123 0.12868235 -0.028658334 -0.15686852
243 0.27612528 0.058616754 -0.33243644 -0.18073891 -0.10031783 -0.20849977 -0.12176459 -0.020131245 -0.07521157 0.21170491 0.1376581 -0.06465028 0.08809729 -0.14643715 -0.026206896 0.022123255 -0.17397049 0.28700843 -0.01637233 0.10384924 0.036438428 0.043793213 0.12127188 0.010637269 -0.39902154 0.026957031 0.011953679 0.11007801 -0.06390391 -0.53510463 0.29201305 -0.08519674 -0.43776745 0.023263836 0.011841006 -0.032957353 0.30324456 0.31446606 -0.2867245 -0.0693095 -0.11457564 0.10060964 0.08388041 0.03689284 0.06959767 0.04019705 -0.05550993 0.029325798 -0.049672462 0.3091891 0.04573243 0.006671548 -0.17580272 -0.03399931 -0.06357298 -0.061394677 -0.22534487 0.26900974 0.02883163 0.16622776 0.008893754 0.04693991 -0.070338234 0.13560289 0.19983998 -0.47477466 -0.15297057 -0.022234434 0.14630985 -0.079212755 -0.11748125 0.044808235 0.039377674 0.1841646 -0.1705732 0.009282253 0.17592566 -0.24160129 0.1362302 0.32617572 0.12586263 0.16939937 0.044621546 0.109479114 -0.25881457 -0.13190182 -0.099449575 0.15500972 -0.19173312 0.111395285 -0.009854755 0.39823225 -0.27407497 0.08536704 0.2579425 0.1604286 0.12677653 -0.020826448 -0.3865336 -0.05509536 0.27433273 0.13981748 0.093069784 0.18964401 0.4144058 -0.15040249 -0.20591965 -0.38981417 -0.10057938 -0.075234585 0.023409711 0.16584967 0.20854822 -0.06363167 0.28982037 0.104044475 -0.048915297 -0.18247218 -0.2681474 -0.3092009 -0.102385946 -0.2973469 0.041127626 -0.060667396 0.31592637 0.00092368864 -0.097767286 -0.036685307
804 0.108621 0.19714439 -0.17334764 -0.0037057837 0.04634729 0.047968823 -0.12763767 0.035371564 -0.16802621 0.26933107 0.035119142 0.20413013 -0.090333015 -0.014195519 0.030743105 0.11239925 0.025704041 0.0023519574 0.21562535 0.008233142 -0.067671515 -0.13740791 -0.016720224 0.015197056 -0.27585846 0.09464809 -0.0008040935 0.014458212 -0.13587137 -0.044560775 0.14404693 -0.13614863 -0.27270263 -0.110361926 0.004638567 -0.034144603 0.19263968 0.24010016 -0.08962433 -0.19058642 0.0071794484 0.05561068 0.21424142 0.007715627 0.00445062 0.22992715 -0.051382124 -0.12484545 0.051091395 0.16163577 0.248078 0.08918401 -0.07156817 -0.17187878 0.10473144 -0.0013426787 -0.05059544 0.11669286 0.05889518 0.015347508 0.11819014 0.14511192 -0.062756985 0.08427116 0.09470417 -0.14892083 0.065794095 0.08264353 -0.07123809 -0.07680263 -0.0034932366 0.04777452 0.102634266 0.109790325 -0.04489038 -0.08646067 0.20422763 -0.14939345 -0.0044140983 -0.072468504 0.24309333 -0.12484613 0.13575497 0.06140254 0.01663062 -0.024994746 -0.05971196 -0.039286405 0.055121966 0.069967546 0.13073047 0.074674 -0.11037461 -0.11304315 0.08158219 0.013320149 0.051276907 0.0346409 -0.11692796 0.044251878 0.0763317 0.0030910147 0.053879306 -0.016602807 -0.013418551 0.018260079 -0.19594878 -0.109116495 0.065457635 -0.034072533 0.036375217 0.03867971 0.31769413 -0.046937678 0.16585344 0.09622422 -0.040468182 -0.29749355 -0.010470886 -0.15552725 -0.16534364 -0.07814381 0.22255023 -0.14136566 0.042114798 0.123550326 -0.015308502 -0.17970234
766 0.21732849 0.14529897 -0.19113761 -0.03608352 0.09613969 0.14093925 -0.04873517 0.19936162 0.0024257232 0.13407558 0.0801756 0.13109912 -0.12136686 0.012642759 0.017278608 0.27933812 -0.049729485 0.059300955 0.29194763 0.10225748 -0.05659851 -0.19976532 -0.19289085 0.027118828 -0.26555082 0.08896085 0.0695787 0.016096603 -0.0492437 -0.21036686 0.28680438 -0.087762475 -0.18788494 -0.061925508 -0.03266408 -0.042295292 0.07652321 0.22482601 -0.066883914 -0.14146027 -0.099658445 -0.002692564 0.05911848 0.022266556 -0.14527465 0.20091505 0.034356315 -0.09972758 -0.034166936 0.17817178 0.17774664 0.079987414 -0.16606572 -0.25747535 0.10838569 0.065373674 -0.18086776 0.2011967 0.0749016 0.00050343643 -0.0064263917 0.1752833 -0.0830698 0.08553945 0.1032989 -0.18586066 0.09552981 -0.1413364 -0.13648877 -0.016907863 -0.13904224 -0.029675845 0.03519808 0.08932161 -0.1792044 -0.0042521786 0.2387439 -0.07456423 0.037566025 0.012247704 0.08913583 -0.05918017 0.14693744 0.18005249 -0.09080488 -0.016191272 -0.024665006 0.019208077 0.17196454 0.23420303 0.05010395 0.07306462 -0.035797674 -0.09861065 0.12840168 0.04683665 0.009281482 -0.0294326 -0.23509647 0.107323796 0.12279322 0.019322878 0.18112914 0.003044987 0.2967083 0.081413165 -0.23628162 -0.10907056 0.101322904 -0.09933123 0.00414443 -0.014398384 0.2993676 0.0012740646 0.16562018 0.1978455 0.036581207 -0.40344238 -0.054862935 -0.19643672 -0.15290117 -0.0149217155 0.18729518 -0.08915448 0.15866923 0.076565936 0.03868056 -0.12635085
349 0.1248111 0.16833058 -0.13880327 0.017559696 0.18408057 0.09665853 0.030651383 0.03451469 -0.060961287 0.15976773 -0.03587012 0.17836823 -0.09958146 0.044951417 0.027595282 0.34164327 0.026593132 0.12376013 0.08829736 0.0038831246 -0.085911065 -0.1560858 -0.025978217 0.03639284 -0.2069749 0.066138804 -0.023091247 0.026792476 -0.036477525 -0.26130205 0.2011512 -0.054429922 -0.10663156 -0.048378024 0.0013255848 -0.1071907 0.07675404 0.274476 -0.21842323 -0.19130792 0.057913084 -0.02505459 0.2297762 0.1459238 -0.0747941 0.09612726 -0.0028555624 -0.034721278 -0.08771028 0.17305124 0.20078999 0.08914134 -0.15960473 -0.16483235 0.049332567 -0.015476838 -0.118782334 0.234959 0.017151464 -0.012283346 0.0686638 0.22780038 -0.065175205 0.123368 0.13103941 -0.27381742 0.07144849 -0.14111139 -0.054276638 0.042813774 -0.13950916 0.015193764 0.105617255 0.14263453 -0.20935744 0.032866016 0.33483773 -0.03467182 -0.06476637 0.08234989 0.08974011 -0.059316542 0.1924724 0.07092987 -0.023472529 -0.060340736 0.0050238306 0.04996833 0.076668225 0.1872875 0.013078838 0.1711838 -0.02942143 0.02362005 0.12839831 0.049413815 0.10972226 -0.027887333 -0.24471186 0.016339678 0.29285932 0.0352236 0.1134986 0.059502542 0.19283211 -0.05476218 -0.22005458 -0.15405917 0.008267565 -0.08446871 -0.021679087 -0.0004086688 0.23567669 -0.041588124 0.27135706 0.20687358 0.027365908 -0.2641449 -0.16683954 -0.19905381 -0.06214173 -0.12130797 0.24211681 -0.093409754 0.23726013 0.15427685 0.077274844 -0.13914
350 0.19793689 0.030759005 -0.06533563 -0.008214802 0.058378153 0.039528534 -0.17049128 0.100373745 -0.09378772 0.33433172 0.024638876 0.22791846 -0.1556115 0.0016848301 0.0027051282 0.20886016 -0.050463133 -0.016438518 0.27125344 -0.013219797 -0.091095775 -0.1847353 0.06903614 0.08064138 -0.23856923 0.11175997 -0.19154169 0.1957812 -0.014053043 -0.12018038 0.24350356 0.0396464 -0.060016926 -0.102856845 -0.08707481 0.022077492 0.15880665 0.29055554 -0.14395866 -0.16147819 0.101670645 0.16108651 0.097022586 -0.049742844 0.040332075 0.09592333 -0.04996769 -0.07292984 0.05629217 0.19131973 0.17213763 0.15520737 -0.12061311 -0.17666316 0.09911806 -0.0897517 -0.19401024 0.27920762 0.08126224 -0.15512204 -0.07426721 0.2076412 0.0109658865 0.03244085 0.10149931 -0.30009425 0.09156982 -0.07120699 -0.09295353 -0.018254643 -0.07252151 0.01597065 0.18203129 0.16756767 0.0048079826 -0.17769025 0.34176874 -0.044101067 -0.055233154 -0.14096668 0.29206437 0.037098903 -0.027489541 0.08095414 -0.0075757685 0.03194218 -0.21887997 0.023797235 0.205865 0.20020539 0.05063744 -0.005251555 -0.012802896 -0.27679008 0.05263377 -0.03514051 0.1323343 0.046560343 -0.1968881 -0.0021418363 0.18427484 0.086038455 0.22810419 0.00016171964 0.07204623 -0.061338577 -0.2920053 0.021321133 0.19840096 -0.07068078 -0.018027099 0.0676872 0.21451215 -0.038079847 0.12637772 0.07278071 0.029812425 -0.23765306 -0.04244276 -0.19734797 -0.09974523 0.009835791 0.29372963 -0.07440521 0.053730696 0.14142948 0.0758618 -0.06941143
440 0.07676109 -0.09645151 0.005947353 0.016423393 0.06499596 0.07955978 -0.105194345 -0.031427328 -0.04590619 0.1052481 0.3086655 0.14005196 -0.1565668 -0.02810098 -0.050593566 0.18798374 0.040605973 -0.02506282 0.1790157 0.018310534 -0.1740183 -0.23113951 0.0187089 0.05697839 -0.27378678 0.0051287734 0.0008415004 0.054166112 -0.12408131 -0.17722982 0.20905611 -0.036917355 -0.31289676 -0.24467567 0.06551181 0.13507633 0.0027448423 0.28851 -0.124482624 -0.24593057 0.047305264 0.18232064 0.18648377 0.024581369 0.018907616 0.19361134 -0.062280122 -0.01453873 0.12711841 0.10637018 0.17093447 0.03176329 -0.080250725 -0.21194558 -0.011129258 0.06766394 -0.19660659 0.17949925 -0.16006543 0.02536254 -0.08892107 0.0071474197 -0.028986463 0.10131395 0.24709092 -0.2663047 0.12206256 -0.2324969 -0.050441783 -0.01487002 -0.14411013 -0.18693063 -0.03448099 0.21061292 -0.014786291 -0.15724653 0.4639279 -0.068204105 -0.06086806 -0.09393683 0.19106019 0.016013816 -0.008358095 0.049486928 -0.270695 0.093507595 -0.03326679 0.028113592 0.08174904 0.27937105 0.06325293 0.077002585 0.09792931 -0.04091631 0.11438218 -0.15348256 0.15564539 0.07426508 -0.18226445 -0.034866966 0.10601305 0.031701032 0.05452852 0.019523606 0.110090844 0.06469794 -0.07044857 -0.079092704 0.09599431 -0.07222935 0.10618704 0.07351445 0.31727853 -0.04019848 0.21458498 0.15529186 0.13686717 -0.17910776 0.15850773 -0.18687212 -0.10030323 0.09292313 0.36307913 -0.21425222 0.11982428 0.22170407 -0.03840288 -0.18422027
784 0.14979479 0.15371804 -0.22496809 0.02573611 0.06926713 0.10416997 -0.013901775 0.28905976 0.054484565 0.09495434 0.07967265 0.12391979 -0.07123738 0.034331705 -0.036829267 0.25954217 -0.104706794 -0.038487818 0.29356658 0.035076078 -0.15392913 -0.21175233 -0.16318636 -0.011739139 -0.30728805 0.07665915 -0.0018574059 0.06887546 -0.05539936 -0.37297347 0.24650273 0.08770195 -0.19129194 -0.1590519 0.017429376 -0.15583773 0.03314189 0.30163762 -0.15146488 -0.1564328 -0.08315871 0.09277596 0.03528039 0.02971994 -0.06848852 0.14829114 0.18056238 -0.12784679 -0.054231152 0.11652983 0.17407128 0.11685201 -0.13156669 -0.27267507 0.11230234 0.05476841 -0.2733795 0.15753229 0.031006487 -0.011969369 0.008183146 0.1336188 -0.13305947 0.018283617 0.14865096 -0.21565713 0.085230134 -0.16556147 -0.18894573 0.09426224 -0.3178746 -0.061744057 0.07021527 0.16904412 -0.07158101 0.03881764 0.25069243 -0.06217406 0.017412506 -0.054468986 0.09242576 -0.009587902 0.062313862 0.3218955 -0.1808846 -0.09130487 -0.19049552 0.03599351 0.23212114 0.26438203 -0.082120106 0.10310963 -0.03703534 -0.17861612 0.09742953 0.02359725 0.013880797 0.024932316 -0.2520743 0.078389466 0.11377709 -0.010917951 0.23477258 0.062266752 0.19720957 0.23395935 -0.19542414 -0.07127405 0.11992507 -0.03742118 -0.051007263 -0.10429647 0.26968843 0.05197867 0.13852787 0.23876865 0.04989845 -0.3564316 -0.10416253 -0.3188564 -0.15719485 0.06615985 0.26098785 -0.10948607 0.17254834 0.09435806 0.11339326 -0.14314587
745 0.12292347 0.0154890735 -0.043511648 -0.20863147 -0.014888232 0.1590567 -0.18217714 -0.06732157 0.06819048 0.2092569 0.19226392 0.038044374 -0.13925372 -0.13082089 0.038332753 -0.03188216 0.07048512 -0.12055598 0.22199175 0.044509854 -0.07558821 -0.22503285 -0.03212509 0.028152114 -0.15608388 0.005908414 0.048517738 0.012067366 -0.15535118 -0.18467052 0.10817694 -0.14992823 -0.28902176 -0.1069648 -0.039098557 0.104144946 0.08464103 0.18449205 -0.09927429 -0.11357729 -0.03120399 0.1280513 0.16331373 0.08642106 0.13192317 0.22526419 -0.0770042 -0.20619653 0.12512757 0.13459703 0.3148904 0.17412683 -0.035579607 -0.35601228 0.056800794 0.16115013 0.05890637 0.116313204 -0.19439685 0.08932443 -0.103669375 0.103233166 -0.020873308 9.9923425e-05 0.080109574 -0.16748452 -0.021567645 -0.08206262 0.08963072 -0.15034865 0.01982469 -0.029805128 -0.07380753 0.2764734 -0.09546912 -0.057878725 0.36844224 -0.028127737 0.024703495 -0.07688216 0.2587464 -0.025914447 0.14230567 0.16829897 -0.24207501 0.17563039 -0.080886275 -0.12035811 0.15222214 0.14560005 0.14344527 0.011272047 0.100740284 0.022783177 0.10376357 -0.06777758 0.10667259 0.023119543 -0.21370964 -0.051389404 0.05100323 0.02790139 -0.037423536 -0.06390816 -0.013781381 0.11275242 0.012732329 -0.14295064 0.062096406 -0.054053143 0.13988116 0.095649 0.22082908 -0.052378956 0.10096686 0.061465725 0.19644831 -0.24478294 0.23010111 0.022068357 -0.2067 0.099518254 0.33501923 -0.15910624 0.042379003 0.08238119 -0.13792409 -0.20699675
718 0.03491 0.12691107 -0.12951572 -0.16263431 0.043793246 0.24104743 -0.038118947 0.024283238 0.15970579 0.140643 0.23503496 -0.035839766 -0.04209744 -0.15525678 -0.043030612 0.10262022 -0.19042839 -0.051794194 0.19277258 0.080629945 -0.08329309 -0.2480475 -0.118554555 -0.087247685 -0.29980093 -0.027802315 0.06696757 -0.08911384 0.01906267 -0.30237135 0.21346483 -0.15716599 -0.32293797 -0.1712246 0.09381624 -0.03613689 0.09633326 0.2295478 -0.14885232 -0.19336058 -0.09545728 0.0417361 0.1513936 0.14021678 -0.043274917 0.15182815 0.0006371787 -0.18423912 0.08147976 0.091649696 0.3086801 0.10899069 -0.10030923 -0.38026357 0.030984964 0.1151901 -0.1489481 0.05931634 -0.14047924 0.015212008 -0.02285627 0.17028028 -0.09170684 0.0385397 0.25062212 -0.13361104 -0.023099367 -0.22477607 -0.018718364 -0.05121628 -0.31102312 -0.046509784 -0.115325525 0.1885729 -0.1313439 0.07544955 0.34929857 -0.105818026 -0.09379286 -0.04204256 0.14541526 -0.0998651 0.16489477 0.34514827 -0.29073688 0.069864705 -0.091110505 0.04427917 0.10072216 0.23441465 0.07698232 0.035111327 0.071466245 -0.06513029 0.016053965 -0.0051870127 0.109590515 0.053134277 -0.18973105 -0.029452896 0.13037443 -0.00080356625 0.10704249 -0.02439264 0.0061895433 0.17232727 -0.0023307244 -0.080076 0.04099555 -0.124976456 0.024926154 0.024728803 0.22427113 0.0015555733 0.10607691 0.15823123 0.0656468 -0.26930475 -0.006445362 -0.23172945 -0.16988362 0.10571802 0.39570755 -0.10440884 0.06850579 0.03026399 -0.02207976 -0.16704512
347 0.12178544 0.023428459 -0.23497596 -0.08862056 0.07208878 0.011376628 -0.17650102 0.10281485 -0.22939876 0.19354065 0.010780623 0.12402858 -0.11958288 0.03883497 -0.11289522 0.29844034 -0.05484607 0.029476246 0.25258183 0.045787588 -0.017439222 -0.19897678 -0.084788196 -0.00045634326 -0.29285598 0.011198041 -0.068429455 0.17015149 -0.045683116 -0.24710706 0.27702314 0.048720896 -0.2547532 -0.26959386 -0.017612208 0.14542678 0.2181991 0.3521352 -0.21803647 -0.16403173 -0.011404937 0.18005322 0.1625909 0.0393949 -0.08489611 0.10892123 -0.18553478 -0.08436014 0.0077808737 0.2321752 0.2662414 0.06193488 -0.06019987 -0.18147662 -0.0467405 -0.15024899 -0.177118 0.03983086 0.096790075 -0.02275978 -0.0036189388 0.06674863 -0.11341098 0.17229359 0.19693002 -0.33946016 0.07265658 -0.07058239 -0.1662065 -0.025771402 -0.14727873 -0.08479847 0.25456035 0.11581663 -0.023101453 -0.19208509 0.28452194 -0.08245804 -0.05145258 0.07044848 0.24370243 -0.033009376 -0.04988084 0.08619579 -0.110978976 -0.1314015 -0.089470185 0.053202666 -0.002146827 0.1501528 0.01858466 0.11821354 -0.10875736 -0.13114913 0.08048558 -0.029067894 0.06165473 0.005638623 -0.134932 -0.07572515 0.10949854 0.011410074 0.07036597 0.039097093 0.12357205 0.051547054 -0.07118132 -0.13045801 0.114139624 0.021200739 0.013692593 -0.07850236 0.15075743 -0.03408649 0.18766163 0.20087913 0.025749095 -0.16876505 -0.14101331 -0.3468114 0.002300367 -0.094515964 0.3826675 0.0009912307 0.18845378 0.15126577 0.092885315 -0.09447789
406 0.29729977 -0.10135923 -0.11452803 -0.11760676 0.00012898185 -0.0014912992 -0.06835469 0.004088614 0.033054374 0.1914327 0.1719488 0.17285866 -0.12242209 -0.08891638 -0.012742443 0.14260127 -0.05256299 -0.072561406 0.3221753 0.14493757 -0.21477717 -0.29365847 0.018162053 0.1640181 -0.19737288 0.048123825 -0.009543601 0.0458515 -0.05123943 -0.107084915 0.23295724 -0.06659996 -0.21831085 -0.19181961 -0.13693061 0.09458143 0.10645492 0.29104188 -0.08815535 -0.07786919 0.009970303 0.18161933 0.15477109 0.0098609 0.011732509 0.121236816 -0.037073344 0.063818365 0.07205908 0.18875112 0.06629524 0.20552903 -0.0467073 -0.19218668 0.028302887 0.052293032 -0.19198991 0.24526413 -0.07123548 -0.066969134 -0.09295411 0.10619865 0.044063903 0.13016202 0.1916285 -0.16649134 0.08917787 -0.15217212 -0.09571378 0.06284372 -0.115791515 -0.2687135 0.054444082 0.1237353 0.0017035641 -0.061528217 0.46398112 0.007855703 -0.0657879 -0.15978791 0.21400331 0.08468816 -0.03320032 0.14888394 -0.11675813 0.10695993 -0.19803846 -0.0031339624 0.13645487 0.2933667 0.12349877 0.010245161 0.12811336 -0.11744038 0.1140632 -0.046641972 0.14833145 0.23265721 -0.12891413 -0.0043409 0.18224716 -0.06071457 0.063646056 -0.026102027 0.037631467 0.043284103 -0.09751712 -0.02762089 0.15713783 -0.027080564 0.053127643 0.1349114 0.2116105 -0.02871183 0.25297806 0.1734417 0.13162518 -0.10931147 0.1320951 -0.10370088 -0.083404295 0.07071346 0.33848402 -0.2803578 0.010045457 0.29302314 0.10915045 -0.12532479
685 0.1214299 0.17523703 -0.14396253 -0.1256893 0.068176694 0.15772215 -0.10188471 -0.09826644 0.08744651 0.17856997 0.10620434 0.08333398 -0.12940006 -0.081244186 0.06915683 0.08839244 0.12862068 -0.13619992 0.22585094 -0.0062943324 -0.1529735 -0.21600243 -0.036462046 0.038025025 -0.14122294 0.07746007 0.08159131 -0.081240594 -0.2551457 -0.15425736 0.025956988 -0.29241621 -0.28624043 -0.12175173 -0.06239956 -0.024434268 0.055197865 0.17898542 -0.052645195 -0.13402565 -0.066544116 0.032953285 0.26571122 0.14876464 0.089479625 0.3247679 -0.010402332 -0.1559463 0.020518456 0.08155458 0.32283247 0.17813337 -0.08944205 -0.29680535 0.11877366 0.16835475 0.10568908 0.13837303 -0.194176 0.07751186 -0.0055044233 0.120111376 -0.012797059 0.07323419 0.16016349 -0.11978798 0.07269428 -0.039563235 0.04188548 -0.1713722 -0.008864044 -0.06269942 -0.045752887 0.24392089 -0.09670067 -0.00020747389 0.40282118 -0.073142245 0.04823974 -0.10497557 0.1718887 -0.096526906 0.25735644 0.17055097 -0.13844036 0.08694499 0.020309443 -0.14585163 0.13412365 0.15151744 0.1760871 0.053124793 0.110792585 0.07635276 0.11516107 -0.076697454 0.10962834 0.09922738 -0.2492016 0.0254199 0.11084377 0.043602947 -0.01339653 -0.06359841 -0.03369041 0.1371513 -0.0373146 -0.13100271 -0.044793654 0.0038600662 0.13104886 0.10676025 0.30167666 -0.028572837 0.14447099 0.05546161 0.13460943 -0.25146398 0.22294322 -0.0046364604 -0.1935352 -0.027717954 0.2990287 -0.2863437 0.080638714 0.19275227 -0.0622875 -0.26765627
199 0.21666998 -0.0015104976 -0.05101037 -0.18619113 -0.03266001 0.08531123 -0.022209588 0.032278292 0.092656896 0.21368459 0.072699845 0.14740999 0.017114226 -0.12571347 0.0470062 0.049111318 -0.012386305 -0.016531503 0.18334219 0.13174126 -0.10694721 -0.14142564 -0.032630026 0.102900065 -0.15434697 0.08005225 -0.080884576 0.0703348 -0.10401402 -0.18061242 0.08793752 -0.09949115 -0.20790227 -0.05333674 -0.012887834 0.0075035077 0.0016334245 0.017999854 -0.08938403 -0.08881741 0.07354281 0.110310376 0.11760545 -0.012153202 0.06293787 0.16472453 -0.046869826 0.023757752 0.0782454 0.09072976 0.21261485 0.15081687 0.039205693 -0.14660348 0.071441084 0.13744707 0.038918592 0.117420815 -0.1177234 0.012315931 -0.012353331 0.14370508 0.061224062 0.06885764 0.106564984 -0.15499629 0.010129117 -0.10613003 0.023537606 -0.06800268 -0.066398695 -0.043560464 -0.057589684 0.18323088 -0.05128472 0.0041521545 0.35775387 -0.004245469 -0.064279675 -0.11223645 0.22390586 -0.0080837775 0.1952523 0.08277496 -0.10792901 0.19267873 -0.12546633 -0.047513846 0.1495688 0.2274504 0.27922028 -0.041960318 0.060552612 -0.023832131 0.098264 0.0011776951 0.07664466 0.12402218 -0.14282927 -0.03575182 0.13349584 0.06412022 0.094524786 0.055077665 0.045986284 -0.026823875 -0.049905833 -0.14293784 -0.02011358 -0.06599726 0.013668365 0.031393614 0.13232467 -0.07210728 0.16428308 0.08087688 0.014480523 -0.20684355 0.04213126 -0.07034171 -0.1579262 0.020987561 0.26577696 -0.1364063 0.06735114 0.09570031 -0.06268996 -0.13167927
786 0.11422984 0.21469444 -0.189487 0.038474366 0.13507298 0.14319585 -0.020938149 0.35649753 0.060987465 0.12697445 0.1311134 0.12829772 -0.04159917 0.007400577 -0.0017612632 0.2570291 -0.1843604 0.029448552 0.24910854 0.044901576 -0.10706911 -0.15202202 -0.18559554 -0.057089493 -0.3277769 0.14172527 -0.00018477422 0.026514245 -0.04120892 -0.28730816 0.2521059 -0.028030759 -0.1966294 -0.06857437 0.02297977 -0.17992193 0.06718611 0.29625735 -0.025289929 -0.17499217 -0.09166213 -0.004340784 -0.024587862 0.0075382744 -0.054573406 0.21606942 0.13267206 -0.1471814 -0.078789964 0.05974072 0.14883748 0.10277598 -0.16763282 -0.2966291 0.14576975 0.08959623 -0.27406648 0.23576169 0.105020836 -0.011058597 0.03699028 0.19163552 -0.120151445 -0.03529194 0.11450176 -0.18595721 0.13490084 -0.14423816 -0.12219903 -0.074650995 -0.30276555 0.028011587 -0.075837076 0.21140404 -0.14256762 -0.046558637 0.24790272 -0.14256245 -0.006485039 -0.09187067 0.18102404 -0.07565837 0.1758708 0.3293045 -0.17959268 -0.008539621 -0.11096556 0.044617064 0.26533857 0.28331268 -0.005487724 0.110827185 -0.059467692 -0.19300169 0.04166794 0.04480105 -0.0068954956 -0.09896719 -0.2409038 0.11718726 0.14297819 0.05551626 0.3376253 0.064786695 0.18875766 0.09974805 -0.28622186 0.0057168957 0.13737704 -0.106147565 -0.03385207 -0.05746629 0.28996179 0.028421463 0.13246274 0.15336262 -0.050710954 -0.46930954 -0.0701503 -0.36841705 -0.23630017 0.051566027 0.21216474 -0.065073356 0.1263463 0.082196355 0.03818248 -0.19526818
816 0.12543865 0.10958597 -0.123891704 -0.029741388 0.016501246 0.03741992 -0.15053877 0.100340664 -0.060853682 0.21336843 0.07574332 0.16561905 -0.036018364 -0.028088588 -0.0043567796 0.0564881 -0.098583154 -0.05538372 0.28653672 0.06810244 -0.12359228 -0.124180906 -0.010994724 0.06290854 -0.3479997 0.06846614 -0.055338703 0.11941584 -0.110144995 -0.15493084 0.23571232 -0.025479184 -0.25825328 -0.15762949 -0.056202635 -0.029531017 0.23679052 0.2624782 -0.14343657 -0.16771506 0.024569636 0.18216243 0.044603955 -0.042225588 -0.002943418 0.15385686 -0.0452288 -0.0955259 0.058901623 0.21297252 0.18111408 0.111230776 -0.021290911 -0.182819 0.07836928 -0.023184186 -0.20549716 0.11950742 0.05107508 -0.038554557 0.0052469433 0.08662666 0.026002703 0.07204555 0.08171947 -0.22754498 -0.003495338 0.035726447 -0.01985428 -0.0022731319 -0.117249645 -0.061799288 0.12773685 0.09455433 0.053820398 -0.14900778 0.23861018 -0.050560717 0.01091594 -0.0822558 0.32971752 0.032797284 0.039701372 0.12506528 -0.05163385 0.0042248736 -0.1750152 0.021033077 0.108517505 0.13626379 0.11831259 -0.014516334 -0.090349056 -0.2363305 0.07797741 0.036773916 0.07040231 0.14333397 -0.1506229 -0.013168102 0.091462724 -0.019646173 0.1078856 0.0078060455 0.0037919222 0.103200436 -0.17132618 -0.068266526 0.12358927 -0.060426015 -0.010661302 -0.042365424 0.20842345 -0.012003626 0.09340428 0.11281158 -0.030725626 -0.2272021 -0.03962151 -0.20600688 -0.0967821 0.033060435 0.25853184 -0.129351 -0.05281755 0.094950914 0.014163097 -0.1113686
366 0.117735684 0.08541767 -0.07276535 -0.08773586 0.048581447 0.1567566 0.043682896 0.10971691 -0.022295741 0.124940574 -0.1276477 0.11563615 0.0020375606 0.01996902 0.030171582 0.3035773 0.07564272 0.13990797 0.06954384 0.03354214 -0.016958034 -0.15961948 -0.114239946 -0.031959403 -0.15154423 -0.026872938 -0.09451725 0.18097147 -0.04286551 -0.295942 0.19198084 0.01448787 -0.11625396 -0.06313702 0.07140838 -0.021335196 -0.033355534 0.10628999 -0.23368636 -0.17600091 0.07183442 0.028682327 0.105225645 0.15940179 -0.025376812 0.10264786 -0.008428545 -0.09197925 -0.004856355 0.1463184 0.31589997 0.08537882 -0.047021106 -0.2771626 0.034458682 0.003182559 0.042407434 0.038116973 0.0122071095 0.043714054 0.05781012 0.19938028 -0.10918847 0.12626494 0.058678005 -0.30390084 -0.020105924 -0.18776867 -0.106583975 -0.005608533 -0.10786378 0.105347276 0.061174106 0.13731143 -0.17116298 0.09368097 0.2804058 0.047752306 -0.040967144 0.04062539 0.078585126 -0.100225404 0.2235792 0.04876921 -0.09515529 0.044178788 0.0084413495 0.039830703 0.12501635 0.2241144 0.097602986 0.089887165 -0.016989999 0.064531654 0.17692302 0.09584766 0.057912514 -0.09757931 -0.1941584 -0.062115435 0.10138564 0.07494934 0.08482583 0.10181241 0.1729793 0.00065413874 -0.054628734 -0.2095758 -0.00552248 -0.06743295 -0.033288587 -0.15348154 0.16173251 -0.04433588 0.19488692 0.23851207 0.046453483 -0.30768636 -0.17408992 -0.22266649 -0.021056788 -0.099047765 0.3096209 0.064554095 0.29109597 0.024985109 -0.02358603 -0.13107097
497 0.10260674 -0.039317656 0.058001455 0.016159974 -0.040136244 0.13779692 -0.1387463 -0.031680632 -0.017122872 0.16529062 0.20860232 0.078733265 -0.0945934 -0.010368902 0.022450933 0.15757138 0.10144858 -0.0131342 0.17663124 -0.0071635535 -0.013015841 -0.123498954 0.030768238 0.078966 -0.19606273 -0.035960276 -0.018317377 0.12848993 -0.11581776 -0.12514274 0.1599849 -0.035968974 -0.23587261 -0.14398059 0.0504115 0.052342527 -0.01765866 0.07901107 -0.12431886 -0.21436284 0.08564325 0.13743359 0.1457305 -0.026528288 0.02482856 0.19490585 -0.08518329 -0.08785872 0.18322337 0.09926882 0.20149256 0.028099166 -0.053773142 -0.20192032 0.04212566 0.10159275 -0.058702216 0.12748426 -0.09608192 0.039754186 -0.08202672 0.0861991 -0.023269398 0.07296873 0.13951634 -0.20399134 0.031751946 -0.17322257 -0.03418871 -0.02471423 0.005683519 -0.023063214 -0.016860949 0.16800585 -0.045735992 -0.08890389 0.34476608 -0.08097791 -0.034530554 -0.030178268 0.2269857 -0.023298053 0.009446274 -0.04392244 -0.16717054 0.16332227 -0.045276865 -0.012102332 0.12718713 0.25734657 0.16614683 -0.023802431 0.045387 -0.08986026 0.14497285 -0.097166926 0.107151374 -0.0024067482 -0.19529194 -0.00514483 0.042743202 0.07457092 0.06519033 0.009056316 0.107437745 0.043946125 -0.109433874 -0.1359 0.09523809 -0.118042454 0.083245724 -0.004534752 0.2401258 -0.105123766 0.14872016 0.07436078 0.12294793 -0.3172393 0.092779666 -0.06685668 -0.1206093 0.13200982 0.2747592 -0.0813122 0.11389429 0.060447052 -0.08190396 -0.030836564
442 0.25016326 -0.03938749 -0.056071203 -0.09630421 -0.079519 0.1057273 -0.08130783 0.030255305 0.036860596 0.22164917 0.11304748 0.07197561 -0.05448149 -0.11108267 0.059776325 0.1722038 0.078438245 0.017204951 0.19181272 0.04423222 -0.058831464 -0.20295252 0.063909374 0.041934017 -0.096671976 0.0039861402 -0.045371883 0.095492736 -0.08429275 -0.11555849 0.13603178 -0.13859427 -0.20972358 -0.13645445 -0.007985153 0.053478274 -0.08139717 0.09018419 -0.02409776 -0.09276726 0.035049144 0.07052397 0.17585532 0.07165025 0.048179355 0.23607904 0.045803912 -0.04749211 0.14836676 0.112996645 0.23357172 0.13707995 -0.058636494 -0.20835987 0.083505325 0.12481702 0.05565178 0.22218432 -0.07075723 0.0776441 -0.08653923 0.20049356 -0.038404077 0.13325521 0.1370816 -0.21510643 0.06334081 -0.21913038 -0.10334551 -0.07143579 0.060332645 -0.07507202 -0.03407976 0.13300267 -0.0729398 0.075199716 0.35084477 -0.02436364 0.02761161 -0.12882972 0.026002847 -0.007314931 0.07784952 0.051069133 -0.13048442 0.19594787 -0.066046946 -0.04047423 0.1991456 0.25329405 0.18423036 0.032389324 0.14388296 -0.025385188 0.16773742 0.004433758 0.11660252 0.038944863 -0.18665282 0.034506984 0.07597594 0.06256435 0.045753393 0.019442834 0.11673215 -0.021043207 -0.06807572 -0.14805079 0.05697527 -0.033170138 0.023874164 0.0850704 0.2754174 -0.12073465 0.20587523 0.105841935 0.11998485 -0.27868885 0.09534862 -0.08433161 -0.12619245 -0.047661677 0.23760274 -0.16858229 0.18739296 0.18761726 -0.031880345 -0.096851006
750 0.17178205 0.21244106 -0.2734177 0.015879752 0.16669609 0.047057703 -0.07184019 0.38558647 -0.0018086537 0.16071558 0.1532279 0.17997739 -0.07764237 0.035141934 -0.0326518 0.25413844 -0.22135599 0.031882778 0.30908006 0.07582872 -0.15061736 -0.15023685 -0.16788939 -0.0046641617 -0.385135 0.15430349 -0.00019294207 0.02817796 -0.05988718 -0.31458804 0.26765218 0.0026861087 -0.23567258 -0.11275554 0.01038475 -0.1730755 0.1299697 0.3766775 0.0024331873 -0.19100298 -0.097463116 0.026692057 0.0324426 -0.06286357 -0.06395061 0.21684949 0.09939722 -0.09123011 -0.09437045 0.12956505 0.12630227 0.09571104 -0.21945037 -0.1826947 0.13885154 0.058807198 -0.38539687 0.30925643 0.098258965 -0.00058654445 0.044764336 0.12889916 -0.10451677 -0.047392104 0.11339861 -0.19179505 0.16253401 -0.089134075 -0.12837984 -0.0524129 -0.28723273 -0.080432065 -0.006762192 0.12253138 -0.13694437 -0.08127803 0.22471774 -0.1298629 0.009716662 -0.09084752 0.15347475 -0.00910814 0.07366337 0.30581746 -0.15650176 -0.08497171 -0.14152168 0.04764069 0.18701862 0.22593749 -0.04342844 0.13683894 -0.085490495 -0.23641619 0.01702716 0.017399253 -0.0016365772 -0.017417014 -0.23616679 0.14945965 0.17329322 -0.011759294 0.3268987 0.08673108 0.23084804 0.09261586 -0.32532623 0.010372386 0.1565999 -0.10584331 -0.06417368 -0.045918867 0.30049655 0.029593153 0.19531195 0.16805646 -0.09450453 -0.40200824 -0.06421174 -0.36670113 -0.20023826 0.032522846 0.15976179 -0.1002743 0.07938249 0.13481355 0.07167142 -0.21318059
716 0.054517277 0.023453137 -0.17818221 -0.18526593 0.018302351 0.19910276 -0.17361376 -0.06783478 -0.028607119 0.2620422 0.104371436 0.08011477 -0.11613488 -0.09782828 -0.014769251 0.09561395 -0.033953473 -0.034331866 0.12248472 0.07056976 0.040759318 -0.14044806 -0.12173454 -0.011205962 -0.2022114 0.056121916 0.009983201 -0.014518425 -0.085379235 -0.27151978 0.08067671 -0.06834385 -0.24248737 -0.1758884 0.107730925 0.12326419 0.13221091 0.14318691 -0.19767748 -0.11224503 -0.057462517 0.13424593 0.21316145 0.021435779 0.04570838 0.1624642 -0.12649776 -0.19204672 0.12978218 0.107007414 0.35396668 0.064666465 -0.007362769 -0.24429005 -0.028526602 0.058149282 0.069442414 0.011956486 -0.120085426 0.11886032 -0.057782803 0.15605445 -0.09608064 0.08741081 0.19775514 -0.19531918 0.032935843 -0.05647178 -0.0081135165 -0.10606922 -0.061904706 0.014022166 0.051211342 0.2826913 -0.10972255 -0.08443758 0.29207736 -0.13382076 -0.044961207 0.046390545 0.2810438 -0.11659476 0.09349482 0.14204836 -0.20335181 0.028406877 -0.09933541 -0.0161045 0.050049458 0.1042001 0.09668503 0.059066586 -0.09831812 0.024082609 0.02146102 -0.062453896 0.068959236 -0.017315445 -0.14231172 -0.07951024 0.07583014 0.04758362 -0.017555993 -0.02645905 0.05209543 0.07130981 0.04034392 -0.20168756 0.057250135 -0.06091462 0.12786913 0.03859077 0.18995617 -0.03438145 0.06300866 0.09838658 0.07593789 -0.20098695 0.04010793 -0.1645856 -0.20183818 0.038990855 0.2982277 -0.041696884 0.10022927 -0.03614225 -0.08116147 -0.068801954
359 0.16074546 0.02062857 -0.14720777 -0.023821276 0.011493917 -0.007976328 -0.17901409 -0.005586299 -0.13167723 0.319989 0.10700754 0.19477007 -0.14985122 -0.045391064 -0.033953678 0.17796464 -0.09483043 -0.06202157 0.29801673 0.017137235 -0.08122389 -0.18441926 0.104598165 0.08606618 -0.23622812 0.085627094 -0.13616961 0.099214986 -0.001120676 -0.08958195 0.18479216 -0.06467371 -0.1664726 -0.23332205 -0.08269233 0.038988627 0.21556693 0.31480289 -0.124977335 -0.15654407 0.034196187 0.18832268 0.1823623 -0.058770195 0.03232625 0.123231426 -0.14054275 -0.015556235 0.042949624 0.15498555 0.15870209 0.13659076 -0.09520013 -0.083057605 0.05792781 -0.06493156 -0.19770868 0.21258503 0.039644636 -0.1320879 -0.055984493 0.13336721 0.011957645 0.10336441 0.19890003 -0.18962942 0.09083651 -0.02826682 -0.10096203 0.0010740155 -0.10480976 -0.09156292 0.17622524 0.1780183 0.052607745 -0.18087071 0.35420686 -0.096109875 -0.10647576 -0.10583208 0.3285421 0.016227966 -0.06433721 0.08641574 -0.010720101 0.038746387 -0.22382833 -0.0070517254 0.13459101 0.16075826 0.09973588 -0.015895385 0.029606996 -0.23624216 0.046281498 -0.11164712 0.13562293 0.122232735 -0.12820292 -0.009960613 0.16171946 0.01255341 0.12061797 -0.030435199 -0.02574289 -0.05364816 -0.16468066 0.045382943 0.14147916 -0.027913472 0.025225736 0.11296591 0.18312909 -0.043656427 0.15790091 0.06668546 0.020015858 -0.13265403 0.011227828 -0.17343023 -0.07205891 0.011484886 0.34524277 -0.17188698 -0.015673991 0.22387551 0.12824796 -0.021684794
386 0.1616352 0.040332913 -0.12938611 -0.00014654084 0.049681254 0.07616462 -0.031876538 0.13125086 -0.026305707 0.16598687 0.09112691 0.1775474 -0.13393778 -0.038375873 -0.013423866 0.2550395 -0.06268345 0.06831243 0.08762282 0.045851473 -0.02912805 -0.17191829 -0.04393974 0.005030511 -0.16911092 0.06647178 -0.041674662 0.07969342 0.050046157 -0.24715556 0.16450347 0.06536176 -0.062459826 -0.12631491 0.045161873 0.016081156 -0.0030274345 0.29341972 -0.17945494 -0.09959804 -0.010194399 0.066651866 0.07952218 0.013924401 0.006715439 0.04982641 0.008274016 -0.096694335 -0.022119274 0.13468117 0.1633691 0.13168749 -0.108560935 -0.18957956 0.04055581 0.030064326 -0.18792127 0.27436823 0.009428256 -0.019720964 -0.050913814 0.19064268 -0.0735685 0.06400593 0.14350452 -0.22709174 0.15410551 -0.17404124 -0.095655315 0.03342842 -0.18601212 -0.065614864 0.05484529 0.29996118 -0.19447194 -0.024030851 0.35350066 -0.047676425 -0.07831518 -0.034094848 0.18131858 0.044801783 0.092391685 0.1563303 -0.11788795 0.044767085 -0.12330947 0.06895652 0.19759269 0.2868789 -0.01890035 0.18383494 -0.0008336905 -0.022364864 0.06398372 0.021821154 0.124975614 -0.048322078 -0.21245396 0.0015399379 0.20099632 -0.07203808 0.13259092 0.08665206 0.16724123 -0.020041863 -0.113824174 -0.0902755 0.13225901 -0.08470503 -0.030847158 0.029337447 0.19284043 -0.011111616 0.20033036 0.19777685 0.071396574 -0.25770316 0.009041732 -0.21725334 -0.1450656 0.06468754 0.27657712 -0.11322946 0.17826436 0.1576613 0.12026086 -0.09398627
422 0.18394186 -0.06515574 -0.10266739 -0.027421767 -0.091292486 0.033328965 -0.17524326 -0.021176226 -0.05806255 0.14952634 0.17880686 0.08367361 -0.14379556 -0.1383582 -0.073535174 0.06732344 0.019741599 -0.021848815 0.107216164 0.087087214 0.01095563 -0.19119683 -0.035619996 0.028819429 -0.1859692 -0.009792682 0.06790399 0.014310018 -0.026346369 -0.109577395 0.08739355 0.01651493 -0.26472303 -0.19502437 0.018615963 0.13024433 0.03277044 0.2631202 -0.14538714 -0.0639843 -0.0709569 0.19199738 0.078830436 -0.006385195 0.06113576 0.12807675 -0.12431563 -0.18974955 0.06610268 0.15182477 0.16623071 0.04187288 -0.031173425 -0.18101759 0.014755027 0.08408666 -0.17850126 0.17671055 -0.07831903 -0.030809468 -0.059189454 0.102769144 -0.06367658 0.1275127 0.09897541 -0.10281594 0.101619996 -0.07554821 -0.04347715 -0.028466996 -0.07733005 -0.00019454962 -0.008475621 0.28895003 -0.08609097 -0.050153658 0.27995235 -0.12937982 -0.03908392 0.012747962 0.2588651 0.08428744 0.033669863 0.05165762 -0.107824855 0.102211274 -0.093335025 0.013673605 0.13561247 0.21434578 0.05393998 0.15776582 0.006332921 0.022411779 0.07509103 0.015510963 0.16418156 0.003451807 -0.17097802 -0.00045977358 0.04281802 -0.1086454 0.04779204 0.025901558 0.10869958 0.08604699 -0.045499656 -0.15384834 0.096556105 -0.07985113 0.029156942 0.09211904 0.13446961 -0.012703239 0.15354069 0.11315698 0.10625254 -0.23276635 0.14475086 -0.08262593 -0.13646075 0.15762042 0.26976928 -0.18299414 0.07974368 0.17740715 0.040156495 -0.06191037
797 0.12642668 0.20249365 -0.18740016 -0.04748116 0.08873708 0.049203508 -0.15481082 0.04197617 -0.13291699 0.23690635 0.027868804 0.1588628 -0.11390544 -0.03402672 -0.0087696705 0.116993494 -0.053529017 0.009248143 0.16240457 0.022857692 -0.06330512 -0.0967771 -0.0035671266 -0.0064953845 -0.25384295 0.07153234 0.00030286208 0.024513705 -0.08791096 -0.08131534 0.118405744 -0.16192076 -0.25703296 -0.1258019 -0.021595258 -0.0020012741 0.2467895 0.28092757 -0.08393721 -0.12910892 -0.030563334 0.06304447 0.15353128 0.066082455 -0.021144234 0.19474556 -0.06249404 -0.07563989 0.009984014 0.21545371 0.22521973 0.06998335 -0.13047445 -0.17767982 0.05012271 -0.082217485 -0.094065465 0.16483599 0.031362694 0.024990717 0.0901168 0.16375247 -0.033209056 0.095755205 0.09838524 -0.25460446 0.057482626 0.038227856 -0.057169277 -0.13964908 -0.02736317 0.0582001 0.10093434 0.08686878 -0.10501015 -0.058917753 0.22070481 -0.14522532 0.023721548 -0.0581602 0.1991784 -0.07430954 0.11522651 0.115459576 -0.04339308 -0.06446235 -0.08582543 0.025286667 0.025779909 0.047853656 0.10165173 0.13101836 -0.10054823 -0.13495646 0.07977342 0.07072545 0.09041499 0.033808663 -0.16837913 0.029617654 0.13863815 0.019083956 0.1124769 0.024394825 0.086370364 -0.018737491 -0.25130752 -0.12030389 0.057384733 -0.079354525 -0.00062232424 0.06038883 0.32160205 -0.06379638 0.18350726 0.08601064 -0.08484016 -0.3188205 -0.04551406 -0.18521279 -0.13215043 -0.15223072 0.22670282 -0.1473616 0.07759478 0.11749676 -0.017073434 -0.16605867
706 0.1342651 -0.004336524 -0.17643781 -0.07298964 0.06827104 0.09257919 -0.18484168 0.053358346 -0.107187934 0.17240927 0.1151099 0.1506436 -0.14355713 0.004388141 -0.060353827 0.14504425 -0.024011647 -0.055967752 0.31376842 0.09875566 -0.08738143 -0.21659982 -0.16124673 0.050899018 -0.23502995 0.052507386 -0.0019009367 0.05119677 -0.11641969 -0.14991876 0.14868714 -0.017722497 -0.2475381 -0.25071657 -0.00972546 0.11947978 0.1461277 0.23014945 -0.06205879 -0.17181349 -0.045753576 0.18797362 0.12999217 -0.041471656 0.029390348 0.19095767 -0.10669921 -0.11413146 0.059045065 0.14858828 0.23796965 0.07813071 -0.0386247 -0.18271904 0.022584697 0.023131132 -0.115331575 0.06727193 -0.044755224 0.039197545 -0.013752036 0.05638951 -0.109104425 0.0762618 0.12719479 -0.17200324 0.083757125 -0.025066685 -0.12554452 -0.06420244 -0.057104547 -0.07666729 0.07637104 0.14670606 -0.041241698 -0.16509798 0.27614546 -0.06284581 -0.039901253 -0.029909125 0.2884489 -0.027428927 0.008661968 0.06181831 -0.16720204 0.010247075 -0.09063123 -0.050782874 0.089293346 0.13046722 0.07687215 0.018696208 -0.022354022 -0.09916119 0.061563056 -0.09444587 0.013078779 0.057300594 -0.09594914 5.3502878e-05 0.022267722 -0.018538283 0.016628344 -0.040490896 0.06500669 0.123763494 -0.071440786 -0.07372231 0.12523682 -0.015306469 0.09186608 -0.0345009 0.21894357 0.009623592 0.14211403 0.15162784 0.068158776 -0.20587687 0.07795082 -0.18357427 -0.07150703 0.041221216 0.3261667 -0.11073454 0.0047994987 0.105169155 -0.015996791 -0.13155109
758 0.22845434 0.22898142 -0.32862312 -0.004816048 0.127733 0.10454394 -0.03847562 0.40728796 0.07771244 0.12954879 0.13821869 0.18087739 -0.10764259 -0.0015313455 -0.015201206 0.25404426 -0.1809654 0.036872864 0.28461522 0.10541583 -0.08477566 -0.15766701 -0.28598398 -0.0052467342 -0.3373809 0.1701468 0.092679895 -0.03937232 -0.03228241 -0.2921189 0.23270658 -0.047942065 -0.21686849 -0.09862589 0.0067220754 -0.15303263 0.080926634 0.34806272 -0.000576145 -0.08064632 -0.18323943 0.018004686 -0.034051828 -0.063429356 -0.12116097 0.24884225 0.14380021 -0.14858407 -0.09650089 0.15527298 0.14145586 0.11337567 -0.22531825 -0.27895874 0.16624533 0.117034234 -0.3234277 0.27592415 0.10279674 0.013189955 0.023802318 0.19240773 -0.11438593 -0.0055705393 0.08573191 -0.13242373 0.15700866 -0.07877343 -0.1322822 -0.043494344 -0.2978002 -0.06648616 -0.031085562 0.1747895 -0.19221371 -0.022351442 0.20637067 -0.13893034 0.061777778 -0.06297168 0.089918114 -0.029493222 0.18113393 0.3732564 -0.14199267 -0.069572225 -0.13161328 0.034315966 0.22747567 0.24325193 -0.060079943 0.16173258 -0.12043017 -0.19096488 0.060558874 0.09338963 -0.016588388 -0.03924383 -0.2792015 0.17298889 0.11675417 -0.020631213 0.32191512 0.061753877 0.29968384 0.16531269 -0.3288319 -0.06016794 0.16182181 -0.09818209 -0.047800604 -0.009549181 0.33192825 0.037797727 0.15020053 0.21148062 -0.062730685 -0.51232475 -0.00504187 -0.3380634 -0.29550657 0.056838218 0.13331178 -0.13746813 0.11962431 0.11061987 0.07345582 -0.1899305
179 0.19208978 -0.005595103 -0.109293014 -0.09895184 -0.09650736 0.101175465 -0.10784969 0.07056796 -0.08361952 0.13038309 0.055605806 0.08906531 -0.0025228786 -0.09082245 -0.023837011 0.07323399 -0.11978473 0.046503127 0.27647123 0.1031658 -0.076520085 -0.21591762 0.00928518 0.029768331 -0.12986138 -0.06372323 -0.14617822 0.16641891 0.06578394 -0.104006596 0.21580791 -0.021699287 -0.18169908 -0.27840063 -0.011481826 0.090360254 0.13886967 0.13984333 -0.107988946 -0.13378803 0.06790016 0.11986379 0.06697506 0.031036384 -0.057690278 0.046581946 -0.056066744 -0.017923864 0.09365674 0.17657596 0.20853417 0.13712493 0.028596098 -0.11063863 0.00076746295 -0.013082404 -0.07902068 0.09401049 0.0060962113 -0.010256804 0.0110290535 0.1742295 -0.087136105 0.15989801 0.0762021 -0.22442904 -0.0114773065 -0.11518472 -0.17808363 0.046872728 -0.04438977 -0.054678302 0.10774747 0.048641387 -0.057451725 0.044188637 0.25288954 0.017536234 -0.064051196 -0.059040472 0.16548458 0.05836885 0.0506066 0.021718074 -0.025558803 0.138187 -0.15288045 0.027360434 0.16718988 0.13803573 0.18359333 -0.025119953 0.056796137 -0.059081066 0.14025575 0.059468403 0.010636726 0.10327724 0.028029175 -0.04469176 0.07274421 -0.063705646 -0.051902045 0.009795667 0.033286523 -0.007705454 0.015489433 -0.10872795 0.077375524 0.04135582 -0.076854266 -0.08122902 0.09354225 -0.050006445 0.16292603 0.12817112 0.01796053 -0.10997684 -0.11152793 -0.13030605 0.07000092 -0.08533666 0.35218117 -0.07585401 0.028861966 0.078278385 0.067511246 0.0039381576
326 0.090138845 0.12200902 -0.11719246 -0.021038763 0.13823739 0.043630198 -0.07318518 0.05067323 -0.12150488 0.2749686 0.03595199 0.19740325 -0.13637148 0.016601423 0.034614403 0.24690932 -0.07970179 0.06780876 0.21384571 0.01728071 -0.072617695 -0.167043 0.0609643 0.09297023 -0.23232459 0.13169609 -0.08987035 0.061692033 -0.018615976 -0.11917723 0.2719342 -0.06818697 -0.061973743 -0.055773422 -0.09065337 -0.019405952 0.2217404 0.32972282 -0.14603703 -0.15919 0.08794718 0.047192544 0.17514685 0.0016484605 -0.020734413 0.08951125 -0.07778483 -0.013900629 0.021942135 0.18092132 0.14556518 0.1617509 -0.15513748 -0.11921956 0.07001887 -0.058950134 -0.14068048 0.31885496 0.12502198 -0.06879598 -0.014321949 0.23613489 -0.02124649 0.044480357 0.13965686 -0.2766597 0.101166196 -0.063290395 -0.045604914 0.0016385656 -0.058980994 -0.035716385 0.13737878 0.17097953 -0.078819215 -0.15492912 0.33422393 -0.06113183 -0.08714641 -0.04343538 0.25724036 -0.012692997 0.07119194 0.06587164 0.0133755235 -0.01471652 -0.13066241 0.02882943 0.13441607 0.16879262 0.0666945 0.071953505 -0.046880364 -0.14668797 0.058288846 -0.047060166 0.08474815 -0.026471555 -0.15495534 0.007743949 0.28039137 0.021214955 0.11539014 -0.018917605 0.10225032 -0.1568935 -0.25566277 -0.018565156 0.17036702 -0.0662129 0.0144164525 0.09684307 0.2627464 -0.078063615 0.2104853 0.104272485 -0.017021086 -0.19696462 -0.073305845 -0.19483691 -0.13275202 -0.074339755 0.26691377 -0.12116942 0.08084052 0.1341373 0.09680689 -0.09649422
752 0.061148796 0.22155495 -0.12533768 0.061404705 0.13721226 0.093995966 -0.05272552 0.18070285 -0.0812903 0.16903514 0.012794587 0.21002738 -0.07225243 0.09421069 0.022097373 0.24138616 -0.040991202 0.027465647 0.23944233 -0.031040417 -0.1409953 -0.09313147 -0.029075775 0.009099306 -0.34353822 0.100975 -0.09968593 0.14673877 -0.117615074 -0.28768468 0.2644398 0.025654998 -0.16711092 -0.12091676 0.012063762 -0.13202347 0.16782458 0.29223594 -0.16374798 -0.23974882 0.044784147 0.05125373 0.10717034 0.010246943 -0.087430105 0.15503101 0.091286734 -0.08482833 -0.035744406 0.17493297 0.196407 0.08257743 -0.12671322 -0.2044298 0.0898029 -0.06267747 -0.20806971 0.13476619 0.049613673 -0.005834489 0.025584212 0.10875412 -0.053742703 0.04940774 0.09673242 -0.28424063 0.061963394 -0.03402447 -0.09131906 0.0128967045 -0.13882272 -0.061186112 0.15197739 0.102801934 -0.037348628 -0.088327974 0.26978716 -0.07507634 0.01902931 -0.03558968 0.22521801 -0.04025207 0.08926945 0.1850142 -0.06297809 -0.08513469 -0.119979784 0.03157475 0.121613815 0.15212835 -0.015811758 0.061010446 -0.11326958 -0.20173553 0.08350142 0.0097795185 0.046260726 0.025498608 -0.2229217 0.04008904 0.15466368 0.03506689 0.18180336 0.05495983 0.13400239 0.07914556 -0.2591821 -0.08018736 0.07318391 -0.03693691 -0.006860597 -0.101892 0.31163344 -0.011786834 0.1532677 0.14699863 -0.037056778 -0.32614684 -0.16279787 -0.31327197 -0.098361544 -0.0659497 0.24278884 -0.08268542 0.12654968 0.058504235 0.0063247816 -0.16883543
693 -0.02249068 0.15215717 0.06782485 0.07906197 0.10904404 0.27306288 -0.041383438 -0.0012345712 0.013648058 0.21682677 0.19327444 0.013396814 -0.08512771 0.038787212 0.09707771 0.21777274 0.031415157 0.099403135 0.06313247 -0.08201073 0.030138226 -0.10016792 -0.017154425 -0.08815428 -0.34099048 -0.01141125 -0.032237016 0.052178126 -0.009899552 -0.2515948 0.24300393 -0.09306981 -0.12691061 -0.057322063 0.15327184 0.00027236293 0.12283582 0.15395035 -0.23766582 -0.3473802 0.14903964 -0.028513229 0.14346105 0.13510855 -0.02137722 0.1215081 -0.028264351 -0.2004533 0.14129998 0.062213622 0.296115 0.08998776 -0.12219317 -0.29699984 0.115206204 0.10811482 -0.060580913 0.061958406 0.002778034 0.01829467 -0.10772258 0.1476484 -0.044389103 -0.0043966346 0.2111681 -0.2819764 -0.02095837 -0.29074222 0.00012053275 0.006462635 -0.18424366 0.041082706 -0.054042995 0.21798094 -0.12682761 -0.0058940696 0.35955706 -0.07245459 -0.06372165 -0.023910753 0.28294802 -0.19046633 0.2702903 0.086612836 -0.16770604 0.15474111 0.017951032 0.036245923 0.17679279 0.23971123 0.17194517 0.024861168 -0.042624973 -0.027512835 0.13662674 -0.02256106 0.0036422426 -0.057133768 -0.19994703 -0.06632079 0.15420668 0.10075826 0.059026863 0.031916156 0.066233605 0.031997107 -0.03516994 -0.09768436 0.106793486 -0.14369604 0.11507923 -0.09130635 0.24804233 -0.047216084 0.050360043 0.07479593 0.07773124 -0.2985147 -0.15515497 -0.19319516 -0.111008264 -0.004919508 0.352802 0.012389039 0.10306914 -0.066008545 -0.07234836 -0.12002894
814 0.21477586 0.13117546 -0.17745027 -0.04039613 -0.03256427 0.124778934 -0.1179004 0.13004652 0.02173096 0.20033185 0.15796426 0.1486592 -0.12657177 -0.09564027 -0.028235545 0.11535847 -0.07670389 0.007907753 0.18076915 0.08889925 0.02135572 -0.18264891 -0.16730815 0.03166296 -0.17833757 0.09994773 0.11229603 -0.05254062 -0.010592188 -0.063094765 0.08808783 -0.1342464 -0.22770967 -0.08641381 0.0019543841 -0.002922816 0.040450647 0.16181554 0.006679346 -0.06868913 -0.1645699 0.058827125 0.015878694 -0.07027494 -0.05315738 0.25772944 -0.023915095 -0.16315056 0.022069467 0.12335537 0.1668347 0.079190254 -0.10744947 -0.2663332 0.13840471 0.15282984 -0.12181497 0.20307139 0.0056872894 0.017842432 0.032010876 0.21193276 -0.07392851 0.06458169 0.026228528 -0.008914253 0.16604443 -0.041661885 -0.09529407 -0.124036975 -0.077716604 0.06557222 -0.09970729 0.22244625 -0.19969392 -0.009136039 0.18024297 -0.20496929 0.0069401707 -0.03633256 0.18919742 -0.04908682 0.14767879 0.16710395 -0.055686455 0.09249499 -0.06522873 0.007066451 0.24777497 0.19492437 0.11995101 0.10500991 -0.07247808 -0.10092778 0.065198645 0.02131912 0.046139248 -0.037945706 -0.20102787 0.13050447 0.026419425 -0.056488678 0.1816438 -0.0026769259 0.17069718 0.08344221 -0.20116396 -0.10114221 0.11762453 -0.1175793 0.018544896 0.06755021 0.25121996 -0.019647747 0.12308404 0.086495414 -0.025787743 -0.47033122 0.14815623 -0.10019339 -0.28133753 0.10950512 0.17674324 -0.18546566 0.03432732 0.065908074 -0.00054638967 -0.0846466
407 0.16909383 0.13960905 -0.22961244 -0.029443257 -0.004385514 0.0858606 -0.12096783 -0.035569143 -0.19171438 0.2267003 -0.0006828462 0.07425573 -0.1259352 -0.027737284 -0.0019226472 0.19206522 0.01575142 0.17133181 -0.00077051175 0.005988744 0.14476171 -0.12991443 -0.025789868 -0.045786418 -0.17528218 -0.03554231 0.01310331 0.059045207 0.06474603 -0.19986063 0.09194825 -0.045697547 -0.18375336 -0.15484455 0.09659301 0.01544473 0.104487434 0.16116753 -0.25493187 -0.1591248 -0.017275644 0.021136587 0.16692328 0.08992198 -0.038027007 0.086676866 -0.11369881 -0.16925962 -0.010413864 0.19298773 0.27832684 0.036572307 -0.07439629 -0.07722012 0.03228085 -0.030547963 -0.024989229 0.11456779 0.03260376 0.030185968 0.08746832 0.22210887 -0.14018187 0.14911385 0.09468572 -0.18676803 0.047290195 -0.06428488 -0.10256363 -0.013699929 -0.030832414 0.17776595 0.08207104 0.20205356 -0.23184244 0.06860792 0.09973443 -0.13356441 -0.0488268 0.19924188 0.10226425 -0.05177564 0.12019711 -0.052245364 -0.038557865 0.011509559 0.028899668 0.046302896 0.05377275 0.05992171 0.029372139 0.20424491 -0.1359573 0.12059231 0.11611374 0.05419171 0.036681265 -0.13429488 -0.17519256 0.006395321 0.13446808 -0.026265735 0.005434993 0.07957912 0.1982105 -0.068017974 -0.034139063 -0.25063142 -0.020890422 -0.02666142 -0.0007173652 -0.053302087 0.1283553 -0.02359448 0.2005667 0.13639352 0.011546083 -0.23807973 -0.17457815 -0.134398 -0.04645332 -0.12790728 0.23944105 -0.02829025 0.2381057 0.013567864 0.009427933 0.009105454
806 0.087342314 0.27560905 -0.12764461 0.10222658 0.16602395 0.09835967 -0.05395886 0.25142413 -0.04983678 0.16496278 0.0032996307 0.19211517 -0.05328691 0.078272395 0.075921975 0.2714007 -0.047670394 0.063324116 0.23569804 -0.014672038 -0.13956684 -0.07121826 -0.055803336 0.034214538 -0.34994152 0.14558907 -0.05827655 0.094685934 -0.12346533 -0.21465729 0.26224318 -0.008615651 -0.116444655 -0.049529787 -0.030683627 -0.19836622 0.1468104 0.29261178 -0.102623485 -0.24064884 0.055582035 -0.021587973 0.00014425791 -0.0047460794 -0.056073323 0.18598107 0.07037148 -0.12892175 -0.075809985 0.13495347 0.15683253 0.09584533 -0.17801562 -0.19778891 0.17771198 0.03501972 -0.25836855 0.25922522 0.13876356 -0.055693362 0.054024752 0.17887211 -0.052903626 0.026131399 0.075459816 -0.26586097 0.108750984 -0.03230791 -0.05893375 -0.027864963 -0.18228403 0.047395665 0.104203396 0.11313763 -0.11324868 -0.10360363 0.23658466 -0.074312 0.03448068 -0.06334372 0.25321427 -0.03220225 0.18634607 0.14162087 0.019486064 -0.05003801 -0.03979675 0.042697635 0.18282047 0.18793797 0.025284598 0.09329521 -0.10671858 -0.20444493 0.08617463 0.054828998 0.019270226 -0.037747823 -0.25430477 0.09145618 0.19575804 0.06904096 0.2404351 0.037533935 0.15849479 0.018777374 -0.36070192 -0.028422724 0.118188694 -0.098852746 -0.038241856 -0.07475341 0.30945033 0.015449916 0.116407484 0.12259869 -0.08335992 -0.3848552 -0.12802078 -0.26858723 -0.11774844 -0.047694296 0.16649127 -0.075164154 0.1043531 0.07282551 0.049060524 -0.18497844
818 0.15949903 0.16336472 -0.20746018 -0.0069327885 0.030528456 0.07653602 -0.02136669 0.24716096 -0.058889084 0.109714 0.017820744 0.13467307 -0.007089826 0.0145175215 -0.01616712 0.24212103 -0.06423426 0.04791418 0.18166448 0.05577289 -0.07123666 -0.1654535 -0.12821025 -0.051598117 -0.22358185 0.043594085 0.007720354 0.056539815 -0.05058824 -0.18027687 0.1738114 -0.034723975 -0.22976455 -0.10137193 0.055296298 -0.12772386 -0.00032988528 0.16209796 -0.05628843 -0.15369335 -0.06627659 -0.0009446592 0.08042998 0.053451322 -0.10969737 0.21943134 0.13280086 -0.0525149 -0.020043008 0.13684253 0.20318829 0.063171715 -0.072887905 -0.2246463 0.090207495 0.024362998 -0.11505528 0.11953253 0.05673206 0.080084324 0.13234738 0.20063362 -0.15964876 0.095794044 0.086951666 -0.189062 0.10518463 -0.098467246 -0.22326729 -0.019577727 -0.12961733 0.056058545 0.0072797043 0.085156694 -0.1332335 0.08550008 0.16212238 -0.13620229 0.015311753 -0.035503164 0.02536058 -0.09813286 0.10765791 0.18391463 -0.11619477 -0.03325565 -0.09016035 0.058194786 0.17065296 0.18459068 0.046698503 0.12272228 -0.08557496 -0.09603243 0.1366595 0.09113184 0.001350946 -0.07401936 -0.15402511 0.098333314 0.07109791 0.024538966 0.19641829 0.08696022 0.21137619 0.06514551 -0.18426329 -0.131041 0.05055737 -0.046752583 -0.055517834 -0.074306235 0.3178797 -0.0411022 0.21687777 0.19616522 -0.061169785 -0.4299933 -0.15783669 -0.2909299 -0.16765212 -0.06747115 0.19716276 -0.09301002 0.20479175 0.10585378 0.0064785494 -0.116397664
765 0.1678053 0.2623522 -0.25871888 0.07751336 0.097932406 0.1259091 0.009409736 0.4608103 0.071867295 0.14443254 0.088301435 0.22183694 -0.010266661 0.0445549 0.03874835 0.2780094 -0.16601023 0.031169022 0.3381899 0.09494602 -0.17331937 -0.13863896 -0.26142287 -0.014849245 -0.39239398 0.16462712 0.040198516 0.012416636 -0.09857739 -0.23794414 0.2934782 -0.0060761706 -0.2073194 -0.12618144 0.0016251417 -0.22269325 0.103981614 0.33894733 0.011141585 -0.19285649 -0.120855935 0.034035582 -0.054487582 -0.07475508 -0.11206074 0.25622463 0.22255372 -0.13812187 -0.056898724 0.1482468 0.1398384 0.08560918 -0.17213018 -0.31811768 0.19301254 0.09902069 -0.3368868 0.21255614 0.15707693 -0.0083932765 0.08076081 0.1646569 -0.12166753 0.014756135 0.09999784 -0.15800206 0.1257271 -0.060448125 -0.20180595 0.019738084 -0.29164875 -0.07596213 -0.01358634 0.076427 -0.115003444 -0.061945926 0.20711066 -0.11502514 0.055331018 -0.14361733 0.15861632 -0.06104661 0.16862538 0.35096046 -0.08370752 -0.082604446 -0.14723149 0.04416176 0.24652687 0.27466047 -0.020485573 0.07191091 -0.12766327 -0.31522593 0.07282081 0.081067264 -0.03720456 0.026393281 -0.22699395 0.15672766 0.09591881 0.0047601587 0.3355747 0.05051598 0.20389298 0.19829053 -0.34669948 -0.0035515425 0.1865239 -0.10280569 -0.072400115 -0.08393915 0.43002588 0.0343978 0.13972159 0.25123894 -0.1055764 -0.5309003 -0.07474122 -0.42503154 -0.2560752 0.04692997 0.15374 -0.1173964 0.06508869 0.084156446 0.056960586 -0.2246494
