832 128
346 0.1211943 0.08116288 -0.013523047 0.26867202 -0.021302143 -0.20180528 0.12265906 0.012703465 -0.21847641 0.044951223 0.04513235 0.035139572 -0.28848466 -0.11408522 0.23739655 -0.038176075 0.16865335 0.05256483 -0.060332056 -0.115585595 -0.15848655 0.09499087 -0.10700329 0.15399544 -0.055605613 0.22472854 -0.17016713 0.0076813493 -0.021791704 0.035784792 0.028318817 0.09077089 0.09130125 0.16833027 0.05562898 0.1421012 -0.041079316 0.071132414 0.056978766 0.009120691 -0.22724418 0.015126603 0.022214802 -0.066514075 -0.08903364 -0.048411656 -0.07881266 0.12502234 -0.09884044 0.16125964 0.015670588 -0.32650122 0.1998218 0.104380175 -0.08623082 -0.008035147 -0.10607169 -0.17615823 0.109284885 0.08122136 -0.0055198898 0.10731333 -0.14369664 -0.021641241 -0.1345209 0.047710214 0.009420574 0.09022093 0.12257136 -0.048391543 0.15152095 -0.059738778 0.06707318 0.002570396 0.13869575 0.0266416 -0.06621905 -0.04848417 -0.02295731 -0.052896548 -0.09722152 0.040958207 -0.07236519 -0.028192442 -0.23815711 0.055075686 0.042074095 0.0029253147 0.23387845 -0.08415041 0.14939758 0.015147849 -0.11457298 0.07084859 0.114168234 -0.20925276 -0.06239348 0.14927545 -0.05430985 0.25871077 0.086356185 0.1095638 0.0410883 -0.102702245 0.20112853 -0.17930508 0.00012803623 0.12843636 -0.12985453 0.14135231 0.010816016 -0.20286044 0.001649046 -0.10775375 -0.089626275 -0.13650514 0.12742397 -0.0014055644 -0.16584115 0.06192336 -0.013060126 0.047118716 -0.21785727 -0.12268691 0.059553538 -0.014665918 -0.14760895 -0.10470253
365 0.19889694 0.10608119 0.0036977744 0.19941258 -0.011748571 -0.15888318 0.05074299 -0.011580704 -0.22672729 0.0540978 0.12439193 0.045929123 -0.23230195 -0.18994515 0.2904362 -0.14857861 0.18617886 0.060214255 -0.08447205 -0.085684285 -0.23493457 0.102401175 -0.27121872 0.059424557 -0.044254597 0.20919572 -0.18888773 0.03485941 -0.18778552 0.032833368 0.046285845 0.109972715 0.22419506 0.20657827 0.030028116 0.16258688 -0.08386511 0.12999192 0.09116393 0.06018167 -0.20348942 0.051767606 0.07069788 -0.030340478 -0.0968991 -0.0561281 -0.010996309 0.19223773 -0.19746882 0.13819285 -0.013267972 -0.2967507 0.14408547 0.082863346 0.023289846 -0.03283157 -0.07685927 -0.15180066 0.17061955 0.030187402 0.09639597 0.06323844 -0.21572943 0.067578085 -0.13810763 -0.052510045 0.11029892 0.18011494 0.087201186 -0.1188294 0.18305215 -0.0031976507 0.08855263 -0.033885494 0.18760508 -0.037064068 -0.02424823 -0.021909466 -0.030682605 -0.042141765 -0.12669379 -0.038406055 -0.0015701223 -0.0347952 -0.22045241 0.06201312 0.023240972 -0.03313184 0.24665157 0.038203366 0.13426645 -0.04880154 -0.17859331 0.09540228 0.18048978 -0.24474494 -0.068646766 0.17158453 -0.10563663 0.29367477 0.06004659 0.09640833 0.034424033 -0.086302646 0.20823248 -0.19011389 0.049379647 0.12176312 -0.199677 0.16725357 0.10178257 -0.08279323 -0.0083690975 -0.069122516 -0.05578908 -0.12150766 0.12487584 -0.04216201 -0.13942938 0.058409333 -0.016875215 0.030513791 -0.23476245 -0.15953228 0.14164169 -0.03626115 -0.1561023 -0.027152643
367 0.14694819 0.08849388 -0.014087062 0.16818142 0.048929855 -0.06926574 0.0868218 0.044243902 -0.19838387 0.04959864 0.10868275 0.0104608415 -0.14511633 -0.16176073 0.21407166 -0.10216566 0.16408226 0.12170827 -0.009007015 -0.031362228 -0.15959977 0.110186994 -0.18558235 0.06490375 -0.056586903 0.12763894 -0.21510755 -0.008627774 -0.047324263 0.04270396 0.0678272 0.056443345 0.18235585 0.18907166 0.023475876 0.14364271 -0.08761615 0.13278456 0.10190681 0.007845857 -0.21911119 0.027701259 0.13597947 -0.0058721174 -0.1062928 -0.11447974 -0.08576602 0.14095311 -0.22266172 0.09349181 -0.018329658 -0.3433406 0.20715345 0.09814458 -0.014673528 0.026715837 -0.0947191 -0.0860533 0.10971182 0.123943485 0.049683373 0.06661084 -0.17158628 0.014134961 -0.19562359 -0.008617839 0.026639365 0.13045195 0.047648434 -0.12089068 0.19617623 -0.018270295 0.10001678 -0.008073254 0.23510067 -0.03296602 0.012731626 -0.012922335 -0.048330963 -0.013861113 -0.08052679 0.040051747 -0.12658662 -0.034493327 -0.25111207 0.019752169 0.023092506 0.024113096 0.28004444 0.015339168 0.1588137 0.006953118 -0.12396137 0.14190957 0.10827894 -0.19878788 -0.101773664 0.1884483 -0.10189588 0.18650965 0.104808025 0.09129998 0.087659664 -0.08100077 0.1783805 -0.18528856 0.00199166 0.08246411 -0.12871863 0.19034564 0.030011354 -0.1485773 0.023863474 -0.110212535 -0.10508106 -0.21145104 0.08778062 -0.016248371 -0.16457318 0.0018551648 0.011569273 -0.007931735 -0.17166224 -0.11849051 0.18543677 -0.046436656 -0.14305729 -0.058510106
742 0.02194964 0.11079388 -0.13153419 0.12104657 -0.012750959 -0.18580301 0.06997786 0.09855416 -0.17008625 -0.049746405 -0.007944306 0.042185158 -0.066926494 -0.07975847 0.11456831 -0.042821646 0.079575144 0.067336045 -0.0039242357 -0.1306574 -0.017977215 0.1470839 0.010881665 0.11756257 0.0036196227 0.14764708 -0.034895968 -0.14513753 -0.05617111 -0.04928033 0.10656531 0.078993544 0.042999618 0.19347857 -0.036223106 0.10262946 -0.13634129 0.0024827896 -0.014922681 0.020476818 -0.21788815 -0.15523629 0.18326658 -0.0049982998 -0.14916365 -0.13448852 -0.025522515 0.003729456 -0.082974106 0.10443249 -0.011513212 -0.15454197 0.18752964 0.04909383 -0.021672571 0.07515952 -0.044198796 -0.11284568 0.04556271 0.25113112 0.07116977 0.03635474 -0.23923394 -0.021854809 -0.18163499 -0.005265922 0.10528106 0.01310473 0.14235732 -0.17220049 0.12587601 -0.118767574 0.05071955 0.022218086 0.15320574 0.0406574 -0.060902458 -0.066646114 -0.07676164 -0.008712116 -0.079170115 -0.013961588 0.011558744 -0.054679435 -0.25684312 0.015703645 -0.053797524 -0.007531516 0.15148443 -0.05019281 0.25437465 0.05571422 -0.091094784 0.1116808 0.1614402 -0.04534727 0.04559914 0.12296568 -0.10542377 0.13776372 0.018911287 0.11417069 0.013174633 -0.06550074 0.11474287 -0.0977443 -0.015669398 0.085064106 -0.10869573 0.15082066 0.094569296 -0.16738479 0.04438814 -0.17292073 -0.08182414 -0.1655725 0.15255558 -0.076437436 -0.1276122 0.042845514 -0.10090088 0.01035019 -0.15295526 -0.054723352 0.077260524 0.039238438 -0.046420656 -0.068898916
357 0.1967091 0.13599473 -0.064882025 0.15883611 0.09909339 -0.086932205 0.10138139 0.066227496 -0.2614479 0.055572394 0.02730585 -0.004584966 -0.17127252 -0.16098393 0.16600282 -0.12767935 0.1455484 0.08141313 -0.14253695 -0.09830207 -0.16952644 0.22005689 -0.14206415 0.035514005 -0.026031908 0.18915786 -0.18607636 -0.039258823 -0.056438133 0.039227188 -0.025699085 0.13589284 0.06763681 0.22061397 -0.010002936 0.16485311 -0.034221504 0.07975854 -0.0016831659 0.08362226 -0.21399829 -0.010151275 0.04785572 -0.03861016 -0.08452955 -0.102049254 0.026153358 0.11516474 -0.13159513 0.15524055 0.048072465 -0.248915 0.18789199 0.09466859 -0.07697247 -0.052187156 -0.048924454 -0.2102955 0.14604716 0.21151549 0.0027135222 -0.028955007 -0.2198804 -0.0014656304 -0.088035844 -0.04053136 0.003297532 0.0638516 0.035163876 -0.07745453 0.08925679 0.0036055879 0.14630671 0.08354598 0.101254806 0.08609177 -0.057724375 -0.010696272 -0.03967913 -0.16003835 -0.10601587 -0.034999132 -0.0959249 -0.03019331 -0.35519448 0.077241436 -0.06891318 -0.032217003 0.1681775 -0.08772036 0.14162499 0.09844175 -0.16469675 0.07462134 0.1652628 -0.2029298 -0.071011774 0.17585875 -0.12650773 0.2006158 0.118707255 0.03994521 0.078006126 -0.14116755 0.17425872 -0.22238374 -0.07333247 0.070971586 -0.11419649 0.14251934 0.08683558 -0.15614112 -0.017531104 -0.13901056 -0.059687983 -0.09267791 0.25916043 -0.1730021 -0.14303085 0.029085372 -0.032255307 0.01672956 -0.1660697 -0.14206672 0.014629394 0.066855334 -0.15350908 -0.019885898
289 0.13910505 0.20483081 0.047089227 0.17860372 0.035372876 -0.15653163 0.044408113 0.03827406 -0.24683388 0.12023261 0.046702724 -0.0029885336 -0.18580152 -0.08470397 0.26424283 -0.124270104 0.059590943 0.04231315 -0.1761376 -0.13525167 -0.15931989 0.23549804 -0.19368973 0.124347724 -0.032089762 0.2799165 -0.08038474 0.015762413 -0.10789162 0.104651496 0.006496819 0.105420455 0.093409054 0.16974646 -0.10499158 0.1876828 -0.02852266 0.1010612 -0.044493955 0.008707108 -0.25410756 0.13367434 -0.027853085 -0.05714123 -0.16731732 -0.04478226 -0.0054209065 0.11233807 -0.020501535 0.15790468 0.078668766 -0.3742465 0.17126735 0.119212404 -0.1768054 0.016710648 -0.090738066 -0.23817214 0.19829309 0.22589341 -0.0011786902 -0.066355996 -0.24786754 -0.017989935 -0.17162123 0.03407717 -0.020787137 0.09844499 0.18801567 0.04409713 0.14190458 -0.04726419 0.04311855 0.009809357 0.0072211083 0.06308051 0.024361622 -0.08406555 -0.031275228 -0.12411513 -0.08059668 -0.015001399 -0.05341183 0.1020729 -0.24071538 0.073694974 -0.0144937355 0.03355692 0.30529875 -0.050707176 0.0047899154 0.05197253 -0.23546736 0.15578978 0.13920195 -0.14214261 -0.1289334 0.16005848 -0.090082794 0.1430868 0.02349382 0.10535582 0.11856746 -0.14464019 0.08150739 -0.16592729 0.010120019 0.1254203 -0.14706296 0.24979122 0.06044172 -0.12812607 -0.123430595 -0.087463796 -0.15222423 -0.10833916 0.26013717 -0.06088078 -0.13251789 0.0758596 -0.011153875 0.051572707 -0.18981642 -0.10535581 -0.04196657 0.07007685 -0.10645684 -0.045227434
769 0.18233865 0.012101314 0.06633325 0.12597442 0.07450598 -0.048351858 0.13741711 -0.005827155 -0.19625036 0.10157347 0.09433302 -0.04444135 -0.13621724 -0.12270047 0.14942636 -0.14198862 0.1495081 0.11145198 -0.114753634 -0.044234857 -0.24907555 0.17071357 -0.20393817 0.022705924 -0.05526856 0.076898515 -0.29101595 -0.0010574706 0.006214424 0.004549391 -0.011628931 0.16553664 0.040668294 0.24806532 0.0012861602 0.21400264 -0.06376828 0.07583103 0.13920847 0.08353141 -0.20327085 0.051332615 0.10101043 -0.10186073 -0.108806714 -0.012354319 -0.014482524 0.121483155 -0.2317482 0.12134817 -0.07118014 -0.29800725 0.19330616 0.077364676 -0.054435723 -0.09165043 -0.11882374 -0.2623073 0.2073739 0.09150156 -0.010551878 0.04532414 -0.13185027 -0.028249372 -0.08941131 -0.030190555 -0.04196299 0.09352947 -0.09818355 -0.07633068 0.11296867 -0.018122742 0.1473139 0.2209682 0.19583093 0.03436103 -0.09330263 0.040106103 -0.05894007 -0.089627855 -0.11540108 0.062176444 -0.17920122 -0.031646512 -0.31626636 0.006891546 0.012289442 -0.055071816 0.13619968 -0.19260071 0.1988316 0.11276079 -0.08497476 0.030091314 0.061057325 -0.20654514 -0.09274718 0.23291275 -0.049342513 0.20154484 0.23065867 -0.003446359 0.104744606 -0.045014024 0.20246665 -0.2167346 -0.11165161 0.06789528 -0.10545507 0.14224558 0.123502046 -0.07356801 -0.061639253 -0.12568794 -0.14598148 -0.028484955 0.14661534 -0.1216378 -0.119648576 0.034622557 0.009467811 -0.057121754 -0.05540085 -0.2285317 0.07165594 0.025305886 -0.19802232 0.02387986
824 0.25978088 0.030536396 0.0045955796 0.0951003 0.0786168 -0.05469048 0.033731233 -0.005226994 -0.21953742 0.09625597 0.11871902 -0.044993583 -0.17021392 -0.23136123 0.20049167 -0.22560212 0.21317866 0.18400238 -0.024372712 -0.046699848 -0.2557674 0.14506707 -0.2985872 -0.031622592 -0.08267924 0.07859422 -0.29827243 0.06635917 -0.061804675 0.040725328 -0.0067666513 0.10354707 0.19264379 0.2530194 0.047232963 0.1556378 -0.105133 0.12728205 0.16249059 0.1320967 -0.15411638 0.07134355 0.23669875 -0.06318686 -0.091040626 -0.13209131 -0.012083961 0.18783861 -0.25392374 0.09256229 -0.0622201 -0.35793838 0.16363646 0.14193156 0.08922415 -0.052653603 -0.07489029 -0.16331261 0.2271635 0.15168394 0.020299431 0.009417687 -0.22098193 0.055006206 -0.087340444 -0.10859579 -0.016476152 0.23756288 -0.09577125 -0.06537768 0.17039871 0.029244633 0.19676968 0.11655506 0.27756387 -0.04476783 -0.04749242 0.050055016 -0.049493887 -0.036622137 -0.10654177 0.070201844 -0.18746911 -0.014046642 -0.32562438 0.07126597 0.08363641 -0.07101432 0.22759351 -0.048822805 0.25671616 0.09511662 -0.14316827 0.04000107 0.08931988 -0.28548282 -0.14505434 0.22542672 -0.11318442 0.26442757 0.23247698 0.07211581 0.15327503 -0.061221328 0.20578445 -0.2473374 -0.017350273 0.078353606 -0.13273522 0.17887464 0.05117022 -0.084442675 -0.04729694 -0.13242534 -0.085632995 -0.15532419 0.11491162 -0.050507307 -0.19102877 -0.024549343 0.05650041 -0.073573105 -0.072069526 -0.23731856 0.1780395 -0.003993167 -0.16540676 0.026695516
829 0.1273099 0.02021322 -0.041147448 0.1466789 0.1449533 -0.08369249 0.049789686 0.07290315 -0.18358895 0.024295876 0.06394047 0.023339415 -0.13470522 -0.10711647 0.012913796 -0.056968443 0.14621319 0.10212029 -0.06255147 -0.09405753 -0.163027 0.12900226 -0.045725424 0.072518475 -0.035169773 0.07338663 -0.22684626 0.054238275 0.059988957 -0.09509861 0.14452721 0.12331097 0.10129634 0.1462484 -0.027085803 0.12476221 -0.0951176 0.05743621 0.032629464 0.03646374 -0.26692542 -0.04464155 0.04254444 -0.036463737 -0.06598283 -0.12616639 -0.09978166 0.14106987 -0.20321652 -0.01813064 -0.056385104 -0.20094055 0.17004369 0.06972659 -0.026790572 0.04412421 -0.09473988 -0.1735255 0.13997893 0.17160887 0.022519078 0.00279652 -0.18111642 0.012521584 -0.1687136 -0.009261749 0.014812402 -0.010377737 0.046315633 -0.2327002 0.20433468 0.046306975 0.10889393 0.05161846 0.19505407 -0.05034652 -0.07804236 -0.07809637 -0.019286321 -0.058575418 -0.05445654 0.065784566 -0.16942936 0.02270112 -0.3385731 -0.002398817 -0.058216725 0.026190232 0.10865856 -0.10881819 0.2074169 0.009217486 -0.09331296 0.06783775 0.07548885 -0.17638342 -0.041546047 0.16420801 -0.0027423762 0.1354236 0.10948443 0.05258452 0.06920162 -0.062320955 0.17034107 -0.18571723 -0.09878155 -0.0014543917 -0.10111979 0.14259686 0.02424865 -0.14506088 -0.029239208 -0.09202832 -0.07475504 -0.083455876 0.08392227 -0.019862771 -0.16979319 -0.008656308 0.0032975643 -0.034050502 -0.010106341 -0.07331906 0.06135127 0.010532548 -0.10014324 -0.0926479
828 0.20080432 0.049660195 -0.102547616 0.025592817 0.05425518 0.057667404 0.06537603 0.10933146 -0.14321159 -0.06840207 0.10471075 -0.108993985 -0.043002285 -0.1841688 0.034624282 -0.1546754 0.17492737 0.1340865 0.0033150027 -0.045662455 -0.22306514 0.13465612 -0.2660922 -0.0020173457 -0.05380483 0.030232556 -0.20407967 -0.029906953 -0.058464076 -0.02142686 0.0794438 0.056724746 0.13918802 0.15223306 -0.08446774 0.098714106 -0.09311732 0.06532273 0.016430004 0.12034006 -0.16179831 -0.02233395 0.245924 0.007715418 -0.0029227266 -0.15234588 -0.040546007 0.15735182 -0.19569375 0.03991587 -0.063543186 -0.21991253 0.07823487 0.055145 0.05453887 -0.025352148 0.00842102 -0.11614748 0.13200764 0.2529192 -0.003969404 -0.095508255 -0.23923331 0.078715704 -0.1271275 -0.038081244 -0.06925015 0.14474542 0.024065008 -0.16029277 0.0858491 0.0038083624 0.14310859 0.11532495 0.29823408 -0.03391829 0.06413777 -0.036065318 -0.110404484 0.042920105 -0.0028583459 0.09555943 -0.17027247 0.020714855 -0.38157177 -0.011190899 0.03104946 -0.017833997 0.20678212 0.030439703 0.2471758 0.10453675 -0.1759874 0.077334166 0.07377654 -0.18868528 -0.16343388 0.22097737 -0.09730262 0.06415354 0.10346221 0.09979439 0.12659383 -0.052270237 0.1339903 -0.18489829 0.039098244 0.05109406 -0.070022605 0.24473643 0.016117219 -0.12820122 -0.054018196 -0.226938 -0.096655674 -0.16277435 0.11478416 -0.01855276 -0.23919982 -0.083790645 0.07947311 -0.03680451 0.017844945 -0.15922527 0.18672182 0.05244985 -0.032905255 -0.04143876
679 0.09496125 0.022730691 -0.022294287 0.14226423 0.14338817 -0.25505912 0.05711408 0.068015486 -0.23925838 -0.036018845 -0.042072363 0.16473691 -0.065208554 -0.13325043 -0.04246853 -0.19871742 0.17423104 0.12714635 0.052598674 -0.051589467 -0.09378262 0.23180225 -0.06033159 0.09151742 -0.06865956 0.02379348 -0.041488215 -0.12816203 -0.023036199 -0.1345295 0.22337462 0.17951225 0.05472426 0.30911434 -0.025677776 0.2220163 -0.24322605 -0.022842206 0.097557016 -0.0020181146 -0.30601823 -0.19859314 0.21117571 -0.023078665 -0.22254351 -0.10807714 -0.032931287 0.0034286592 -0.2452971 -0.005679828 -0.12813544 -0.17747365 0.25284377 0.050056763 -0.02948384 0.1127936 -0.08577792 -0.20058598 0.097701885 0.1447846 0.14732583 0.0385486 -0.24809773 -0.13243069 -0.16764243 -0.12449541 0.26715228 0.13290618 0.03645716 -0.28010654 0.28306034 -0.084610686 0.1425474 0.077662274 0.22302146 -0.01643668 -0.096132554 -0.023167936 -0.02719133 -0.025722876 -0.13123658 -0.05589086 -0.043890566 -0.043632872 -0.18011174 0.031575575 0.030990427 -0.061908502 0.19035448 -0.05906706 0.24888046 0.046553217 0.015455647 0.16171466 0.25276768 -0.1442041 0.10176277 0.100596584 -0.09649143 0.18923844 0.13336028 0.11640468 -0.025145082 -0.11526539 0.15152244 -0.13062416 -0.074798174 0.049074892 -0.16361207 0.15458918 0.1892971 -0.07415623 -0.00014417944 -0.064816564 -0.17380093 -0.12610573 0.017488949 -0.05923419 -0.08547323 0.04550799 -0.0807302 -0.012146604 -0.14544673 -0.06875511 0.07996229 -0.0067316536 -0.11581539 -0.13491642
813 0.17104116 0.15877962 -0.056791477 0.16457148 0.118156254 -0.12363267 0.20487958 0.07929024 -0.25018793 0.029260822 -0.02087671 0.004724686 -0.20725235 -0.07189232 0.079705164 -0.12503493 0.04034282 0.042334627 -0.2763027 -0.10534148 -0.16270772 0.25988215 -0.074644655 -0.018988362 -0.009111904 0.11042065 -0.18673502 -0.06499322 0.0044708066 0.09098148 -0.011171612 0.14863013 -0.096077636 0.22957873 -0.04527322 0.17444222 0.03389859 0.07002737 -0.013741967 -0.02765594 -0.19408989 -0.043534797 0.09809077 -0.016001359 -0.14091301 -0.112625204 0.062161084 0.050743762 -0.11998673 0.16524316 -0.022400083 -0.15263313 0.15539564 0.08982986 -0.12340386 -0.06525551 0.038897727 -0.23872384 0.068029344 0.25270438 -0.04020389 -0.031851944 -0.27105087 -0.099466726 -0.07405622 -0.04229899 -0.0864866 0.04924689 -0.07344389 -0.116986714 -0.0030309616 -0.041113168 0.12729217 0.09616129 0.05483656 0.12744641 -0.070568405 0.0072340444 -0.12339081 -0.25270566 -0.081207365 -0.048906874 -0.0159369 -0.0232353 -0.2791188 0.011445331 -0.056411274 -0.12713854 0.091034465 -0.14973368 0.21119274 0.11480746 -0.20901531 0.072620966 0.19154854 -0.16754058 -0.02116309 0.15695463 -0.109911196 0.15556033 0.100899905 -0.009465564 0.06615638 -0.13904044 0.13444377 -0.17780495 -0.08214345 0.085157566 -0.1135536 0.21088114 0.1348295 -0.13851131 -0.020019254 -0.23136953 -0.1022314 -0.038206086 0.23974907 -0.24834989 -0.18376553 0.041840956 -0.12614335 -0.007492503 -0.16184276 -0.12163127 -0.054377083 0.077487946 -0.19964634 0.03737401
345 0.090093456 0.1299761 -0.028512198 0.05716137 0.063464716 -0.047999617 0.09073578 0.059369758 -0.17326216 0.026943225 0.07524208 -0.018619526 -0.116754174 -0.10795469 0.17137343 -0.1056223 0.045200355 0.14368732 -0.09646953 -0.122786455 -0.13024677 0.16649969 -0.12257228 0.043116514 -0.01823237 0.09880817 -0.21422042 -0.010367102 -0.08907505 0.0027578534 0.049320456 0.064784825 0.11418842 0.20965677 -0.040353317 0.12582523 -0.108201705 0.08447147 0.067130655 0.062504865 -0.17710264 0.017041953 0.12567858 -0.0003721691 -0.06775947 -0.14567542 -0.015467424 0.10884715 -0.15922996 0.09900491 -0.06970146 -0.21708214 0.11193412 0.08058603 -0.054368228 0.059736468 -0.08699412 -0.1428575 0.045242585 0.2405787 0.037775263 -0.018651476 -0.26285875 0.0027522803 -0.13116363 -0.09151131 -0.036024567 0.03958762 0.04789049 -0.14233685 0.09428593 0.0028294136 0.09786762 0.03360593 0.17806421 0.048419297 -0.044415414 0.011684528 -0.09666588 -0.13145487 -0.052071106 -0.03185671 -0.10505975 -0.03412512 -0.22666657 -0.005321006 -0.002838153 -0.04191939 0.16200426 -0.07566493 0.25066996 0.049715962 -0.16670242 0.07893015 0.11153476 -0.16216421 -0.08568612 0.16970156 -0.11460119 0.17188558 0.083373465 0.021725796 0.12638788 -0.05257149 0.11792977 -0.17039575 -0.051586505 0.06407611 -0.13509907 0.2283189 0.13270782 -0.124640614 -0.008213521 -0.14535482 -0.09281191 -0.049818315 0.18437858 -0.0670568 -0.13441929 0.013681614 -0.06539071 -0.06306049 -0.13370916 -0.096804135 0.09947329 0.034036238 -0.1342092 -0.032469608
680 0.10877845 0.027969189 0.005350694 0.059101466 0.08270961 -0.20996827 0.08909687 0.034769252 -0.23493144 -0.071507506 0.030433934 0.18209396 -0.0727883 -0.10630374 0.027597807 -0.24739325 0.12054403 0.18041791 -0.039259695 -0.1564958 -0.11172952 0.2512252 -0.03922343 0.07498083 -0.03738903 0.0066421265 -0.06891196 -0.10556518 -0.07139673 -0.1084921 0.12124552 0.19921027 0.0074182125 0.332733 -0.1189584 0.21873274 -0.20142312 -0.058317192 0.08681962 0.052810106 -0.24859738 -0.1551688 0.1732425 -0.007751657 -0.18634312 -0.13056058 0.021132428 0.032202184 -0.19564885 0.019259894 -0.148061 -0.17434762 0.18540682 0.021939913 -0.030574325 0.0863507 -0.030230535 -0.20662692 0.025451176 0.29541126 0.15017264 0.009220398 -0.31137562 -0.10419858 -0.2188187 -0.2065479 0.09416034 0.09612144 -0.0041567194 -0.32832414 0.21571775 -0.070090055 0.18576768 0.013884878 0.17808776 -0.026104784 -0.12511015 0.058114514 -0.06420952 -0.14233594 -0.15407859 -0.094597325 0.0069209887 -0.008582524 -0.14066434 -0.01210521 0.044492174 -0.12054007 0.16278931 -0.09471354 0.29615977 -0.035150338 -0.09923097 0.09913881 0.21347177 -0.094074 0.038174972 0.11551119 -0.11226035 0.18356656 0.08834059 0.064867795 0.0086525865 -0.08150435 0.18343192 -0.2077223 -0.122165315 0.07747644 -0.18253608 0.2719779 0.313336 -0.04334338 0.055515602 -0.08424226 -0.12175827 0.02177431 0.12074446 -0.102462076 -0.09787484 -0.0104037225 -0.14398132 -0.061534498 -0.1203847 -0.015319196 0.11951128 0.0454286 -0.21532185 -0.06644988
823 0.25127915 0.06865397 -0.04991671 0.12101776 0.07558117 -0.061681554 -0.01057137 0.07964397 -0.221204 0.05871001 0.05566497 -0.04519243 -0.17387427 -0.25181723 0.12117493 -0.13354966 0.23155597 0.17771067 0.015114976 0.0032444536 -0.28020924 0.0736579 -0.31232488 0.025223074 -0.05057339 0.090841435 -0.38880056 0.108249806 -0.1312753 -0.01399728 0.11268439 0.1264301 0.3164838 0.18240552 0.034613468 0.12428475 -0.17278543 0.12260106 0.20185122 0.11239554 -0.19188221 0.030094858 0.22539026 0.004856525 -0.07871075 -0.17363322 -0.010483316 0.23338537 -0.29472736 -0.027404733 -0.07533755 -0.2593112 0.11039846 0.15331124 0.1739385 0.0019233422 -0.0741599 -0.093535826 0.25998813 0.078318305 0.049105477 -0.038398564 -0.27840456 0.15753968 -0.09184947 -0.07859595 0.09626581 0.26677462 0.03569686 -0.098084256 0.19050035 0.06488982 0.18556985 0.049269214 0.32979447 -0.15934853 0.017461127 -0.04052107 -0.07243687 0.014806694 -0.075583816 0.100860566 -0.19156636 -0.039161183 -0.34909606 0.078621745 0.063577674 -0.03677394 0.22653428 0.00814726 0.23417526 0.13014866 -0.08698138 0.10594889 0.20409836 -0.3326599 -0.16062766 0.17474177 -0.111806795 0.2129443 0.21216811 0.08820216 0.13545819 -0.068145804 0.24155991 -0.15618287 -0.00023317573 -0.0080328835 -0.15954703 0.13412589 -0.030328695 -0.14833887 -0.09071545 -0.15222488 -0.09406606 -0.26372534 0.011922458 0.0010218751 -0.18088089 -0.028232463 0.103368565 0.00839454 -0.047383513 -0.22147928 0.1997089 0.013964851 -0.069671094 -0.031676702
288 0.06217977 0.17415014 0.10086651 0.2211571 -0.013859082 -0.24869098 0.12096059 0.0072037266 -0.22118 0.13718946 0.017161077 -0.043337695 -0.26435494 0.023850622 0.21342346 -0.18031776 0.038289763 0.023693949 -0.17974582 -0.11974206 -0.11690453 0.21616621 -0.16600268 0.14045136 -0.11342796 0.21572986 -0.0037989442 -0.022973936 -0.017719636 0.15636829 0.03022142 0.05155103 -0.012967234 0.22363934 -0.07434677 0.15418318 0.024692776 0.101580314 -0.03722002 -0.07957373 -0.22604409 0.16442767 0.056414492 -0.1310076 -0.22087502 0.022115653 -0.022773376 0.022363864 -0.026653467 0.17268619 0.03978956 -0.41399494 0.13561822 0.12074917 -0.29632196 0.057089686 -0.07744725 -0.27898425 0.122942366 0.26271036 -0.059221838 -0.012728575 -0.24978918 -0.13142346 -0.17495848 0.048037264 -0.11071465 0.060746457 0.20104429 0.047859862 0.16156492 -0.09365287 0.015843192 0.08172072 0.016332299 0.116481386 0.043977845 -0.040233035 -0.0428689 -0.07969035 -0.027764145 0.049623355 -0.045545492 0.067744836 -0.18701471 -0.022924885 0.03815751 0.06214235 0.30973297 -0.14564331 0.105653666 0.1302877 -0.20994952 0.17924944 0.13234793 -0.16909024 -0.104946256 0.19837557 0.019380795 0.15901817 -0.0016987296 0.09742461 0.08030109 -0.113728866 0.03615939 -0.09178855 0.016916096 0.13306005 -0.084835015 0.31561932 0.12880586 -0.16879795 -0.1690111 -0.14381246 -0.19126937 -0.09247701 0.17807485 0.025554774 -0.20292416 0.12187528 0.015847744 0.07920539 -0.22000036 -0.078002244 -0.011562647 0.03118679 -0.10272917 -0.110307865
661 0.17530131 0.055666048 -0.058410745 0.18936102 0.044127557 -0.11265093 0.19413176 0.04080115 -0.18460031 -0.0010198813 0.05659433 0.04473911 -0.20952663 -0.06689655 0.11433384 -0.12892498 0.10698745 0.06745144 -0.113823906 -0.12290772 -0.15197493 0.17752646 -0.10600862 0.031586356 -0.038566794 0.12339877 -0.16754074 -0.05804293 0.062481638 0.048073057 -0.039887942 0.072296426 -0.073900856 0.16755249 0.0069324668 0.16514446 0.006102968 0.043798044 0.0428829 0.027989503 -0.20571505 -0.07843033 0.14164768 -0.0753929 -0.12755202 -0.06314454 -0.031059459 0.038990498 -0.107054256 0.12515658 -0.00066195836 -0.25501996 0.22018299 0.03483496 -0.06525564 -0.12068545 -0.04593363 -0.19420291 0.09619053 0.21685669 -0.03914113 0.053171977 -0.12272621 -0.07790402 -0.16822794 0.01828529 -0.064799316 0.044943124 -0.10581895 -0.1343354 0.107293546 -0.074366756 0.15674743 0.09177749 0.19937566 0.057624586 -0.11087485 -0.02132237 -0.08054025 -0.11729343 -0.09059755 0.010013892 -0.068633124 0.009289119 -0.27611014 0.05135115 -0.0078057186 -0.035658203 0.15424405 -0.0740006 0.21577175 0.056363966 -0.13870189 0.013655509 0.11015664 -0.18141909 -0.04710138 0.18730085 -0.08030495 0.13831384 0.17280819 0.09772003 0.069070034 -0.11537656 0.1567973 -0.22281712 -0.024285499 0.10969018 -0.09394207 0.20210345 0.08421923 -0.14812231 0.038191393 -0.16041857 -0.08933304 -0.15667312 0.16485538 -0.11495939 -0.19085047 -0.011912262 -0.07957118 -0.023627363 -0.21328577 -0.17736018 0.03561937 0.033719398 -0.15788269 -0.048087623
401 0.117707014 0.104676954 -0.05294384 0.16844326 0.09819905 -0.15664648 0.06197532 0.03274788 -0.2399425 0.062511526 0.07140996 0.06523523 -0.13767673 -0.16068065 0.2037974 -0.16728507 0.13848297 0.10519888 -0.11353365 -0.14315972 -0.11760638 0.23357148 -0.11915957 0.033993047 -0.041841123 0.21975237 -0.09959919 -0.06259847 -0.091749005 -0.0035310958 -0.047781184 0.15037304 0.051096737 0.32662976 0.0265022 0.19455373 -0.08181272 0.03091434 -0.007898724 0.12914425 -0.20385684 -0.049139224 0.07057866 -0.067408755 -0.12809257 -0.08079042 0.00297484 0.09683662 -0.14080903 0.2212653 0.023619605 -0.24115886 0.19692595 0.10221342 -0.053493798 0.024857061 -0.10311025 -0.24127614 0.18657155 0.19018793 0.09268273 0.03197101 -0.2513726 -0.024292028 -0.0623378 -0.123276696 0.0968207 0.043483324 0.028567743 -0.12700672 0.15534881 0.029881557 0.103055686 0.07396901 0.08301415 0.11632774 -0.11742966 -0.009771378 -0.003659509 -0.096259646 -0.134515 -0.08680079 0.010068565 -0.10751502 -0.3023441 0.031004349 -0.096478276 -0.03664335 0.12670098 -0.08419854 0.15493377 0.043114584 -0.17647204 0.0814184 0.17866828 -0.17155218 0.019783262 0.17373957 -0.12627771 0.32397607 0.06060312 0.0077602025 -0.024557909 -0.12270027 0.19574341 -0.2648849 -0.06298842 0.15042575 -0.15534693 0.114425994 0.1863399 -0.10271946 0.028910736 -0.11078725 -0.008053785 -0.038909815 0.25718725 -0.19828194 -0.080171384 0.059639793 -0.081798285 0.028183037 -0.18553591 -0.07861749 0.045101892 0.022237355 -0.18417403 -0.04010568
666 0.19792812 0.17077166 -0.050206784 0.14197515 0.04025815 -0.08276872 0.2280054 0.07368122 -0.21797618 -0.10705049 0.060160015 0.06706091 -0.15750676 -0.15803003 0.11675172 -0.11686931 0.09904419 0.070966534 -0.10521552 -0.10569117 -0.19023654 0.21947064 -0.13821697 -0.010467891 0.007237247 0.024824964 -0.16528526 -0.091874 -0.0818987 0.046305012 0.110413164 0.13816556 -0.010590033 0.17256084 -0.056352604 0.18732369 -0.014056022 0.10201164 0.02603525 -0.06081221 -0.2102926 -0.15382314 0.19579661 0.04817178 -0.08476398 -0.1415293 0.068229474 0.059439905 -0.1872524 0.15037057 -0.06641016 -0.11022759 0.17431651 0.027838448 -0.06503996 -0.06384129 0.07633012 -0.074817166 -0.04219079 0.19567019 -0.01040603 0.008868682 -0.23201911 -0.098029874 -0.16371645 -0.03203604 -0.026900463 0.109447 -0.086317234 -0.19599728 0.042418405 -0.09715561 0.13397142 0.021557027 0.13217567 0.06599549 -0.03332154 0.010353939 -0.14152896 -0.13197574 -0.07264754 -0.10389495 -0.024149323 0.022617865 -0.23065135 0.06597964 -0.0058468734 -0.15714163 0.1948292 0.04588292 0.29514477 -0.009973696 -0.16116391 0.07212729 0.15163971 -0.11951777 -0.053278375 0.14806998 -0.17352585 0.058760487 0.1278074 0.07851258 0.07536269 -0.12892039 0.12588684 -0.10003006 -0.022050051 0.11515375 -0.09151613 0.2974459 0.08032865 -0.060889106 0.07205736 -0.22146031 -0.12248997 -0.114846446 0.14439307 -0.110830784 -0.19818167 0.016758464 -0.09135479 -0.06948771 -0.20208763 -0.17055643 0.06472869 0.024925606 -0.12250385 0.061503112
339 0.101823494 0.018468339 0.061296478 0.13868403 0.022749234 -0.16724797 0.060012817 -0.07103936 -0.21970513 0.093834735 0.12305066 0.02752648 -0.19780669 -0.14543338 0.2524312 -0.20035696 0.2004738 0.10329689 -0.078270085 -0.14148156 -0.20214546 0.19551244 -0.18483518 0.12429061 -0.10132996 0.21676023 -0.12103305 -0.0032708948 -0.11132525 -0.018636925 -0.055017225 0.12979922 0.08591377 0.36333254 0.03632323 0.2086546 -0.11439191 0.01866481 0.114545494 0.18048069 -0.20815356 0.04795779 0.06296154 -0.12928946 -0.10892901 -0.010577618 -0.030073732 0.16332075 -0.19122261 0.21806623 -0.05919226 -0.35061505 0.18561493 0.093053505 -0.068220444 0.017458668 -0.17933114 -0.29520482 0.21742608 0.080936134 0.07698154 0.08265438 -0.20489118 0.0077573718 -0.057050988 -0.11820345 0.053778745 0.06864563 0.029379146 -0.07315643 0.17896987 0.04493396 0.08163951 0.14410925 0.15346259 0.05032197 -0.12695275 0.05447691 0.047116205 -0.08224869 -0.14553937 -0.01769255 -0.034495194 -0.12667914 -0.2616052 -0.009564876 0.01124766 -0.018387094 0.16883779 -0.1579767 0.19212893 0.0068813455 -0.13223113 0.01746109 0.10159387 -0.23007292 -0.062013984 0.18981999 -0.06380095 0.4145013 0.0961741 0.014424187 0.014081541 -0.07427008 0.2594996 -0.28075677 -0.058854006 0.16422287 -0.15840751 0.13176061 0.21868405 -0.07801677 -0.03288651 -0.07908805 -0.07395099 0.032863718 0.17417336 -0.092825234 -0.063182145 0.07256227 0.0058112056 0.009385421 -0.15654956 -0.13181941 0.11116277 -0.0058769984 -0.22026111 -0.054105688
406 0.09199242 0.024332868 0.050011706 0.07186116 0.06746625 0.044631157 0.23577338 0.018951744 -0.16497888 -0.0030435002 0.13840538 -0.016315937 -0.112674266 -0.05014909 0.15133013 -0.1848041 0.035908747 0.07889677 -0.2111046 -0.08521198 -0.1828766 0.20530446 -0.12184029 -0.01495917 -0.039299965 0.009154759 -0.18602532 -0.10055478 0.013264547 0.033557188 -0.0060712206 0.13134268 -0.08828817 0.24828115 -0.05097925 0.15933372 -0.017149802 0.05043761 0.053554684 0.0106491195 -0.16473699 -0.029796047 0.10780135 -0.027546812 -0.06844175 0.008055073 0.015139336 0.04043837 -0.2394302 0.18200773 -0.09588044 -0.15966748 0.16518934 -0.018588133 -0.16012083 -0.08495624 -0.008739165 -0.23825078 -0.015466835 0.18471405 0.039477535 0.0566545 -0.1272573 -0.14127444 -0.1308325 -0.066502415 -0.12627825 -0.031723328 -0.14937052 -0.20755734 0.027349103 -0.05164251 0.12888344 0.14730418 0.12808001 0.11746115 -0.12754126 0.124081105 -0.14156397 -0.16352509 -0.07256005 -0.014976325 -0.05201322 -0.045607973 -0.22121404 -0.10857866 -0.036455765 -0.0992721 0.07492416 -0.21525785 0.29594198 -0.04022019 -0.2363352 0.028191473 -0.013594448 -0.0941028 -0.019900922 0.2594773 -0.02920724 0.12262004 0.11162586 -0.029331068 0.046656463 -0.003437697 0.109127924 -0.20130377 -0.14966343 0.13207848 -0.09494864 0.301061 0.27039045 0.03458987 0.06681416 -0.16259842 -0.10798939 0.11585993 0.18926883 -0.1651074 -0.16673742 0.029479768 -0.13487843 -0.09678752 -0.098821074 -0.107589215 0.063274585 -0.009766769 -0.22014077 0.06507076
350 0.02675925 -0.03582846 0.044048574 0.1230803 -0.0519189 -0.050024167 0.23461351 -0.074584134 -0.18260172 -0.011846131 0.13727666 -0.026078265 -0.13732772 -0.089318804 0.27608138 -0.15384436 0.14997312 0.06555678 -0.015970113 -0.04900436 -0.14088437 0.1080426 -0.20814745 0.049385674 -0.110766195 0.060526703 -0.07791097 -0.1464952 0.00297032 0.036325697 0.022025296 0.08978603 0.04863091 0.3167065 0.048052907 0.17546053 -0.10064015 0.07857507 0.11136579 -0.032109994 -0.09468599 -0.025263142 0.19034892 -0.108357444 -0.09530143 0.03731528 -0.047611035 0.018228969 -0.29077104 0.21897976 -0.07145785 -0.2904034 0.2713382 0.0019818582 -0.09684778 -0.056086328 -0.09699663 -0.2069459 0.0040068063 0.092188306 0.060816757 0.18317932 -0.120232776 -0.1415818 -0.14931962 -0.042612407 -0.073273264 0.10530025 -0.056912493 -0.12455849 0.14850405 -0.14022984 0.13151194 0.2221944 0.19981557 0.060112055 -0.09502517 0.1352831 -0.124283664 0.0075458377 -0.080533914 0.030107416 -0.07469022 -0.10938998 -0.20077235 -0.03764681 0.051263615 -0.09033688 0.24877627 -0.09484183 0.28777236 0.01965358 -0.039277945 0.014509595 -0.018396968 -0.16667843 0.0032473267 0.26573005 -0.02260593 0.18801287 0.10669712 0.13493599 -0.009321347 -0.020941284 0.16783823 -0.16270725 -0.066803426 0.17521532 -0.060298473 0.24978922 0.256548 0.021727832 0.09600229 -0.12916742 -0.13672636 -0.039557483 0.09946554 -0.042790312 -0.15319854 0.0506142 -0.063638926 -0.061141364 -0.22292705 -0.18857618 0.21089263 -0.0799372 -0.18783768 0.021519
746 0.06269085 0.058585595 -0.006399673 0.10374897 0.034265038 -0.119585074 0.17578952 0.07711019 -0.21016072 0.042232007 -0.015038312 0.038371753 -0.052488253 -0.04622099 0.11159173 -0.08323098 0.034338493 0.10570143 -0.16368113 -0.08843122 -0.13780612 0.23759983 -0.08130446 0.066948526 0.013063791 0.042105276 -0.24293095 -0.12628163 0.07627378 0.05752038 -0.013758145 0.14504229 -0.11213595 0.20907395 -0.065490365 0.17870016 -0.054025576 -0.016708393 0.11717006 -0.03315632 -0.19901869 -0.11734418 0.16838662 0.02065947 -0.21432845 -0.010119713 0.018118044 -0.039834734 -0.17256324 0.07187948 -0.060295325 -0.19863798 0.19896463 0.07098663 -0.12715054 -0.06328349 -0.044591703 -0.24776752 0.042412065 0.22337437 -0.002810545 0.034982603 -0.19412301 -0.12575057 -0.13952063 -0.0048174164 -0.061736524 0.1005775 -0.1279352 -0.10124114 0.0367299 -0.13650979 0.163537 0.14716208 0.16834545 0.04364886 -0.10561123 0.07433227 -0.17957215 -0.16810532 -0.17514582 0.02800976 -0.06270408 -0.013168231 -0.18834324 -0.018577509 0.01086468 -0.084930785 0.13423902 -0.2162992 0.24469523 0.12488043 -0.08672137 0.06360408 0.116211094 -0.039355475 -0.02468701 0.14897676 -0.09085091 0.08912638 0.17419304 0.042726915 0.08718208 -0.09891273 0.15344916 -0.19614926 -0.1543783 0.08710322 -0.10762269 0.20014422 0.20031029 -0.09022988 0.014639863 -0.16752014 -0.19546536 -0.06651974 0.14063308 -0.19698545 -0.12441502 0.024232818 -0.1319983 -0.03866415 -0.13317835 -0.15138316 0.03253941 0.04988426 -0.19464082 0.04822106
395 0.07035645 0.1624785 -0.020949885 0.1970009 -0.008538439 -0.191895 0.088179104 0.022084594 -0.24521664 0.08643053 0.021774048 -0.043084413 -0.19291674 -0.12997377 0.28203365 -0.021821288 0.15415071 0.0045236507 -0.1055053 -0.07428921 -0.1439953 0.12005457 -0.1455529 0.1279758 -0.05913027 0.26321253 -0.11156436 -0.038755782 -0.07768465 0.05072483 0.033516165 0.06949791 0.106125794 0.22076368 0.05227578 0.13673244 -0.06366366 0.1023701 -0.025545087 0.013510988 -0.19196169 0.036990117 0.01682534 -0.07418842 -0.058476515 -0.02939859 -0.03267074 0.14883547 -0.1492562 0.27524668 0.07615523 -0.28565875 0.23320873 0.09935698 -0.07431044 0.017030608 -0.083572276 -0.17568603 0.13316384 0.050624836 0.04056578 0.066511326 -0.16182722 -0.020081978 -0.14085609 0.038565576 0.049478356 0.108666316 0.22345254 -0.007965748 0.14902233 -0.13477373 0.009853747 0.05530273 0.04758836 0.081556454 -0.021804418 -0.049535118 -0.04054239 -0.033518057 -0.098636344 -0.00043472988 -0.027361318 -0.10135798 -0.3132288 0.035187725 -0.011187562 -0.0025196057 0.25254983 -0.09208064 0.08663171 0.050689645 -0.13811089 0.104449905 0.1297992 -0.18759769 -0.053941432 0.13703233 -0.13816349 0.24101518 0.040494904 0.14150257 0.03573208 -0.078537576 0.16730668 -0.13421012 0.0051203337 0.14233826 -0.090939574 0.12432881 0.037666027 -0.15022498 -0.016050227 -0.12095313 -0.09622004 -0.13998438 0.17797597 -0.08521938 -0.1260079 0.12919515 -0.042316653 0.060456235 -0.21052045 -0.12894039 0.015986705 0.027207457 -0.06372953 -0.043440647
767 0.19063802 0.07712894 0.102549516 0.07935852 0.029273845 -0.07687698 0.0364609 -0.010434872 -0.22185954 0.102717 0.11566178 -0.036935635 -0.106321864 -0.1679368 0.17322068 -0.2113835 0.10441643 0.2005991 -0.0721192 -0.06686615 -0.21167745 0.15996963 -0.20560876 0.05099323 -0.04387345 0.09772952 -0.2962083 0.058968328 -0.11562206 -0.0015825104 0.040797103 0.18605477 0.13776596 0.28709787 -0.031803377 0.20797236 -0.09127419 0.05053792 0.13980736 0.15563896 -0.20285411 0.051806696 0.223313 -0.05834499 -0.14172263 -0.07940811 0.021433728 0.15340617 -0.17891465 0.08380241 -0.11759512 -0.2931223 0.113307126 0.14222233 0.0055594034 0.022021178 -0.105029605 -0.16839464 0.22191353 0.19256607 0.02062685 -0.020456506 -0.2512035 0.03151208 -0.09349736 -0.09490273 0.013435052 0.16687435 -0.06409816 0.0025838763 0.09952078 0.010912574 0.14767271 0.13277853 0.19923317 -0.007823266 -0.03875055 0.016542466 -0.034665756 -0.061558187 -0.098874286 0.042784326 -0.16548315 0.01590121 -0.336068 0.041762132 0.022752408 -0.048166174 0.21046413 -0.15718976 0.2444857 0.16453217 -0.13759218 0.07347104 0.15234451 -0.15392864 -0.13956983 0.23426689 -0.066543244 0.23210962 0.20776556 -0.0181739 0.14183958 -0.0556617 0.16718738 -0.18811053 -0.11682056 0.083714 -0.09310378 0.2090682 0.11232726 -0.06882045 -0.09915402 -0.17453715 -0.14150257 -0.039971657 0.15146337 -0.06682932 -0.13835417 -0.007730367 0.07917635 -0.08208733 -0.066863984 -0.19775724 0.108077206 0.06105135 -0.18011314 0.042459298
270 -0.04230166 0.13810328 0.18009937 0.22003828 -0.12437747 -0.3249473 0.1548577 0.020917812 -0.18840541 0.12437629 0.018062742 -0.026390651 -0.18533567 0.090712845 0.22984205 -0.11968416 -0.079844244 0.0608527 -0.16065963 -0.10377713 -0.118535444 0.21154745 -0.12502748 0.23634034 -0.056567855 0.1423742 -0.01990811 -0.019832788 0.024709424 0.16007306 0.13681988 0.087017044 -0.07745945 0.16634998 -0.13407737 0.17567483 0.027015962 0.056406133 0.06725253 -0.19245748 -0.22563605 0.077596754 0.13839981 -0.08336195 -0.31227598 0.046404794 -0.054069806 -0.006030426 -0.042176984 0.05970552 -0.093261614 -0.37796798 0.08429109 0.15620168 -0.30698588 0.17590591 -0.0955853 -0.22975932 0.078854844 0.18524532 -0.09804432 0.008125202 -0.30341217 -0.17003317 -0.2310174 0.11435655 -0.13816431 0.16016927 0.15356742 0.118031606 0.12524638 -0.20955881 -0.03129977 0.085085936 0.070696585 0.03595813 0.05537298 -0.07262744 -0.13095587 -0.034645386 -0.008952164 0.1257778 -0.02868899 0.15456204 -0.08585667 -0.040508542 0.12135527 -0.000139634 0.3797632 -0.15092108 0.21023527 0.16356482 -0.1745127 0.19370323 0.091210954 0.005774206 -0.08229622 0.18291587 0.03240798 0.08322446 -0.018604789 0.08037022 0.11946742 -0.11610777 0.010197038 -0.0038221155 0.012007646 0.18491359 -0.07296606 0.38482615 0.09560329 -0.12647197 -0.20475505 -0.21850744 -0.32344744 -0.09025512 0.04487756 0.093310505 -0.19071108 0.14066023 0.04644474 0.0019936657 -0.17260216 -0.087283604 0.00028211524 0.019112278 -0.08563862 -0.058592644
389 0.027567351 -0.06470477 0.025111584 0.17526086 -0.013568153 -0.036408268 0.19284634 -0.017414536 -0.17159894 -0.020295005 0.16880536 0.030328065 -0.14481032 -0.10469371 0.23159267 -0.18532932 0.171986 0.04210782 -0.04920689 -0.091894545 -0.15266481 0.15301922 -0.20158343 0.07255684 -0.095164075 0.12917158 -0.039023798 -0.14617614 -0.02407004 0.0020887929 -0.007024808 0.097808644 0.055691823 0.3016202 0.046989 0.17980655 -0.099328995 0.044620648 0.080229215 0.040751416 -0.18132362 -0.030734532 0.08375528 -0.098127015 -0.11760456 0.062449552 -0.064327456 0.061265726 -0.22748882 0.1836642 -0.04001084 -0.26260054 0.24747315 -0.025762925 -0.123250455 -0.065383345 -0.14238682 -0.26049873 0.10572059 0.055460814 0.12417019 0.17254032 -0.120304145 -0.10583153 -0.09483366 -0.07979791 0.012082164 0.047097154 -0.019929392 -0.20061494 0.173179 -0.008981648 0.114958405 0.17992868 0.21350996 0.053287536 -0.117058694 0.09647996 -0.069323905 -0.018764189 -0.1286857 -0.016425211 -0.015852747 -0.095429964 -0.17933151 -0.046023685 -0.018569484 -0.033093292 0.1593735 -0.090059556 0.2162732 -0.0849686 -0.09506156 0.05160339 -0.008867537 -0.16687022 0.057726715 0.24538471 0.031050343 0.24340673 0.071149364 0.059473276 -0.06058676 -0.016242072 0.2022503 -0.23247854 -0.07479393 0.17555709 -0.15194237 0.17793581 0.27093 0.02418978 0.08169368 -0.05244912 -0.085383005 0.014861096 0.12642878 -0.061946906 -0.11646397 0.031402983 -0.065206006 -0.0048634266 -0.19712414 -0.12732111 0.16799904 -0.083377086 -0.19769183 -0.049285065
745 0.037025496 0.09478094 -0.18767998 0.06993766 -0.0046982453 -0.06810169 0.13827495 0.116493136 -0.20739086 -0.102896005 -0.06821149 0.013370324 -0.06192037 -0.12509814 0.03324747 -0.04903105 0.0041001597 0.041315787 -0.14680585 -0.14155775 -0.107375085 0.21545315 -0.044041343 0.012958254 0.06344491 0.055193413 -0.09667089 -0.18064275 0.0030891746 -0.015872216 0.06642523 0.1419602 -0.029213566 0.17989102 -0.119296625 0.088206366 -0.074579954 -0.02198944 -0.06690739 -0.043235905 -0.1726162 -0.23083173 0.19008267 0.09873961 -0.12482287 -0.14658195 0.043762706 -0.0069901617 -0.12680796 0.064155884 -0.046026763 -0.021370368 0.14668873 0.044915628 0.0075213592 -0.0040155905 0.046084743 -0.17099644 -0.02900101 0.28326324 0.04330421 -0.05987789 -0.30744836 -0.053236764 -0.12218116 -0.044920743 -0.03166271 0.11130322 0.004038247 -0.18631531 -0.008610346 -0.13723114 0.12992483 0.07337068 0.16811882 0.03139683 -0.079724304 -0.028621463 -0.22204843 -0.11332025 -0.11571226 -0.002035295 0.07540506 -0.006480254 -0.25492343 0.0008660395 -0.029704152 -0.15039112 0.09261897 -0.061493903 0.3018996 0.047216397 -0.17594142 0.043720264 0.13985875 -0.015486771 0.0758312 0.113141775 -0.08621828 0.019661948 -0.019137677 0.11078964 0.014188467 -0.089757726 0.13268478 -0.13987483 -0.07942878 0.097420186 -0.1291301 0.23330116 0.1590925 -0.07165578 0.067764774 -0.24116492 -0.0982425 -0.08635289 0.1674533 -0.20663698 -0.18730816 -0.0035334213 -0.15761332 -0.005871306 -0.0868535 -0.107080765 0.060482822 0.05005057 -0.11966912 0.06261647
440 0.031524446 0.09559136 -0.0735282 0.09648901 -0.03564744 -0.13256647 0.22479314 0.051825725 -0.19445965 -0.026839273 0.079561464 0.028837856 -0.27215052 -0.030320043 0.14926368 -0.13154262 0.09481531 0.12406281 -0.1994561 -0.24229026 -0.15295249 0.1783118 -0.09857851 0.06229042 -0.044733718 0.077835895 -0.16631378 -0.07256375 -0.023999535 0.068837054 -0.08290275 0.0658936 -0.08158743 0.24203688 -0.042878278 0.11100023 -0.07453963 0.03259061 0.108109996 0.03282719 -0.1117569 -0.045001138 0.16703604 -0.029491525 -0.075068645 -0.09070586 0.027720682 0.07795951 -0.16807099 0.17743133 -0.07478221 -0.21669418 0.092482835 0.014953842 -0.13450907 -0.05374717 -0.024427136 -0.25853658 -0.06810428 0.3132212 0.015881464 0.0556135 -0.31150967 -0.06413572 -0.14723568 -0.084295474 -0.1790249 0.017041115 -0.037815735 -0.26550856 0.07764152 0.015180547 0.1315114 0.0882233 0.16070953 0.06345454 -0.18306457 0.16833958 -0.1436055 -0.2800866 -0.09847032 -0.04301087 0.021535128 -0.056175075 -0.1358748 -0.06438868 0.0365208 -0.1380076 0.058155816 -0.12854518 0.35974413 0.008990982 -0.19755973 -0.06635289 0.07110513 -0.20402354 -0.06244639 0.112676255 -0.090322435 0.23390487 0.038815513 0.042413317 0.04281221 -0.074992046 0.21156557 -0.23988631 -0.04960404 0.12066559 -0.14414077 0.26177475 0.28389943 -0.13963257 0.04098532 -0.17532408 -0.058396883 0.028318355 0.18793221 -0.16066304 -0.16290914 -0.011217717 -0.15790278 -0.03443795 -0.21112436 -0.11917625 0.121796645 0.035086997 -0.20998277 -0.022011848
305 -0.006315528 0.2029795 0.1704918 0.21946613 -0.11413851 -0.3456697 0.03303385 -0.0013761134 -0.22614922 0.18149269 0.08361675 0.011905262 -0.18849653 0.006936504 0.37202007 -0.1542075 0.019125722 0.04877632 -0.19486453 -0.13601032 -0.122619696 0.24227405 -0.21583317 0.21966702 -0.08308725 0.2841721 0.07262446 0.0028081785 -0.07231243 0.17812532 0.04972392 0.08014322 0.015557493 0.16091225 -0.13942088 0.16007528 -0.0055644456 0.08135185 0.01106655 -0.088543095 -0.23605284 0.19843653 0.02705726 -0.08134497 -0.3187062 0.04983799 -0.05838596 0.106292255 -0.035262566 0.14946517 0.0151663255 -0.4894559 0.10597564 0.15378365 -0.2853165 0.19583884 -0.104268074 -0.27370796 0.17457275 0.18347694 -0.019857999 -0.029942099 -0.34532228 -0.088901944 -0.27803 0.091449186 -0.07969735 0.21101788 0.28207302 0.111797936 0.2096454 -0.18956983 -0.057361625 0.010340728 -0.017755184 0.041435298 0.07171546 -0.088670306 -0.03739765 -0.094840445 -0.106169745 0.06364868 0.035268165 0.15788183 -0.12232075 -0.028974196 0.09247042 0.0034015565 0.43302903 -0.056512844 0.030159052 0.032962825 -0.30279142 0.21771325 0.101721115 -0.02139618 -0.12251096 0.1457337 -0.07119954 0.19865361 -0.14016192 0.1269012 0.09645072 -0.16553485 0.07248749 -0.14195147 0.0513302 0.23026307 -0.14682205 0.34447372 0.1385115 -0.13746276 -0.18891563 -0.115363576 -0.21672125 -0.097443715 0.15220034 0.041391306 -0.15647246 0.15783317 0.05648748 0.060102705 -0.20572953 -0.059354268 0.04839935 0.021264052 -0.093794815 -0.060252313
804 0.08690445 0.03623523 -0.06406162 0.13817924 0.055976618 -0.07768273 0.18360308 0.051397335 -0.19908394 0.012949244 -0.0482066 -0.055691205 -0.109384894 -0.08726804 0.07400371 -0.046344053 0.113110736 0.024446694 -0.05213938 -0.0016986025 -0.13591053 0.15643908 -0.119712666 0.0367939 -0.051523466 0.0655752 -0.15313889 -0.13151026 0.12589215 0.011835121 0.03601858 0.066037744 0.008155305 0.22869952 0.018482376 0.15507725 -0.045095354 0.059014935 0.021487514 -0.022800095 -0.16675295 -0.08608991 0.16889913 -0.06604277 -0.12815943 -0.036758233 -0.067689456 0.026205372 -0.173896 0.117146336 -0.0011545036 -0.22422731 0.23930264 0.0656867 -0.042897906 -0.07888817 -0.062391184 -0.21998976 0.10638297 0.15082619 -0.034518845 0.05416834 -0.15049928 -0.086221054 -0.144102 0.024926696 -0.037138306 0.12395115 0.003217137 -0.10869306 0.10462025 -0.16702223 0.12234421 0.18594827 0.22787392 0.06268719 -0.02716945 -0.02027969 -0.12786421 -0.021412265 -0.09773951 0.07539767 -0.121059425 -0.048490934 -0.32027137 0.034375377 0.018648228 -0.03795494 0.2022438 -0.11255843 0.15802194 0.17885208 -0.03292189 0.06524147 0.117477335 -0.14836466 -0.002307618 0.20326926 -0.06567323 0.09873129 0.16364928 0.12881403 0.046793137 -0.06814535 0.14249341 -0.16518877 -0.063770875 0.064855605 -0.0650405 0.15867196 0.06261497 -0.15937157 0.0057935677 -0.15442355 -0.1404078 -0.17378293 0.12218889 -0.13455842 -0.17972337 0.042228006 -0.041222252 0.021902665 -0.14749701 -0.20327786 0.072496906 0.009794937 -0.09479913 -0.05610749
374 0.0405595 0.05620914 -0.06654378 0.17308986 0.0069992202 -0.09076223 0.094978616 0.061546374 -0.16582511 -0.011548951 0.06934494 -0.03785829 -0.13216507 -0.05312548 0.18315533 -0.07947996 0.13693301 -0.03412797 -0.06621396 -0.050233483 -0.12700343 0.10876024 -0.16974063 0.11702547 -0.09914548 0.18205886 0.014686885 -0.10670227 -0.06985733 0.025542868 0.103433765 0.038215153 0.052607328 0.12998782 -0.035500854 0.07150425 -0.07592335 0.07743846 -0.046647914 -0.0032660519 -0.21760112 -0.01903091 0.045528226 -0.05262798 -0.059805863 0.027702693 -0.056779336 0.05358835 -0.15291725 0.16036078 0.04722893 -0.20965135 0.18730505 -0.015282926 -0.108859986 -0.034948483 -0.07743638 -0.19160454 0.11603821 0.055649735 0.057492744 0.061960835 -0.09833615 -0.046553433 -0.14891852 0.067770466 0.05821303 -0.011199926 0.20088494 -0.13158329 0.15823781 -0.08114623 0.00038652503 0.07928463 0.11289386 0.038381204 0.0018146355 -0.0433584 -0.071650356 0.06870055 -0.036192987 0.030584466 0.0219908 -0.07465421 -0.22670831 -0.043598812 -0.06750384 0.06333529 0.1753347 -0.06353594 0.16064623 -0.07515999 -0.12176987 0.12558796 0.050426356 -0.15683746 0.00853146 0.20504583 0.033691034 0.12322049 0.018106343 0.1456038 -0.014861593 -0.010140887 0.08927656 -0.05254132 0.041662093 0.10079182 -0.11105553 0.16042998 0.07158942 -0.049289763 -0.02213049 -0.12822534 -0.12784769 -0.09725911 0.102559276 0.038580455 -0.16137694 0.08547236 -0.0618043 0.018145025 -0.12554325 -0.07512173 0.034230225 -0.020670002 0.007241548 -0.10774993
718 0.2040029 0.18640096 0.005091533 0.13001603 0.038840264 -0.3160368 0.16279237 0.04170439 -0.2805281 -0.06583544 -0.0129960105 0.14357246 -0.19760744 -0.08387714 0.04865266 -0.20185146 0.071885355 0.15027554 -0.112991124 -0.13966568 -0.13568527 0.24672204 -0.016028088 0.03689866 -0.007074614 0.03401772 -0.12212136 -0.021840291 -0.14144227 -0.051687416 0.16503035 0.20791079 -0.03519251 0.34151185 -0.05144488 0.21722445 -0.08045815 0.003516327 0.06328828 0.018440545 -0.28169546 -0.18297388 0.2798594 -0.050759744 -0.1907253 -0.19570172 0.122503065 0.03734168 -0.12759253 0.1091783 -0.15443805 -0.07683092 0.13557297 0.08719774 -0.06476221 0.06720313 0.05721002 -0.16585393 0.033124357 0.3160469 0.03923702 -0.037693907 -0.4159627 -0.08435152 -0.14910322 -0.13979614 0.10474537 0.097445145 -0.040024277 -0.18168867 0.101634726 -0.09674018 0.18387944 0.0493448 0.08293788 0.071601056 -0.11031563 -0.0005534841 -0.020214867 -0.18449794 -0.09108398 -0.15000284 -0.023553688 0.02788622 -0.22775422 0.05358681 0.008891615 -0.19126756 0.121153824 -0.08481911 0.36295074 0.15232795 -0.1581875 0.057647284 0.31993318 -0.10688181 0.0073865037 0.121309705 -0.20077558 0.20683071 0.12620899 0.018356621 0.043823384 -0.15243123 0.18630412 -0.08632456 -0.10774877 0.090816595 -0.12148597 0.257489 0.18559082 -0.13955568 -0.013946388 -0.24115342 -0.07709874 -0.049826335 0.15581818 -0.14598465 -0.14526042 0.0675904 -0.05927241 -0.035584927 -0.20667009 -0.124432914 -0.0064099818 0.082827955 -0.1624401 -0.013073058
349 0.118673265 0.08909905 0.023430094 0.23095319 -0.039586943 -0.12579423 0.1574443 -0.0017615194 -0.18390596 0.007975952 0.13077942 0.011226795 -0.2634278 -0.1165755 0.2610518 -0.09880961 0.13704683 0.060032193 -0.021742037 -0.095419414 -0.16467546 0.07628957 -0.17212214 0.08769902 -0.0533936 0.15321979 -0.11740711 -0.018864144 -0.040655285 0.045402795 0.09640939 0.08363789 0.15588443 0.1612089 0.04397952 0.15061381 -0.026262293 0.14994797 0.03459241 -0.04501897 -0.20490952 0.01724051 0.10635218 -0.04336736 -0.08458906 -0.06077757 -0.109156124 0.12528892 -0.15338196 0.14826575 -0.01695003 -0.30928722 0.19832289 0.034614883 -0.044031333 0.018696656 -0.051955998 -0.07794078 0.03618726 0.07534791 0.040125318 0.116699874 -0.1556205 -0.027808666 -0.18955868 0.024743645 0.0071330112 0.10541405 0.089626685 -0.12108386 0.18036562 -0.06457955 0.038848985 -0.014817599 0.17219433 0.001246234 -0.02437605 -0.036213268 -0.042291734 -0.0031990968 -0.03936811 0.024008617 -0.039786633 0.003783537 -0.2202526 0.036349386 0.05763482 -0.038280834 0.2948404 0.03393397 0.18057503 -0.06619988 -0.18175396 0.0802797 0.078478724 -0.18591702 -0.057620645 0.19362263 -0.05365284 0.18421744 0.024844775 0.13148202 0.029589532 -0.06791504 0.14663033 -0.13197741 0.025850493 0.1502602 -0.12892759 0.26440063 0.052601106 -0.09292836 0.041163716 -0.10191231 -0.09021109 -0.1416098 0.08886512 0.01822461 -0.19652116 0.04758375 0.00069341523 -0.0010395168 -0.23434511 -0.12408678 0.16626593 -0.08556022 -0.12618558 -0.043007176
723 0.031684756 0.13948722 -0.09221714 0.10016181 -0.04105006 -0.11990679 0.123169325 0.09684722 -0.19028106 -0.13484107 -0.006814516 0.045941643 -0.021921085 -0.08708427 0.123023525 -0.111202136 0.07210789 0.027236022 -0.044563726 -0.09885558 -0.06248253 0.18684673 -0.109807365 0.1191719 0.0015671062 0.18011236 -0.00014462735 -0.24177803 -0.13928391 -0.008134877 0.055908684 0.094761595 -0.0053911284 0.19305634 -0.10210371 0.13675196 -0.09688059 -0.012892567 -0.05060914 0.015737697 -0.20417449 -0.16186498 0.18612751 0.029963994 -0.1316007 -0.023939773 0.03263063 -0.06170539 -0.042704593 0.13253441 0.016177842 -0.08314912 0.20244509 -0.03227103 -0.058490727 -0.05674986 -0.0060705426 -0.1525949 0.019845672 0.24525547 0.057445403 0.0031854764 -0.21793406 -0.051061776 -0.16649997 -0.007475662 0.08994096 0.049770698 0.093867205 -0.16100658 0.038316432 -0.15480721 0.07378433 0.07816281 0.13728248 0.089740686 -0.00049867877 -0.027032075 -0.13566612 -0.04815186 -0.12389792 -0.10372232 0.09472869 -0.05579374 -0.19928908 0.0116357235 -0.051970094 -0.056962263 0.16095874 -0.052903984 0.22996321 -0.0029928368 -0.10573761 0.07985855 0.1910439 -0.021539733 0.033175927 0.17833503 -0.084951706 0.025843967 0.05712985 0.15519476 -0.001961634 -0.043164402 0.076169945 -0.09488182 -0.020727804 0.10702203 -0.12433138 0.21170843 0.17148621 -0.06091878 0.06648205 -0.20346932 -0.12954772 -0.10112946 0.19186123 -0.10636738 -0.12174651 0.019890003 -0.14790088 -0.012470562 -0.21969676 -0.093422085 0.040815033 0.059495598 -0.05633716 -0.032038838
508 0.17816994 0.14734179 -0.08114177 0.026847152 -0.023057723 -0.07585233 0.15602815 0.07295738 -0.18276942 -0.12676135 0.1289354 0.06935606 -0.137655 -0.11515404 0.11428497 -0.20053917 0.07043514 0.09023891 -0.1474621 -0.18985637 -0.19854335 0.20942438 -0.1829483 -0.007612929 -0.009014414 0.08161317 -0.08166429 -0.04041891 -0.19846798 0.008536457 0.054959618 0.11615097 -0.031848054 0.1733148 -0.14606398 0.116790235 -0.0701338 0.028005697 9.490966e-05 0.08540693 -0.21174416 -0.16451168 0.22778922 -0.006756651 -0.052730322 -0.12073729 0.10456029 0.07686302 -0.105839014 0.13013425 -0.069124974 -0.06409315 0.05993142 -0.025232268 -0.02570636 -0.1078338 0.041770164 -0.15854055 0.029384045 0.2847324 0.035762075 -0.08010509 -0.31511182 -0.017725898 -0.12491663 -0.08863995 -0.027439043 0.059419706 -0.058086265 -0.21354629 0.042568374 -0.002975439 0.14096874 0.058875553 0.1381438 0.01914685 -0.11948733 0.029166518 -0.10789956 -0.12976258 -0.06033874 -0.112419166 0.06890638 0.047526572 -0.20158549 0.024615379 -0.041219 -0.16087884 0.076296456 0.020345872 0.40274003 -0.02354064 -0.22203837 -0.050699845 0.14058301 -0.13351822 -0.04906573 0.15910445 -0.11742352 0.104962744 0.07161371 0.09744717 0.08397094 -0.08014726 0.11938658 -0.12981063 0.014689047 0.11874292 -0.14663199 0.28624162 0.17950182 -0.0027436027 -0.0061616236 -0.24684961 -0.045970835 -0.013467685 0.18428412 -0.081268944 -0.19632007 -0.014883604 -0.109186456 -0.10053141 -0.13723284 -0.16803004 0.04030972 0.077402696 -0.07855197 0.03161362
442 0.077710144 0.03235391 -0.07109944 0.031292263 -0.0040806695 -0.02989405 0.108080864 0.039668422 -0.18432114 -0.12327942 0.09076385 0.024819028 -0.04774897 -0.12577105 0.1115881 -0.21261299 0.09667399 0.09745579 -0.11429601 -0.118202545 -0.12764736 0.1578345 -0.15277655 0.041898176 -0.022120314 0.066403635 -0.0065733385 -0.16316518 -0.12060315 -0.019062538 0.11056249 0.16391768 0.04896454 0.24043603 -0.15563107 0.10521687 -0.08316693 -0.026205426 -0.048445124 0.01487867 -0.14323208 -0.0858574 0.18008989 0.05194204 -0.08885044 -0.048715297 0.030306268 0.03973744 -0.1369147 0.07880253 -0.042967077 -0.087278135 0.1340778 -0.045218363 -0.033138897 -0.0030174216 0.053015813 -0.16389838 -0.016530901 0.2974927 0.104111694 -0.043919 -0.27694753 -0.034214396 -0.18465114 -0.09924005 -0.009839829 0.093537584 0.025978677 -0.21774329 0.06615813 -0.110342175 0.120188855 0.06570549 0.11141788 0.0062404 -0.0073506325 0.016688233 -0.14536212 -0.07101038 -0.10066752 -0.02573033 0.07645671 0.020288518 -0.23586595 -0.05267306 0.0033920116 -0.122226655 0.18554144 -0.038289398 0.2995595 -0.0810435 -0.2325095 0.06716744 0.097977124 -0.03262598 0.027553761 0.22177197 -0.015007947 0.06838016 -0.028772004 0.114427425 -0.00810545 -0.04092662 0.10726995 -0.13914147 -0.084390804 0.1263212 -0.12215396 0.34861836 0.25457773 0.04399263 0.08041824 -0.20479034 -0.08797437 0.049062613 0.17924812 -0.08720524 -0.19882949 -0.035387415 -0.085909665 -0.0646135 -0.076484405 -0.070189625 0.16512172 -0.0022222279 -0.16813381 0.04975272
816 0.079277 -0.058155112 0.0005661476 0.09903941 0.040872373 -0.06264483 0.1111927 0.00025372385 -0.14992875 0.09630538 0.046759404 0.0076757614 -0.06683699 -0.06767349 0.14501892 -0.06861334 0.06970502 0.06891942 -0.13156362 -0.07103113 -0.13807558 0.15805182 -0.09291317 0.049362276 -0.01418438 0.08394788 -0.22463898 -0.020782718 0.08760339 -0.0015358941 -0.0026171538 0.14690141 -0.024209108 0.18968564 -0.028669162 0.17289917 -0.08312052 -0.02139196 0.08704698 0.010886301 -0.17466152 -0.06522984 0.089462385 -0.07233884 -0.16355023 -0.020043552 -0.040950768 0.030519268 -0.19006702 0.0711683 -0.055946257 -0.23646271 0.22707261 0.072920635 -0.010784242 -0.07465569 -0.1297617 -0.25854343 0.1550447 0.107307985 0.012658989 0.07706214 -0.102665864 -0.06825284 -0.14916188 -0.0024770051 -0.05911175 0.09371351 -0.105857104 -0.059293225 0.10333042 -0.1238078 0.16381128 0.17112915 0.1679541 -0.01223596 -0.15872471 0.011154076 -0.14115441 -0.0599431 -0.13777639 0.11966037 -0.09135612 0.0059225946 -0.2868061 -0.0013297839 -0.0142267905 -0.06350152 0.15981126 -0.18477209 0.21667688 0.061891902 -0.05947667 0.04371439 0.020043796 -0.091135025 0.002966067 0.20871858 -0.029706731 0.1610092 0.17239079 0.062080313 0.07070782 -0.052441202 0.18133901 -0.2087766 -0.13181591 0.10545698 -0.0865402 0.15430166 0.13735396 -0.028542364 0.014040915 -0.13664308 -0.16228168 -0.054020815 0.12005923 -0.12241611 -0.13172992 0.011650401 -0.09838521 -0.07253393 -0.026289359 -0.16547364 0.05618018 0.042055164 -0.1999407 0.06353048
314 0.027192313 0.15393955 0.060723122 0.21155734 -0.08015542 -0.24807563 0.03166005 0.066139355 -0.21254335 0.1118993 0.07241658 0.0525801 -0.16349758 -0.019150427 0.28052315 -0.062569015 0.04932375 0.074225076 -0.14629394 -0.09550937 -0.14113382 0.14031844 -0.17587686 0.18901746 -0.042411674 0.2110067 -0.11139412 -0.012172794 -0.12162421 0.13912141 0.09182948 0.10979193 0.082627006 0.10211484 -0.11919111 0.13184923 -0.0980982 0.07676143 0.13974805 -0.08656625 -0.24759193 0.06557538 0.06676644 0.02066728 -0.24825887 -0.0052168886 -0.004330039 0.07873254 -0.1192736 0.045836322 -0.006258456 -0.3324068 0.13823394 0.09465905 -0.13899837 0.08742871 -0.09462581 -0.20042428 0.1318614 0.17122197 0.040051173 0.034013595 -0.2985108 -0.03682877 -0.23253284 0.07511619 -0.0010979557 0.16614608 0.20238508 0.027382668 0.15898214 -0.1084591 0.03159783 -0.028037291 0.057015225 -0.05899268 0.018681474 -0.029143145 -0.11038314 -0.09695103 -0.12036796 0.026592413 0.016262868 0.0867145 -0.07621502 -0.00028323382 0.05734294 -0.003227357 0.3049661 -0.06322527 0.098776706 -0.0035673839 -0.14350398 0.17843053 0.13194443 -0.07567099 -0.101182975 0.082571626 -0.0657 0.12066572 -0.011561579 0.11098933 0.086445026 -0.096586324 0.1317282 -0.061657876 0.011338129 0.12394424 -0.17833096 0.22219446 0.116429314 -0.12633836 -0.099919625 -0.09962027 -0.2218102 -0.14761725 0.07467298 0.039109625 -0.123145215 0.08011709 -0.05085584 0.005803625 -0.19138151 -0.09693326 0.06345881 0.048562758 -0.07088088 -0.039356682
243 -0.04416625 0.14946383 0.18582088 0.18171652 -0.13109426 -0.31434074 -0.020362312 0.025444334 -0.23947853 0.24672873 0.07437343 -0.033085838 -0.15029635 0.040790454 0.32433498 -0.1368951 -0.032858144 0.07363176 -0.23370528 -0.11355993 -0.14177504 0.21625336 -0.2642776 0.24201897 -0.07772202 0.2411548 0.03341889 0.062115796 -0.091007985 0.20031823 0.14608257 0.13221203 0.070909835 0.1062901 -0.23846608 0.1171879 -0.024062948 0.077050984 0.04343756 -0.19023588 -0.24705146 0.23364842 0.04790229 -0.05234379 -0.3673907 0.05665709 -0.021288808 0.08685974 -0.038077127 0.020091109 -0.0063437372 -0.47711903 0.07086164 0.16622603 -0.23678523 0.24097145 -0.108993515 -0.2902374 0.2319652 0.2223215 -0.017409906 -0.07158856 -0.387262 -0.07846893 -0.27773032 0.14743891 -0.12155307 0.27110967 0.2958648 0.23293924 0.2101752 -0.19092296 -0.042429168 0.040791843 -0.03701983 -0.10187613 0.10402548 -0.10563 -0.11873774 -0.009636342 -0.031195406 0.20513189 0.0075951233 0.26135466 -0.114335515 -0.042476006 0.1192672 0.022266252 0.46540046 -0.05953687 0.072007395 0.1058487 -0.2626897 0.28239742 0.061405607 -0.010876085 -0.12206291 0.16925289 0.05194953 0.08104984 -0.17379692 0.13640164 0.15049434 -0.16847502 0.034811147 -0.020314125 0.040850114 0.20260255 -0.1377272 0.40091637 0.10230823 -0.06331765 -0.2903384 -0.17608754 -0.33759207 -0.12321362 0.052433573 0.140922 -0.21759255 0.14003965 0.08267206 0.027072113 -0.060246244 -0.0696655 0.04203314 0.05857105 -0.06473144 -0.01990035
685 0.16136727 0.17256594 -0.15383585 0.11780292 0.08178174 -0.09036946 0.2527492 0.12997088 -0.21577455 -0.1191296 -0.06308949 0.039789997 -0.13846388 -0.109173596 -0.025004335 -0.067016415 0.011492268 0.04921936 -0.122310564 -0.09102712 -0.10859473 0.2531389 -0.009623117 -0.034972053 0.055690877 -0.0062994068 -0.1510341 -0.13519827 0.071924664 0.012848433 0.118711114 0.09728655 -0.0939394 0.15745638 -0.051969174 0.16326113 -0.012185688 0.07410508 -0.051579434 -0.10791681 -0.21309768 -0.25906032 0.23286778 0.07021592 -0.13080549 -0.20318957 0.029424451 -0.00911451 -0.15121864 0.08367346 -0.07390919 -0.03684579 0.18261766 0.043072447 -0.06204708 -0.023262983 0.09592653 -0.080242544 -0.08423229 0.2770772 -0.029692437 -0.041219257 -0.26421818 -0.14336099 -0.1496239 -0.016062446 -0.04161952 0.080810696 -0.089881584 -0.24861085 0.012817284 -0.14095178 0.15098518 0.0031911258 0.18232502 0.09586412 -0.057213027 -0.05142865 -0.20841989 -0.17338556 -0.03494583 -0.06232956 -0.026663577 0.02974213 -0.2569664 0.07562865 -0.026707126 -0.14309905 0.1478869 0.024931284 0.31765833 0.079391494 -0.15566482 0.09427064 0.1894919 -0.075833604 0.051448125 0.14155969 -0.1434697 -0.009554256 0.10429533 0.072232544 0.06672011 -0.15121605 0.067929365 -0.11086148 -0.047700457 0.062109236 -0.07558693 0.28712037 0.058580477 -0.12606049 0.09206304 -0.25447458 -0.11978272 -0.1819893 0.14439222 -0.19167463 -0.24562027 1.8436447e-05 -0.15658522 -0.037472993 -0.17622457 -0.14721392 0.0026356864 0.05067544 -0.109884545 0.013671098
765 0.2976499 -0.008163214 0.1287073 0.10096811 0.05182056 -0.12131821 0.013006545 0.004295567 -0.20837338 0.07416359 0.07436145 0.06702147 -0.14893182 -0.18527985 0.08070709 -0.20234649 0.22515056 0.27000034 0.023950314 -0.0076013473 -0.3346811 0.15676661 -0.32300657 0.11631984 -0.081450045 0.029231053 -0.4754883 0.14872897 -0.056536157 -0.018682614 0.07652321 0.19739643 0.19898467 0.20101449 -0.031294476 0.23450223 -0.13038565 0.023505185 0.34733823 0.16387361 -0.26020062 0.023320213 0.28345373 -0.029682841 -0.18723083 -0.104996674 -0.009064284 0.1570889 -0.244727 -0.14020337 -0.16996838 -0.36711806 0.12058213 0.18968086 0.10836395 -0.069051825 -0.13140579 -0.19843516 0.29325238 0.14840612 -0.03743911 -0.045643557 -0.26348722 0.11986414 -0.12511009 -0.0883978 0.03024058 0.299785 -0.19440416 -0.021370728 0.16593143 0.055065747 0.27861145 0.14323972 0.36785606 -0.20595647 -0.058836453 -0.0022548435 -0.054982293 -0.08185169 -0.17245466 0.13283744 -0.25747204 0.06851983 -0.27465886 0.077482745 0.15275286 -0.07643173 0.26966336 -0.13505356 0.2896345 0.20993592 -0.030347582 0.02425845 0.21030821 -0.24551938 -0.24625833 0.21069165 -0.061676793 0.21434103 0.38622916 0.066734545 0.21088654 -0.100920394 0.26231128 -0.22621666 -0.08801374 0.0024601892 -0.16166581 0.18943457 0.038206115 -0.14000201 -0.13438892 -0.1559713 -0.2040549 -0.20099261 -0.011347946 0.026096959 -0.18228747 -0.08325071 0.14508773 -0.065267965 -0.053593874 -0.313101 0.18383433 0.028782416 -0.18836488 -0.014257335
784 0.2576061 0.04268968 0.049005106 0.08532491 0.103439994 -0.19983521 -0.0014834916 0.003915603 -0.24667324 0.11631543 0.07315248 0.067109525 -0.1934451 -0.15996915 0.0805422 -0.23252387 0.20766845 0.21423744 -0.16255873 -0.08645081 -0.27446294 0.20172386 -0.18836339 0.057336003 -0.085819535 0.08841155 -0.28310165 0.14817238 -0.11109624 -0.012651054 0.05292609 0.20683461 0.04579972 0.26981485 -0.03815465 0.1526237 -0.1039866 0.013676046 0.1845212 0.15777013 -0.22846408 -0.0049064946 0.18567932 -0.080825716 -0.13015072 -0.1047478 0.054698534 0.19426607 -0.19526084 0.02857124 -0.11098189 -0.24005722 0.09390727 0.15107423 0.059637386 0.003207774 -0.043045565 -0.26075947 0.27635372 0.21966007 0.0070145666 -0.05667433 -0.32632333 0.07972767 -0.060715355 -0.10234539 0.020859959 0.17139547 -0.09535574 -0.032244824 0.14245798 0.06269088 0.19956622 0.10805942 0.15172431 -0.0925385 -0.11325732 0.023861138 0.0068705897 -0.14596117 -0.11608335 0.056365736 -0.11055847 0.024534957 -0.3393037 0.012035488 0.027533803 -0.080267176 0.15403698 -0.1534073 0.28596282 0.14791104 -0.13662785 0.0061434233 0.20266463 -0.23755756 -0.1457712 0.16564159 -0.09097989 0.31008384 0.19897807 -0.003757135 0.12741108 -0.12285406 0.27723 -0.24739617 -0.09838213 0.05795813 -0.13876294 0.17486309 0.11440394 -0.10713952 -0.127372 -0.21622548 -0.08448048 -0.042947028 0.09996157 -0.08523681 -0.19520237 -0.02096079 0.041501727 -0.04597281 -0.01917986 -0.16744629 0.061068863 0.08433543 -0.20760067 0.0017287043
688 0.11375428 0.07582496 -0.1405542 0.14684461 0.05242203 -0.2810629 0.11199153 0.063917994 -0.253345 -0.077033296 -0.0549555 0.11431113 -0.16518417 -0.10068308 0.031358693 -0.13436438 0.1796744 0.10001942 0.00886286 -0.094541796 -0.06414194 0.1862812 -0.06705386 0.040107362 -0.06222567 0.046818223 0.0018840512 -0.14673598 -0.049581517 -0.030525718 0.16856502 0.11263259 0.038960084 0.24673803 -0.036042206 0.12615776 -0.1576878 0.0034505487 0.00037238843 -0.05088075 -0.20749655 -0.22873087 0.2768668 -0.025590993 -0.20170537 -0.17044269 -0.005882427 -0.00590334 -0.18013519 0.054472696 -0.04164166 -0.16390301 0.23935969 0.05885991 0.049990494 0.058250483 0.022008838 -0.14060941 0.049198955 0.280245 0.087829165 0.024991585 -0.3009675 -0.09183052 -0.19388449 -0.09665567 0.11822029 0.17062867 0.09362357 -0.19504516 0.21322815 -0.14840093 0.17008854 0.031966224 0.16936901 -0.013839093 -0.058450304 -0.040203698 -0.09479267 -0.03477098 -0.0980964 -0.030600462 0.0076897116 -0.026901236 -0.22414544 0.06871604 0.047205478 -0.10259629 0.2531176 0.050460108 0.2564744 0.10977952 -0.05235329 0.123561546 0.27547905 -0.15497358 0.060739137 0.09707905 -0.15366992 0.13734761 0.038493197 0.19089833 -0.022173189 -0.16303822 0.17546886 -0.109199375 -0.006859405 0.096752 -0.10837529 0.22115882 0.1376574 -0.16084121 0.066336066 -0.16937855 -0.08798108 -0.2365352 0.081281 -0.07613578 -0.19295901 0.033825517 -0.11979231 0.023828812 -0.23680294 -0.09746233 0.10750809 0.0145458765 -0.08815943 -0.12360847
359 0.06732687 0.018061955 0.038545545 0.14556542 -0.032882046 -0.06235197 0.27667028 -0.048834234 -0.17191207 -0.045749035 0.13019663 0.007072039 -0.14756852 -0.0874756 0.24196625 -0.15774232 0.14831439 0.030793661 -0.061457213 -0.05398077 -0.16207922 0.15255812 -0.17123146 0.043759547 -0.09746422 0.06261521 -0.09112449 -0.1842329 0.017303018 0.04438991 -0.0029444736 0.0867833 -0.06414271 0.2957887 0.05693111 0.2012342 -0.02204066 0.06064436 0.05580501 -0.017448887 -0.13649446 -0.054171365 0.16453812 -0.0948462 -0.06407607 0.06272701 -0.03398914 0.024943821 -0.22775729 0.2728203 -0.031016866 -0.25104746 0.26150608 -0.020106578 -0.15881945 -0.121426195 -0.04908246 -0.20424064 -0.01914554 0.08922998 0.020088313 0.17924573 -0.043083377 -0.15603101 -0.14857073 -0.020905606 -0.060591638 0.03832208 -0.076715626 -0.15911436 0.086119525 -0.1424494 0.09574 0.1799613 0.16799209 0.13574104 -0.09853627 0.09840902 -0.10968441 -0.029553656 -0.11319682 -0.038350366 -0.0193318 -0.13672782 -0.22723976 -0.04911668 0.023114791 -0.05255318 0.21116574 -0.13501243 0.25703844 -0.015640011 -0.09138336 0.0012526655 0.029430738 -0.13284156 -0.0019602673 0.25281516 -0.06833508 0.17578448 0.13923006 0.09370138 -0.01476225 -0.028400699 0.1473556 -0.180283 -0.06561392 0.18529215 -0.055586975 0.24847737 0.21611111 -0.008764422 0.108401276 -0.15056305 -0.11942068 -0.006050692 0.16120364 -0.10040198 -0.16164273 0.06508767 -0.103540204 -0.047866017 -0.257566 -0.18013261 0.11828518 -0.06752399 -0.18451251 0.019931074
706 0.099253975 0.13158005 -0.02886606 0.15461619 0.07725535 -0.112998635 0.17747132 0.05336599 -0.1984955 0.03317367 0.06336198 0.00810937 -0.1445937 -0.072037116 0.17387794 -0.08761973 0.017505227 0.023841145 -0.13439827 -0.107168086 -0.108888164 0.18397017 -0.11323485 0.018645408 0.0021620786 0.17002936 -0.16390811 -0.05105743 -0.045422163 -0.022583803 -0.018002326 0.10850991 0.031500503 0.25339416 0.009650833 0.2054208 -0.10035514 0.09385473 -0.0041107694 0.05485469 -0.21800594 -0.015512227 0.05698017 -0.102040276 -0.10063897 -0.073541716 -0.020802181 0.078179955 -0.1458006 0.20192583 -0.04125208 -0.19794919 0.18312038 0.027444405 -0.063608445 -0.033475652 -0.1182079 -0.23069675 0.1277294 0.11732724 0.050805744 0.050261617 -0.18939708 -0.05131177 -0.101884104 -0.060479082 0.044986486 -0.004436967 0.020810978 -0.15424879 0.10680236 -0.029453069 0.07091323 0.11774524 0.13703988 0.12708716 -0.13157243 -0.004010547 -0.061993644 -0.12691939 -0.06951956 -0.07274685 -0.05293466 -0.06749883 -0.23079826 0.04120334 -0.052051894 -0.08951977 0.07987657 -0.108131684 0.16883452 0.047784448 -0.14765656 0.051309735 0.1393173 -0.19693872 0.02994889 0.17410964 -0.14176422 0.22756548 0.11173982 0.03947409 0.055392593 -0.051502217 0.10216547 -0.18522158 -0.041886978 0.10075006 -0.15973003 0.13089503 0.15139173 -0.1118047 -0.01834906 -0.07608486 -0.07488637 -0.035467274 0.20692454 -0.16914117 -0.07351887 0.09004526 -0.11169402 -0.039300025 -0.17025428 -0.13143112 -0.010131029 0.046735566 -0.14234403 -0.033823088
822 0.06888075 0.19659477 -0.12168852 0.12290168 0.068158224 -0.11919367 0.068514235 0.10305775 -0.20509346 0.0762681 -0.034313966 -0.110534616 -0.14673427 -0.100107744 0.16972294 -0.011354966 0.047501937 0.014683481 -0.111181654 -0.08885186 -0.09093682 0.16615957 -0.10175996 0.04728052 -0.018226469 0.23042531 -0.1644729 -0.07228535 -0.06373377 0.022195086 -0.01543003 0.058747053 0.11267937 0.21487053 -0.0006438647 0.10246113 -0.09181405 0.106514536 -0.075629495 0.047320023 -0.15161541 0.018630337 0.10392935 -0.051777314 -0.05859036 -0.13107374 -0.03237965 0.09613033 -0.10226364 0.21517202 0.05586928 -0.22044657 0.15275398 0.111384146 0.00088952744 0.021836326 -0.064942524 -0.17091252 0.1419383 0.19843383 0.014204134 -0.013200974 -0.24833068 0.04365102 -0.06656871 0.009185268 0.009799541 0.045505434 0.17670569 -0.009561442 0.057031907 -0.040149756 0.024918504 0.07707779 0.1078295 0.108511694 -0.004290715 -0.05340106 -0.07273587 -0.06966356 -0.02944674 0.016791223 -0.07093693 -0.10944264 -0.36317036 0.044748537 -0.050311346 -0.011431277 0.14963126 -0.11734086 0.12645291 0.1771463 -0.15764488 0.10383991 0.1785294 -0.20770381 -0.07268262 0.13278525 -0.1385339 0.19786678 0.057851087 0.07921186 0.090634964 -0.059438538 0.09554352 -0.13236487 0.02180964 0.065407954 -0.089345135 0.10715351 0.022837576 -0.21695991 -0.0629014 -0.18666983 -0.062201362 -0.15055756 0.23218884 -0.16425677 -0.13580744 0.088675275 -0.073401645 0.028866801 -0.14531998 -0.120126076 0.0063395635 0.07426625 -0.03627196 -0.049322434
806 0.14311722 -0.019749362 -0.013445139 0.16450231 0.031714085 -0.13864179 0.097406805 0.029711453 -0.1666211 0.08966694 0.03771089 -0.015950268 -0.1908678 -0.14225353 0.14399643 -0.051487897 0.2078509 0.13759543 0.04410577 -0.027843118 -0.2029556 0.035756454 -0.18348269 0.09558879 -0.055044748 0.06595107 -0.35998672 0.08570879 0.06984548 -0.033864703 0.10424083 0.074794464 0.19164722 0.17719221 0.07026137 0.14935781 -0.15143223 0.08665073 0.20834194 0.012662742 -0.16851978 0.019249594 0.16725267 -0.059424892 -0.1077585 -0.13052 -0.12508176 0.16742396 -0.28146723 0.0018101796 -0.12310008 -0.3486148 0.19145732 0.12354578 0.084564194 0.020178335 -0.13177171 -0.12273143 0.13597815 0.056936886 0.011300567 0.099204615 -0.17484902 0.05676121 -0.19779459 -0.006869949 -0.018759241 0.2005539 0.0046380726 -0.13368836 0.24281317 -0.060674526 0.16595572 0.0802623 0.33450317 -0.12511957 -0.065045856 -0.027276374 -0.07307577 -0.0065369117 -0.080115825 0.15812272 -0.24257854 -0.025932787 -0.27996624 0.030151969 0.12260256 -0.051901504 0.26325423 -0.06748215 0.2194336 0.09230267 -0.004189281 0.061600737 0.09143287 -0.27583477 -0.12403052 0.16608901 -0.08703111 0.22031152 0.2171567 0.11789325 0.123086564 -0.03311666 0.24243699 -0.19806398 -0.028382692 0.049398825 -0.111357786 0.13672884 -0.00781535 -0.19970766 -0.024992513 -0.10893399 -0.14150886 -0.2126773 -0.032236196 0.033541612 -0.17210488 -0.013005731 0.043077927 -0.025875764 -0.07668279 -0.20871513 0.21017486 -0.03380156 -0.15377392 -0.084553495
712 0.0063670347 0.13668463 -0.022794226 0.024024526 0.004214431 -0.12191525 0.16807342 0.061497953 -0.24243724 -0.107024476 -0.026455926 0.057171248 -0.014708086 -0.10956903 0.03921078 -0.12829703 0.0072001643 0.1606067 -0.058131978 -0.13240552 -0.056283027 0.263597 0.02537445 0.09060601 0.021044072 0.013989812 -0.09799588 -0.20172808 -0.07064518 -0.07574644 0.13560776 0.1672324 0.023898216 0.3188599 -0.14515227 0.20295875 -0.124428205 -0.021357445 0.013030699 -0.015257478 -0.20014897 -0.16382387 0.23866779 0.073078685 -0.15828098 -0.14495885 0.015588817 -0.014932394 -0.13993089 0.06356925 -0.13305795 -0.075716816 0.15386389 0.065477714 -0.06967065 0.115262024 0.012253008 -0.1116652 -0.11823629 0.3659569 0.09010888 -0.026851606 -0.37170604 -0.10432863 -0.19674923 -0.15906073 0.019666448 0.09555398 0.044438284 -0.26384628 0.080865234 -0.11611968 0.12927204 0.054114766 0.17110866 0.05625925 -0.01419066 0.046751924 -0.14778733 -0.18266396 -0.11360287 -0.115631804 -0.025055941 -0.01114651 -0.19309294 -0.02175013 0.028513454 -0.14286844 0.1755792 -0.12313306 0.34058037 0.04069898 -0.14152221 0.10024155 0.18777621 0.036446117 0.009438566 0.12392227 -0.116105326 0.047769297 0.06107405 0.023918465 0.044901796 -0.047413234 0.115219034 -0.13739753 -0.18485753 0.07535867 -0.11494585 0.32632738 0.27931753 -0.083315134 0.056007136 -0.19841261 -0.14690788 0.026328744 0.1914871 -0.18565626 -0.11420449 -0.010189942 -0.13744713 -0.07147613 -0.14787336 -0.055814758 0.11963116 0.03923499 -0.17906144 0.028309716
347 0.09370937 0.035603497 0.030078674 0.20174792 0.02614192 -0.17503487 0.14385447 -0.03929711 -0.24341556 0.07829061 0.006601536 -0.03696538 -0.23393239 -0.08132906 0.2420181 -0.09152352 0.15997167 0.04854969 -0.114451826 -0.06793731 -0.16313525 0.110722385 -0.12591761 0.1325305 -0.08398522 0.23503658 -0.17004861 -0.04851584 -0.018106408 0.022131389 -0.061844017 0.10325957 0.06527373 0.34620517 0.10853952 0.15536046 -0.050483238 0.03721778 0.026687155 0.07275724 -0.15695736 0.06177086 0.057689626 -0.14483677 -0.06803064 0.020195413 -0.061551675 0.076923534 -0.11376671 0.26271704 0.039838046 -0.31604144 0.24998423 0.08540111 -0.060909662 -0.07443295 -0.1197859 -0.26922852 0.1307007 0.067169875 0.0031327824 0.12367629 -0.1340895 -0.0013883098 -0.0913847 -0.03315601 -0.0030876077 0.078292556 0.08230446 -0.047888268 0.09603286 -0.073120564 0.08389394 0.1583049 0.11802252 0.092147246 -0.10102752 0.015503503 0.0015380885 -0.0765076 -0.15875342 0.038075928 -0.073912665 -0.12974676 -0.3198177 -0.0013716087 0.019215073 -0.036309592 0.16661932 -0.23118639 0.15442179 0.10508326 -0.1298244 0.018425448 0.14075775 -0.21822923 -0.031735256 0.20504792 -0.08704191 0.306996 0.14008234 0.08229539 0.012841967 -0.06489868 0.24180515 -0.24432895 -0.08881816 0.13961183 -0.115465835 0.09795975 0.13228785 -0.15066537 -0.007785855 -0.10503059 -0.055582 -0.035089526 0.20694545 -0.16154201 -0.11597442 0.073144674 -0.009666507 0.06317274 -0.22451922 -0.15118943 0.053787462 -0.017637365 -0.18847884 -0.048049297
721 0.007524529 0.079421684 -0.06875866 0.071470134 -0.01880782 -0.14270423 0.07979311 0.0725491 -0.15989384 -0.036881216 0.017782029 0.027402328 -0.064805575 -0.06457504 0.1346078 -0.0895186 0.03583028 0.0591432 -0.011928116 -0.080534436 -0.05395481 0.1375245 -0.13695514 0.081527375 -0.012245493 0.121473655 -0.048554454 -0.14044471 -0.07447003 -0.03949601 0.113908276 0.07286812 0.098603 0.21560924 -0.044566464 0.108986765 -0.1801572 0.025596373 -0.0153197 -0.019051785 -0.1770487 -0.0989582 0.21357599 -0.031735808 -0.16370583 -0.082954526 -0.04317185 0.014154146 -0.11139918 0.0609584 -0.035800017 -0.18138294 0.18311691 0.039305948 0.008381965 0.04164885 -0.083969384 -0.1617834 0.06783434 0.20192388 0.09327037 0.02074168 -0.28684598 -0.029554173 -0.16571194 -0.041437812 0.09649223 0.10527043 0.09849059 -0.108189315 0.13358305 -0.13096821 0.056945413 0.056608662 0.19372173 0.0042599444 -0.025173461 -0.04244942 -0.12671846 0.015371658 -0.073468834 0.001983903 0.011631796 -0.0204939 -0.18420099 0.036426328 0.012558425 -0.045893915 0.23272312 -0.006768469 0.20705724 0.06352504 -0.10261221 0.11402631 0.1563386 -0.0810231 0.052806407 0.16476472 -0.07703068 0.10798769 0.022777326 0.16019715 0.029961897 -0.044610772 0.054938003 -0.08462433 -0.0011039093 0.11152012 -0.13561079 0.21244495 0.12398877 -0.0578553 0.007163336 -0.1338406 -0.11874865 -0.14235264 0.10688913 -0.031077778 -0.13450539 0.055558417 -0.08930878 -0.008759858 -0.16660717 -0.11281036 0.086895674 0.014979876 -0.054061007 -0.07545048
284 0.14524813 0.2107338 0.06260286 0.24025124 -0.0096064815 -0.24925666 0.046777744 0.03314483 -0.2727732 0.17728972 0.049118627 -0.0020171655 -0.25873035 -0.07507294 0.29959592 -0.14128093 0.11682134 0.011645328 -0.22937734 -0.11859209 -0.204292 0.20657638 -0.24946125 0.129788 -0.08658849 0.29021803 -0.0015910579 0.057760503 -0.13074635 0.18472922 0.07013759 0.10452221 0.07716181 0.13407877 -0.12065638 0.14139569 -0.005968184 0.13687582 -0.03809003 -0.08003518 -0.2434223 0.13372983 -0.025691092 -0.061233204 -0.19866754 -0.014019102 0.018724794 0.14422339 -0.054937623 0.15571308 0.0897481 -0.4179972 0.14876126 0.13480033 -0.19944163 0.07931464 -0.053800933 -0.24527997 0.22134955 0.22032037 -0.020214427 -0.05936215 -0.27921957 -0.048941884 -0.16839947 0.0989463 -0.06253651 0.18415174 0.2514952 0.15629171 0.19319604 -0.104063794 0.046048652 -0.0113426065 -0.061032865 -0.0066833077 0.07052361 -0.11124493 -0.058183163 -0.06762713 -0.039722018 0.06333389 -0.018426022 0.14343554 -0.23956902 0.057506114 0.030032132 0.0341635 0.40148607 0.010507847 0.028490657 0.054655556 -0.24813844 0.17886606 0.13734064 -0.19148216 -0.11946374 0.15613317 -0.05892273 0.13675879 -0.053874977 0.14677916 0.10878405 -0.19369361 0.117863774 -0.09823285 0.06426849 0.16716988 -0.11903595 0.29513207 0.031734627 -0.13398258 -0.15033194 -0.15024199 -0.18794286 -0.16126694 0.17362642 0.02612372 -0.22387074 0.117753096 0.001969334 0.070363894 -0.17214304 -0.11236886 -0.04035144 0.06899607 -0.071851134 -0.06054334
179 0.03934592 0.040919866 -0.041570477 0.054169316 -0.05158505 0.00973356 0.06803649 0.06677296 -0.10090856 -0.107302584 0.15634921 0.030228341 0.01629998 -0.07621148 0.11386466 -0.13316534 0.08434321 0.023191603 -0.061662998 -0.14206997 -0.17306392 0.19596535 -0.16265509 0.12919332 -0.022036552 0.13249451 -0.03358334 -0.12111787 -0.16345485 -0.071305834 0.07716966 0.0820837 -0.012263978 0.12750728 -0.13191703 0.12847653 -0.11234269 -0.05606555 0.00015332678 0.15515383 -0.26832578 -0.15674198 0.07998326 -0.00706002 -0.02651988 0.06353861 -0.0052489387 0.0574841 -0.1070919 0.07860933 -0.035798408 -0.07273724 0.08879894 -0.06774725 -0.11442966 -0.10217871 -0.10250303 -0.19273968 0.18058279 0.07633198 0.07215137 -0.0072136377 -0.07343858 -0.0014959794 -0.09754502 -0.006387779 0.08975054 -0.08020551 0.0836935 -0.18003055 0.07122621 -0.00423445 0.035578538 0.118226536 0.19961937 6.07629e-05 -0.11517627 -0.010556323 -0.096575215 0.046723776 -0.07907876 -0.039498024 0.07919451 -0.041422807 -0.22924931 -0.038478617 -0.12963939 0.05483644 0.032828387 -0.12976408 0.31919855 -0.11766018 -0.12689592 0.008993425 0.0016926626 -0.045705434 0.027829353 0.21181908 0.034953117 0.08848123 0.09772115 0.047528543 0.030442 0.019270575 0.07267308 -0.113809064 -0.018400973 0.089702815 -0.13436225 0.16620405 0.13800324 0.03439973 -0.03635685 -0.18000168 -0.12867278 0.05445889 0.14052072 -0.0025855224 -0.09688577 0.038767785 -0.07658864 -0.03328023 -0.007524804 -0.076226614 -0.015930474 0.047330894 0.0035580865 -0.042225555
304 0.08378693 0.17827147 0.022084815 0.18414822 -0.030585526 -0.30955598 0.075697795 0.030152513 -0.24279518 0.18569328 -0.05093286 -0.04575352 -0.27238694 0.023952032 0.2408104 -0.103071675 0.07514902 -0.03106699 -0.2879918 -0.13035528 -0.1409841 0.2153492 -0.15757993 0.12619162 -0.08786223 0.25761485 0.013285943 0.013913296 -0.028982209 0.1903705 0.0019655605 0.07676872 -0.074366525 0.1642049 -0.11382547 0.099348776 0.04378071 0.04925888 -0.07450148 -0.11786515 -0.1764279 0.09325536 0.02776808 -0.1006093 -0.2162733 -0.00067982957 0.025038078 0.06413184 -0.03154515 0.19356877 0.100535154 -0.38506323 0.15591407 0.15008244 -0.19663368 0.028528169 -0.008423355 -0.32833865 0.17090397 0.25588503 -0.0558322 -0.05528977 -0.267604 -0.09676664 -0.1569052 0.1055472 -0.12950812 0.16021459 0.230115 0.16570793 0.12133884 -0.1829152 0.039400034 0.04609865 -0.064834096 0.055317003 0.013213475 -0.083742954 -0.08456487 -0.10393007 -0.055206113 0.11321323 0.024247544 0.07137894 -0.26761076 -0.0100848535 0.043507576 0.0075400895 0.32659194 -0.12744528 0.090940766 0.15704986 -0.26168463 0.15185732 0.15495828 -0.14910309 -0.084886536 0.14131425 -0.056417312 0.17713222 -0.053855576 0.15412962 0.08574002 -0.17220768 0.12635487 -0.108464204 0.049422145 0.17553845 -0.07772642 0.31138888 0.071476534 -0.15816773 -0.131868 -0.20879602 -0.17946129 -0.12843665 0.19321844 -0.06385722 -0.23762138 0.1405114 -0.051690694 0.10438384 -0.17246911 -0.09521644 -0.0821817 0.0880948 -0.08345943 -0.06119481
422 -0.0090652155 0.09397126 -0.07689172 0.08505164 -0.034403693 -0.08324036 0.11942643 0.057311267 -0.15598416 0.025955036 0.053330496 0.00545624 -0.11323742 -0.0712164 0.19596529 -0.08960272 0.06536044 0.120206796 -0.12315933 -0.1994453 -0.09267894 0.18850632 -0.08819858 0.113402516 -0.0103919385 0.15757284 -0.139636 -0.105337776 -0.01151832 0.07621073 -0.05909618 0.070001334 -0.0081893485 0.18558346 -0.090130985 0.11556184 -0.061832845 0.0017843925 0.048774708 0.026771078 -0.12855476 -0.039979793 0.14403738 0.020239284 -0.14173593 -0.06841863 -0.032085035 0.030776778 -0.08133464 0.11362049 -0.014575969 -0.25327674 0.11808356 0.07944346 -0.0885012 -0.0106307175 -0.08113833 -0.19064894 0.020139363 0.28533208 0.017937789 0.012110067 -0.2337779 -0.03154607 -0.14606977 -0.0442451 -0.13908191 0.07596777 0.025875783 -0.14774792 0.069252886 -0.029369952 0.07984978 0.040578842 0.15608054 0.025290456 -0.08920907 0.061131235 -0.15962958 -0.15590402 -0.11952234 0.014867045 0.027573258 -0.018923724 -0.19028156 -0.033788584 0.013347227 -0.020577274 0.1688109 -0.10435852 0.26420397 0.008837504 -0.16961776 0.04112655 0.054504022 -0.080929406 -0.060425397 0.14244218 -0.042225398 0.14924887 0.038389478 0.05143663 0.07425109 -0.075831264 0.1403088 -0.23839208 -0.055998404 0.11800678 -0.11713815 0.24865061 0.19114062 -0.12251996 0.021218581 -0.16774364 -0.116569355 -0.045429282 0.20587099 -0.13213947 -0.1388367 -0.038280882 -0.11670842 -0.01879519 -0.16363339 -0.07269565 0.13172153 0.02922322 -0.17247881 0.0027725385
326 0.11807733 0.05824383 0.07873625 0.19714706 -0.057148367 -0.11488055 0.25631 -0.028443659 -0.17814311 -0.008835837 0.120697305 -0.005995502 -0.19881569 -0.077407084 0.28987533 -0.17198183 0.15229598 0.038012207 -0.040794853 -0.029845579 -0.16777906 0.13329063 -0.24326687 0.06265704 -0.10887593 0.118179135 -0.068766266 -0.12589626 -0.03728219 0.10155182 0.02649013 0.06374623 0.006724356 0.2703899 0.03009957 0.1940407 -0.01787516 0.1031309 0.07602537 -0.043907724 -0.16997454 0.01123635 0.1581578 -0.09337879 -0.117307395 0.047462177 -0.059410777 0.051213995 -0.19713068 0.23997213 -0.02215415 -0.35112175 0.24865122 0.020724233 -0.14896996 -0.059683643 -0.048632298 -0.17835386 0.020911876 0.06778704 0.015259898 0.15555336 -0.10387592 -0.15091757 -0.17296979 0.0066354377 -0.028551249 0.1157012 0.0011105201 -0.10162682 0.12131197 -0.14572263 0.05251924 0.09596572 0.16978508 0.101944536 0.0014120294 0.042129293 -0.08830519 0.008205116 -0.081563674 -0.0025634016 -0.034752954 -0.070898294 -0.15922 -0.025337938 0.08843405 -0.045929264 0.31473815 -0.046968583 0.19182174 -0.028359948 -0.14336008 0.0924185 0.06217453 -0.16193858 -0.05295855 0.24478522 -0.056300297 0.17925416 0.10846529 0.11365858 0.019151356 -0.04413598 0.13725004 -0.13961352 0.01656819 0.19330034 -0.09865482 0.2883891 0.1510699 -0.041133795 0.07237081 -0.11805896 -0.14216569 -0.103624456 0.10323405 -0.010987738 -0.17405975 0.07440116 -0.025639901 0.002669374 -0.26745957 -0.15913546 0.15343045 -0.079693004 -0.15844709 -0.042193577
716 0.105002955 0.1300333 -0.13915248 0.16395326 0.036434192 -0.18280703 0.12360173 0.11100154 -0.18559828 -0.05219755 -0.02844785 0.056545917 -0.11978203 -0.054233767 0.06771545 -0.052423973 0.044483416 0.04918724 -0.10151672 -0.14547111 -0.05511709 0.20891652 -0.017139774 0.07336813 0.017917166 0.14604124 -0.097618386 -0.099706255 -0.019943297 0.0049738404 0.046281952 0.10126964 -0.0344891 0.1658993 -0.06724572 0.13552675 -0.055516787 -0.014283158 -0.06183202 -0.003704115 -0.22001065 -0.16031003 0.14968419 -0.0116969375 -0.14629033 -0.1523916 0.008814136 -0.007460725 -0.05002351 0.108722016 -0.0017069435 -0.13521536 0.18664704 0.07022385 -0.039804105 -0.0024808687 -0.0041692276 -0.16079384 0.07552052 0.25594035 -0.020547377 -0.014320641 -0.25588652 -0.05143049 -0.14899172 -0.016885009 0.023969986 0.047861792 0.04388173 -0.1238205 0.05366338 -0.10179022 0.09203528 0.03486496 0.10019909 0.08195426 -0.06678062 -0.08854935 -0.09016254 -0.085329495 -0.09523143 -0.029325483 0.0043150517 0.005316837 -0.26665846 0.07133955 -0.05358539 -0.07253258 0.13875596 -0.03821131 0.22758767 0.10109127 -0.149954 0.08871501 0.20352612 -0.07017073 0.02506486 0.1212092 -0.13246892 0.12720288 0.06630235 0.104549974 0.04939378 -0.14668442 0.112284325 -0.1357417 -0.00805738 0.10385734 -0.09574929 0.16703825 0.051829204 -0.17955631 0.025911987 -0.21008009 -0.0800327 -0.16514795 0.20153514 -0.13527873 -0.14581381 0.02047935 -0.0902482 -0.0021636854 -0.17426457 -0.09311361 -0.01774995 0.06809036 -0.07985451 -0.05026077
803 0.25158617 0.105910614 -0.0614889 0.071126126 0.10701387 -0.06194805 -0.041304115 0.093936615 -0.19855446 0.05959536 0.05714395 -0.025240049 -0.12109962 -0.23445867 0.07797761 -0.14361724 0.12114387 0.15096667 -0.039030008 -0.026378334 -0.24508691 0.11024351 -0.24107523 0.009911519 0.00021482178 0.11576851 -0.34935847 0.10922254 -0.15173025 -0.06255275 0.120928764 0.12181646 0.27127546 0.1591069 0.0006938999 0.119885586 -0.19054753 0.11086239 0.095878854 0.16754928 -0.23634155 -0.02760111 0.20764765 0.004207859 -0.08347803 -0.1936573 -0.0010467061 0.2378678 -0.22178666 -0.020470738 -0.08473627 -0.18478484 0.098691255 0.12824571 0.2023229 0.009280677 -0.06512172 -0.1111926 0.28489652 0.11403212 0.067007035 -0.09174667 -0.29770806 0.16948025 -0.07914062 -0.08688249 0.1406706 0.2166138 0.0030385118 -0.06798887 0.13551113 0.04871488 0.15139708 0.035821345 0.27768996 -0.10305957 -0.028979847 -0.07905289 -0.04733314 -0.009824296 -0.078298785 0.045943998 -0.13110583 -0.010868565 -0.35808295 0.1023059 0.0018037289 -0.06709235 0.20794426 -0.0033221834 0.18944623 0.12745604 -0.12812285 0.09702636 0.23902722 -0.259161 -0.11216456 0.16459765 -0.14915986 0.21362175 0.18131326 0.08867338 0.15292779 -0.06466007 0.15660447 -0.17018446 0.0015214157 0.025647804 -0.16368565 0.10781483 -0.03080761 -0.13926314 -0.08762098 -0.12611486 -0.0713363 -0.20961006 0.078459956 -0.054861933 -0.17303714 -0.017715035 0.03970443 -0.060201574 -0.030672606 -0.20428555 0.079440914 0.06443637 -0.061637215 -0.020112349
786 0.14982781 0.049115542 0.009551821 0.07743665 0.021447467 -0.12863547 0.004144739 0.060807534 -0.21700491 0.07960402 0.03164102 0.018380074 -0.0996034 -0.19747585 0.13199215 -0.1336519 0.16381904 0.240737 0.019122811 -0.056368124 -0.21855734 0.1570184 -0.23487662 0.08081549 -0.036311604 0.057647903 -0.39293858 0.059994645 -0.03969554 -0.009275162 0.039283622 0.12508935 0.19307007 0.22606419 0.017791132 0.17571801 -0.17772126 0.0208795 0.2608361 0.12455775 -0.19858986 -0.04738627 0.2730157 -0.01381406 -0.1653958 -0.13962731 -0.031255662 0.1521305 -0.24622431 -0.056956876 -0.13408019 -0.31852555 0.1087636 0.20915256 0.101955414 0.0223234 -0.15676516 -0.17118579 0.23310186 0.15929556 0.023207169 -0.015330577 -0.3062893 0.10499584 -0.10780353 -0.10263121 0.02547936 0.28830287 -0.05863285 -0.037010007 0.17321049 0.022006989 0.21562226 0.112933725 0.37344858 -0.13097954 -0.07769399 0.029626597 -0.10820716 -0.06630221 -0.1607226 0.09019695 -0.2142754 -0.016193647 -0.26308352 0.07248745 0.10611372 -0.06950872 0.24141052 -0.08660619 0.26626956 0.22531605 -0.0074109756 0.048737843 0.19471523 -0.22287232 -0.16094945 0.14857894 -0.14924634 0.22903964 0.24813639 0.061599474 0.16771014 -0.10619901 0.25665194 -0.23417875 -0.073602885 0.038080547 -0.16761187 0.12581289 0.061870202 -0.19385768 -0.11004016 -0.15020482 -0.15082571 -0.2102147 0.0457287 -0.059853658 -0.12432229 -0.035629846 0.055386342 -0.027769689 -0.08898808 -0.22453901 0.17275248 0.026490096 -0.15070073 -0.027927913
391 0.089829385 -0.029310534 -0.07283359 0.1264671 0.01824027 -0.08078911 0.059592556 0.05445939 -0.17711002 -0.003763596 0.053431284 -0.0065532657 -0.13862179 -0.07546195 0.0963127 -0.13571 0.13615853 0.085981466 -0.13570438 -0.08372484 -0.17465135 0.1315762 -0.16598095 0.09356233 -0.07177095 0.08747363 -0.10091658 -0.06827127 -0.050068807 0.015501371 0.07150111 0.14149462 0.047962364 0.18669638 -0.07336091 0.077208206 -0.06272848 -0.029866578 0.04839885 0.0073407847 -0.15521641 -0.020408064 0.100415014 0.009849334 -0.10452784 -0.004137048 -0.010447706 0.06727026 -0.13893625 0.02845115 -0.0417233 -0.18510433 0.1344497 0.05402168 -0.04160647 -0.027569048 -0.023164473 -0.2611042 0.13694349 0.15468451 0.0195396 -0.0056617334 -0.20318465 0.026190406 -0.123220585 -0.041247707 -0.030296389 0.101681024 0.044177067 -0.09466158 0.07440049 -0.031562936 0.09844454 0.117713526 0.14299376 -0.046553157 -0.04049393 -0.029021183 -0.11189667 -0.034439497 -0.11014577 0.08385868 0.023161195 -0.00960058 -0.24811336 -0.067279294 -0.021906504 -0.013799345 0.15789653 -0.13098025 0.22719236 0.025449743 -0.1419008 0.07299312 0.10288741 -0.118330136 -0.0015314696 0.2053381 0.06110083 0.17551923 0.014487629 0.075630724 -0.0065840557 -0.0659866 0.16780478 -0.14439452 -0.043866605 0.113556854 -0.12285499 0.20077516 0.11923571 -0.042629447 -0.032460038 -0.20207055 -0.11049906 -0.026166037 0.12247139 -0.023941671 -0.20340568 -0.007985862 -0.011376832 0.01041502 -0.07527694 -0.09154149 0.08709442 -0.0028356626 -0.15340503 -0.027991908
601 0.080345124 0.16390063 -0.16164441 0.053465508 0.084607095 -0.081963524 0.09949434 0.18640378 -0.07580791 -0.08726444 -0.022057725 -0.08297215 -0.0030224677 -0.04280773 0.020045664 0.003514198 0.048086036 -0.025999174 -0.08594136 -0.022775594 -0.11209549 0.14787167 -0.07628447 0.04061881 -0.033544894 0.06676471 -0.12696591 -0.12406823 -0.07430793 -0.021918016 0.11686283 -0.061760124 -0.045498196 0.12248444 -0.040654752 0.017012054 -0.09821452 0.04413557 -0.083186164 0.046102267 -0.20459181 -0.16222847 0.21399462 0.020053303 0.029985437 -0.122202866 -0.017576752 0.088016756 -0.15780082 0.18301518 0.0065087765 -0.08623627 0.14711736 0.014763607 -0.043143097 -0.04990493 0.06355518 -0.12915508 0.058032613 0.13958262 -0.0043285596 -0.070223555 -0.16323477 -0.020895116 -0.17019218 0.06566147 0.060799554 -0.009096237 0.16171563 -0.17163701 0.0255783 -0.15070155 -0.027407644 0.033440482 0.15714784 0.11132329 0.045339473 -0.081872076 -0.10439594 0.06670837 -0.00074182387 0.0075087105 -0.022824874 -0.15756367 -0.31419662 -0.07265286 -0.09261784 0.0015266878 0.10354843 -0.11372229 0.2630564 0.07910679 -0.18791185 0.13705184 0.13907969 -0.09167572 -0.071716875 0.13664632 -0.15814319 0.07886583 0.119139 0.11556333 0.10943286 0.005848748 0.034127533 -0.025405701 0.09615601 0.05970395 -0.043103125 0.17948401 -0.04209186 -0.16435975 -0.003539552 -0.25492504 -0.101243824 -0.17311484 0.10486229 -0.071032666 -0.18203045 0.10399413 -0.072471514 0.008842142 -0.04331758 -0.042027123 -0.061912443 0.06098035 0.1102823 -0.114849366
258 0.03834476 0.1884424 0.072887726 0.21821621 -0.08775868 -0.32869387 0.02305719 -0.0008549762 -0.25170332 0.14924887 -0.030758534 -0.05421046 -0.25147015 -0.034788307 0.26457003 -0.06384879 0.11136831 -0.014305215 -0.19644555 -0.08715202 -0.16942479 0.13670437 -0.17788355 0.21847329 -0.09602091 0.30089924 0.00946308 0.023990307 -0.12381217 0.1225408 0.12737453 0.12262132 0.097916536 0.1886502 -0.114402324 0.0836182 -0.00908741 0.060845975 -0.04394837 -0.12321442 -0.19851264 0.13161905 0.03920167 -0.07345327 -0.19004864 0.022186434 -0.0038669358 0.12696189 -0.03771729 0.18260467 0.0729891 -0.34750107 0.1541003 0.14397117 -0.11342595 0.12045283 -0.018164365 -0.23405053 0.1764531 0.15662864 -0.010417666 -0.022287399 -0.287319 -0.010993083 -0.15721159 0.12075526 -0.009342858 0.17693463 0.3343647 0.2073499 0.13837671 -0.16754885 -0.032687757 0.03549117 -0.06683391 -0.022627402 0.100076064 -0.1279053 -0.0429975 0.010777539 -0.04593688 0.13294914 0.028114824 0.04738968 -0.28415993 -0.017302267 0.054018628 0.026711155 0.37096667 -0.13931672 0.08930918 0.12024482 -0.2095016 0.17695545 0.16950633 -0.13236842 -0.103278674 0.14854954 -0.0052473014 0.17977358 -0.08755608 0.17397036 0.06581257 -0.10325666 0.14797835 -0.008852223 0.047604807 0.15368609 -0.08161705 0.28526294 0.014776768 -0.15165293 -0.17452438 -0.24313818 -0.2107117 -0.1580599 0.10292731 0.04194447 -0.23780636 0.15597802 0.046924613 0.12536912 -0.14885439 -0.08386867 -0.010927416 0.059467196 -0.0411878 -0.046279956
750 0.17403567 0.021827966 0.082077794 0.10613056 0.06673183 -0.15422976 0.044354286 0.0052635027 -0.24066962 0.13230896 0.012050347 -0.009718574 -0.13411249 -0.16647157 0.10877376 -0.14516994 0.19898826 0.20625162 -0.046280388 0.0052486947 -0.26165003 0.17043714 -0.20464641 0.08925792 -0.0783058 0.047813125 -0.37904847 0.056910645 0.020077713 -0.013585687 0.082324356 0.1850275 0.14695434 0.2627854 0.026377272 0.21156698 -0.116749376 0.045471713 0.25253463 0.056102138 -0.21220289 0.025600785 0.21209446 -0.032436777 -0.1858 -0.06620826 -0.053700805 0.17055966 -0.272943 -0.02232034 -0.13205951 -0.32928178 0.16841231 0.19312865 0.07097347 0.03542808 -0.116696835 -0.20382848 0.21043342 0.12358704 0.00331223 0.01464474 -0.23928593 0.047892984 -0.09467917 -0.055283867 0.016999047 0.26013234 -0.08609576 0.018345835 0.17787227 -0.021984817 0.2009622 0.16301645 0.28831428 -0.109932914 -0.033850305 0.018506613 -0.07720326 -0.09167951 -0.1395113 0.1253033 -0.23295772 -0.020547204 -0.3216031 0.02789998 0.1223559 -0.055994444 0.28940022 -0.16785294 0.21668512 0.1999441 -0.009707691 0.072063945 0.18185313 -0.22952831 -0.15495941 0.17557625 -0.08767128 0.21126476 0.24545133 0.047825854 0.1369514 -0.09968592 0.26842725 -0.21451752 -0.12024066 0.020969594 -0.11216099 0.18004973 0.06340867 -0.15409745 -0.10617522 -0.15534829 -0.21166031 -0.1664593 0.0252239 -0.06659772 -0.17521162 0.0014287265 0.07171963 -0.019188602 -0.06312851 -0.24349996 0.15839304 0.017573116 -0.20061105 0.008137893
205 0.021869423 0.0076665822 -0.062130097 0.1365545 0.053198475 0.004790942 0.14774927 0.115777194 -0.11523015 -0.034337986 0.030084344 0.055155236 0.0635985 -0.0065764124 0.13875797 -0.0081441365 -0.081636794 -0.007953054 -0.10241561 -0.04139752 -0.05282488 0.13603614 -0.07769001 0.070728146 0.06899087 0.10262531 -0.209641 -0.1666335 0.015020982 -0.0028392577 0.060541637 0.10598359 0.008911289 0.10344037 -0.06277121 0.16284494 -0.12911029 0.009469061 0.0017537647 -0.072306916 -0.21935199 -0.12929216 0.07963857 0.03554844 -0.17926422 0.008730567 -0.05656503 -0.08436925 -0.117430076 0.027106129 -0.033211853 -0.08554008 0.2515959 -0.032153 -0.04462849 -0.1167246 -0.119800895 -0.17644306 0.07781768 0.06627312 0.048912104 0.07869473 -0.10110615 -0.08362187 -0.2290214 0.017954718 0.07135745 -0.013521187 -0.044085383 -0.21562462 0.005633681 -0.16310063 0.0726113 0.109670445 0.16816778 0.056389976 -0.08342474 -0.054300573 -0.20151049 -0.018665524 -0.16081694 0.0085185915 0.017553128 -0.0034420062 -0.15538754 0.0034112248 -0.11288186 -0.045152087 0.115961894 -0.13945271 0.17713882 -0.061812866 -0.07715811 0.13709693 0.076590106 0.03933605 0.08191585 0.23115265 0.0116411615 0.0049219485 0.17855448 0.09017978 0.051189333 0.025670204 0.0035267707 -0.09639111 -0.10320675 0.080555625 -0.15302335 0.14137806 0.11299321 0.028406603 0.067179054 -0.11035844 -0.18158649 -0.0535177 0.13604255 -0.09492053 -0.07372997 0.018828072 -0.17725737 -0.09504047 -0.10086417 -0.104572706 -0.024506724 0.014824297 -0.10661221 0.037470806
316 0.044044774 0.15005064 0.05994292 0.205985 -0.10511053 -0.245715 0.12634651 0.024437783 -0.2356967 0.12218812 0.0042427904 -0.10930975 -0.23923108 -0.020389827 0.31321537 -0.13057931 0.10234679 0.050732233 -0.049616408 0.0046820096 -0.12130312 0.09861184 -0.2440188 0.107628316 -0.14117719 0.15528435 -0.015766058 -0.087063916 -0.07399134 0.19974409 0.17942716 0.09036503 0.1374928 0.15885076 -0.11101208 0.1084942 -0.049344007 0.17270981 0.05965821 -0.23285392 -0.15012562 0.13687652 0.1962093 -0.030385314 -0.24508896 -0.0046991576 0.011721938 0.02682043 -0.17397305 0.13243745 0.056760788 -0.40026367 0.22249159 0.08928572 -0.11342246 0.1277072 -0.0035327743 -0.11326339 0.015263622 0.23936898 0.012739758 0.0874461 -0.28520194 -0.15225704 -0.27946332 0.12376947 -0.05750722 0.27291638 0.26427123 0.09865715 0.20423134 -0.30100212 0.026600644 0.034281094 0.05565042 -0.022533743 0.20732637 -0.0297338 -0.16504455 0.06401783 0.008827448 0.13116315 -0.035443928 0.031402804 -0.17050143 -0.02304036 0.16019954 -0.007883533 0.51008487 0.008243008 0.113046385 0.11265235 -0.08978963 0.28286332 0.15086527 -0.16873567 -0.121438354 0.17558272 -0.02665201 0.024355624 -0.077929065 0.23648782 0.05506502 -0.07725386 0.09945751 0.07291769 0.09032574 0.12305393 -0.0651926 0.39728498 0.09027845 -0.110615425 -0.037654117 -0.1926208 -0.3060532 -0.27676928 0.007902374 0.1165114 -0.26215434 0.12559703 -0.021343308 0.02145141 -0.23780225 -0.121258095 0.1894256 0.008587823 -0.031284697 -0.047848172
686 0.11968055 0.064071216 0.015605425 0.11317232 0.026460761 -0.27836183 0.11334576 0.030402783 -0.24901131 -0.06047981 0.0076220403 0.18313555 -0.13972266 -0.11722509 0.07555944 -0.18038845 0.113790944 0.16534358 -0.02996884 -0.14326994 -0.0922785 0.20613672 -0.01725244 0.08787035 -0.03390107 0.011153131 -0.09017408 -0.07040966 -0.08659668 -0.075471364 0.17990732 0.18946157 0.037886865 0.29152668 -0.085232906 0.2111799 -0.17787234 -0.016250454 0.110689424 -0.012698265 -0.25830278 -0.19388494 0.24784802 -0.011806453 -0.22402722 -0.17664213 0.025356188 0.012229336 -0.18593554 0.013739132 -0.1558997 -0.15031937 0.19406042 0.0754286 0.0071070194 0.11087623 -0.023553774 -0.13925657 0.0013878747 0.26359886 0.11214931 0.047712676 -0.34710672 -0.11813897 -0.22202544 -0.16590099 0.121805936 0.12940867 0.013968441 -0.25245342 0.21097799 -0.10799998 0.18766195 -0.015934087 0.15744425 -0.04159344 -0.12713808 0.037224337 -0.06484568 -0.11704292 -0.13427067 -0.08627395 0.0014496335 0.014029698 -0.135161 0.041185107 0.06034203 -0.14694867 0.19560951 -0.055636153 0.34537986 -0.001532028 -0.07507848 0.08885435 0.22285506 -0.06868551 0.035232358 0.10041344 -0.11749588 0.17831947 0.11685739 0.07846417 0.022952538 -0.09429637 0.19223133 -0.13050385 -0.12676671 0.08554435 -0.1609706 0.26957723 0.23648381 -0.073857255 0.04767312 -0.12472719 -0.12125357 -0.057159137 0.07762311 -0.07070066 -0.11339184 0.009237132 -0.13466676 -0.0686848 -0.17693026 -0.06211825 0.10548306 0.023419717 -0.18336016 -0.036867507
