832 128
823 -0.1479565 -0.018971303 0.074576996 -0.06972403 0.0030450108 -0.04109985 0.0068088486 -0.025654266 0.0025864244 0.053943828 0.062302012 -0.20166342 0.038742602 0.052268386 -0.11005621 -0.042343244 0.043871883 0.012893088 -0.07099702 -0.014986623 0.021105193 -0.1680832 -0.021634463 -0.041193936 0.047917046 0.0694198 -0.053161424 -0.047394954 -0.012500206 -0.031943634 0.04641164 -0.06093924 0.028158268 0.13611975 0.059944812 -0.037843406 -0.020624062 -0.13120593 0.033528447 -0.06649901 -0.012843218 0.11162472 -0.13302706 -0.016773809 -0.011070651 -0.00435174 0.034040365 -0.0033749614 -0.23237859 -0.2500258 0.032889187 0.38816747 0.21087967 0.037366852 -0.23016289 -0.09997114 -0.18078886 0.055230476 0.15403114 -0.07363106 -0.0074572093 -0.073970206 0.19013669 -0.07117662 0.21191853 -0.32631955 -0.023433352 0.24414375 -0.112319335 0.0337463 -0.0690167 0.06281783 -0.22435683 -0.21535093 0.036776733 -0.10779863 -0.07358861 -0.20643145 -0.18965727 -0.14457323 -0.093302876 -0.2727334 0.34093705 -0.007194032 -0.13873537 0.12881957 0.07899799 0.2655451 0.06323542 -0.01078468 -0.14981952 0.04067937 -0.18262205 0.12437446 0.022116922 0.052788597 -0.1164644 0.20456707 0.010979887 0.07066499 -0.1702005 0.050064024 0.20465404 -0.20133317 -0.14509842 0.24660216 0.056054667 -0.17355643 -0.15709525 -0.11981526 -0.13147013 -0.1772267 -0.023502927 -0.08810394 -0.04969783 -0.01131475 -0.3073206 -0.04412896 -0.07660718 -0.27394685 0.08488083 -0.050937876 -0.09723466 -0.20367675 -0.059547253 -0.024653226 0.12446682 0.16704893
277 -0.30471203 -0.18318437 0.010985227 -0.0442056 -0.39354956 -0.1726316 0.19666743 -0.21291754 0.2945827 0.025605911 0.2319477 -0.3967929 -0.0748719 -0.15957266 -0.17327121 -0.45408145 -0.3579983 -0.016168572 0.16203424 0.008484968 -0.008763017 -0.2403493 -0.044172786 -0.042996142 0.045146164 0.10876164 -0.32171053 -0.34687448 -0.15095693 0.16617683 0.021242967 -0.26983538 -0.06675696 -0.060193937 -0.035331786 0.06442696 -0.009669261 -0.10583861 0.068778284 0.09350247 0.22323985 0.05835711 -0.05990651 -0.06920353 -0.089632176 0.12702811 -0.05668423 0.06735677 -0.071846426 -0.2888543 0.15768337 0.12809142 0.29135266 -0.14061862 -0.1185416 -0.02437425 -0.08924051 0.073993415 0.061189733 0.032054346 -0.00475899 0.15060931 0.028161975 -0.11565957 0.008580286 -0.13556369 0.06736608 0.21494883 -0.28753024 0.0017178371 0.056767363 0.0047301576 -0.39895546 -0.023772389 -0.051332194 -0.18434149 -0.21144067 -0.09037258 -0.2575772 -0.25938576 -0.17131968 -0.112932436 0.15454142 0.013909386 -0.19706729 0.2758223 0.1658929 0.15618789 0.066873506 0.30451584 -0.0665774 0.23575835 -0.15027033 -0.06343265 0.040718954 0.095510006 0.028987039 0.09258474 -0.021063102 0.04954151 -0.06305636 0.17795937 -0.051625855 -0.15586975 0.06194234 0.169202 0.036795914 -0.17543864 -0.032869104 -0.022716794 0.07764845 0.07034753 -0.10921687 -0.22348972 -0.1726627 0.15758976 -0.28536105 0.11466394 0.026018444 -0.23515762 0.104361765 0.12339604 -0.091576606 -0.17436749 0.13073678 0.27533886 0.10925008 0.12908365
365 -0.13817406 -0.11971549 0.038294103 -0.03457699 -0.1661569 -0.030125396 0.15701975 -0.14514515 0.17566171 0.04095327 0.16780515 -0.28425217 -0.05224147 -0.03277706 -0.08925306 -0.15283611 -0.20698494 -0.080184676 0.108114175 -0.009961013 0.011303254 -0.12358709 -0.16365191 -0.056631003 0.028567402 0.047452796 -0.1660553 -0.13769165 -0.009174847 0.033110738 0.015353215 -0.11325866 -0.026314065 0.07697232 0.02063358 0.021291973 -0.016391223 -0.07153664 0.12126152 0.02105724 0.037743557 0.015029447 -0.06654679 -0.06699519 -0.09443606 0.048179958 -0.00768028 -0.060169652 -0.17981736 -0.17219752 0.010353046 0.22704364 0.17397118 0.031294547 -0.13803229 -0.0047771917 -0.08606041 0.029154547 0.067782216 -0.091740675 0.032155093 -0.025769124 0.1194926 -0.039047837 0.07730852 -0.17634007 -0.017978908 0.19827218 -0.15721846 0.03861442 0.013544819 0.015200345 -0.18515728 -0.096766874 -0.026609365 -0.14747825 -0.08446367 -0.08233061 -0.16594768 -0.14605337 -0.07015699 -0.12512031 0.2024085 -0.0036846332 -0.17028627 0.12019086 0.101088755 0.14728948 0.055490013 0.062486928 -0.014483638 0.14441858 -0.15889427 0.009631333 -0.042316385 0.02945147 -0.070469245 0.18705025 -0.069405824 0.05065592 -0.11747338 0.0862802 0.06877196 -0.124286674 -0.068789504 0.19573756 0.07525714 -0.0984121 -0.048189554 -0.013278367 -0.017353652 -0.11508106 -0.011373227 -0.095496096 -0.07731777 0.06780072 -0.2243586 -0.017407397 -0.07794027 -0.16099665 0.013160877 0.014131028 -0.12514246 -0.10701127 0.060216133 0.06879277 0.080692425 0.18707733
406 -0.1377835 -0.091649204 -0.03658455 -0.037656356 -0.08834306 0.0016255804 0.15419275 -0.028839786 0.23923816 0.0010617597 0.17923291 -0.12959287 -0.06518802 0.0041695936 0.034506064 -0.1505364 -0.22148335 -0.0685582 0.030092234 0.07434509 0.057595715 0.04944074 -0.13812326 0.043159 -0.01133578 -0.05956921 -0.07332268 -0.09442923 0.017160745 0.03840901 -0.07161256 -0.091014035 -0.122763336 0.020282358 -0.032078348 -0.030742856 0.043390617 -0.020663232 0.2232147 -0.068391584 -0.059973236 -0.007904538 -0.05891997 -0.044686787 -0.124227844 0.04630288 -0.04329197 0.09973319 -0.18097141 -0.14260444 -0.063795134 0.14973624 0.14517781 0.07484185 -0.10370352 -0.077822514 -0.10558594 -0.011988803 0.07027331 -0.0327063 0.0030641698 -0.03050748 0.077378824 -0.07508359 0.026159883 -0.21260497 -0.058127373 0.13105819 -0.13597316 -0.020670295 -0.039675593 -0.08164531 -0.099475674 -0.15742119 -0.033428226 -0.03378783 -0.063351154 -0.13716356 -0.10263618 0.029464526 -0.121538475 -0.0856337 0.19087346 -0.010063638 -0.2517038 0.074182406 -0.011809829 0.050738234 0.024336837 -0.026471935 -0.011052996 0.08755895 -0.16956384 0.0052880445 -0.041166827 -0.039680645 -0.096257515 0.22332914 -0.07782887 0.1363228 -0.14059812 0.03688769 0.0016319186 -0.16845477 -0.094087124 0.108552516 0.068532415 -0.08405629 -0.040782675 -0.083756804 -0.068396255 -0.08650304 0.071708344 -0.084529355 0.10608367 -0.018894661 -0.12254423 -0.123528905 -0.14809857 -0.10743279 -0.06177259 -0.048041254 -0.06297507 -0.18708196 -0.08426473 -0.010807686 0.018132702 0.117854655
504 -0.06544066 -0.14016198 -0.032150783 0.2379061 -0.13474923 0.017504534 0.12913269 0.003314272 0.3005628 0.121487744 0.11318202 -0.2606118 -0.08759663 -0.008181387 0.2169729 -0.35718715 -0.2839838 -0.40778363 0.19768208 0.07006 0.028836071 -0.0812412 -0.33900258 0.10890932 0.07576417 0.027737338 -0.043750226 -0.08383548 0.16858122 -0.13721216 -0.046741907 -0.04504289 -0.10089415 -0.016549993 0.008910021 -0.042808473 0.035782948 0.022711335 0.18441339 0.10581959 -0.11204731 -0.08035749 -0.25390065 -0.21195719 -0.20704125 -0.004341033 -0.19163059 0.25616294 -0.0026304317 -0.038933367 0.055803977 0.17733455 0.21365781 0.018589497 -0.047348328 0.08133779 -0.2617635 -0.11848568 0.13193993 -0.34059078 -0.0026159687 -0.34606636 0.23363774 -0.13868101 -0.024001526 -0.16705452 -0.0950209 0.18999955 -0.454241 -0.06100352 0.13277265 -0.23897526 0.113497555 -0.07387683 -0.07049881 -0.022998672 -0.015741168 -0.1493073 -0.31610265 -0.11653811 -0.1458343 -0.10375074 0.079026565 0.026911605 -0.42283666 -0.07462565 0.07578383 -0.047058698 0.026694495 0.043464195 0.07240578 -0.029406551 -0.23785073 -0.16874412 -0.08609813 0.011793777 -0.22872096 0.39134848 -0.22759373 0.005046528 -0.088456765 0.08444993 0.002872165 -0.25612348 -0.06376421 0.18937767 -0.036955357 -0.19479503 0.10533806 -0.029491166 -0.08646513 -0.25928268 0.21879736 0.010758752 -0.09026536 0.1643458 -0.23813415 -0.2756769 -0.2808781 0.16219123 -0.2254563 0.008883279 -0.17544727 -0.08500095 0.1576369 -0.011902308 0.08299215 0.26073915
765 -0.137931 0.011439401 0.089309886 -0.04946976 0.06265197 -0.047732074 -0.05183316 0.05175842 -0.005413085 0.057416547 0.026791252 -0.15155604 0.03805631 0.0920585 -0.0777274 -0.041358966 0.09277271 -0.008737533 -0.13316098 0.013576097 0.0063950797 -0.15570764 0.009619707 0.007972644 0.07420201 0.05360199 -0.012793975 -0.0045564375 -0.012823693 -0.049297847 0.010871522 -0.037085827 0.021230614 0.12104946 0.05160517 -0.07403496 0.00041344904 -0.10886376 0.012186604 -0.09746854 -0.04056169 0.12754157 -0.17028609 -0.023587015 -0.0045336233 -0.03502847 0.021699103 0.09813106 -0.257644 -0.2608269 0.07246708 0.40847582 0.22028735 0.04449511 -0.22344778 -0.13693582 -0.23193221 0.04976831 0.20540138 -0.090804346 0.0047868676 -0.13587868 0.2351766 -0.08331683 0.2144236 -0.3831117 -0.028403556 0.20597346 -0.12765087 0.028733127 -0.082706995 0.037367973 -0.20961271 -0.25842473 0.059810612 -0.035278372 -0.06816506 -0.2498274 -0.18811253 -0.08943292 -0.10335581 -0.3236106 0.36058125 -0.009908025 -0.16961856 0.119842775 0.030553423 0.26741695 0.07250395 -0.043968696 -0.159411 0.00662821 -0.20213144 0.15292957 0.06055479 0.04363448 -0.13850258 0.21731067 0.005785298 0.09045621 -0.1751998 0.024820805 0.22383021 -0.2659984 -0.15846653 0.22386526 0.06034587 -0.17182438 -0.16051699 -0.16456282 -0.1733378 -0.19209245 -0.005745019 -0.11050359 -0.035935894 -0.019744247 -0.3153176 -0.10812758 -0.098878965 -0.24617039 0.069686785 -0.063632295 -0.093669936 -0.26438925 -0.10839893 -0.06745432 0.11507221 0.15330338
769 -0.1465577 -0.063217744 0.0235664 -0.054858245 -0.026504088 -0.041941274 0.05110466 0.011057538 0.10686784 0.022405846 0.09802009 -0.14670564 -0.02080269 0.032590415 -0.042679153 -0.15879038 -0.069653995 -0.024255505 -0.021768449 -0.0008934566 0.041957222 -0.06509446 -0.049651112 0.0458199 0.012940231 0.023139033 -0.052029014 -0.062075555 -0.023214502 0.054241337 0.0069239167 -0.10734106 -0.04820053 0.07533867 0.07753754 -0.07421975 0.015120157 -0.027772063 0.13200015 -0.08230508 0.038090616 0.06453778 -0.09440117 -0.019522512 -0.0147246765 0.009232235 0.033229828 0.092454754 -0.21011734 -0.20881726 -0.04322568 0.25917315 0.15784843 0.029822411 -0.2015889 -0.085077584 -0.24217491 0.014473003 0.11820044 -0.015901418 -0.018438717 -0.013558349 0.11860385 -0.091537856 0.13218775 -0.26839885 -0.07180718 0.18808858 -0.13081151 0.013246005 -0.12391312 -0.011833967 -0.19612041 -0.21950239 0.0579231 -0.029263593 -0.050391037 -0.20879944 -0.14771417 -0.03444097 -0.07171606 -0.24877472 0.3038579 0.030208508 -0.20165879 0.06818929 -0.045220815 0.14956363 0.09174358 -0.018784814 -0.14774035 0.026987633 -0.18042137 0.08444683 -0.018332196 -0.0048375446 -0.115322165 0.1951974 -0.0037227953 0.14154571 -0.13174877 0.03839209 0.11646243 -0.1809659 -0.080814734 0.16765009 0.046838503 -0.17437199 -0.13919385 -0.14806649 -0.09495428 -0.12190567 0.049527247 -0.12250463 -0.026815219 0.075324655 -0.22064473 -0.11921414 -0.10928808 -0.21580109 0.050735343 -0.0673588 -0.056229584 -0.26035446 -0.084026925 0.019665923 0.0387707 0.108762085
346 -0.15679252 -0.1264764 0.039930828 -0.038489487 -0.13651347 -0.014847169 0.19238012 -0.09298425 0.15121445 0.058421466 0.18653478 -0.22344363 -0.00020365228 -0.023762064 -0.060745925 -0.15658276 -0.17110199 -0.033817075 0.060029965 0.019066919 0.004498612 -0.09021179 -0.15152115 -0.022640105 0.089371555 0.026110878 -0.11446934 -0.111742996 -0.033204317 0.041507542 0.026070293 -0.10482971 -0.006805803 0.054814838 0.0050460063 0.00838422 -0.02078529 -0.078031875 0.15374951 -0.0004468848 0.033626355 0.03404096 -0.094787255 -0.07080603 -0.06884193 0.04539064 -0.0027434188 -0.014593812 -0.14221604 -0.13530879 0.023902528 0.20748748 0.14083919 0.041424338 -0.11694342 -0.012297555 -0.1235844 0.0012808538 0.05673603 -0.11520143 0.022742288 -0.050434165 0.119974814 -0.031426143 0.08160672 -0.18669687 -0.04764286 0.14629209 -0.1503766 0.04537682 0.024947891 -0.007857295 -0.15808634 -0.11204599 -0.0067335637 -0.054198734 -0.03654516 -0.09689573 -0.14525561 -0.09818417 -0.0591752 -0.1677632 0.18203671 0.00676404 -0.15860118 0.06730683 0.059555627 0.12466697 0.048598733 0.021307658 -0.045129858 0.10369609 -0.16285571 0.027218482 -0.017819047 0.028185146 -0.047441125 0.16612154 -0.04244944 0.03966003 -0.0923676 0.07151909 0.09436729 -0.14478153 -0.07503005 0.16941333 0.055019837 -0.10139091 -0.05761961 -0.05657428 -0.06476361 -0.12295765 -0.011671653 -0.08396227 -0.0526365 0.06199143 -0.21679074 0.0025017348 -0.07998957 -0.13715366 0.016888084 -0.015059944 -0.11800354 -0.116341494 -0.00029164754 0.0052794656 0.06516174 0.16891295
243 -0.23177801 -0.15991285 0.04532293 -0.051956683 -0.31947201 -0.11851207 0.20218417 -0.20666012 0.23938365 0.036288597 0.23902732 -0.3442088 -0.07520941 -0.120320916 -0.16961534 -0.30009228 -0.26215458 -0.013520918 0.1489564 -0.01810621 -0.00636922 -0.20690887 -0.094303 -0.049530677 0.016770056 0.09998498 -0.27990735 -0.2724264 -0.09458417 0.12256579 0.014275978 -0.2265411 -0.014668049 -0.020870553 -0.029963598 0.025191717 -0.01576592 -0.12224599 0.10254693 0.06695919 0.1918832 0.089022405 -0.06643747 -0.0581426 -0.056892857 0.14569736 -0.014083373 0.012785616 -0.1461943 -0.25120273 0.11265315 0.19519201 0.24558641 -0.11730163 -0.127856 -0.031909753 -0.1153448 0.07826615 0.088469364 -0.018638728 0.025087776 0.12726645 0.061399497 -0.08899999 0.04779193 -0.19357014 0.03632602 0.22956806 -0.23551655 0.014330444 0.020282798 0.0068173977 -0.33450535 -0.02640594 -0.033687804 -0.19373988 -0.19876058 -0.12221201 -0.21439274 -0.21462561 -0.12091291 -0.13720013 0.17819217 0.0131077515 -0.15027377 0.20126154 0.12151607 0.15303543 0.053876054 0.23270081 -0.048662562 0.19680382 -0.19977541 -0.00053175795 0.010079197 0.0961644 0.020822706 0.10359308 -0.023752116 0.049967967 -0.115192525 0.15222849 0.025521554 -0.12469459 0.014463441 0.17054 0.044310555 -0.18623799 -0.038189452 -0.029796112 0.06666675 0.004418103 -0.11372088 -0.2010738 -0.14429986 0.13833435 -0.2695555 0.09743692 -0.0006216518 -0.24739175 0.10103112 0.083639026 -0.059861753 -0.14564869 0.13754867 0.22170323 0.10590587 0.15011346
367 -0.14214264 -0.093297906 0.05871337 -0.040994883 -0.09609988 -0.02806129 0.11576125 -0.05682524 0.10589603 0.056723896 0.14572927 -0.23782991 0.0053306213 0.011153938 -0.06230624 -0.15046161 -0.10926622 -0.050571267 0.034581132 -0.002960764 0.016502164 -0.10911267 -0.108273335 -0.010049528 0.06991998 0.06386219 -0.091577336 -0.088274255 -0.020820837 0.008871875 0.054350737 -0.08981274 0.0029468066 0.06682341 0.033390243 -0.009813704 -0.01803785 -0.067105114 0.09583541 -0.020604052 0.045296665 0.04744848 -0.12504667 -0.071205735 -0.0396886 0.03615575 0.0022164008 0.008123892 -0.17437568 -0.1663856 0.047498945 0.26903397 0.15341188 0.01899559 -0.14537123 -0.025288401 -0.16861789 0.01599942 0.11012335 -0.10547866 -0.0039424323 -0.07090094 0.14528295 -0.06421485 0.11020272 -0.23714714 -0.037700146 0.18508337 -0.15745696 0.0347211 -0.015941791 0.0050982703 -0.16098782 -0.14338878 0.02727283 -0.065686114 -0.04050909 -0.15489239 -0.17981286 -0.11734957 -0.07442403 -0.21824707 0.24572068 0.012285818 -0.18937089 0.066997774 0.058274895 0.15513876 0.06657449 0.007310154 -0.08633317 0.066117875 -0.16701059 0.035282638 -0.010295087 0.035794087 -0.08562807 0.18708983 -0.03728799 0.048900794 -0.088174626 0.059377566 0.13197377 -0.1709539 -0.08811236 0.18305594 0.045228783 -0.14219704 -0.07768488 -0.072196856 -0.08123823 -0.145532 0.009388708 -0.09922286 -0.0699918 0.08814935 -0.2586876 -0.04821561 -0.08270946 -0.17125298 0.033685923 -0.02716093 -0.090459324 -0.15582947 0.0117992675 0.0032252718 0.056312576 0.1622053
638 -0.15529451 -0.13854897 -0.069511324 -0.04383358 -0.14499497 0.060215704 0.2923316 -0.15030862 0.16043441 0.064718656 0.14928383 -0.20214762 0.039494164 -0.06627662 -0.023255827 -0.10094925 -0.15639465 0.01823315 0.118549965 -0.009332111 0.053710435 -0.052522443 -0.21704215 0.021539776 0.02143902 0.01640142 -0.047075126 -0.103355184 -0.101463675 -0.11515665 -0.07055582 -0.04829475 0.007676513 -0.004229801 -0.03661529 0.07478201 -0.1633861 -0.12484451 0.25112194 -0.027474605 0.060658596 -0.086928725 -0.09314152 -0.08477286 -0.03521797 0.031781837 0.05593965 -0.08788858 -0.13451715 -0.13389501 -0.14523208 0.29951146 0.13236465 0.19302712 -0.062058065 0.11500358 -0.121045046 0.11586901 -0.025636015 -0.09921697 -0.15649211 0.05381773 0.0618005 0.057908483 0.08761077 -0.052990686 -0.09596036 0.14613806 -0.074028276 0.030084955 0.0016592556 -0.018834785 -0.035174854 -0.09927494 0.13489717 -0.0552399 -0.056062628 -0.008471248 -0.1251661 -0.09453372 -0.0177842 -0.11203183 0.12037285 0.11391521 -0.14486207 -0.016443469 0.0050424715 0.04812886 0.014846126 -0.011079528 -0.037005827 0.16173777 -0.23532082 0.10005666 -0.07901371 -0.12564942 -0.03262321 0.15871371 0.024013694 -0.11275014 -0.12240772 0.043065075 0.17063883 -0.08503721 -0.06325246 0.12961085 -0.06662862 -0.15172613 -0.11042436 -0.09500616 -0.14130999 -0.16550554 0.11152783 0.03590426 0.03581528 -0.013749609 -0.18565755 0.08175804 -0.072576426 -0.124518454 0.0017607864 -0.07914018 -0.02159234 -0.038076084 -0.08825524 -0.05968087 -0.025222458 0.13710444
824 -0.14395347 -0.02188843 0.05154534 -0.027518593 -0.029777115 -0.046762504 0.04965589 0.0029878183 0.054772656 0.073222704 0.111327276 -0.2028181 0.0040592267 0.027784824 -0.06681409 -0.08609073 -0.042491578 -0.047955986 -0.012276692 -9.6926495e-05 0.022877 -0.097967595 -0.077384986 0.0091587305 0.044385627 0.04233014 -0.04710594 -0.040605735 -0.01597126 0.021446366 0.047602773 -0.07464952 0.0005775912 0.11239603 0.07108102 -0.05634328 0.02716679 -0.08629011 0.0908053 -0.06874635 -0.018639714 0.05532153 -0.13913359 -0.009982972 -0.045557376 -0.0064720963 0.037535273 0.04674836 -0.25963578 -0.21946152 0.019067347 0.29489797 0.14985427 0.04921633 -0.16107133 -0.06814757 -0.19794312 0.028476411 0.16300675 -0.064300984 0.009751825 -0.10782979 0.18110865 -0.09235632 0.14842793 -0.2857586 -0.024345366 0.2279726 -0.14207532 0.032706328 -0.074250355 0.039445877 -0.1905866 -0.22647236 0.026662486 -0.08605274 -0.056023173 -0.19710577 -0.173587 -0.093459055 -0.061604504 -0.25479928 0.33524218 -0.00085146254 -0.23476467 0.076958574 0.038722485 0.16319004 0.11366482 -0.027404957 -0.11274034 0.039194502 -0.15879293 0.07059918 0.008472812 0.021593448 -0.10826153 0.22797672 -0.019441733 0.10551234 -0.14418973 0.05429278 0.14543827 -0.20436884 -0.06963112 0.22613516 0.07484562 -0.1398727 -0.14726897 -0.11799277 -0.08498111 -0.13915266 0.0015240891 -0.10224922 -0.0640476 0.07231859 -0.24349084 -0.13391693 -0.102670416 -0.21116348 0.038879488 -0.045296565 -0.09430735 -0.24279281 -0.050493218 0.0001585238 0.086373135 0.19834135
234 -0.13775933 0.029333452 0.14829221 -0.06863906 -0.15665027 0.018002326 0.16874088 -0.046495393 0.12109489 -0.024568062 0.3515461 -0.09678248 -0.04416712 0.070599586 -0.11984577 0.027802672 -0.23405348 0.11056454 0.04217216 0.13086207 -0.008991193 0.109115854 -0.07329034 -0.12755595 0.2434956 -0.024202196 -0.18712804 -0.040673386 -0.058729354 0.050276935 0.023142308 -0.07710549 -0.12719904 -0.020357633 -0.2096047 0.1293655 -0.008342156 -0.049409702 0.085971326 0.021639375 0.050594874 0.012751911 -0.024516983 -0.07758395 -0.1662833 0.14672919 0.033637445 -0.051856477 -0.17975323 -0.060866952 0.049862005 0.21173668 0.10234954 0.065710716 0.0129484525 0.0035610343 0.11870436 0.022776674 0.083768636 -0.14340432 0.078037895 -0.11992307 0.15335318 -0.0403303 0.08114846 -0.31863415 0.0071201166 -0.11492677 -0.02641688 0.07432771 0.10751023 0.021702616 -0.055417318 -0.07369843 -0.0025542853 0.08963236 0.06406848 -0.19575587 0.022493724 -0.027472178 -0.0968687 -0.11243452 0.03659288 -0.096606225 -0.18392038 0.1707012 0.054615643 0.14918818 0.0031629812 -0.093296744 0.09089416 0.20913891 -0.17973809 -0.009922016 0.033244744 -0.05285375 0.06932561 0.17886311 -0.021523517 0.0152339 -0.072320566 -0.0028553794 0.09819105 -0.17544603 -0.2048775 0.023605334 0.0863484 -0.010903908 0.020924665 -0.08434982 -0.19088477 -0.120809995 -0.07401905 -0.19202158 0.042963542 -0.030597465 -0.22026709 0.035462227 -0.0042310525 -0.19722353 -0.045386884 0.0020083582 -0.07434807 -0.15208447 -0.07679192 -0.08540587 -0.0095346635 0.10694582
829 -0.085402764 -0.12127796 0.06998541 -0.039145075 -0.064106114 0.053222355 0.20992394 -0.13142526 0.13011464 0.0552379 0.15995416 -0.19161215 0.014731175 -0.0267078 -0.041562863 -0.08415248 -0.13924226 -0.053094573 0.043292675 0.043651517 0.0022544865 -0.068111844 -0.19548821 -0.05194997 0.1057915 0.021635737 -0.05741118 -0.07250883 0.0067556985 0.0066017765 -0.0030008622 -0.063598275 -0.009986567 0.07537443 -0.008266636 -0.004138578 -0.08653502 -0.06942113 0.17554931 0.010385102 -0.06034427 0.007028073 -0.10586392 -0.09838704 -0.10018419 0.04553506 -0.035870813 -0.098086484 -0.117200404 -0.081666775 0.0007903095 0.21211997 0.15750194 0.08340821 -0.11436226 0.0090302015 -0.04928454 -0.017877866 0.050653283 -0.14779337 0.016749829 -0.06417687 0.14627138 0.035584655 0.124455795 -0.1938563 -0.07457092 0.13840047 -0.12858392 0.07513423 0.052865144 -0.030138485 -0.08974669 -0.120367065 0.0066673597 -0.041847833 -0.025665488 -0.07808228 -0.11006868 -0.089548066 -0.08264744 -0.14264664 0.16079986 -0.01606553 -0.13023035 0.05697432 0.083842725 0.20607193 0.026166366 -0.01383662 -0.00863997 0.12641913 -0.17244211 0.04381366 -0.042079505 0.045266457 -0.03738861 0.20145528 -0.0657173 0.015613637 -0.1176736 0.07469674 0.12365264 -0.13693176 -0.13788286 0.17588034 0.06492851 -0.059504088 -0.04324234 -0.002652431 -0.09133347 -0.20709524 0.013596377 -0.016293379 -0.014692751 -0.0035774643 -0.21642672 0.02527897 -0.108728945 -0.09049883 -0.015108097 -0.020657668 -0.12917918 -0.02933916 -0.005950718 -0.0525502 0.05551581 0.14261468
767 -0.1469781 -0.0576458 0.06701518 -0.037989166 -0.017688582 -0.023643242 0.05427491 -0.017084038 0.10723952 -0.0029689418 0.08095216 -0.15561146 -0.04538417 0.010805826 -0.046696037 -0.121280685 -0.14100628 -0.07316883 -0.025500374 0.031563718 -0.00041187592 -0.08328621 -0.063821144 -0.026918115 0.0024737385 0.02593578 -0.10343849 -0.075536825 0.002972796 0.048284512 -0.010856512 -0.07499882 -0.045847762 0.10997199 0.03359652 -0.05610077 0.02210639 -0.05177558 0.092654355 -0.027444284 -0.03699556 0.036918007 -0.07518217 -0.030083518 -0.113310575 0.031084448 -0.033464283 0.012112308 -0.18904924 -0.194042 0.00096639217 0.22158204 0.18173304 0.03354033 -0.20093858 -0.082361065 -0.1147956 -0.04055629 0.116889685 -0.06733118 0.034263432 -0.045412615 0.16691038 -0.05725743 0.11117261 -0.2754588 -0.08340231 0.15688594 -0.1369187 0.0074970736 -0.0396583 -0.02949127 -0.2124694 -0.20381418 -0.06305065 -0.08272452 -0.07337605 -0.14348589 -0.1382251 -0.04821013 -0.105043516 -0.15809827 0.27045274 -0.039350342 -0.21019548 0.16976763 0.032341283 0.24336766 0.04905639 0.018337596 -0.061010804 0.111575656 -0.15689367 0.018662198 -0.01643843 0.020581108 -0.09837239 0.19941522 -0.068436645 0.15374015 -0.1479022 0.048527572 0.09959159 -0.20560525 -0.15120073 0.20290314 0.10375694 -0.06986135 -0.07984425 -0.05875312 -0.058412854 -0.13268152 -9.557287e-05 -0.15221673 -0.023555694 -0.0025423674 -0.25524548 -0.096014835 -0.1241546 -0.16942418 0.009851873 -0.032871302 -0.14680457 -0.21124272 -0.08928775 0.0057786363 0.10776939 0.15776762
758 -0.1469904 -0.044228386 0.07119608 -0.0342422 -0.002715178 -0.03951674 -0.0005795413 -0.0049536405 0.04985469 0.08798508 0.077161856 -0.21707101 0.02396446 0.036154885 -0.08268976 -0.12063637 -0.008942413 -0.061851323 -0.040096838 -0.012133487 0.024024215 -0.154341 -0.06386517 -0.0003109132 0.073612496 0.071709774 -0.03086331 -0.05734535 -0.01088351 0.0025167826 0.04290975 -0.08165735 0.010471599 0.106459655 0.08574344 -0.053531975 0.0042888583 -0.09269325 0.049568444 -0.05894448 -0.012749165 0.083694376 -0.17140768 -0.037429392 -0.02861022 -0.023109874 0.010519993 0.058772158 -0.23631603 -0.22334564 0.054918602 0.32830146 0.19929527 0.0443641 -0.20594288 -0.08149542 -0.2163888 0.026980072 0.17657207 -0.073549114 -0.012964064 -0.10056655 0.17343205 -0.092506126 0.17848378 -0.31133553 -0.005508732 0.22230268 -0.15510675 0.026958268 -0.07640377 0.055048957 -0.20617598 -0.22918366 0.052608 -0.05892072 -0.071037054 -0.22597626 -0.19753216 -0.11766966 -0.08551748 -0.28554738 0.33789137 0.008617632 -0.20260254 0.09067811 0.06386696 0.21830243 0.10596496 -5.141697e-05 -0.1653429 0.003341255 -0.17176896 0.09444074 0.0140248835 0.06445629 -0.12435022 0.20497234 -0.008840793 0.082609706 -0.14440635 0.06438316 0.18017465 -0.20838071 -0.109383695 0.22021727 0.04215189 -0.15721925 -0.1446393 -0.1256939 -0.09712331 -0.16257672 0.010067209 -0.09306454 -0.07936452 0.06440996 -0.28110728 -0.09880609 -0.099569626 -0.2163958 0.062262747 -0.035867818 -0.08729091 -0.2293067 -0.017333465 -0.006526875 0.11039595 0.1653589
64 -0.05423603 -0.20678508 0.101857364 -0.09149232 -0.11544856 0.133375 0.27944598 -0.24704301 0.15502912 0.052064914 0.17289703 -0.21744303 0.0005072916 -0.034278426 -0.10452985 -0.05968214 -0.15474117 -0.036135256 0.07894429 -0.006150214 -0.010380889 -0.10102363 -0.25807562 -0.0831354 0.057128266 0.042414814 -0.09141108 -0.10462238 0.024812926 0.009324125 -0.032216128 -0.05956802 -0.001279428 0.13024451 -0.003184206 0.030364038 -0.1811113 -0.041082323 0.20618254 0.032853365 -0.035460554 -0.03078819 -0.05406451 -0.10873976 -0.047441516 0.056881424 0.0099457875 -0.24968252 -0.12549616 -0.06897996 -0.05648879 0.239283 0.13475682 0.08935577 -0.14719379 0.048941188 -0.035207607 -0.016399505 0.02764889 -0.15519527 0.025306176 0.04586162 0.15001152 0.12504397 0.1452697 -0.1493569 -0.08908287 0.08998709 -0.101318866 0.09691013 0.03903139 -0.006377288 -0.06720543 -0.09078442 0.016292451 -0.05991267 -0.033013716 -0.061310243 -0.10396351 -0.09193169 -0.03743986 -0.12649387 0.14025396 -0.01590724 -0.069551565 0.051623564 0.06670204 0.28830034 0.033414833 0.006324057 0.022431774 0.19392581 -0.20504151 0.06806127 -0.0771881 0.025590869 -0.017364912 0.16545881 -0.05582225 -0.039889533 -0.101954125 0.070239075 0.13092051 -0.047523342 -0.15281412 0.16597877 0.059151072 -0.024999248 0.0045599383 0.04899942 -0.04583129 -0.24669647 0.031970363 -0.009606235 -0.03700394 0.0068729543 -0.24368763 0.09320996 -0.1478404 -0.092324995 0.02018663 0.016983971 -0.14131142 0.041472808 0.044771045 -0.0581745 0.009603702 0.10125716
396 -0.14607297 -0.024557905 -0.011589674 0.051750913 0.0051543065 -0.03677225 0.012973556 0.08641836 0.1458845 0.0015036381 0.043920767 -0.15492018 -0.10090737 -0.029470067 0.100034535 -0.21802752 -0.18411104 -0.18051842 -0.025169818 0.018352214 0.03609555 -0.1084801 -0.0676654 0.055518527 -0.1256895 0.03826332 -0.1173115 -0.044786874 -0.015715832 0.013041499 -0.047812965 -0.06221931 -0.045092713 0.047812194 0.103313334 -0.11435968 0.061956026 -0.005705367 0.14952105 -0.05661108 -0.0032961986 -0.031978194 -0.124782465 -0.030377457 -0.102159545 0.015916327 -0.05313265 0.15299407 -0.24087968 -0.20375687 -0.053161845 0.20335993 0.15733276 0.06102819 -0.23145773 -0.04948295 -0.23750077 -0.08385473 0.16444571 -0.06467001 -0.025169756 0.023750423 0.14860335 -0.13235648 0.043333363 -0.24840105 -0.16496405 0.16845345 -0.22111268 -0.05308852 -0.0974343 -0.113551095 -0.19738802 -0.22470781 -0.036890954 -0.08441005 -0.11607401 -0.1654265 -0.15869935 0.039007634 -0.04946454 -0.17091528 0.32911748 0.019108005 -0.36246142 0.10928221 -0.060490627 0.16322066 0.094328895 0.0043675215 -0.103018455 0.083208516 -0.25914863 -0.018277748 -0.08682503 -0.04520085 -0.17884071 0.23585339 -0.15331334 0.20130646 -0.16242142 0.019776238 0.1116824 -0.26219723 -0.11398465 0.19850977 0.04682826 -0.12619543 -0.06487022 -0.11491753 -0.029768499 -0.12277741 0.09253283 -0.17469977 -0.030486312 0.067959234 -0.24369946 -0.24638766 -0.20886792 -0.1591412 -0.007297762 -0.0895973 -0.13080439 -0.2832414 -0.110677175 0.006660844 0.09558841 0.20420067
381 -0.13995197 -0.0066697923 0.004429505 0.039166417 -0.014200139 -0.04564735 0.05392812 0.06603353 0.14617972 0.041709132 0.13051243 -0.13554536 -0.08848579 0.008909299 0.047302917 -0.14656658 -0.19366758 -0.17205624 0.03408075 0.030901566 0.02401374 -0.014727865 -0.12088214 0.040654775 -0.04912132 -0.0057529374 -0.09125815 -0.036544044 0.0021625203 0.015201298 -0.020619305 -0.06391152 -0.05284215 0.05643173 0.0553524 -0.07383774 0.110174134 -0.06262922 0.17770708 -0.047206186 -0.020034753 -0.03341927 -0.1101386 -0.031788215 -0.15204808 0.044879865 -0.03512432 0.16007924 -0.2795718 -0.16559583 -0.06009777 0.1978634 0.10751509 0.09121254 -0.15069039 -0.04565426 -0.20489118 -0.033121023 0.1670742 -0.08745829 -0.004702723 -0.09542568 0.13814817 -0.15000689 0.027291795 -0.27372828 -0.073273174 0.17991754 -0.14576857 -0.032585636 -0.08441345 -0.066378646 -0.13630909 -0.21072458 -0.049426783 -0.076316334 -0.06322528 -0.15749611 -0.11389862 0.013724739 -0.079315856 -0.16417995 0.29855382 0.005738564 -0.36723328 0.084080175 -0.02740826 0.055811398 0.07286218 -0.058889516 -0.04441253 0.058210775 -0.2118884 -0.015967883 -0.05844531 -0.054042496 -0.12610058 0.2280274 -0.10769244 0.16469124 -0.16761881 0.030640794 0.097867675 -0.22587661 -0.10468078 0.13966313 0.08107702 -0.10178606 -0.0922429 -0.104961626 -0.042328287 -0.11263192 0.05701791 -0.14605656 0.022927107 0.054592896 -0.18138777 -0.2326393 -0.14543572 -0.14756669 -0.037427858 -0.04365737 -0.11022283 -0.26341277 -0.0971319 0.0024035247 0.0891301 0.2293563
357 -0.18717039 -0.13389745 0.043313146 -0.06782844 -0.13394825 -0.05928572 0.14443724 -0.059101854 0.17895453 0.06383707 0.19700013 -0.2658395 0.016128168 -0.039453402 -0.10237488 -0.23629732 -0.17510997 0.020504367 0.048299 0.020758186 0.019871611 -0.104367584 -0.08973055 -0.020686816 0.15049645 0.057059728 -0.108458705 -0.1528391 -0.07787972 0.10142264 0.079122074 -0.13572854 -0.025844928 0.055634115 0.036703035 -0.007572725 -0.0394713 -0.07516036 0.119690366 -0.0079562375 0.08390615 0.04996898 -0.09538239 -0.095709585 -0.0219961 0.05336924 0.01703689 -0.024292327 -0.0981915 -0.14817134 0.04596893 0.19529448 0.1492424 -0.014299894 -0.12808485 -0.017693406 -0.14568108 -0.024950312 0.05528409 -0.06180094 -0.0071126046 -0.04251173 0.11094882 -0.0517082 0.09731757 -0.17281523 -0.021426328 0.15413572 -0.14650111 0.07463285 -0.005248036 0.056212377 -0.20912127 -0.14126022 0.047137234 -0.02906377 -0.040399194 -0.12520866 -0.16426583 -0.13200384 -0.07049981 -0.221841 0.2012074 0.020900233 -0.14826252 0.094061695 0.0501294 0.15729852 0.0858961 0.04867702 -0.13194326 0.05878561 -0.11614448 0.019095931 0.011500032 0.06626914 -0.04464843 0.14460935 0.0010597623 0.06689979 -0.021382904 0.10637786 0.09340717 -0.1434929 -0.04705127 0.18034801 0.045892533 -0.1335771 -0.09510804 -0.073459 -0.06770442 -0.079145834 -0.015685463 -0.10247369 -0.11614858 0.13285674 -0.23206522 0.027472103 -0.060546067 -0.16802518 0.053052276 -0.012654378 -0.10181461 -0.14288363 0.0034455098 0.02272133 0.05227198 0.108677335
416 -0.060912754 -0.06735087 -0.009632426 0.20367002 -0.05548866 0.011654484 0.09915777 0.055972237 0.25922891 0.10404204 0.10369208 -0.21282868 -0.1042349 -0.0018250529 0.21447413 -0.25315142 -0.23714389 -0.4076691 0.120028764 0.08413978 0.016021864 -0.103628084 -0.28208086 0.08331693 0.010796971 0.051825754 -0.050041545 -0.0320898 0.13863078 -0.14168797 -0.071148805 -0.024603961 -0.06802257 0.005280268 0.042427257 -0.08572596 0.057765163 -0.009170404 0.1768063 0.07601322 -0.12249573 -0.0465755 -0.2570617 -0.19277112 -0.20468664 0.032583915 -0.19966279 0.22080578 -0.09934033 -0.06346746 0.06383099 0.22935016 0.21086745 0.048644785 -0.089677475 0.038459186 -0.2561296 -0.12458665 0.18300547 -0.34913993 -0.013326921 -0.25921428 0.25037268 -0.15467152 -0.017742611 -0.21499594 -0.15209584 0.1721511 -0.4119846 -0.09676713 0.09114755 -0.2370317 0.059227668 -0.08447967 -0.069365054 -0.027851377 -0.06579128 -0.14685568 -0.24580249 -0.063079216 -0.10279078 -0.12752792 0.11675963 0.015467013 -0.40285555 -0.03377573 0.060041644 0.009745607 0.024128446 0.011205717 0.046410087 0.013554349 -0.2655943 -0.109259315 -0.097775884 0.006927835 -0.23368768 0.36307403 -0.25293103 0.03965416 -0.14500776 0.06464635 0.08324998 -0.2823972 -0.09549924 0.1805834 -0.0015809442 -0.16432995 0.09763191 -0.041737694 -0.07632253 -0.2645483 0.18548253 -0.013635629 -0.018523987 0.08860864 -0.2884064 -0.26938152 -0.29524252 0.099407494 -0.16067433 -0.006184486 -0.18568268 -0.11546393 0.06576497 -0.06038803 0.11897771 0.261498
761 -0.17557193 -0.09176736 -0.06803001 -0.057394445 0.039452083 -0.052087437 0.07332397 0.037665952 0.23420708 -0.047779825 0.08517141 -0.08103441 -0.09302799 0.04412959 0.048831027 -0.16757715 -0.215566 -0.05222743 -0.025821455 0.07869063 0.08427493 0.09612992 -0.05914568 0.101168744 -0.08372198 -0.12265814 -0.029368754 -0.067795984 0.04185308 0.08205623 -0.08248915 -0.08261711 -0.1642998 0.081815325 0.006437315 -0.08030804 0.1148552 0.014984437 0.2300042 -0.12582442 -0.074280754 0.0036147842 -0.0068002464 -0.010200696 -0.1283193 0.03038585 -0.028548438 0.21690944 -0.19512016 -0.19420245 -0.1469858 0.13211623 0.13808328 0.08879459 -0.20077774 -0.14525624 -0.18334599 -0.040276475 0.06652357 0.053356405 -0.031846844 -0.060362346 0.07331841 -0.12006235 0.066025645 -0.2498684 -0.12874895 0.16600588 -0.07158116 -0.060764823 -0.14768748 -0.106255904 -0.19628423 -0.27550623 -0.048278645 -0.026879756 -0.051374417 -0.113179035 -0.09136669 0.0643191 -0.15142305 -0.10626305 0.30517927 0.0035718333 -0.29479504 0.11996464 -0.09298056 0.0634968 0.011883373 -0.06216586 -0.07774325 0.017781341 -0.1236771 0.009857567 -0.03881944 -0.09534722 -0.12752792 0.25678074 -0.03728511 0.23793545 -0.15860125 0.019380625 0.014853227 -0.22293708 -0.106394716 0.12525004 0.13548014 -0.12317401 -0.13235332 -0.13401611 -0.08058992 -0.024065409 0.10706364 -0.14210862 0.16268553 -0.047542956 -0.09404639 -0.23939079 -0.108119905 -0.15698831 -0.0683169 -0.09215603 -0.08133194 -0.30376056 -0.22572249 0.012908935 0.033222962 0.0991062
338 -0.18115622 -0.057135683 -0.020435471 -0.033682775 -0.045538366 -0.056905236 0.10299712 0.008487268 0.17774458 -0.0032062314 0.13864118 -0.14036815 -0.09854885 -0.00577848 0.013349677 -0.18026707 -0.23313339 -0.11628485 0.012874108 0.0072693867 0.026783384 -0.021108977 -0.09397603 0.053358488 -0.106464796 -0.015822684 -0.13221572 -0.078100905 -0.015262164 0.0935993 -0.015141703 -0.09872569 -0.0788043 0.10429328 0.08871874 -0.08881374 0.109394036 -0.04023181 0.20731866 -0.077860214 0.017217671 -0.026750477 -0.04341479 -0.029329628 -0.115696035 0.056445867 0.0002326622 0.1236338 -0.2745568 -0.17967235 -0.101268135 0.15485047 0.101807915 0.075658694 -0.19182375 -0.09440508 -0.20457628 -0.04651056 0.119823016 -0.01371786 -0.031499844 0.013862492 0.07815015 -0.12268509 0.029393114 -0.23969659 -0.11266786 0.21730153 -0.11914444 -0.019735858 -0.13936578 -0.07287441 -0.2233621 -0.20894286 -0.076227345 -0.09045126 -0.089694835 -0.10169021 -0.08342004 0.02877643 -0.06342155 -0.1569092 0.32669657 0.000978918 -0.31671557 0.1118119 -0.057588138 0.061163377 0.083720304 -0.029914139 -0.074789464 0.08965522 -0.19103868 0.0015167629 -0.07556734 -0.042018674 -0.1047263 0.18176422 -0.10506541 0.19977437 -0.17398845 0.027369684 0.0708126 -0.18958907 -0.0794858 0.119991675 0.11475807 -0.081267044 -0.13007696 -0.080568835 -0.0065018176 -0.06253492 0.036578827 -0.14695661 0.05968343 0.052468758 -0.16272216 -0.21367271 -0.11795601 -0.18781108 0.00019166047 -0.055161357 -0.11924525 -0.27186766 -0.13331024 0.03359404 0.06452706 0.18218309
803 -0.14144015 -0.058279946 0.0065496583 -0.038429175 -0.0077622887 -0.006121724 0.03167274 -0.018202612 0.02995369 0.057428386 0.07286265 -0.21287632 0.040015668 0.019506285 -0.04011498 -0.081157826 -0.02827777 -0.014603251 -0.020202393 0.014014942 0.0476115 -0.1074297 -0.065940745 -0.02576645 0.05979801 0.09366452 -0.044735946 -0.051076807 -0.04356207 -0.07107738 0.02101188 -0.039452747 0.027808532 0.08663752 0.060134575 0.0005199929 -0.050393995 -0.090153925 0.07373063 -0.072529905 -0.026013877 0.026915133 -0.13312794 -0.0070714536 -0.047156833 -0.03067399 0.01720149 -0.014166667 -0.1927275 -0.20237705 -0.0118533075 0.3381738 0.20197868 0.1038914 -0.17398892 -0.033991102 -0.14878744 0.07331378 0.08836618 -0.07066501 -0.032926798 -0.07097764 0.16467512 -0.031202767 0.16288772 -0.24198374 -0.035612617 0.21332857 -0.12500927 0.032465283 -0.006689051 0.050202325 -0.17955929 -0.21383029 0.04880646 -0.092665456 -0.053649236 -0.15415616 -0.17499134 -0.13480756 -0.056852266 -0.21867687 0.30078477 0.018002773 -0.18617928 0.08359385 0.063691095 0.22526869 0.07331675 -0.029785387 -0.14040777 0.07860527 -0.17263108 0.075910084 -0.010958972 -0.00632056 -0.14217152 0.21066882 0.005696633 0.053388387 -0.13390078 0.04350338 0.1803725 -0.17804167 -0.11121876 0.25162727 0.019594608 -0.15179364 -0.12037713 -0.12132318 -0.14337835 -0.1799385 0.049463503 -0.049808525 -0.06284112 0.0012883699 -0.26652735 -0.0391058 -0.10582044 -0.21222177 0.059864733 -0.07565211 -0.060339186 -0.16686045 -0.10104329 -0.021254309 0.08578641 0.15626872
339 -0.20660523 -0.085173674 -0.02088808 -0.045510545 -0.09686067 -0.07095935 0.13427156 -0.03738463 0.16234656 0.014755511 0.14466962 -0.19000018 -0.07451982 -0.02733817 -0.047132198 -0.2012007 -0.21127266 -0.0574961 0.039855506 -0.005334525 0.021257684 -0.07703726 -0.09979547 0.012370001 -0.03648738 0.0032502713 -0.14264949 -0.12727794 -0.047786735 0.083858915 -0.021409009 -0.14074984 -0.0519191 0.03669989 0.051118694 -0.039798778 0.06730975 -0.06130931 0.16818477 -0.05610671 0.054027453 0.0089050615 -0.059925947 -0.015528235 -0.12510413 0.069565475 0.00061131647 0.09494319 -0.22702302 -0.20500775 -0.06717013 0.18279906 0.14634575 0.05688179 -0.17624176 -0.0650867 -0.17070271 0.019825324 0.091068536 -0.0063550947 -0.02060329 0.022640865 0.07198248 -0.111867346 0.056818433 -0.2011119 -0.06264042 0.20981595 -0.11346316 -0.01451979 -0.081753016 -0.026533877 -0.25377738 -0.17965303 -0.020883314 -0.12077215 -0.0963125 -0.090876885 -0.12247051 -0.058962822 -0.09287729 -0.15654047 0.26566455 0.009548957 -0.24675785 0.15557113 0.013037903 0.09129778 0.04460852 0.02613037 -0.072372384 0.10442301 -0.1796099 0.023308096 -0.042509664 -0.013955716 -0.07499223 0.15998383 -0.048286926 0.13253106 -0.15739635 0.06418329 0.06782087 -0.17043121 -0.06475667 0.14720896 0.08072535 -0.124605 -0.11526813 -0.08292988 -0.025300125 -0.049281616 0.00053868163 -0.13504218 -0.007610973 0.044147186 -0.18130593 -0.09698407 -0.04162779 -0.20235531 0.040002532 -0.024858614 -0.089289196 -0.22032467 -0.079486705 0.0829343 0.09993349 0.16927427
179 -0.109971344 -0.1623503 0.0009405289 -0.06775322 -0.052971672 0.05364087 0.17534402 -0.109089464 0.19821551 -0.030991498 0.1513262 -0.14142814 -0.03190143 0.00947738 -0.010161974 -0.12771513 -0.21691333 0.012285564 0.04616572 0.070578545 0.028150829 -0.007200688 -0.12675205 -0.011156134 0.062010963 -0.013599788 -0.0883388 -0.089512415 -0.014447245 0.030925777 -0.07310117 -0.08519427 -0.10023036 0.05427732 -0.042423617 0.022922581 -0.10010721 0.021540636 0.19275941 0.0063652266 -0.023145294 -0.025215069 0.0022588144 -0.09022087 -0.10718404 0.07820655 -0.02428061 -0.07174284 -0.06448665 -0.09382973 -0.086982235 0.1714473 0.16322373 0.07783228 -0.15228266 0.0042560524 -0.052049674 -0.022432437 -0.012839853 -0.095791295 -0.0009389495 0.002178251 0.114911646 0.046678144 0.085823014 -0.13065235 -0.13443558 0.038816657 -0.09169884 0.033103477 0.010028126 -0.06381373 -0.08840978 -0.11520488 -0.00097407616 0.021923063 -0.014767494 -0.060100105 -0.08011818 -0.05259451 -0.07123193 -0.08921861 0.095302485 -0.015132936 -0.0998368 0.08853266 -0.031799704 0.21514349 -0.007200544 0.0037858041 -0.027359558 0.15489912 -0.16401395 0.02997107 -0.07729915 -0.051554106 -0.06770291 0.18334955 -0.044405237 0.04755311 -0.09297241 0.033893242 0.078094944 -0.12601905 -0.15463531 0.13830708 0.054355588 -0.08328334 -0.013012517 -0.03151085 -0.12698363 -0.17813873 0.08363042 -0.06817458 0.024205655 -0.0637953 -0.19842517 0.012092183 -0.10007873 -0.09867046 -0.020289943 -0.05755359 -0.0941515 -0.08420468 -0.11343207 -0.028648613 -0.00087426807 0.060722552
750 -0.18895446 -0.010455981 0.07141886 -0.020277029 0.051165834 -0.09221219 -0.019060634 0.071298644 0.038209096 0.04344047 0.05234389 -0.15670097 0.005236905 0.062450647 -0.047042996 -0.13566783 -0.018540824 -0.041755818 -0.088188805 0.035357583 0.008997282 -0.15239976 0.010528602 0.01906686 0.08790674 0.08512401 -0.041229114 -0.016267784 -0.011570606 0.025943117 0.021484107 -0.06571953 -0.0074255 0.12273273 0.089206435 -0.086085156 0.016822008 -0.0755765 0.023369173 -0.06380742 -0.03400333 0.09354974 -0.13879162 -0.03960234 -0.04426132 -0.008689138 0.0056434395 0.13769387 -0.19299053 -0.2460954 0.05600904 0.29791 0.19199647 0.0129919285 -0.23365213 -0.1160214 -0.23821126 -0.022934392 0.17539549 -0.07951675 -0.009189624 -0.13772196 0.20235313 -0.1264132 0.16289546 -0.3265934 -0.057950538 0.19091427 -0.14724621 0.0031501465 -0.08308835 0.009649853 -0.2265857 -0.23912345 0.018581724 -0.030440586 -0.067241356 -0.2157916 -0.1905209 -0.104422 -0.08973106 -0.2980444 0.3428098 -0.0017369449 -0.20603375 0.1353236 -0.0044735144 0.2546185 0.07321757 -0.027609268 -0.18839785 -0.004599674 -0.14467794 0.0802652 0.015769184 0.049802832 -0.14896812 0.1933338 -0.021303896 0.15255636 -0.1352887 0.03179066 0.18964343 -0.27406412 -0.120610625 0.2468174 0.050725218 -0.17194115 -0.15236598 -0.14423996 -0.14498962 -0.14609978 -0.014083561 -0.1229756 -0.079783365 0.010820379 -0.2958676 -0.14011386 -0.08772256 -0.20870486 0.06551877 -0.08654947 -0.113583654 -0.2767475 -0.12057103 -0.0385537 0.13495387 0.14373636
799 -0.15786126 -0.0021447572 -0.018227665 -0.0039795334 0.0115654515 -0.042611405 0.017611729 0.08618341 0.12438376 -0.023410825 0.09714088 -0.14338578 -0.09569823 -0.009491632 0.0602417 -0.15419954 -0.21003349 -0.12258307 -0.036119692 0.05491247 0.033393685 -0.037426125 -0.06302835 0.047996737 -0.09739595 0.011283411 -0.13908234 -0.059234317 -0.032517053 0.04586275 -0.026138846 -0.046860825 -0.0677428 0.07815752 0.07040307 -0.087681316 0.07790157 -0.049271032 0.16407856 -0.099116415 -0.050497483 -0.03433329 -0.06582991 -0.017949153 -0.15202157 0.030173995 -0.030022664 0.09349915 -0.2643938 -0.21090241 -0.07627009 0.18214077 0.1326671 0.08897355 -0.21533623 -0.08860745 -0.16888066 -0.08175117 0.15151475 -0.027061976 -0.02496587 0.010014195 0.1399372 -0.12555605 0.034028996 -0.2593231 -0.14474918 0.18063214 -0.14229378 -0.039601278 -0.11237747 -0.094906904 -0.22670251 -0.23626927 -0.08134576 -0.10636081 -0.10962373 -0.12524588 -0.11264319 0.040066343 -0.073623225 -0.13789225 0.32712924 -0.0037193338 -0.33479965 0.14670238 -0.0650453 0.1460046 0.087924644 -0.008065526 -0.06855787 0.101024024 -0.20066427 -0.03268851 -0.064431146 -0.06359538 -0.14235537 0.22532125 -0.14322725 0.21618369 -0.1790655 0.017863002 0.07907746 -0.2448583 -0.11950902 0.18470353 0.08649434 -0.075937666 -0.08846826 -0.0952993 -0.022977522 -0.08912775 0.03331254 -0.19931142 0.0492899 -0.0074617337 -0.18980643 -0.22379793 -0.1668073 -0.19370481 -0.016460394 -0.09343708 -0.13113387 -0.2930863 -0.1748221 0.014266464 0.07506154 0.1818633
282 -0.2607133 -0.16345733 0.021787394 -0.051597778 -0.3349348 -0.10821401 0.14666392 -0.16047977 0.2647002 0.01944342 0.2339159 -0.37216675 -0.08257827 -0.10806243 -0.16303071 -0.37084478 -0.32417905 0.03472668 0.13505916 -0.0060841874 0.01742786 -0.20225346 -0.060738508 -0.067659 0.06427391 0.118119754 -0.3298312 -0.30773923 -0.13551018 0.14434916 0.02286139 -0.24706423 -0.052673437 -0.015680872 -0.018716594 0.056550894 -0.01980255 -0.09321716 0.082205005 0.04296164 0.20987806 0.0517758 -0.05100607 -0.056464054 -0.073775716 0.116508715 0.0071833148 0.010434669 -0.10019202 -0.25593325 0.10737255 0.16891998 0.26772094 -0.1352322 -0.13191123 -0.03282439 -0.104343064 0.046009567 0.061618693 0.012723331 0.008666237 0.13639736 0.049420524 -0.10777359 0.03284229 -0.1471505 0.047927134 0.16607685 -0.20693868 0.008736533 0.03423599 0.028696734 -0.36212662 -0.054462098 -0.043757256 -0.15733746 -0.16838671 -0.10590562 -0.2424515 -0.21990667 -0.12944667 -0.12266903 0.16869882 0.01006511 -0.16891111 0.25222895 0.11613841 0.18854205 0.074310936 0.23022154 -0.07819378 0.2026793 -0.17027684 -0.0288596 0.024347795 0.086566985 -0.011390463 0.10293239 -0.011396574 0.055061225 -0.060460497 0.1285508 -0.015308468 -0.1240452 0.010547948 0.1697767 0.04089766 -0.15566714 -0.019430457 -0.011669 0.049844503 0.05413622 -0.1079264 -0.23177145 -0.18491071 0.14712901 -0.26175746 0.10066335 -0.0028003515 -0.25997433 0.12199643 0.07693415 -0.08722364 -0.16523369 0.10775777 0.21995093 0.08863258 0.11917203
601 -0.17750095 -0.044023067 0.061259784 -0.06443796 -0.09302214 0.028535314 0.22119856 0.008108522 0.16316226 0.0026632464 0.261089 -0.097524695 0.03760761 0.026302047 -0.0207469 -0.10977203 -0.2178886 0.11467114 0.0063164956 0.14003876 -0.0069219465 0.082736954 -0.07951532 -0.03391177 0.24699901 -0.025912657 -0.06275919 -0.0515648 -0.10004661 0.015528816 -0.012176468 -0.041218832 -0.10528457 -0.023453204 -0.12842093 0.059802532 -0.10405751 -0.045359746 0.13983904 -0.02966532 0.024374546 -0.016024616 -0.09736797 -0.11494951 -0.08938123 0.08898644 -0.005665966 -0.0038197371 -0.030907467 -0.038819 0.0013974325 0.18572849 0.11823495 0.09561452 -0.008462864 0.032669965 -0.016659155 -0.03550637 0.0081111435 -0.14417249 -0.024621576 -0.12164882 0.13282448 -0.0012440411 0.05865868 -0.19123104 -0.08231939 -0.061208777 -0.089457095 0.066822894 0.12262885 -0.02322864 -0.017758083 -0.11586474 0.042022288 0.14067283 0.08188114 -0.12007847 -0.059178445 -0.017892612 -0.093682714 -0.12947597 0.01053875 -0.011000729 -0.15250771 0.080338225 -0.015967945 0.11802595 0.010050359 -0.06947483 -0.027972786 0.12499809 -0.13552363 0.009209057 -0.009540006 -0.04706848 0.012510233 0.16868614 0.0012364602 -0.0022762315 -0.014523761 0.011933565 0.11572804 -0.19830357 -0.18050098 0.06982319 0.005017986 -0.04804064 -0.03750591 -0.10251607 -0.23646638 -0.1545698 0.031455263 -0.069473185 0.044181567 -0.030131308 -0.19771788 0.038404133 -0.066495106 -0.053195707 -0.06408459 -0.07289369 -0.087224655 -0.12221082 -0.14913253 -0.16025555 -0.043241255 0.049278047
417 -0.11947144 -0.08329143 -0.03138289 0.13297749 -0.10478678 -0.015576737 0.03903774 0.03809222 0.2896074 0.064969614 0.123883 -0.21736796 -0.11508392 -0.006725171 0.16939455 -0.3146876 -0.31091177 -0.30686867 0.13255112 0.083377525 0.051459145 -0.05458989 -0.172981 0.07955929 0.05062164 0.038316052 -0.10421406 -0.06992743 0.073241286 -0.06762225 -0.05214965 -0.070705704 -0.12999506 -0.012616355 0.036867026 -0.048887648 0.06099279 0.025298322 0.1407276 0.05349506 -0.04963052 -0.07146894 -0.18137553 -0.15452674 -0.17752424 0.034381613 -0.13395102 0.24045742 -0.09177938 -0.093824364 0.03372878 0.18256435 0.21266896 0.012566399 -0.07566553 0.01385866 -0.24785778 -0.100968726 0.137505 -0.24422234 -0.027509952 -0.19935966 0.19313748 -0.1782125 -0.024225872 -0.18783174 -0.06868522 0.12887539 -0.34561023 -0.09024329 0.027891088 -0.16324365 0.01522535 -0.11091478 -0.038803723 -0.0075669354 -0.057843935 -0.17121732 -0.21990743 -0.050918784 -0.117959626 -0.084003046 0.12562336 0.023196654 -0.37880388 0.015000196 0.02812976 0.00626053 0.047799677 0.018021587 -0.037594076 0.014195034 -0.21099143 -0.12075592 -0.07165374 -0.025477616 -0.22183783 0.30323464 -0.17255124 0.10158221 -0.09297641 0.060401015 0.040530343 -0.24276124 -0.06982458 0.14617759 -0.0051625753 -0.16288112 0.07258898 -0.07264974 -0.07110446 -0.17070827 0.17615801 -0.06460777 -0.047595464 0.13813019 -0.2447534 -0.2614146 -0.23985992 0.017713437 -0.1229188 -0.018598165 -0.12187948 -0.18031299 0.051159624 -0.004509106 0.061102625 0.17555878
683 -0.18684916 -0.12515928 -0.033535115 -0.034673546 -0.06927093 -0.027666545 0.14027521 0.0010595921 0.24691316 0.0044011394 0.22504573 -0.13094383 -0.013579474 0.059582025 0.02517098 -0.21027027 -0.2602841 0.024143873 0.06478826 0.13526937 0.081938215 0.106119394 -0.070292965 0.044339202 0.20190519 -0.039459497 -0.024917135 -0.07248226 -0.00844819 0.07888897 -0.02671826 -0.1164683 -0.15906177 -0.011584968 -0.056246236 0.018123517 0.0060958397 0.03606073 0.16580972 -0.042743873 -0.02363736 0.0032558306 -0.03332606 -0.08175237 -0.118868835 0.05939253 -0.025883524 0.14181781 -0.025725873 -0.07334751 -0.036145292 0.13704328 0.13893165 0.060677726 -0.052373957 -0.021016024 -0.11105222 0.010675124 -0.010111183 -0.07291636 -0.025033014 -0.16016178 0.08708696 -0.08993081 0.052111752 -0.16494931 -0.039058067 0.041931268 -0.1124008 0.0055284374 0.0443638 -0.024275472 -0.06988354 -0.17920502 0.02943199 0.110911354 0.06721247 -0.1429764 -0.096995175 -0.04978384 -0.11795603 -0.13350266 0.077220105 -0.009951298 -0.18588342 0.057004187 -0.029667987 0.04467313 0.0074353702 -0.061510127 -0.10026346 0.03106137 -0.048803784 0.00421306 -0.010682804 -0.041817565 -0.10398841 0.20894513 0.021953508 0.10352235 -0.042203207 0.044132464 0.012751779 -0.15973318 -0.08219077 0.11608992 0.033524804 -0.12473678 -0.040906347 -0.13893194 -0.17359982 -0.08454847 0.09670607 -0.05374692 0.025823323 0.022653636 -0.12909865 -0.05336216 -0.07425132 -0.057136506 -0.0729162 -0.07326227 -0.028006867 -0.2020563 -0.14491668 -0.041228086 -0.0015414687 0.03687434
746 -0.15514691 -0.09713569 0.028665952 -0.05131637 -0.077747785 -0.024624316 0.113417104 -0.039183773 0.1846121 0.04173405 0.17098682 -0.16161329 -0.024037337 0.027292594 -0.034949962 -0.17878702 -0.17813572 -0.04886394 0.041111745 0.038498055 0.038054224 0.015126115 -0.09679083 0.017492479 0.0965386 -0.019268999 -0.045475483 -0.08238522 -0.0027533027 0.07795453 0.004383399 -0.10555344 -0.112792775 0.07018664 0.014845174 -0.037556708 -0.0069955606 -0.008404726 0.15095152 -0.053414058 -0.004246841 0.0059514046 -0.06477567 -0.07285621 -0.062496774 0.026068144 0.0013410893 0.07552929 -0.14452638 -0.1449555 -0.02557258 0.18771327 0.121167704 0.052433085 -0.10813684 -0.04424183 -0.15661326 -0.0064508105 0.07124554 -0.053049088 -0.008769407 -0.10686547 0.118423335 -0.06723642 0.07750847 -0.22466569 -0.026304152 0.11768234 -0.1353734 0.028260702 -0.03722155 0.0032226506 -0.11227779 -0.19931433 0.026618006 0.017754722 0.005309714 -0.16106191 -0.13034524 -0.035275333 -0.099159844 -0.18194413 0.19930601 0.003390795 -0.2114072 0.061404873 -0.008408148 0.105678566 0.0755713 -0.026334751 -0.094985 0.027757676 -0.10035225 0.024147643 -0.016854035 0.004615243 -0.083259694 0.20445138 -0.0029252924 0.09994423 -0.08620519 0.047772158 0.05909078 -0.16259491 -0.07566207 0.13150917 0.06649613 -0.102572985 -0.09183653 -0.110705584 -0.09267656 -0.10819282 0.047386087 -0.07626366 -0.021461535 0.087588735 -0.16072002 -0.10056355 -0.110059 -0.12404978 -0.04044579 -0.033573307 -0.07386468 -0.19761382 -0.048166182 -0.027274951 0.021246245 0.10112566
491 -0.094910435 -0.09642022 -0.03464743 0.107828036 -0.022503622 -0.012301791 0.054797094 0.025626367 0.30025062 0.066458665 0.10138888 -0.20433556 -0.09486403 -0.0016306126 0.1581532 -0.28606388 -0.30596092 -0.33183473 0.09841927 0.062230997 0.039193474 -0.019104207 -0.25631517 0.118655086 -0.049515463 -0.038993288 -0.023815867 -0.05313164 0.16002622 -0.01852264 -0.044618074 -0.04212545 -0.14976801 0.10892696 0.082427934 -0.10732758 0.07565556 0.0071040206 0.22212222 -0.024076588 -0.19047959 -0.11090039 -0.110042624 -0.115280986 -0.18932042 -0.011056772 -0.13338932 0.18794182 -0.14610311 -0.14821333 -0.051856637 0.12976539 0.15162104 0.09175845 -0.14394903 -0.045985397 -0.2036812 -0.12403954 0.13350564 -0.1510748 0.019935336 -0.23011957 0.1815645 -0.12185381 -0.004210552 -0.19480765 -0.10112034 0.2346389 -0.2594913 -0.05339251 -0.05024921 -0.14590946 -0.009717606 -0.19603592 -0.090142 -0.06568354 -0.06301238 -0.122009814 -0.19853002 0.00022853387 -0.10117106 -0.057789426 0.25607824 -0.028744306 -0.4050062 -0.00071171083 1.4725098e-05 0.028542532 0.0694521 -0.01550625 -0.0017926577 -0.027543973 -0.117552705 -0.10644355 -0.09699638 -0.04035603 -0.22975196 0.35162258 -0.18865371 0.19351114 -0.14043015 0.0516611 -0.011268342 -0.22981147 -0.074251115 0.19567348 0.08722477 -0.096397236 -0.019061286 -0.01748314 -0.010370231 -0.17660756 0.16633248 -0.038715746 0.009789384 0.08689758 -0.13511431 -0.3624866 -0.27121082 0.043223035 -0.17402588 -0.027211696 -0.17429386 -0.19880891 0.0146337245 -0.021513702 0.07962969 0.20511413
680 -0.18036953 -0.10387576 -0.021892048 0.029708432 -0.013216639 -0.051439475 0.10829732 -0.011444015 0.1703636 0.036859777 0.16654137 -0.19035605 -0.030740412 0.0012180753 0.01307237 -0.21359195 -0.23286074 -0.15174358 0.06554446 0.09626544 0.04654796 -0.0021452715 -0.1429235 0.002761623 0.11353861 0.0329327 -0.041624982 -0.060106188 0.0073389863 0.036882978 0.012730059 -0.078052945 -0.072221056 0.05981791 0.03630335 -0.042124372 0.06642479 -0.034619667 0.16098492 -0.030623015 -0.12388036 -0.03944484 -0.072529934 -0.0699954 -0.20678917 0.015344297 -0.08221237 0.109418355 -0.11784934 -0.11816357 -0.02426126 0.12247909 0.13833417 0.081310876 -0.12023846 -0.034232304 -0.09495465 -0.034652986 0.07092292 -0.083484076 -0.011767112 -0.19345526 0.12445052 -0.10265129 0.051574647 -0.19948032 -0.013745159 0.221471 -0.16747142 0.016717436 0.044053916 -0.052865464 -0.13500202 -0.22533385 -0.046485975 -0.02570194 -0.013507784 -0.08878296 -0.123915866 -0.095052384 -0.100468464 -0.13263834 0.24034342 -0.022436313 -0.2881053 0.07780364 0.06281045 0.10281774 0.050365556 -0.05784453 -0.07293448 0.02191485 -0.07504541 -0.05006903 -0.019442251 0.018058576 -0.12900116 0.2291233 -0.08232462 0.15389174 -0.118571356 0.087700844 0.054772165 -0.18532404 -0.083148986 0.20550457 0.082300924 -0.11058127 -0.069220185 -0.049673177 -0.05400428 -0.10099826 0.047560383 -0.04058876 -0.029933361 0.01969921 -0.14519265 -0.13504861 -0.09938434 -0.08289436 -0.06655973 -0.06323338 -0.090607055 -0.1587348 -0.07139847 -0.0005491813 0.11304579 0.16644776
571 -0.10213809 -0.14817512 0.0551394 -0.11054299 -0.1614835 0.09412215 0.271003 -0.19194746 0.20460251 0.06650273 0.25544733 -0.17509298 0.032261655 0.012285554 -0.091886915 -0.056118738 -0.16951886 0.033639066 0.10069071 0.042052273 0.029979022 0.07946694 -0.2397301 -0.064405076 0.13963248 -0.068504624 -0.029799808 -0.0997675 -0.0036383318 0.009301084 -0.013001486 -0.09154941 -0.0773394 0.04608459 -0.08298607 0.07328188 -0.09310536 -0.045260653 0.2492127 -0.027933294 -0.004737544 -0.0014707975 -0.0627691 -0.091371015 -0.052224334 0.04166893 0.033084247 -0.097067684 -0.16330309 -0.054440778 -0.06994054 0.22293219 0.08742912 0.14746499 0.0010196404 0.025721047 -0.02184511 0.08132851 -0.0020148912 -0.10104525 0.0060971756 -0.06287108 0.0757823 0.05539318 0.122834526 -0.17754523 0.013458769 0.055924505 -0.048787877 0.09067008 0.020375974 0.041454203 -0.018380323 -0.11579388 0.081558175 0.025529595 0.05309079 -0.11938758 -0.054342583 -0.039533637 -0.08539282 -0.1286485 0.10824641 0.0069729635 -0.11088711 0.0017567142 0.06877868 0.07083007 0.0191124 -0.08329068 0.02138666 0.11057163 -0.14666536 0.07997142 -0.028519064 -0.022920273 0.022272436 0.19597933 0.03611282 -0.03984275 -0.09434199 0.05667513 0.08161995 -0.06345039 -0.10241461 0.066896744 0.058369253 -0.052853763 -0.04832876 -0.050155986 -0.13872255 -0.15849444 0.04845551 0.016116833 0.070328824 0.01698072 -0.140031 0.06363086 -0.095354825 -0.09809602 -0.01857969 -0.010007863 -0.041842893 -0.036373515 0.0020053652 -0.070656575 -0.0531716 0.08846414
828 -0.11271624 -0.1292826 0.0029755626 -0.0039554094 -0.09225325 0.025475204 0.14447308 -0.092694975 0.1308159 0.080768295 0.15851602 -0.21390967 0.024047753 -0.0012703288 -0.0271776 -0.122362755 -0.10707793 -0.05004201 0.079109505 0.003732642 0.04461366 -0.10154033 -0.15191309 0.0013060839 0.1102235 0.06677461 -0.03149242 -0.052967213 -0.031422038 -0.04321514 0.006892473 -0.05972058 -0.0086577535 0.065653704 0.044183835 0.011283104 -0.13276209 -0.037559837 0.12735072 -0.011296141 0.022496501 -0.01664217 -0.13803111 -0.08437908 -0.024223203 0.0045872563 0.03630835 -0.053374313 -0.118792415 -0.12069715 -0.01270797 0.2848639 0.16022177 0.07112618 -0.113128945 0.044938814 -0.17744546 0.030965172 0.05612233 -0.14352709 -0.06581644 -0.057803143 0.1515809 0.0099519985 0.1259025 -0.1367308 -0.04717034 0.14819685 -0.16282159 0.06025965 0.0077237324 0.03030594 -0.0363 -0.1343225 0.098608755 -0.019410208 -0.021890476 -0.14740989 -0.18412472 -0.11061655 -0.010281852 -0.18806742 0.15683568 0.042785097 -0.15307109 -0.01557549 0.020512462 0.1466656 0.08856892 -0.017637992 -0.10970298 0.06897562 -0.17429599 0.06991364 -0.054397337 -0.0016059869 -0.11016 0.19261016 -0.0068857274 -0.01244603 -0.08239411 0.051337134 0.1531979 -0.11484032 -0.07669072 0.20687655 -0.033436153 -0.14898223 -0.054117728 -0.098829485 -0.12476273 -0.20198968 0.09681906 0.0093045365 -0.11036622 0.09378488 -0.25217915 -0.0072310995 -0.15681732 -0.10189599 0.0028156796 -0.048976693 -0.057219565 -0.091296226 0.0015479337 -0.054269437 0.02163733 0.10501706
739 -0.16171703 -0.13963404 -0.017353103 0.06276858 0.053261563 -0.070084184 0.06975417 -0.005102029 0.09400182 0.026482284 0.099291794 -0.23800445 -0.03429498 0.007776838 0.014054292 -0.22831081 -0.18764435 -0.17206366 0.053290267 0.08413293 0.05371409 -0.13084874 -0.10630391 -0.002511084 0.1570925 0.12318706 -0.053139772 -0.059657034 0.019975211 0.005605563 0.028786944 -0.07657348 -0.01994895 0.07964137 0.061182022 -0.052320644 0.019673727 -0.016848255 0.0627091 0.039024916 -0.11954747 -0.021724299 -0.10423014 -0.106951036 -0.22567488 0.0330352 -0.115842484 0.067276135 -0.011557386 -0.09725416 0.04176435 0.17564198 0.22017118 0.0025179654 -0.20805681 -0.0016153875 -0.11851235 -0.10303396 0.078716554 -0.15842116 -0.019713385 -0.21435115 0.19283715 -0.1065668 0.08379674 -0.19470134 -0.06763575 0.24047554 -0.22749439 0.03132407 0.1000795 -0.080066785 -0.15775906 -0.18376148 -0.08125028 -0.041354556 -0.04159987 -0.09609666 -0.17676641 -0.18952829 -0.08271202 -0.17146893 0.22908436 -0.0005046678 -0.23158145 0.10547831 0.07358774 0.25049943 0.022963436 0.0019478548 -0.1334263 0.031481393 -0.11261358 -0.07138043 -0.040729452 0.05906264 -0.18941022 0.22751051 -0.13064331 0.112026855 -0.11801402 0.11139779 0.107934766 -0.2149893 -0.089671396 0.28589395 0.05537673 -0.15742953 -0.04335119 -0.031282376 -0.08539634 -0.18106613 0.04478916 -0.027433494 -0.13582508 0.030102262 -0.2601432 -0.09835908 -0.09781898 -0.07718596 -0.040029265 -0.06592448 -0.14827323 -0.13501464 -0.07039374 0.01385397 0.16538939 0.17247947
342 -0.20850559 -0.027073056 -0.043232758 -0.029551843 -0.023992792 -0.08035108 0.12825628 0.044519976 0.10658001 0.0038149972 0.11929151 -0.09235589 -0.055266526 0.009762046 0.0013492302 -0.13938113 -0.17999439 -0.045023464 -0.008967726 0.009668567 0.037446335 -0.0050053727 -0.077320665 0.08505248 -0.0948512 0.00095666724 -0.08379988 -0.03954034 -0.05459074 0.08181038 -0.00719573 -0.094039604 -0.035031714 0.061279327 0.073734544 -0.066998735 0.10963981 -0.05809831 0.21840309 -0.10820129 0.050858296 0.0023637812 -0.051457927 0.0040258877 -0.099617355 0.045885924 0.027898028 0.1670813 -0.29843697 -0.21400413 -0.14716505 0.19828148 0.07596181 0.11093975 -0.18785588 -0.075926445 -0.25187725 0.031904142 0.09377563 -0.00016230915 -0.059387393 -0.00048570635 0.07846869 -0.13156042 0.047042638 -0.23204203 -0.14079446 0.2540489 -0.06413282 -0.017339822 -0.13685063 -0.054364495 -0.23848186 -0.2312401 -0.008357843 -0.06587174 -0.07524112 -0.09082155 -0.08633239 0.0121119665 -0.041611414 -0.19502492 0.34021428 0.02848286 -0.30054453 0.0882858 -0.07457093 0.020614553 0.065173686 -0.058426782 -0.061951414 0.10893075 -0.1775856 0.0568565 -0.0792919 -0.09530213 -0.10018555 0.16634479 -0.06216339 0.17862418 -0.20226221 0.027030207 0.10978952 -0.20639405 -0.059323844 0.1274626 0.07401115 -0.12446988 -0.18587033 -0.13642293 -0.07786399 -0.04527332 0.046887238 -0.14008974 0.08077823 0.01103915 -0.15131822 -0.17600022 -0.042428933 -0.22529386 0.051091895 -0.100898944 -0.08863562 -0.3051256 -0.2052854 0.02567011 0.0595332 0.1905856
289 -0.20272927 -0.15071487 0.009448896 -0.044243697 -0.25929067 -0.048797056 0.22367278 -0.15189697 0.22511187 0.061472543 0.26362386 -0.31042683 -0.04359314 -0.07391749 -0.114550896 -0.23778868 -0.2655059 0.0074871927 0.1427722 0.010879963 0.044465154 -0.070580825 -0.16652988 -0.05525367 0.10134702 0.04766606 -0.20220508 -0.20168762 -0.07841926 0.059004314 0.025916617 -0.17267355 -0.03346937 -0.028507108 -0.057463713 0.069979385 -0.003658399 -0.10402173 0.1524028 0.03492012 0.10332211 0.017532595 -0.060706526 -0.064995505 -0.11291302 0.09777424 -0.0046698633 -0.017167618 -0.12806328 -0.14677088 0.04114443 0.17972228 0.16473591 -0.005031411 -0.04895757 0.015614302 -0.052816235 0.054729093 0.038184978 -0.043355484 -0.004057382 0.02027465 0.038543396 -0.06977399 0.040300284 -0.15320428 0.04540888 0.16128486 -0.13758016 0.03160656 0.055342134 0.027938075 -0.21676934 -0.06955469 -0.010396229 -0.10621572 -0.07948135 -0.0933604 -0.15237105 -0.16591975 -0.09396984 -0.11770215 0.15430292 0.013836776 -0.19550921 0.12497928 0.1241792 0.0755538 0.030360231 0.08768676 -0.027031122 0.14920731 -0.16534297 -0.020514304 0.012363625 0.029580984 -0.0015958077 0.1428659 -0.013770259 0.000615325 -0.08214238 0.114069425 0.022359403 -0.09859763 -0.0061055967 0.1345893 0.04775551 -0.1403105 -0.04229467 -0.03198013 -0.01374243 -0.018060332 -0.047969833 -0.12071358 -0.06769737 0.09635353 -0.18267582 0.07316253 -0.0076149493 -0.18565483 0.036366496 0.030765064 -0.05109266 -0.10075802 0.06818572 0.11725478 0.05827293 0.16242638
782 -0.07330305 -0.033378508 0.098349735 -0.11155059 0.020067135 -0.06864756 0.009151773 -0.039909136 0.033483285 0.085057855 0.011287326 -0.19077495 0.078936666 0.015716877 -0.12150682 -0.07040389 0.1199063 -0.014925514 -0.109245926 -0.034306835 -0.02210345 -0.14145596 -0.06712085 -0.023508508 0.018080503 -0.012783753 0.031335555 -0.105625376 0.04163455 -0.010739711 0.07297897 -0.059577186 0.051914796 0.12344625 0.035531245 -0.078302845 0.03960625 -0.13545644 0.047971196 -0.06529829 -0.056079052 0.17378385 -0.15206921 -0.04447121 0.013559522 -0.04579149 -0.039484717 0.037435677 -0.21925297 -0.2445371 0.083597854 0.3774934 0.23175022 0.04830306 -0.21909292 -0.14935848 -0.19350074 0.06208659 0.14778486 -0.07127927 0.04109304 -0.16234912 0.16808894 -0.05164468 0.24688835 -0.39417017 -0.022607964 0.298924 -0.16314863 0.065906934 -0.055642936 0.03510617 -0.2744416 -0.2461222 0.049591973 -0.0754455 -0.048412237 -0.21866074 -0.22833288 -0.13562696 -0.21809629 -0.33961484 0.3887712 0.0030847627 -0.1578602 0.11997305 0.16071038 0.23556246 0.035329964 0.0021331562 -0.112331994 0.026792634 -0.15918617 0.11657762 0.07615849 0.09696916 -0.07748126 0.2790867 -0.0009290792 0.09340747 -0.15419751 0.12196383 0.1415591 -0.21431917 -0.1600669 0.21521619 0.13701443 -0.17509583 -0.17909719 -0.07786975 -0.14550033 -0.18440865 -0.033229664 -0.060075477 0.061991032 0.028433004 -0.30729216 -0.023542935 -0.073715 -0.23967573 0.06168236 -0.015544862 -0.15372825 -0.17645784 0.00055357785 -0.026525652 0.101414256 0.19270174
462 -0.09411605 -0.1282746 -0.038813572 0.21453905 -0.09497099 -0.013559873 0.120675884 0.010755719 0.23095554 0.06990828 0.12912641 -0.23397608 -0.06711982 0.022939788 0.15145257 -0.29893994 -0.25457498 -0.32563624 0.17970254 0.079521604 0.027550707 -0.07174444 -0.26941147 0.059309058 0.12789159 0.03958792 -0.0574165 -0.07085406 0.11695851 -0.0991662 -0.044161517 -0.07622019 -0.08144587 -0.030004472 -0.022294495 -0.016389182 0.049357038 0.014945133 0.1428137 0.10312802 -0.07434815 -0.039550655 -0.21227965 -0.17382716 -0.24313965 0.034724373 -0.16703604 0.23599464 -0.0069614546 -0.038649615 0.06275471 0.17794539 0.21184137 0.007491074 -0.053367697 0.07557778 -0.21026592 -0.06557329 0.11875168 -0.31883803 -0.0072420193 -0.3299976 0.22319075 -0.14760004 0.013791869 -0.16520537 -0.076943055 0.16743979 -0.36114684 -0.034029633 0.15143912 -0.19599868 0.049136072 -0.07755788 -0.06968038 -0.005752331 -0.009023672 -0.13407291 -0.2530397 -0.1496653 -0.12669432 -0.1282911 0.06442418 0.02375337 -0.3484549 -0.02252283 0.098750055 -0.005985865 0.0049581975 0.03324004 0.053849038 0.00040919703 -0.22259216 -0.12204248 -0.052190017 0.025749223 -0.20163344 0.34260935 -0.18907261 -0.0130271185 -0.09698197 0.07379697 0.03434467 -0.24627852 -0.06516835 0.18728934 -0.015850607 -0.19638543 0.07242389 -0.056922387 -0.12317159 -0.23714036 0.163472 -0.014224466 -0.10434506 0.10558407 -0.24469374 -0.1992558 -0.17644152 0.101796016 -0.17657015 -0.0009832934 -0.1406776 -0.08768565 0.09030439 0.022535346 0.104665786 0.250133
236 -0.23759289 -0.1604551 0.0059965537 -0.030745326 -0.31117222 -0.12445362 0.12821627 -0.18854758 0.27310458 0.025634546 0.21798426 -0.34939122 -0.09442945 -0.12679026 -0.15628637 -0.3961982 -0.34740505 -0.03456411 0.14692979 -0.010576849 0.0155147705 -0.20172259 -0.045123782 -0.06291218 0.02353637 0.115987845 -0.31003496 -0.30128777 -0.102193266 0.14904459 0.01084253 -0.25153202 -0.076044716 -0.013836789 -0.004060944 0.025660142 0.002161955 -0.070195645 0.073431216 0.05959358 0.17494555 0.032211088 -0.044701762 -0.0636239 -0.08411529 0.11793875 -0.01572011 0.03637853 -0.11853704 -0.27269247 0.08995059 0.15614147 0.27493244 -0.112299755 -0.13919367 -0.033968642 -0.11182904 0.057861667 0.06734028 0.021738699 -0.006790673 0.14700912 0.05934054 -0.120970584 0.023600288 -0.15294631 0.054714072 0.22511446 -0.24625508 -0.0031187907 0.023664255 0.015615958 -0.3561062 -0.06952556 -0.037751164 -0.18727544 -0.19840753 -0.10286894 -0.23212884 -0.22899508 -0.1373657 -0.11000749 0.18298748 0.0016556602 -0.1900697 0.2539797 0.13701637 0.17740035 0.07798457 0.24337418 -0.10096478 0.20891255 -0.16845724 -0.029229926 0.005284444 0.09503364 -0.01575181 0.09446116 -0.02523142 0.08037711 -0.084872894 0.1516429 -0.03277394 -0.12610628 0.020966211 0.17984821 0.06127247 -0.15039317 -0.013450801 -0.007517329 0.10094849 0.03316684 -0.08331775 -0.20426111 -0.18788743 0.16384818 -0.2555208 0.0824838 -0.02337849 -0.240975 0.08513359 0.08222568 -0.07827353 -0.15539317 0.13798113 0.2206657 0.11197643 0.11938427
349 -0.14657348 -0.13136256 0.019246727 -0.042012177 -0.12973623 -0.029350394 0.13824725 -0.11674733 0.17445028 0.061281383 0.1523473 -0.25034985 -0.016915979 -0.025244068 -0.07817894 -0.18242651 -0.18447451 -0.060394417 0.0779385 -0.005627531 0.039193377 -0.05841304 -0.14761694 -0.026574178 0.023796516 0.03188561 -0.093365565 -0.1391319 -0.0066555096 0.041361164 0.011934312 -0.1289063 -0.03523175 0.0473898 0.020785604 0.0030991652 0.013100822 -0.059903037 0.1429581 -0.026809962 0.04119977 0.016550591 -0.06927492 -0.061233487 -0.07410875 0.040902603 -0.0015484159 0.018241283 -0.15919931 -0.16586927 -0.0055506905 0.21230462 0.15808131 0.056425475 -0.11834138 -0.010448787 -0.13073117 0.059919517 0.051267482 -0.055756908 -0.0060983947 -0.032575786 0.08542948 -0.062481523 0.0989935 -0.19850658 -0.020019531 0.21359988 -0.1459267 0.025703432 -0.019629177 0.010798757 -0.1768381 -0.15073377 -8.047407e-05 -0.085224815 -0.056803882 -0.10868429 -0.1567367 -0.12261209 -0.08858736 -0.17662412 0.23345493 0.025871212 -0.20325008 0.09001948 0.08929539 0.100508615 0.052154336 0.029587118 -0.068271324 0.09147613 -0.14363107 0.027033504 -0.020816628 0.022612374 -0.067809686 0.18899149 -0.015309798 0.05392115 -0.1242222 0.086427845 0.07766773 -0.12626661 -0.05183571 0.16298035 0.07404565 -0.13037981 -0.087447606 -0.051788606 -0.04359442 -0.08265949 0.0151188085 -0.06745626 -0.0370977 0.07669357 -0.2110967 -0.014098437 -0.08194483 -0.17518806 0.029535992 -0.0010111268 -0.07442209 -0.1411204 0.016862044 0.05635422 0.06575804 0.15857752
752 -0.16992486 -0.07603173 0.034785166 -0.060734134 -0.0345729 -0.05091297 0.08957148 -0.026210262 0.09287688 0.080006585 0.1150385 -0.20910877 -0.00068056665 0.013803533 -0.09121905 -0.14530173 -0.068726555 -0.049291253 -0.0035468752 -0.004795159 0.020367084 -0.11204418 -0.07893954 0.008657033 0.047483735 0.041473966 -0.05162916 -0.056728557 -0.0078001735 0.07407043 0.060392 -0.101679176 -0.00261303 0.11969867 0.10624291 -0.06991307 0.03746447 -0.06823638 0.13374537 -0.062391084 -0.00957407 0.05531606 -0.11037435 -0.02961121 -0.051045105 0.007286836 0.020364467 0.040855158 -0.23666607 -0.2006312 -0.010019553 0.24472302 0.15235785 0.049071062 -0.19362997 -0.079898916 -0.21465725 -0.0038876894 0.12618782 -0.037747934 0.002069221 -0.069178864 0.1349524 -0.07613074 0.13675596 -0.25577947 -0.030048586 0.26687303 -0.13574325 0.045983236 -0.0747359 0.02869139 -0.23427117 -0.22058204 0.024517538 -0.07762531 -0.06169279 -0.15328635 -0.1565421 -0.09739099 -0.06967934 -0.2619561 0.3450695 0.005908712 -0.20219801 0.079324976 0.04209633 0.16954401 0.10349202 -0.017641706 -0.13657303 0.03539926 -0.13862625 0.078432046 -0.0030167229 0.052800365 -0.104859136 0.18761276 -0.025493434 0.12274228 -0.13523892 0.08096511 0.12680098 -0.17595226 -0.058373168 0.22159225 0.08273203 -0.1348359 -0.14894657 -0.105132274 -0.05994388 -0.12772393 0.004816703 -0.08472856 -0.0698988 0.08427859 -0.22408499 -0.096342616 -0.07539385 -0.20992632 0.06456029 -0.042982876 -0.10147851 -0.21795851 -0.050757263 0.012282553 0.099362284 0.15295668
415 -0.07864185 -0.100670084 0.015878214 0.13096252 -0.106401235 -0.0040669385 0.12673236 0.0153741995 0.24697386 0.08583335 0.1520719 -0.24840383 -0.05977791 0.0027843572 0.11472036 -0.27521536 -0.22358485 -0.24352212 0.106712915 0.06497401 -0.0072650234 -0.11160145 -0.25150102 0.048177004 0.108267546 0.03005645 -0.078597724 -0.08453576 0.0832657 -0.059396025 -0.02323784 -0.07604701 -0.046850942 0.000413364 -0.0033333076 -0.03941486 0.033353854 -0.028851693 0.1607666 0.061973922 -0.052722767 0.013134431 -0.22924264 -0.17676531 -0.16764714 0.043673966 -0.15026614 0.16914718 -0.045419723 -0.05185679 0.099736385 0.20094691 0.18365765 -0.013272007 -0.079561755 0.017854875 -0.23547465 -0.09817358 0.13966504 -0.28204292 0.013432033 -0.23784034 0.21454078 -0.12781799 0.019749235 -0.19240609 -0.101062626 0.14765164 -0.3404054 -0.035336975 0.10520981 -0.16495773 0.0035906315 -0.05511395 -0.05455416 -0.019495433 -0.020205567 -0.12787668 -0.23096685 -0.088594325 -0.12019375 -0.15943168 0.09598769 0.010596684 -0.2914684 -0.015575894 0.08818346 0.031243825 0.008802687 0.04618452 0.04386465 0.026458776 -0.20638497 -0.09017235 -0.03685007 0.0498157 -0.15562613 0.29907686 -0.16252048 0.01665227 -0.08296087 0.08297754 0.058854725 -0.25075787 -0.10167586 0.16654287 0.009300765 -0.15363322 0.05249388 -0.030842729 -0.10661735 -0.21959403 0.11793236 -0.042237785 -0.046220563 0.10273185 -0.26294944 -0.15580472 -0.19466986 0.05007831 -0.11666806 0.0064221537 -0.16098844 -0.09942778 0.0975299 -0.0158915 0.094836615 0.23233692
374 -0.12135458 -0.13465594 0.053736307 -0.06447745 -0.1294208 0.03298341 0.23651849 -0.16726974 0.18322414 0.037533738 0.22308 -0.19809443 -0.012212484 -0.019057501 -0.087248065 -0.11766099 -0.20716561 -0.032165572 0.08872332 0.044026848 0.007880496 -0.036111493 -0.19690245 -0.061845146 0.10850564 -0.002171424 -0.08332322 -0.10177596 -0.0070899124 0.059925083 0.0019875616 -0.10422261 -0.06591062 0.07323388 -0.030938294 0.021071855 -0.0789895 -0.041743618 0.17882316 0.017754294 -0.025484784 -0.019667167 -0.055673514 -0.085673235 -0.11216055 0.06238639 -0.011406485 -0.10295697 -0.13069242 -0.086737566 -0.018331142 0.15890065 0.13057557 0.06400308 -0.08056703 0.016355228 -0.026854806 -0.002470956 0.031212792 -0.10733604 0.0162614 -0.035773996 0.11289861 0.02378379 0.10747512 -0.16710132 -0.024300389 0.11873051 -0.116282836 0.07514039 0.03634116 -0.0024106086 -0.09123925 -0.11642464 0.0071448744 -0.033296544 -0.02103099 -0.08849497 -0.09127573 -0.08632988 -0.068249844 -0.11247729 0.14068043 -0.02271547 -0.13815925 0.071209155 0.0717901 0.16933729 0.045303382 0.0011706878 -0.0013970428 0.13946775 -0.13380045 0.02497171 -0.043935508 0.014808043 -0.00844604 0.17429058 -0.04022972 0.041000184 -0.11268548 0.07970767 0.06590998 -0.09528229 -0.09887117 0.1317678 0.07680093 -0.053099148 -0.021251343 0.0066356957 -0.053042322 -0.14298853 0.005162587 -0.031815745 -0.011934866 0.032691404 -0.18194646 0.028585734 -0.08955989 -0.10638063 -0.02638504 0.010870198 -0.10581172 -0.049865555 0.010094423 -0.011700871 0.024369024 0.10677549
784 -0.12969469 -0.061966944 0.047178086 -0.022245033 0.02169246 -0.03839034 0.015638247 -0.013832432 0.04326478 0.04437103 0.03719302 -0.19810499 -0.021238336 0.0032688004 -0.047829174 -0.11914425 -0.040174443 -0.11031376 -0.044855777 -0.005027591 0.006420513 -0.14069483 -0.09444771 -0.006379044 -0.018990709 0.06320136 -0.052652236 -0.06493243 0.027245203 0.0092863 0.005951374 -0.060654882 0.010900048 0.11869192 0.08558556 -0.08002924 0.025648452 -0.07935758 0.07475449 -0.044889905 -0.062683865 0.0425806 -0.12040311 -0.013805537 -0.09104693 -0.009309773 -0.02961584 0.040815976 -0.22903644 -0.22660619 0.010588887 0.2876898 0.20047656 0.050286744 -0.24811201 -0.08893435 -0.18321973 -0.011277436 0.17390242 -0.08485437 0.011326066 -0.08942004 0.19057399 -0.09146491 0.16090259 -0.29973444 -0.07539525 0.25360885 -0.14791831 0.008238216 -0.06694778 -0.025812974 -0.23124866 -0.22430336 -0.030724285 -0.10953221 -0.09179053 -0.15980047 -0.17462915 -0.08704376 -0.09938419 -0.22972117 0.3608371 -0.017992519 -0.23364067 0.12788263 0.057360236 0.25005463 0.076239645 0.0059894207 -0.09843556 0.06650376 -0.16554299 0.04899281 -0.015693545 0.029851068 -0.1443332 0.21947247 -0.074455105 0.13034935 -0.17826392 0.070581935 0.13998409 -0.21881618 -0.1320914 0.24057041 0.08745254 -0.1322812 -0.12623218 -0.08412972 -0.059868537 -0.1603512 0.025400288 -0.119834505 -0.04156401 0.013247942 -0.26625833 -0.12814108 -0.12927786 -0.19825883 0.02676792 -0.04092379 -0.14638203 -0.22730541 -0.06664808 0.013461328 0.14101416 0.20276794
328 -0.1787799 -0.101206735 -0.056916926 -0.06783108 0.01725878 -0.056401715 0.12092472 -0.015336278 0.13622531 -0.04598869 0.08666623 -0.100228235 -0.112660296 0.0021713113 -0.015470372 -0.12981087 -0.22307357 -0.049832415 -0.0032202415 0.022593433 0.03567457 -0.027906938 -0.060159884 0.042004604 -0.08224443 -0.010947806 -0.11293291 -0.071975954 -0.038641192 0.1252789 -0.049700834 -0.10823904 -0.06558028 0.109921515 0.07775624 -0.07718949 0.065356225 -0.0049116444 0.21585429 -0.083646044 -0.01049881 -0.026532505 0.023058705 -0.008006755 -0.13024303 0.08103218 -0.0048344634 0.06090334 -0.21868792 -0.19052789 -0.14482826 0.14500427 0.11623448 0.0927098 -0.25812685 -0.08613724 -0.16174811 -0.043448627 0.060444936 0.0044205924 -0.0307484 0.056532968 0.09615956 -0.065062955 0.043541245 -0.1877334 -0.15674399 0.20295152 -0.051972784 -0.006238363 -0.12423698 -0.09136966 -0.2520377 -0.22995697 -0.06780935 -0.08190215 -0.08074346 -0.042897828 -0.06482725 -0.00080477644 -0.06292845 -0.13650417 0.30010322 0.0027283689 -0.22875248 0.17108314 -0.08533436 0.16826014 0.03385449 -0.032082018 -0.07830868 0.1458555 -0.15387273 0.04811293 -0.10098577 -0.058870092 -0.1089534 0.14555809 -0.078741305 0.21302445 -0.1912065 0.042765636 0.09034469 -0.18385603 -0.10458484 0.18058419 0.11952262 -0.083724424 -0.1444305 -0.07935375 -0.03772044 -0.07130971 0.048355687 -0.1486805 0.045718115 -0.046417054 -0.1674019 -0.13040648 -0.06957231 -0.196521 0.023060696 -0.085608765 -0.12543586 -0.25861067 -0.23641214 0.048561577 0.077149644 0.14954667
725 -0.16328433 -0.13966149 -0.032352965 -0.05032073 -0.034341134 -0.0038483469 0.15866178 -0.050300233 0.24709575 0.010901177 0.22056612 -0.11312767 -0.021166 0.03318886 -0.018063394 -0.18067943 -0.27431586 -0.016686112 0.07490444 0.10859397 0.058781892 0.09551122 -0.11045359 0.027035577 0.16308612 -0.06088913 0.013687748 -0.056143604 0.012201778 0.11721094 -0.011961157 -0.11300825 -0.17690492 0.0808246 -0.018826896 -0.008872616 -0.03356563 0.034928344 0.20039022 -0.048782278 -0.097926006 -0.03819907 -0.0010783366 -0.07385815 -0.15514402 0.030162727 -0.013632986 0.051968727 -0.07879987 -0.08341259 -0.09021847 0.09615087 0.12030156 0.08576562 -0.07798978 -0.029581968 -0.069144 -0.040435147 0.00045939352 -0.038216695 -0.026971951 -0.14449257 0.08886284 -0.038403466 0.08525175 -0.16201942 -0.01984661 0.11874294 -0.076904714 0.042728104 -0.019864462 0.0038202966 -0.052925885 -0.22071733 0.029086221 0.06449781 0.04302726 -0.1254546 -0.06637512 -0.033644374 -0.108564995 -0.10043053 0.13188353 -0.036663093 -0.17982976 0.054338142 -0.019993423 0.08512106 0.033532444 -0.087664865 -0.09650994 0.030783642 -0.033886544 0.016762067 -0.031832945 -0.044882864 -0.093079925 0.21125141 0.0014272223 0.15104666 -0.082484975 0.06700806 0.0069329957 -0.13318966 -0.0869513 0.1390434 0.0771367 -0.072716996 -0.0681822 -0.079221986 -0.11337398 -0.12560989 0.081095114 -0.010735981 0.030656125 0.007832427 -0.099461816 -0.09138597 -0.109029345 -0.052780952 -0.106904514 -0.064484894 -0.054539725 -0.16438098 -0.12842894 -0.04483367 -0.0047101835 0.025907628
395 -0.23456115 -0.074813284 0.048860896 -0.07287612 -0.15533724 -0.06828607 0.1986811 -0.06145069 0.14423828 0.04242257 0.24276324 -0.20217189 0.006727684 -0.0335091 -0.12959814 -0.13918436 -0.2101745 0.03909893 0.0441428 0.04251793 0.0016013011 -0.03945214 -0.09398724 -0.05207606 0.111095525 0.02123827 -0.12748328 -0.11490506 -0.09671913 0.10006142 0.04302305 -0.12037013 -0.04068917 0.021672597 -0.028775558 0.0125972545 -0.00581227 -0.105952226 0.128891 -0.028964115 0.04702006 0.0078731505 -0.07258628 -0.049163796 -0.10154218 0.081579976 0.018827561 0.0004967206 -0.18131529 -0.1618249 0.00084746035 0.19057499 0.12700811 0.054620765 -0.07657693 -0.018022213 -0.067461126 0.022934122 0.071533866 -0.038052425 -0.012092873 -0.035795547 0.09963442 -0.064326905 0.066214316 -0.20737182 0.00523523 0.15210108 -0.08405416 0.059303645 0.025063833 0.045578722 -0.20477445 -0.14157906 0.0053635533 -0.06535552 -0.041189842 -0.10238919 -0.103796065 -0.101265185 -0.07128485 -0.16080426 0.19395764 -0.015534478 -0.18275009 0.14118373 0.06265753 0.112489216 0.060303368 0.018769577 -0.0601938 0.12799415 -0.13197272 0.0331015 -0.0028603093 0.014251366 0.009997025 0.11905331 -0.0019909048 0.069833584 -0.103418574 0.07885083 0.075858705 -0.14528759 -0.06132799 0.13575909 0.056914773 -0.0753336 -0.11304415 -0.072344385 -0.06426634 -0.06913417 -0.055857707 -0.114635825 -0.048372198 0.052668013 -0.18316898 0.019033689 -0.010436467 -0.18838902 0.0213254 -0.014613762 -0.08221241 -0.16704881 -0.045484655 0.02428066 0.073219605 0.14564262
366 -0.13548905 -0.13992235 -0.0030694464 -0.016941832 -0.063068524 -0.024115227 0.1536572 -0.05819089 0.15423651 0.0029647022 0.14338589 -0.20449282 -0.029028617 -0.009901441 -0.035954457 -0.15732141 -0.19655055 -0.027779333 0.05445511 0.05668755 0.013884071 -0.070273235 -0.109594636 -0.001177279 0.098242626 0.04703938 -0.09062358 -0.09557553 -0.019411204 0.018253943 -0.011298135 -0.06356931 -0.03575679 0.04476127 -0.02342525 0.014544046 -0.0637932 -0.040299073 0.12510991 0.018051958 9.216703e-06 0.0073320772 -0.046043586 -0.09939332 -0.110262014 0.069360554 -0.05467255 -0.034452107 -0.042881012 -0.09392521 0.0065087914 0.210716 0.17583214 0.022907449 -0.15184933 0.010810949 -0.09633154 -0.025374636 0.031163502 -0.12924328 -0.02099117 -0.08000483 0.14551073 -0.031408556 0.09321629 -0.14655714 -0.10157057 0.12841645 -0.15753216 0.039718635 0.051851314 -0.050335426 -0.13479282 -0.11014751 -0.011661293 -0.016947947 -0.033087753 -0.07294074 -0.14467597 -0.13637671 -0.091334544 -0.15381642 0.14184918 0.025504217 -0.13289885 0.09247767 0.02297808 0.19535027 0.011181609 0.030219024 -0.03767615 0.13742541 -0.1504695 -0.014908419 -0.04131146 0.001965631 -0.083655 0.19882467 -0.06536904 0.039874993 -0.07498799 0.07276861 0.10448344 -0.17605071 -0.11630963 0.17125547 0.036033027 -0.124869525 -0.039757747 -0.023992062 -0.11996779 -0.13955528 0.02616382 -0.0577824 -0.037099577 -0.014626994 -0.2510516 0.012437306 -0.07854261 -0.0926632 -0.016667213 -0.045967363 -0.12517256 -0.10190813 -0.06847665 0.003510787 0.0536209 0.13037561
200 -0.15627074 -0.13960174 -0.07890814 -0.10060111 -0.11851112 0.021443922 0.21101531 -0.11659929 0.25801742 -0.014630691 0.19376208 -0.07679734 -0.024266731 0.03621998 -0.048134346 -0.09693177 -0.23072231 0.09494003 0.09127711 0.07220264 0.065306135 0.13256028 -0.10036284 0.016203286 0.078181244 -0.10040967 -0.029932562 -0.11768032 -0.048045035 0.0307254 -0.1143905 -0.12087945 -0.15244073 -0.006449561 -0.1261646 0.0962384 -0.07085089 0.009153953 0.24077389 -0.055642895 0.016308552 -0.03532504 0.02372367 -0.045475315 -0.08814636 0.073745646 0.049963206 0.045242693 -0.12263713 -0.124113895 -0.15708777 0.19919084 0.14571409 0.15171771 -0.03903882 -0.0028042814 -0.058176853 0.1180537 -0.0442903 -0.018676633 -0.07468258 0.0072282786 0.029053695 0.026383618 0.074865974 -0.1253788 -0.047674347 0.04667981 -0.025386162 0.001200109 -0.020349959 -0.016617931 -0.0540434 -0.15981454 0.085679315 0.0582853 0.012341327 -0.09337405 -0.055440515 -0.034369234 -0.13000703 -0.07131908 0.054438714 0.015336693 -0.13081606 0.08011399 -0.038529675 0.016445573 -0.025664618 -0.052528184 -0.038130004 0.15284222 -0.1425293 0.11187782 -0.031002138 -0.12587632 -0.03018813 0.18376231 0.09189643 0.017338809 -0.12690833 0.032980636 0.03965367 -0.08810711 -0.090692624 0.062075894 0.032503154 -0.11684167 -0.0790095 -0.15950525 -0.18041511 -0.094958335 0.116420455 -0.036122978 0.121461 -0.07210172 -0.10683737 0.049841512 -0.05447836 -0.11752368 -0.048519947 -0.05647798 0.019000404 -0.14698887 -0.17717391 -0.017171858 -0.048872117 0.026122497
389 -0.1932093 -0.12906271 -0.045514446 -0.033943843 -0.10426069 -0.050936718 0.1642577 -0.060200136 0.18388325 0.016391987 0.15732497 -0.18091741 -0.033976506 -0.025315372 -0.044647213 -0.2041455 -0.21686406 -0.034254894 0.08437608 0.0035763874 0.04096977 -0.029018627 -0.10721523 0.029435847 0.015460132 0.0013772232 -0.10161659 -0.12154129 -0.05087372 0.07859379 -0.0275094 -0.13254647 -0.060870465 0.034066074 0.032763563 -0.0002799096 -0.00137167 -0.03542773 0.19505937 -0.036956225 0.05891032 -0.018189568 -0.035269946 -0.041140463 -0.07604915 0.07366418 0.009777786 0.058340196 -0.15558207 -0.16618307 -0.09802501 0.1782941 0.124438904 0.05909759 -0.13005856 -0.011334256 -0.17963248 0.034887686 0.021720832 -0.029334633 -0.06766537 0.0072014173 0.057726562 -0.066977486 0.04845161 -0.13747074 -0.076597616 0.19260362 -0.10578557 0.016841594 -0.056070987 -0.029969405 -0.17117475 -0.16942549 0.029343346 -0.050791733 -0.055453923 -0.07613485 -0.10640602 -0.070938885 -0.0678107 -0.14945029 0.2005363 0.045377713 -0.20581362 0.08644596 -0.01676256 0.06992907 0.055891696 0.018014034 -0.08548463 0.09789552 -0.1515613 0.040979348 -0.04598821 -0.03250562 -0.06901238 0.16022015 -0.014092033 0.088421896 -0.114346795 0.06901682 0.07544686 -0.14629763 -0.04317261 0.13106182 0.039953902 -0.13973175 -0.118996486 -0.09867581 -0.06429928 -0.07388723 0.05427112 -0.09458108 -0.013627143 0.0529919 -0.17032154 -0.041885305 -0.049840797 -0.15362303 0.01252747 -0.047690544 -0.07181529 -0.18875577 -0.097837776 0.060293075 0.039900288 0.13818862
446 -0.0432077 -0.15639146 -0.016219174 0.24196275 -0.11551237 0.027791584 0.14295709 -0.03427326 0.27626398 0.09910961 0.095194645 -0.25097355 -0.075628705 -0.008866143 0.18879296 -0.29857162 -0.24485363 -0.38782614 0.21201123 0.056655087 0.029583642 -0.11955268 -0.3356397 0.08065041 0.06960361 0.037714902 -0.038872227 -0.072337 0.16138794 -0.15283126 -0.078863986 -0.045107257 -0.07761017 -0.007195003 0.0033031283 -0.03960032 -0.0059106015 0.014227536 0.1728157 0.13111243 -0.110706784 -0.05423148 -0.23843938 -0.20699006 -0.21171369 0.025037989 -0.1879087 0.17904197 0.0009520276 -0.024831085 0.050688766 0.19652656 0.21770644 0.026357846 -0.06202715 0.08873225 -0.2439736 -0.09666508 0.10980527 -0.37165308 -0.007553327 -0.3067469 0.24044468 -0.11457068 0.018354092 -0.14522465 -0.12767363 0.19630995 -0.42952055 -0.050189514 0.14861141 -0.2435031 0.0993491 -0.061165664 -0.058750644 -0.027464353 -0.024965357 -0.1317971 -0.29961026 -0.15828726 -0.10876111 -0.11412799 0.06755617 0.04473767 -0.3511466 -0.06654035 0.09238983 0.013711126 0.001076808 0.061549526 0.082552545 0.020974552 -0.26016304 -0.12609507 -0.08910316 0.009573306 -0.22348571 0.38732508 -0.21780765 -0.03806689 -0.124537595 0.086208105 0.043669835 -0.22886752 -0.07429262 0.19892329 -0.03400504 -0.18943813 0.107277066 -0.019298933 -0.11688832 -0.29677725 0.2122281 0.01606472 -0.09993695 0.13091362 -0.27242836 -0.19661944 -0.25568664 0.13862726 -0.2020571 0.010069611 -0.18821047 -0.030190459 0.14526047 -0.0041032215 0.09213159 0.2751544
316 -0.21345249 -0.10418642 0.03464947 -0.031734806 -0.22104171 -0.12655343 0.19212915 -0.1089767 0.15469961 0.039345134 0.25437543 -0.27855027 -0.029511446 -0.0281192 -0.12857173 -0.18408313 -0.1545779 0.03686889 0.083753064 0.0069274856 0.023478828 -0.15619156 -0.0758865 -0.029001947 0.14111856 0.09273015 -0.16245797 -0.15772817 -0.10216836 0.07106663 0.028197007 -0.19151995 -0.008852327 -0.02946042 -0.035343595 0.010144337 -0.02858 -0.12881933 0.084851615 0.024188474 0.15230088 0.1183387 -0.10822997 -0.054342724 -0.0630217 0.12145418 -0.0003343287 0.01889521 -0.10819064 -0.20352824 0.12582879 0.24742821 0.21154886 -0.089389704 -0.10813182 -0.015939815 -0.12957798 0.07112408 0.10406715 -0.078535646 0.0011053972 0.009451848 0.117302306 -0.120128684 0.060545377 -0.23706368 0.039619043 0.20647869 -0.20708744 0.05733947 0.07069688 0.012563325 -0.22184743 -0.071587 0.014723522 -0.09856305 -0.10210983 -0.18026264 -0.18009774 -0.20694368 -0.08467718 -0.1992946 0.15402554 0.031403 -0.12566857 0.14213827 0.08454705 0.12592775 0.042103283 0.109121926 -0.0844518 0.1308011 -0.17583995 0.05304367 0.019463781 0.08746614 -0.029664313 0.113993436 0.0039846203 0.05434283 -0.10936798 0.12080127 0.07749016 -0.17024936 -0.016749632 0.19772865 0.0013666918 -0.21634585 -0.054870922 -0.09837968 -0.04196197 -0.04412958 -0.07316567 -0.13480046 -0.12884258 0.094351165 -0.2650444 0.07650517 0.0037263455 -0.19244891 0.04776991 0.0032444962 -0.033323076 -0.1834606 0.060795438 0.09772475 0.11422307 0.13464646
442 -0.14405443 -0.1794357 -0.050901666 0.015293469 -0.053297773 -0.020715032 0.14878336 -0.06555824 0.22238305 -0.0021379632 0.13313042 -0.19423187 -0.067693084 -0.020225191 0.02249209 -0.23935722 -0.2713012 -0.10670765 0.09938737 0.056780066 0.04994098 -0.061967906 -0.1626581 0.041140236 0.04609923 0.037348505 -0.07856845 -0.101586275 0.014920599 0.046819087 -0.05994915 -0.10623254 -0.084158726 0.057506118 0.028154787 -0.008345652 -0.035641517 0.009142231 0.19512652 0.0129341865 -0.040003218 -0.04994204 -0.032994773 -0.084607184 -0.15706755 0.06276931 -0.07219059 0.03289575 -0.06958777 -0.11427622 -0.06687318 0.13576983 0.17737183 0.039269447 -0.17439167 0.009562098 -0.123132385 -0.03392746 0.020304276 -0.094064444 -0.04378366 -0.047479626 0.11991242 -0.05362228 0.045210473 -0.10447342 -0.1065729 0.18129455 -0.16242626 0.010572379 0.008691037 -0.08120464 -0.12586108 -0.13571657 -0.044494856 -0.034437697 -0.07439439 -0.04284968 -0.13603735 -0.09937705 -0.066562966 -0.09288968 0.15568744 0.011868956 -0.18109913 0.06707862 -0.0006796742 0.14965582 0.0077547003 0.029499497 -0.047574274 0.103309296 -0.13290559 -0.013558178 -0.07819295 -0.020444926 -0.13066643 0.19004752 -0.08666678 0.0897438 -0.11421055 0.08766707 0.045247946 -0.15534946 -0.070488326 0.18371178 0.03441259 -0.114925146 -0.044589985 -0.03506009 -0.06496083 -0.12727848 0.07960841 -0.05092083 -0.03385188 -0.009427444 -0.19507213 -0.06581707 -0.11157902 -0.06376439 -0.051461793 -0.03895657 -0.1195445 -0.1279747 -0.07935363 0.04977606 0.06289002 0.11502046
806 -0.15946648 -0.0651656 0.08509144 -0.09231288 -0.011693786 -0.04565264 0.12374321 -0.055999476 0.07719356 0.0785245 0.13116843 -0.21230343 0.03252137 0.016507803 -0.1115878 -0.09288321 -0.0132195195 -0.015911583 -0.036624108 -0.0004441482 0.012683923 -0.14774445 -0.11728108 -0.005795891 0.06281717 0.037779067 -0.026919618 -0.057895694 -0.007283639 0.051876143 0.05361038 -0.098626964 0.010088635 0.14782205 0.078338124 -0.074289925 -0.022483021 -0.11853384 0.14203347 -0.06449935 -0.028546069 0.10126304 -0.14162591 -0.049736448 -0.02295811 0.0008087628 0.011139639 -0.0058060656 -0.22852544 -0.20425126 0.0336477 0.28330323 0.14939342 0.045346696 -0.19191031 -0.09449582 -0.17916107 0.0010843418 0.1413419 -0.061298985 0.0083607435 -0.07155995 0.15259764 -0.053477623 0.18295835 -0.28869322 -0.019730095 0.2515292 -0.11178755 0.060031295 -0.0778874 0.0484534 -0.20639646 -0.19405222 0.03928895 -0.085957214 -0.05873426 -0.16920558 -0.15806565 -0.095115215 -0.07305639 -0.2746546 0.34014156 0.014806284 -0.13245046 0.07028579 0.060857285 0.21547528 0.0728655 -0.023283063 -0.13670285 0.010482549 -0.14356694 0.1046241 0.0037876025 0.070375524 -0.07834742 0.18740426 -0.011459639 0.10876677 -0.13972765 0.08777291 0.14905411 -0.17143911 -0.10097755 0.21933311 0.074775584 -0.12012723 -0.1513442 -0.071025275 -0.06897542 -0.14928542 -0.050481435 -0.046275076 -0.02868804 0.043161757 -0.2462834 -0.055632472 -0.09059199 -0.20043519 0.059699483 -0.030965412 -0.106640905 -0.16263863 -0.023073345 -0.032985106 0.0906275 0.14838034
813 -0.22475207 -0.029621664 0.00036120228 0.027277915 -0.060238373 -0.084815316 0.05753516 0.09897918 0.112761006 0.05329961 0.20196126 -0.20254806 -0.025417471 -0.028105834 0.0016638935 -0.2525621 -0.2275721 -0.073452875 0.041386686 0.06093447 0.054352786 -0.02991378 -0.07703198 0.022296444 0.11967298 0.085535534 -0.11022315 -0.060974047 -0.08879568 0.07858851 0.059567735 -0.09485484 -0.03854291 0.012705054 0.06756223 -0.030496866 0.07943065 -0.05272838 0.1089452 -0.04099305 0.04193432 -0.02899105 -0.10043485 -0.044883374 -0.11845833 0.043339405 0.005401016 0.13728933 -0.1789749 -0.15208799 -0.011932582 0.17793135 0.10862721 0.03886125 -0.112607986 0.0019085122 -0.20329344 -0.01320958 0.10815299 -0.0556655 -0.052765377 -0.12736873 0.11815395 -0.1763748 0.045653965 -0.20142028 -0.03367203 0.15726069 -0.13850063 0.01330078 -0.022700416 0.013193568 -0.197704 -0.22461012 0.01643308 -0.020692801 -0.028943636 -0.14059642 -0.13781208 -0.06485406 -0.046493948 -0.20728624 0.25861672 0.02973732 -0.34030014 0.08115631 -0.017749641 0.073437415 0.10688115 -0.039767608 -0.13323158 0.028982459 -0.118935846 -0.06457376 -0.012212497 -0.039082743 -0.10943779 0.18444687 -0.040819895 0.1283177 -0.0654127 0.053307228 0.11307363 -0.21326621 -0.044484794 0.17811058 0.020194171 -0.1536542 -0.13348158 -0.13329618 -0.089485265 -0.054317698 0.022289826 -0.14768124 -0.11359428 0.14208229 -0.19387165 -0.15026668 -0.066150285 -0.18271935 0.0054253754 -0.08499932 -0.07167045 -0.26898688 -0.104140155 0.027243942 0.079848744 0.18797703
288 -0.21526833 -0.08735591 0.016218783 -0.01567079 -0.22600304 -0.07179443 0.13198 -0.07742014 0.17141579 0.036244318 0.21180873 -0.2663661 -0.04772154 -0.07292213 -0.099260315 -0.24356414 -0.23203756 0.0057499884 0.09753547 0.015899127 0.012616063 -0.1122987 -0.05994757 -0.045261357 0.076204605 0.083386436 -0.22153105 -0.18409401 -0.12009688 0.07621438 0.012662558 -0.15660492 -0.043487165 -0.0163648 -0.024614314 0.028851314 -0.03296715 -0.08774959 0.09914765 0.022340564 0.15443218 0.010634369 -0.079648435 -0.030557683 -0.052385513 0.09808977 0.03303037 0.020735765 -0.15050766 -0.21327631 0.04474011 0.21051335 0.18660377 -0.046059385 -0.0914159 0.0026177925 -0.11532426 0.042423826 0.07769511 -0.04898654 -0.023995863 0.03833019 0.10766618 -0.08557138 0.04579263 -0.17868526 -0.0074606766 0.101259634 -0.17794655 0.027606787 0.01540632 0.020825597 -0.23510523 -0.09789972 0.009932152 -0.07310871 -0.104864754 -0.14330924 -0.1669078 -0.13068943 -0.070919454 -0.13842377 0.14962193 0.029679805 -0.22011207 0.14851154 0.039610516 0.1266857 0.09191944 0.10783507 -0.082622424 0.1632712 -0.2001069 0.0011947533 -0.010185005 0.0034289663 -0.018754873 0.121885836 -0.023345787 0.043672133 -0.07001721 0.07526729 0.081056654 -0.16356088 -0.029289505 0.15667805 0.013079581 -0.15172204 -0.068216726 -0.09402352 -0.02070239 -0.027027223 -0.03650823 -0.18006808 -0.14588714 0.13260506 -0.22843881 0.014928006 -0.04489361 -0.20860638 0.05694275 0.012029332 -0.06552955 -0.19005552 0.015707765 0.10831816 0.06614021 0.1466264
745 -0.15379874 -0.10728774 -0.008024246 0.023934675 -0.020710662 -0.03708463 0.086763754 0.046604842 0.20577583 0.055455558 0.19515058 -0.1740257 -0.01009441 0.04353316 0.046698585 -0.25865173 -0.2515576 -0.10289608 0.07162233 0.10554351 0.07478194 0.0524669 -0.12391621 0.040063854 0.21606025 0.008560311 -0.017110867 -0.055294428 0.022735883 0.0777375 0.039449755 -0.108433746 -0.11084314 0.04131164 0.045309536 -0.02062655 0.05501357 0.035947695 0.16503128 -0.031250708 -0.04719098 -0.01225799 -0.08774665 -0.1280135 -0.11056368 0.013459205 -0.041512627 0.15076753 -0.03661342 -0.051839232 -0.009184601 0.14235745 0.11051373 0.04367427 -0.07314342 0.003965703 -0.18329369 -0.058521103 0.029127477 -0.1136339 -0.00771724 -0.24300757 0.12365249 -0.11475351 0.052642994 -0.1955658 -0.047429636 0.11295895 -0.18617263 0.035545297 0.023701247 -0.02698397 -0.0701272 -0.2149798 0.017127464 0.09166368 0.07875897 -0.1403133 -0.13856995 -0.06728609 -0.103568226 -0.20208256 0.17012265 0.010644559 -0.26905686 -0.009130887 -0.013105183 0.044598646 0.06607368 -0.08063976 -0.12668785 -0.041753385 -0.040634677 -0.05980327 -0.018777534 0.007849662 -0.13572453 0.25746074 -0.039422218 0.1252519 -0.02529475 0.06873438 0.052694473 -0.18800566 -0.05845701 0.14168626 0.053947203 -0.13286115 -0.06608634 -0.1036614 -0.14754431 -0.11812118 0.1039472 -0.037992615 -0.045773484 0.1282279 -0.15276831 -0.1413121 -0.11540954 -0.04167932 -0.07604698 -0.07549225 -0.07994088 -0.2015186 -0.07352443 -0.04695899 0.018206615 0.10590744
270 -0.24437384 -0.09634115 0.019221094 -0.017698254 -0.21760327 -0.1047455 0.19299835 -0.107092716 0.20352946 0.016134778 0.23432022 -0.20977062 -0.049338862 -0.078437164 -0.09487864 -0.26872444 -0.29205072 -0.038696535 0.11175337 0.05545473 -0.0060589164 -0.09399407 -0.06439742 -0.025117232 0.07088463 0.06287728 -0.19894108 -0.16291018 -0.09538249 0.12545331 0.0037401004 -0.16616255 -0.077154174 -0.032732647 -0.033762388 0.0205678 0.0014770707 -0.07508158 0.11995743 0.047517255 0.08552887 -0.0015328737 -0.053945992 -0.053821925 -0.13585235 0.106851675 -0.021802468 0.067566484 -0.13564219 -0.20658034 0.027290635 0.12781912 0.17546448 -0.019263575 -0.07322945 -0.0019946748 -0.05415742 0.046066474 0.06382966 -0.014378162 -0.003060575 0.022032827 0.08286767 -0.101162665 0.027128834 -0.17683291 0.0067435247 0.14880477 -0.18681028 0.017963301 0.040071886 -0.01173048 -0.22498012 -0.097102195 -0.013479521 -0.082141735 -0.1064478 -0.100265086 -0.13905534 -0.14409429 -0.09830816 -0.11224194 0.13466871 -0.012311057 -0.23677102 0.18891482 0.058872484 0.10883247 0.056532674 0.10475865 -0.042149544 0.17659287 -0.14195228 -0.028477715 -0.016086262 0.010472056 -0.007303348 0.12446791 -0.03755076 0.08700186 -0.09527363 0.10782552 0.021871446 -0.17005882 -0.021902176 0.14595 0.041065313 -0.122739285 -0.0512131 -0.06184783 0.0043962747 -0.021682715 -0.051549397 -0.16659124 -0.11949676 0.081586204 -0.18314971 0.0004013508 -0.018174235 -0.16609965 0.008520793 0.01654959 -0.064442664 -0.17324086 0.007914027 0.11958339 0.084845714 0.13274898
666 -0.12747519 -0.13085707 -0.011394066 0.016924769 -0.074823946 -0.01851366 0.118165426 -0.010336328 0.19690038 0.022288574 0.1536732 -0.21037477 -0.013013967 0.013032776 0.051417198 -0.22350174 -0.21192475 -0.052642122 0.058681402 0.07910897 0.056402434 -0.043098252 -0.12994814 0.040765088 0.12607734 0.04433935 -0.066396594 -0.09421737 0.0060741003 0.011690066 -0.015581119 -0.08632528 -0.066044696 0.008480562 -0.0073803132 0.0024455125 -0.014675247 -0.0124164615 0.13957898 -0.0058184215 0.0013314976 0.02331397 -0.093504354 -0.09567766 -0.09817518 0.050920784 -0.07076075 0.08055498 -0.04268387 -0.10207265 0.030635042 0.19464053 0.17507572 0.019864859 -0.1260245 -0.010418057 -0.16099273 -0.008475995 0.044945143 -0.12699902 0.002750888 -0.12269064 0.13975383 -0.08519091 0.0517072 -0.16595192 -0.08813545 0.12221431 -0.20291585 0.017296754 0.03710084 -0.055034954 -0.09865325 -0.12013472 -0.008481923 0.01920284 -0.024455696 -0.13515171 -0.16961241 -0.11278046 -0.08885188 -0.16591749 0.1392881 0.017475935 -0.18038979 0.028722662 0.010995002 0.118742175 0.019654216 0.013397757 -0.043151483 0.05667642 -0.1392935 -0.027350783 -0.027731936 -0.013484525 -0.14289005 0.23857099 -0.06345125 0.054676123 -0.05803415 0.05231783 0.04428275 -0.18246579 -0.08258873 0.17003179 0.015183045 -0.14985678 -0.014244643 -0.08048021 -0.14288494 -0.13424912 0.08835922 -0.05822068 -0.028948478 0.03005601 -0.23278044 -0.0540143 -0.11652662 -0.07109367 -0.025063355 -0.051867243 -0.10580635 -0.13936934 -0.041721962 -0.0013679208 0.03504435 0.114723
611 -0.14616291 -0.12927133 -0.102949716 -0.01042116 -0.14985889 0.09240235 0.27517733 -0.116951145 0.1844033 0.053849787 0.09203617 -0.1542266 0.0033614633 -0.07564443 0.007105329 -0.09416504 -0.16754736 0.0066988296 0.13408336 -0.006111757 0.05479786 -0.018354587 -0.23647544 0.05300051 -0.09174473 3.573388e-05 -0.044796795 -0.11061758 -0.08820582 -0.21450333 -0.17273459 0.002227265 -0.01293905 -0.048042327 -0.086942844 0.12024478 -0.18226135 -0.13386211 0.26219586 -0.005283768 0.061804686 -0.13673413 -0.07858024 -0.062058832 -0.060484592 0.061394162 0.050341208 -0.055618323 -0.16542187 -0.15483387 -0.2319568 0.33248755 0.16463394 0.2428513 -0.063123584 0.15206814 -0.14254496 0.15791127 -0.01995446 -0.11360631 -0.19889845 0.08572284 0.057127267 0.055174228 0.061204527 -0.03740539 -0.13975087 0.125694 -0.05302551 -0.027816057 -0.014418527 -0.06457895 -0.0010670895 -0.086281456 0.13208456 -0.071220204 -0.10340335 0.019668095 -0.13472527 -0.08259183 -0.043260124 -0.05678352 0.091878004 0.13365118 -0.20251612 0.0076785213 -0.029233048 0.015201121 -0.044037532 -0.002366224 0.025637748 0.21876277 -0.32456443 0.096147075 -0.10736228 -0.2277108 -0.026849892 0.17271227 0.029036107 -0.16466346 -0.1541315 0.028963251 0.18629521 -0.10989268 -0.094484426 0.07778606 -0.10612562 -0.1715347 -0.12899753 -0.10481005 -0.17177975 -0.17440026 0.1599176 0.024373928 0.09735173 -0.08733783 -0.19358918 0.07965331 -0.06863719 -0.10912984 -0.030270346 -0.06441197 -0.013447861 -0.043263398 -0.13269325 -0.038298603 -0.02951236 0.16822597
804 -0.1746507 -0.12546502 0.05056788 -0.06284061 -0.14097115 -0.032688893 0.16441838 -0.07143707 0.1730051 0.071807794 0.2440968 -0.24442972 0.03218558 0.0024907065 -0.09632367 -0.2036498 -0.15882502 0.007129705 0.06229452 0.01958101 0.033639647 -0.04872591 -0.11965718 -0.02407169 0.17189486 0.04218508 -0.08336749 -0.118837975 -0.044916384 0.084429845 0.070703104 -0.14096445 -0.036032725 0.032680206 0.018090682 0.015300951 -0.018794337 -0.047298823 0.14690804 -0.01897301 0.09219633 0.049954835 -0.10706355 -0.10278415 -0.024510067 0.04501281 0.04149627 0.025263319 -0.123817064 -0.11571977 0.033139236 0.20440692 0.116774514 0.009042454 -0.08221302 -0.014173009 -0.15986316 0.023227008 0.044943683 -0.069461875 -0.013248167 -0.08282007 0.09388155 -0.052744128 0.088490486 -0.20115723 0.009905656 0.13131522 -0.14322145 0.069784574 0.012450912 0.04512873 -0.15585601 -0.14423709 0.06844104 0.007911045 0.012914351 -0.15387875 -0.1388881 -0.10700547 -0.07692937 -0.24077286 0.18504068 0.03191275 -0.168112 0.033434585 0.05372247 0.088862196 0.08006124 -0.006265853 -0.13082087 0.028853677 -0.11209045 0.024092019 0.015270964 0.05554517 -0.033683803 0.15831576 0.0064982814 0.035145156 -0.031506 0.08030509 0.090524375 -0.12987022 -0.039275993 0.1274359 0.033930194 -0.15240842 -0.081930615 -0.102975875 -0.10471337 -0.087752 0.002998025 -0.07074616 -0.0734934 0.14646062 -0.20567949 0.0064038415 -0.06414205 -0.16020423 0.03209902 -0.021463765 -0.05287072 -0.14672782 0.018873587 0.004877781 0.026061742 0.10240794
