832 128
346 0.1408414 -0.10733828 0.1728292 -0.06751446 -0.13343498 -0.058950614 -0.1357116 0.01608377 -0.051795408 -0.015696611 -0.004004523 -0.005549382 0.07712576 0.03891971 0.06017136 0.07411521 0.11212156 0.14965928 0.059616644 0.057989802 0.031744193 -0.16535422 -0.029460754 0.049218256 -0.058168013 -0.1007237 -0.20751484 0.024934987 0.14955613 0.08901121 -0.050054576 0.121957704 -0.11848736 0.23522551 -0.05685636 -0.082495145 0.0143120885 -0.10857871 0.12613186 0.047254603 -0.024088854 0.13835768 -0.01925167 0.07910616 -0.15651415 -0.009299034 -0.12823196 0.03945008 -0.052281477 0.09132567 -0.19593889 -0.021915046 -0.029010853 -0.2774173 0.13595298 -0.13179216 -0.08308483 -0.04114641 0.0058921855 -0.06293837 -0.041509077 -0.08724906 0.06712898 0.3024917 0.14509782 -0.052618876 0.11741754 -0.09674374 0.089482665 -0.024735667 -0.16553847 0.08598031 -0.08484611 -0.15900871 0.09510443 -0.09892037 0.075969614 -0.07563459 0.059396856 -0.01641368 0.035516426 -0.1065111 -0.13677336 0.15329544 0.016192652 -0.1545972 0.059637226 0.021232123 -0.29719424 0.043871034 -0.0092437025 0.09394446 -0.053092908 0.11665962 -0.039065037 -0.103677936 0.069858015 0.063778855 -0.07386853 0.17501551 0.008883173 0.09693158 0.16854295 -0.019803565 0.10529074 -0.053426016 -0.185433 0.16597396 0.045599394 0.046069063 -0.20059691 0.13157822 -0.062717356 -0.034865625 0.025964564 0.087080866 -0.0034376746 -0.00020210845 -0.19766898 -0.13018945 0.099230565 -0.059919946 -0.26508194 0.06537644 0.0033496246 0.037814755 0.039341304 -0.14497168
365 0.15896429 -0.11965011 0.09889702 -0.055792406 -0.14149137 -0.06362701 -0.13563439 -0.10928688 -0.10303198 -0.004838993 -0.034945738 -0.043809585 0.11024181 -0.024750164 0.055268563 0.06939737 0.12352483 0.16872808 0.034371115 -0.032544427 0.002454933 -0.14619195 -0.050402578 0.027011096 -0.041416634 -0.07530528 -0.22246395 0.018648176 0.14839743 0.12032099 -0.018007975 0.13416521 -0.11169952 0.29223475 -0.05117583 -0.070464976 -0.0361796 -0.11101219 0.13317123 0.07856141 -0.028008277 0.19196646 -0.13006873 0.06813857 -0.18163332 0.045798384 -0.15661937 0.045581866 -0.084009856 0.09526732 -0.21449454 0.024392195 -0.03581433 -0.38776767 0.1405545 -0.13150153 -0.04173676 -0.043936405 0.0556554 -0.070002034 -0.052330106 -0.10255868 0.090853356 0.23059012 0.18084735 -0.06436094 0.16910647 -0.14488278 0.06783784 -0.08708803 -0.20411263 0.06890048 -0.10647425 -0.1682315 0.062070556 -0.0963528 0.15311465 -0.10961929 0.0959548 -0.01693453 0.051184542 -0.13415582 -0.21851346 0.13788986 0.06161724 -0.04071594 0.06593467 0.13101414 -0.26077142 0.08911927 0.00786164 0.06257931 -0.031284686 0.18271786 -0.0031565172 -0.029291162 0.03852366 0.041249342 -0.07254019 0.10698963 0.0031544396 0.06767378 0.12591521 0.060900927 0.054037113 -0.075924195 -0.14771962 0.060726017 0.098793454 0.11983459 -0.18293579 0.17738652 -0.03573547 -0.05090004 0.01868931 0.097838745 0.069149144 -0.0056335456 -0.1623498 -0.112381846 0.110267125 -0.010015067 -0.28971377 0.11101224 -0.02622484 0.029795732 0.09120811 -0.13682257
823 0.09696038 -0.12721911 0.10234565 -0.15069664 -0.028958337 -0.07583123 -0.19594507 -0.17448352 -0.06161094 0.03250941 -0.07823964 0.0044349297 0.2084957 -0.043855805 0.010913645 0.10083759 0.016039293 0.08920133 0.06363513 0.05336101 -0.1265229 -0.02691756 -0.03031189 0.03209796 -0.15945572 0.027057007 -0.3214716 0.12323937 0.3255527 0.14711666 0.12451441 0.2446479 -0.23308775 0.16399123 0.026304878 -0.0018118187 -0.033632614 -0.13969967 0.22312619 0.071344346 0.07990417 0.12489484 -0.15342073 0.17830074 -0.28714016 -0.13791354 -0.2256982 0.0853672 -0.045654375 0.15725468 -0.20377268 0.1745143 -0.012340141 -0.32015073 0.07792293 -0.14814514 -0.123275734 -0.0080553545 0.06937922 0.060187634 -0.024444148 -0.056277324 0.041487556 0.11416566 0.17307569 -0.13861914 0.10744432 -0.15172407 0.10579273 -0.072097674 -0.34580764 0.13329567 -0.08263803 -0.32032713 0.09257233 -0.15862767 0.16342257 0.018379046 0.018853279 -0.022230947 -0.02208359 -0.17355165 -0.26870298 0.14241588 0.12187807 0.008001581 0.055935554 0.15549149 -0.37401417 0.13151386 0.07538816 0.039750755 -0.07068026 0.2309769 -0.019921137 0.011737961 -0.13156706 0.04958125 -0.1542953 0.25273457 -0.06450387 0.117047936 0.09931478 0.116299234 -0.06878066 -0.1076234 -0.28420046 -0.042102393 0.09854826 0.043605544 -0.31162605 0.26512983 0.011279716 0.02924872 0.028900042 -0.06055756 0.12905034 -0.12267681 -0.1680888 -0.23261571 -0.07290188 0.020562429 -0.30331963 0.1497308 0.01481138 0.17126541 0.08394417 -0.1424279
367 0.0977805 -0.07705267 0.14663579 -0.067269936 -0.07682744 -0.013518267 -0.13594022 -0.059493314 -0.029226825 -0.0017069732 -0.04300291 0.037386388 0.11166901 -0.024085639 0.0251121 0.0932709 0.106319904 0.095112406 0.034691468 0.03448619 -0.03222754 -0.082758024 -0.04676531 0.01240041 -0.08076699 -0.042259954 -0.25657418 0.049776286 0.240533 0.114499405 -0.030930765 0.16546921 -0.14652362 0.19622937 -0.05151552 -0.037835553 -0.013646806 -0.13043538 0.16901514 0.03664802 -0.011752559 0.16975597 -0.10109846 0.07526956 -0.19910353 -0.015051714 -0.12743184 0.07300719 -0.06062792 0.12639737 -0.16358908 0.077670455 -0.01816996 -0.32336232 0.11428994 -0.11946456 -0.08657864 -0.012229513 0.066020295 -0.03253829 -0.05300104 -0.07641986 0.061944712 0.14989522 0.16094637 -0.07148308 0.15116525 -0.06319481 0.11684439 -0.082621664 -0.24706234 0.06369492 -0.114794366 -0.18601419 0.07281593 -0.12834129 0.10625667 -0.04590759 0.05212323 -0.017996758 -0.021232992 -0.09963697 -0.22258945 0.14957918 0.08564077 -0.058255967 0.097401425 0.07374672 -0.27268618 0.09892335 0.023029437 0.092883356 -0.043333348 0.12921412 -0.042571206 -0.023280587 -0.052789733 0.05083068 -0.10141807 0.18696956 -0.0011626555 0.090360604 0.09588255 0.026318317 0.051700294 -0.09861679 -0.22705586 0.081951775 0.04827585 0.039919537 -0.18400717 0.15337043 -0.05485553 -0.02659693 0.014716218 0.039872307 0.030572077 -0.040407304 -0.18530972 -0.15432817 0.041766576 -0.03142031 -0.25000274 0.08685608 -0.021390472 0.06719454 0.051122364 -0.10701774
357 0.13496426 -0.07704462 0.14629468 -0.07242706 -0.11407467 0.012553991 -0.111592926 -0.029036744 -0.022244215 -0.038376756 -0.02680892 -0.007968245 0.10923538 -0.033508226 0.04361443 0.13398738 0.10069503 0.11050022 0.077246666 0.06893173 -0.005800142 -0.14029714 -0.07095092 0.004400647 -0.08220922 -0.07978197 -0.24924783 0.05878827 0.2085683 0.09399003 -0.04143067 0.15497814 -0.13327844 0.22852997 -0.044633564 -0.059871797 -0.00567844 -0.10825852 0.12316994 0.0142406225 -0.038041845 0.12182158 -0.07593334 0.08192088 -0.2029462 0.022534905 -0.14576842 0.022442982 -0.04705353 0.10501104 -0.20033586 0.0444296 0.012366698 -0.3428141 0.09719417 -0.09940038 -0.088697985 -0.034759782 0.07152521 -0.04359739 -0.03130706 -0.09822957 0.102197886 0.21665904 0.10892663 -0.06631451 0.043212853 -0.069328345 0.066731356 -0.06914637 -0.19798867 0.046880607 -0.11915473 -0.10353689 0.039275672 -0.10085303 0.059709318 -0.028522417 0.036338426 -0.01073818 0.025673466 -0.1113421 -0.19275747 0.13283482 0.061809063 -0.10999161 0.08059878 0.062365595 -0.29412976 0.030682988 0.055834435 0.09561765 -0.050268136 0.105253264 -0.07415412 -0.0712207 0.006715111 0.08142112 -0.07495798 0.20075327 0.011080177 0.06227733 0.15440375 0.02660809 0.057191934 -0.021212228 -0.18766993 0.13862588 0.0404723 0.03442709 -0.1712894 0.10542436 -0.077591956 -0.027995873 0.04199709 0.08242146 0.010253631 0.004585754 -0.17545357 -0.112730265 0.077859454 -0.067201786 -0.28130242 0.076443955 -0.044871707 0.10039661 0.016921274 -0.103535816
829 0.09363248 -0.038171444 0.08462033 -0.118955694 -0.06271931 -0.065567814 -0.086194895 -0.12328457 0.0075832373 0.012120794 -0.034410246 0.011030029 0.14247796 -0.04384453 0.050670188 0.061180115 0.06321552 0.049949013 -0.008323345 0.023253113 -0.018523958 -0.12678589 -0.039775956 0.03300884 -0.057986077 -0.045445006 -0.22374423 0.056860644 0.12032137 0.106053054 -0.10309897 0.17960899 -0.0760765 0.14956115 -0.015400122 -0.041054063 0.0028096691 -0.09638759 0.084282406 0.017419238 0.008060227 0.17046717 -0.027034732 0.112096116 -0.09361358 -0.025161246 -0.18992132 0.05494272 -0.05176641 0.08221391 -0.15399036 0.005014253 -0.0015980479 -0.25679892 0.10960076 -0.07706616 -0.041957155 0.002356286 -0.007292372 -0.11096028 -0.005975229 -0.046320748 0.09077599 0.12517653 0.1747911 -0.059517387 0.08189766 -0.15615232 0.1171656 -0.095380016 -0.14116417 0.014759535 -0.13035531 -0.17708872 0.063981876 -0.10704037 0.028725136 -0.08675361 0.054439753 -0.020823358 0.015277787 -0.09110027 -0.2018365 0.11733423 -0.0029006035 -0.07482428 0.10047998 0.116642065 -0.24509099 0.03670179 0.02074992 0.066472284 -0.008392332 0.12339383 -0.024861747 -0.05266248 0.006862536 0.018319366 -0.062399507 0.19590308 -0.031489406 0.109767735 0.16862655 0.030377306 0.043895192 -0.027478134 -0.18692344 0.13504902 -0.015175793 0.02616537 -0.23793148 0.14896628 -0.050736953 -0.036940522 0.0023871406 0.08611247 0.01244696 0.036422208 -0.12122974 -0.12216837 0.09754559 -0.0040888377 -0.24371423 0.13669008 0.0065466017 0.053132243 0.025379548 -0.0551569
769 0.14381866 -0.030026803 0.23683085 -0.09985472 -0.070174605 -0.01056572 -0.12165431 -0.0003063108 0.055442207 0.026876235 0.0030771762 0.032638922 0.13627852 -0.06630923 0.055546977 0.08313944 0.07892461 0.050895438 0.100657925 0.18098831 0.016939556 -0.11016013 -0.049704175 0.008841355 -0.11497224 -0.02223552 -0.22785603 0.03238076 0.27190194 0.12824185 -0.0013021142 0.18216228 -0.10161931 0.13880262 -0.02025648 -0.045534104 -0.00056833215 -0.091706604 0.14574638 0.06525107 -0.03682341 0.12053857 -0.0681935 0.085996285 -0.15575859 -0.1154573 -0.11004153 0.043585464 -0.04243113 0.061271463 -0.13087304 0.13445193 -0.01356592 -0.2024795 0.1603338 -0.099437125 -0.13649255 -0.014004806 -0.0042007486 0.0069967136 -0.053895883 -0.027496915 0.1281364 0.16994064 0.14194141 -0.07658372 0.04979783 -0.14094912 0.1754953 -0.04043495 -0.2808643 -0.05691753 -0.097574785 -0.12030951 0.06374082 -0.19448633 0.017517898 -0.10717793 -0.03585871 0.018146064 -0.02807852 -0.10857421 -0.24826187 0.17883486 0.07475556 -0.058682047 0.11568863 -0.036067855 -0.32035843 0.042582784 0.014181262 0.1412959 -0.07973152 0.15092993 -0.06260245 -0.049401507 -0.19114661 0.03824983 -0.050674282 0.28963298 -0.027967248 0.06482126 -0.004830027 0.037574083 -0.010896861 -0.040735316 -0.24428685 0.14486127 -0.039876744 -0.0449842 -0.2511812 0.13113455 -0.07638604 -0.01155923 -0.008805428 0.04329499 0.06090253 -0.05560127 -0.14702523 -0.15664837 0.005740904 -0.026359329 -0.29740694 0.057698827 -0.057592493 0.080711305 -0.016598286 -0.05360223
828 0.099569574 -0.09258784 0.01873899 -0.107778534 -0.061957307 0.0047679152 -0.06361787 -0.15776815 -0.013552161 0.043870177 -0.063474834 -0.033342343 0.1802418 -0.12039188 0.045139033 0.101721406 0.09960322 0.05679697 -0.0046474505 -0.008762396 -0.052006677 -0.053177256 -0.12778702 0.0005627251 -0.060510483 0.00036782512 -0.25659147 0.088188134 0.21271944 0.1194995 -0.07751198 0.21029094 -0.0736684 0.11542832 -0.07289325 0.017197521 0.011701869 -0.06553385 0.090949856 -0.071837716 -0.04154332 0.120244294 -0.1372003 0.053007223 -0.11333684 0.05985824 -0.21475263 0.0930828 -0.049803577 0.055350404 -0.12046253 0.09541679 -0.010448773 -0.37941882 0.112953626 -0.0069289147 -0.04128657 0.015393574 0.05973813 -0.08330406 -0.029739147 -0.025498869 0.07046256 0.033316962 0.13379727 -0.06880852 0.11437279 -0.12728041 0.08722718 -0.13017131 -0.1978339 0.06899253 -0.11386963 -0.14857616 -0.01648466 -0.1328645 0.051493924 -0.06342155 -0.0023710697 -0.002490953 0.009769156 -0.09310581 -0.21168433 0.10326317 0.09573799 0.036816947 0.09342067 0.18334033 -0.20739621 0.06798072 0.06547547 0.096942395 0.005995567 0.10289962 -0.076806106 0.042344987 -0.036706075 0.012866999 -0.035907604 0.19956669 -0.07173511 0.09798566 0.11792212 0.09495187 -0.018063907 -0.03570868 -0.21278769 0.10202582 -0.017552014 0.02343741 -0.19388126 0.13904113 -0.05601861 -0.06535791 0.04280229 0.1382018 0.064498946 0.008027596 -0.10844609 -0.15375601 0.09780297 -0.008919457 -0.1829098 0.10203061 -0.0009994478 0.10949532 -0.02084281 -0.028628776
289 0.14458157 -0.105742425 0.09162218 0.062107977 -0.15690875 0.015281196 -0.20013238 -0.06314265 -0.14322971 -0.052202515 -0.0707865 -0.03936883 0.09855257 -0.08006185 0.017673649 0.17727856 0.19766416 0.1882958 0.16536196 0.0302395 0.059369564 -0.18114379 -0.104944915 -0.0013347212 -0.08150448 -0.09957836 -0.22123158 0.06650505 0.2769602 0.18081234 -0.09371036 0.12895681 -0.15068041 0.28840557 -0.05819228 -0.12592943 -0.023695616 -0.07654106 0.12019105 0.056253005 -0.026954575 0.10099215 -0.14452513 -0.008068661 -0.32525265 0.123706326 -0.1499087 0.01535409 -0.11204549 0.20855418 -0.12146411 -0.024735738 -0.019825552 -0.41856447 0.11498876 -0.06331357 -0.03726283 0.012818542 0.11062561 0.003182069 -0.10294316 -0.14799595 0.122534215 0.25268325 0.090136185 -0.02934999 0.18772234 0.049404524 0.030140001 -0.13942364 -0.24665649 0.09312687 -0.093009576 -0.079728745 -0.007607613 -0.023634704 0.16052714 0.014474638 0.12940198 -0.050275642 0.043515176 -0.140496 -0.1610103 0.118005544 0.09226465 -0.04272193 0.14085943 0.08304511 -0.23010448 0.13973981 -0.0616518 0.06514363 -0.08489145 0.109812446 -0.04147186 -0.024767775 0.060761232 0.08555078 -0.2022309 0.16040799 0.03849337 0.035053935 0.15858218 -0.07233043 0.15791494 -0.07233766 -0.20734932 0.10883947 0.034689367 0.11230841 -0.08585973 0.05394351 -0.121160425 -0.046336398 0.04695328 0.014135573 -0.013150844 -0.05575546 -0.19357285 -0.06744476 0.12051926 -0.06904801 -0.23210731 0.119739465 -0.03488359 0.030501239 0.051301084 -0.13775149
243 0.14586128 -0.13180445 0.13153426 0.15650637 -0.14557876 -0.006961386 -0.25689983 -0.05667884 -0.16308339 -0.11361788 -0.036268447 -0.11586627 0.10169708 -0.08968073 0.018422863 0.24251184 0.2102553 0.23972411 0.1862661 0.011168075 0.12319472 -0.24589641 -0.16174005 0.04655952 -0.029312741 -0.1421277 -0.20676418 -0.0090963645 0.3959429 0.24580972 -0.056179553 0.052408274 -0.19935457 0.3640626 -0.023895564 -0.19567811 -0.036089506 -0.077808134 0.09436918 0.07038903 -0.076629415 0.097855516 -0.22219224 -0.025275338 -0.41431922 0.13052991 -0.06458412 -0.07576467 -0.09038891 0.28274763 -0.13424703 -0.038825072 0.04431619 -0.4677575 0.1043648 -0.03770872 -0.0017937516 -0.0037792025 0.1094327 0.041702364 -0.1521356 -0.18811415 0.17982453 0.33403838 0.088028386 0.0022498043 0.24698783 0.04883898 -2.7037231e-05 -0.24604683 -0.303447 0.0949812 -0.037165765 -0.0023418288 -0.008357251 -0.028564 0.18902174 0.067605205 0.10464621 0.01758112 0.07477718 -0.1776043 -0.06610459 0.05280936 0.05768456 -0.06024455 0.15325093 0.08689859 -0.2590161 0.13474818 -0.14778775 0.04193143 -0.14602107 0.07816469 0.041118555 -0.072030604 0.025453785 0.17500167 -0.23781481 0.101730876 0.0805492 0.01047121 0.17300525 -0.12541702 0.29356754 -0.07161362 -0.1951763 0.12220704 0.08959229 0.12759046 -0.0788218 0.105827495 -0.12850612 -0.058737203 -0.0024497048 0.04468374 -0.0722707 -0.055050664 -0.21673329 -0.029336145 0.051968973 0.040107097 -0.08955909 0.013924112 -0.07939061 -0.041417934 0.119357735 -0.17566805
742 0.13832714 -0.112432845 0.110249996 -0.07213274 -0.10800082 -0.023049127 -0.13149597 -0.049083047 -0.05985058 -0.016089767 0.002199924 -0.027739855 0.03921948 -0.047137737 0.07994705 0.065179974 0.20023683 0.096291594 0.08583266 0.040189907 0.12271948 -0.14267007 -0.06649888 0.023759054 -0.091292575 -0.09427598 -0.18733713 0.049870163 0.16376019 0.111674845 -0.13514304 0.12086164 -0.03743433 0.1694366 -0.06556183 -0.09158528 0.020444443 -0.079649106 0.08001318 0.016332392 -0.028861161 0.08889618 -0.001797105 0.073172666 -0.15096286 0.08031187 -0.18074015 0.0347919 -0.066477425 0.07890844 -0.09745567 -0.014821718 -0.037080813 -0.30761808 0.033272784 0.011851998 -0.065257266 -0.005836251 0.04849666 -0.104808316 -0.030482797 0.004260218 0.12291477 0.1203555 0.15311746 -0.09796486 0.15471013 -0.030524267 0.054684885 -0.13780367 -0.16099066 0.023144707 -0.123116925 -0.110112146 0.01394351 -0.03803835 0.07520818 -0.049815282 0.04746466 -0.024277803 0.019057961 -0.1008658 -0.16023228 0.034666322 0.09866593 -0.07867957 0.090464264 0.1035065 -0.18580599 0.028359344 0.0036080405 0.032186 -0.025710981 0.044220608 -0.014636465 -0.013316187 0.078119576 0.04393778 -0.08990177 0.18119071 -0.025396878 0.09516391 0.19142835 -0.05277213 0.14956032 -0.014475103 -0.2119425 0.15731736 -0.023432905 0.020320132 -0.14996596 0.089140855 -0.04682168 -0.05137452 0.019811735 0.061005272 -0.014346629 0.07757528 -0.098178595 -0.100839294 0.117433205 -0.047026683 -0.15721141 0.03581687 -0.0036347313 0.032714546 0.0035035622 -0.09011205
765 0.16165116 -0.13712823 0.16760235 -0.18118091 0.016118543 -0.039613627 -0.13768056 -0.14062014 0.05912977 0.0055728685 -0.07612981 0.0034108714 0.2465121 -0.02207348 0.033486504 0.1231075 0.035838258 0.06520109 0.022063842 0.10473575 -0.11902999 -0.03367198 -0.052535266 -0.019708904 -0.18934079 0.048170134 -0.34533137 0.049506288 0.30906928 0.12312919 0.21326156 0.28370148 -0.2550592 0.1084574 0.03239046 0.017423552 -0.020872736 -0.12958284 0.24959137 0.038283084 -0.0044316025 0.18501148 -0.16320096 0.21216814 -0.19380274 -0.24997555 -0.15197957 0.11618201 0.019951113 0.12942773 -0.29127514 0.24405017 0.042324718 -0.29666966 0.07603774 -0.23036277 -0.11951592 -0.08789235 0.015430605 0.029928025 -0.009712444 -0.008381531 0.1131313 0.099017255 0.20330088 -0.14896701 -0.0062754243 -0.27166203 0.15641153 -0.042780355 -0.3821996 0.023720149 -0.10737846 -0.27318627 0.15255266 -0.25316748 0.08542809 -0.02573338 -0.0757263 0.08658012 -0.05621095 -0.1366392 -0.31533507 0.17255871 0.07967112 -0.015750395 0.033973496 0.081766136 -0.4267617 0.08900196 0.13647348 0.098875016 -0.048936907 0.23082058 -0.024042098 -0.061039146 -0.24189246 0.029900301 -0.058564626 0.25738734 -0.052257936 0.12284262 0.06201355 0.22955196 -0.12443597 -0.06748452 -0.26314956 -0.06616788 0.1438822 -0.078432314 -0.37226987 0.28630984 0.027514245 0.02193163 0.008449026 0.033557467 0.101847716 -0.08975971 -0.16484307 -0.26480648 -0.15666561 0.021664163 -0.31593117 0.050045304 -0.03706708 0.19268778 0.06120792 -0.10784746
813 0.1873293 -0.12869298 0.16123146 -0.07027408 -0.17943065 0.011051699 -0.10266415 -0.0013495529 -0.03909603 -0.025480727 -0.041686766 0.028040802 0.074123666 -0.049510553 0.12016693 0.11164287 0.21444918 0.15913987 0.117317006 0.1258309 0.10182954 -0.20871755 -0.043388344 0.029403154 -0.13388303 -0.09784112 -0.2372785 0.05018379 0.14857191 0.07976709 -0.055278506 0.16347541 -0.068412825 0.22667149 -0.06385193 -0.12899752 -0.010012021 -0.1271973 0.15529057 0.08598459 -0.017700262 0.1585372 -0.062929824 0.047630385 -0.15812086 0.020235514 -0.13754117 0.052678987 -0.106227934 0.047812097 -0.21694101 0.05704594 -0.075104415 -0.32728815 0.11991274 -0.10168037 -0.17566632 -0.039358024 0.056820784 -0.07602392 -0.07440209 -0.06710701 0.14032286 0.24661408 0.15603808 -0.12452978 0.093289606 -0.06378285 0.111726776 -0.056746185 -0.21713561 -0.030597776 -0.15899095 -0.11635547 0.05452299 -0.10588947 0.110727645 -0.1226436 0.07831656 -0.017807912 0.06062923 -0.15378802 -0.29033515 0.15767649 0.104559 -0.08295033 0.07678411 0.050503198 -0.26154792 0.08102477 0.0852257 0.13125727 -0.04458835 0.14167392 -0.087448105 -0.0556977 0.020392444 0.0364942 -0.09141957 0.22151165 0.034082193 0.07456032 0.050924327 -0.0023739145 -0.011932667 -0.0397425 -0.19251446 0.13948941 -0.03907761 0.009246793 -0.14878914 0.04541158 -0.022529494 0.0015105123 0.049867485 0.0832122 0.064591005 0.065037705 -0.12947914 -0.07481244 0.09416059 -0.101675846 -0.32486126 0.09138679 -0.038532235 0.08376877 -0.036027472 -0.10638838
824 0.11180824 -0.07852515 0.1578458 -0.1400234 -0.049693484 -0.0051307147 -0.111696646 -0.1359628 0.031817954 0.018814325 -0.05148418 0.02035528 0.1834979 -0.073697716 0.052338712 0.12940189 0.063595146 0.053536274 0.010714305 0.0765174 -0.08793405 -0.067606665 -0.0739581 -0.021804145 -0.14051901 -0.010246733 -0.29567578 0.04681968 0.26678684 0.14436798 0.056004208 0.23329975 -0.16143435 0.13776562 -0.005917315 0.01935098 -0.021942275 -0.12443667 0.19150977 0.024683192 -0.0014414702 0.18294944 -0.1461144 0.111042984 -0.17872846 -0.09997009 -0.1622057 0.10076672 -0.03218893 0.100259416 -0.19954292 0.17291842 0.010153083 -0.33060864 0.11452408 -0.12867919 -0.12020395 -0.0371969 0.035849463 -0.01733503 -0.035756677 -0.036772527 0.11043704 0.06691769 0.17462012 -0.1103351 0.026671013 -0.16453278 0.15133259 -0.084687114 -0.3098932 -0.008928215 -0.1446372 -0.19346887 0.06699942 -0.1732447 0.06820038 -0.050517924 -0.015407149 0.021894937 -0.029708678 -0.12701088 -0.30689955 0.15636331 0.08850532 0.0065092077 0.08424415 0.10415788 -0.33576453 0.06957465 0.11985656 0.120539136 -0.041589785 0.18741892 -0.05064098 -0.008620049 -0.17171322 0.02913997 -0.042982776 0.23460206 -0.0408896 0.07433785 0.03570936 0.118957356 -0.07539346 -0.04661021 -0.22281767 0.029295098 0.0333803 -0.0029759833 -0.25541952 0.17670007 -0.04998473 -0.019840654 0.035948213 0.05260415 0.08170569 -0.03905599 -0.11104369 -0.16688259 -0.032242782 -0.025083857 -0.30402106 0.09887445 -0.04640887 0.13631184 0.02353946 -0.0640462
406 0.20752239 -0.033687174 0.15091231 -0.022345599 -0.104788266 0.06947212 -0.054587618 0.087863564 -0.0066941907 -0.0019392362 -0.062369052 0.020945227 0.056276668 -0.074758634 0.07139032 0.03348237 0.23076412 0.082225904 0.17645319 0.17610735 0.16405773 -0.12262928 -0.12630074 -0.02583249 -0.07960867 -0.056199417 -0.19556405 0.04222788 0.22102788 0.06660026 -0.18951057 0.17905203 0.06696015 0.16401811 -0.10934627 -0.073950775 0.0096261045 -0.041101433 0.07511441 -0.02928509 -0.17043237 0.13640702 -0.020859342 0.029533839 -0.078577556 0.053387713 -0.06428749 0.13989186 -0.1006818 0.020308763 -0.029973911 0.045570575 -0.10544756 -0.28563258 0.15699318 -0.041222457 -0.05105764 -0.025753366 0.0554806 -0.10109279 -0.1094113 0.019458877 0.13297984 0.073301576 0.16421182 -0.10124856 0.14076485 -0.022205196 0.16601853 -0.0850591 -0.25836146 -0.12337377 -0.13533701 0.008271449 0.03626781 -0.12687705 0.05622714 -0.21807055 0.011994035 -0.059980936 -0.05048184 -0.035582278 -0.2691503 0.21555315 0.16400273 -0.017320015 0.15911503 -0.0893784 -0.080143385 0.060151458 -0.06030156 0.07781464 0.010642293 0.05699985 -0.12469768 0.006846807 -0.12147617 -0.08268871 -0.07025165 0.2539739 0.0220665 0.07924004 0.05460664 0.063071884 0.01460105 -0.02705608 -0.25689498 0.14973387 -0.030831907 -0.03819355 -0.13785417 -0.00045072538 -0.014639143 -0.072377115 -0.03603141 0.078039 0.0606332 0.023200663 -0.16377074 -0.10794264 0.19585994 -0.07876014 -0.25471124 0.051902562 -0.07498787 0.09256083 -0.100019634 0.00884505
767 0.11140462 -0.058340028 0.10068017 -0.058631677 -0.035819627 -0.038963784 -0.047219668 -0.08692734 -0.02100824 -0.011624367 -0.07875432 0.026193904 0.19337161 -0.08834962 0.068030156 0.101811275 0.027203284 0.06477052 -0.00078179967 0.055699095 -0.045837484 -0.07574582 -0.0782116 0.043969527 -0.08900096 -0.004896779 -0.2709346 0.050617076 0.20971441 0.12450656 -0.035791855 0.22672403 -0.12855773 0.15434358 -0.03547588 -0.062030602 -0.0130979875 -0.12292414 0.12736382 -0.010677825 -0.0342821 0.21749417 -0.09676783 0.0684418 -0.1541242 -0.09514635 -0.12962124 0.07498011 -0.05524614 0.09698792 -0.18215527 0.08949342 -0.04831122 -0.30098978 0.16202685 -0.14847352 -0.0814678 -0.034790166 0.04769486 -0.053574 -0.037669938 -0.09515789 0.07767947 0.14359523 0.16850261 -0.063199796 0.060875833 -0.17337203 0.16688173 -0.033276305 -0.2549393 0.0032021664 -0.09235979 -0.16740616 0.082280815 -0.15540025 0.047786783 -0.09537699 0.022259165 -0.011360098 0.004574945 -0.12468468 -0.26563233 0.22001688 0.0358381 -0.034934442 0.11743828 0.053190827 -0.2833489 0.10926196 0.07050504 0.115451366 -0.03241608 0.1659576 -0.06527164 -0.036073267 -0.074274115 -0.019420967 -0.037793804 0.22515514 -0.029902799 0.06678199 0.06506904 0.10781144 -0.08121731 -0.04955389 -0.22321312 0.07944792 0.0030977887 0.009843566 -0.24914289 0.15886629 -0.059547916 -0.05348628 -0.004740918 0.08668259 0.06376784 -0.020435799 -0.1698473 -0.12008899 0.0794165 0.024347767 -0.30725068 0.16689362 -0.0025032798 0.11295449 0.015443285 -0.061987344
680 0.2445583 -0.09193501 0.13191578 -0.0073952847 -0.09313009 -0.02260929 -0.15218884 0.07159992 -0.07019819 -0.04910461 -0.07357427 0.03553214 0.019763574 -0.07959393 0.13171574 0.008601847 0.28874457 0.10297659 0.14248651 0.12865831 0.19540323 -0.16695708 -0.07542556 0.06736198 -0.11667966 -0.06542532 -0.20886277 0.072951816 0.08696503 0.10462651 -0.13753654 0.22039853 0.030030936 0.12715521 -0.05858134 -0.1702909 0.022463579 -0.086218834 0.09422378 0.049824063 -0.10590606 0.1885852 -0.0015871271 0.09159773 -0.10022709 -0.04588876 -0.09651255 0.16046934 -0.122468896 0.09627548 -0.09534663 -0.036773764 -0.1579301 -0.23385654 0.11909133 -0.09709511 -0.046946317 -0.024097318 0.048773065 -0.10495044 -0.09273613 0.048797738 0.15436979 0.13012932 0.21631956 -0.15910468 0.16111644 -0.08854455 0.13090545 -0.078114875 -0.24371165 -0.11277509 -0.09445643 -0.13446525 0.14654228 -0.104396336 0.13307472 -0.17421928 0.06833675 -0.04449633 -0.056894805 -0.023939967 -0.27690363 0.17279142 0.11987053 -0.000467215 0.09599951 -0.05229736 -0.10220256 0.1126212 -0.07915497 0.021946533 -0.006158827 0.111187786 -0.011847774 0.023231953 -0.009549773 -0.13543016 -0.0973181 0.17893957 -0.0035868736 0.11622229 0.11218487 0.057359308 0.08973516 -0.09434906 -0.28749657 0.0350926 -0.014781693 -0.008041703 -0.22008346 0.08986783 0.06043499 -0.06712687 -0.06857687 0.008186915 0.037931938 0.060286727 -0.15432657 -0.09460961 0.1778009 0.011686132 -0.23405895 0.11584383 -0.0077167517 0.059237216 0.009665261 -0.07348801
288 0.14656897 -0.106313504 0.1901365 0.07103847 -0.16113812 -0.016241128 -0.11917279 -0.06257166 -0.099901706 -0.09131197 -0.012878422 -0.073891886 0.145099 -0.06525866 0.06824858 0.20287037 0.18275139 0.22553767 0.09338855 0.029366797 0.080378816 -0.28881732 -0.12271022 0.012407424 -0.026160074 -0.15858564 -0.1734078 -0.042512093 0.25339317 0.19503991 -0.08800087 0.053130966 -0.14124092 0.3320161 -0.06757904 -0.15280995 -0.029481506 -0.057050023 0.094505005 0.04881573 -0.06861092 0.12732169 -0.12589 -0.042890154 -0.289909 0.09223775 -0.08198639 -0.050139893 -0.07153979 0.1694304 -0.17907432 -0.043925837 0.03330122 -0.41412804 0.15015434 -0.088941336 -0.08008838 -0.031552732 0.037581827 -0.02757056 -0.10934858 -0.20295012 0.16646385 0.36471224 0.053354006 0.013880003 0.11966878 -0.010586537 0.07217243 -0.107524246 -0.20046335 0.040798005 -0.08675318 0.036777157 -0.0225118 -0.07753656 0.0538651 -0.047207292 0.11451574 0.012578977 0.1381679 -0.18746306 -0.09236522 0.12690113 0.00037265953 -0.119292535 0.17373356 0.02889593 -0.31248125 0.058797862 -0.06814035 0.12690803 -0.10369282 0.08098796 -0.053515084 -0.14083956 0.071480446 0.14676785 -0.13133495 0.11990943 0.08383008 -0.0045862687 0.14182732 -0.13421999 0.15001884 -0.0220015 -0.15063341 0.22854821 0.0071282056 0.085858524 -0.10867327 0.052526813 -0.15584925 -0.055870682 0.057361536 0.1489645 -0.058475405 0.005833065 -0.19619824 0.010454672 0.08892225 -0.014684108 -0.21894537 0.04580173 -0.04718035 -0.04386949 0.058275998 -0.13168716
803 0.119711116 -0.15775251 0.04045517 -0.09098801 -0.040863037 -0.031594034 -0.109080106 -0.14753848 -0.056478847 -0.027540721 -0.0929802 0.004264266 0.20729235 -0.04453214 0.044394616 0.09407415 0.10163567 0.1269979 0.022731557 0.0016251592 -0.062071465 -0.07990122 -0.084806405 0.0039122975 -0.13605338 -0.0067339274 -0.3010169 0.07502039 0.20874172 0.13312167 0.04413956 0.25485578 -0.19312878 0.16018297 -0.025540048 -0.02888051 -0.010846142 -0.1298846 0.17518218 -0.007301657 0.01552409 0.13166556 -0.12990934 0.11346033 -0.19132046 -0.061743803 -0.21983704 0.12267631 -0.038642786 0.13707903 -0.22803363 0.104392745 -0.046070952 -0.3840218 0.08551797 -0.15693961 -0.09697601 -0.031744428 0.05411088 -0.051874768 -0.043635722 -0.029740313 0.064427115 0.12926199 0.15124822 -0.11995281 0.070329994 -0.13962525 0.10352491 -0.06778543 -0.27753022 0.10043991 -0.10685844 -0.2171198 0.09184542 -0.13439132 0.094218716 -0.008569075 0.043650955 -0.01622341 0.005453787 -0.12145506 -0.25142983 0.15912747 0.06465167 -0.012750182 0.06399027 0.1581811 -0.29633585 0.12079241 0.10521237 0.08042567 -0.02139174 0.18489522 -0.048030008 -0.035134636 -0.026764678 0.006178489 -0.10427434 0.19973433 -0.047346517 0.111724205 0.14689793 0.0886979 -0.038120132 -0.073489554 -0.24195081 0.024372656 0.080366805 0.001316868 -0.23553112 0.1840836 -0.0068184575 -0.011106942 0.043402683 0.051035963 0.079918124 -0.032383487 -0.17617372 -0.16378438 0.04884205 -0.025765358 -0.30565766 0.13319874 0.03168568 0.15057556 0.039893925 -0.15034951
746 0.15763451 -0.0019827676 0.18054362 -0.08297545 -0.11499865 0.0018783247 -0.09001799 0.05479879 0.029288113 0.036615737 -0.020807285 0.020330263 0.04463557 -0.10730335 0.07580352 0.062796794 0.14363798 0.031386077 0.10669981 0.17410764 0.08083877 -0.094649464 -0.07762574 0.053217437 -0.08414329 -0.033261936 -0.23463997 0.066796675 0.21965995 0.089842506 -0.115758784 0.15563169 -0.010809601 0.14352758 -0.048872516 -0.05851563 -0.0058110533 -0.063197196 0.08735549 0.014998254 -0.10441318 0.12400906 -0.04502662 0.052447557 -0.10911502 -0.025504129 -0.0830027 0.059955083 -0.08045236 -0.0035583246 -0.0689209 0.096705474 -0.08141172 -0.22052258 0.16599831 0.009421834 -0.09156871 0.030173974 0.064222455 -0.03261502 -0.07602218 -0.0017981895 0.1080022 0.09296827 0.19568275 -0.106397636 0.15217614 -0.08251828 0.15165107 -0.07560791 -0.2365355 -0.06758503 -0.10367562 -0.08410839 0.03697483 -0.15978399 0.07012289 -0.18704565 -0.030036105 -0.03009978 -0.045302916 -0.076544814 -0.27160624 0.17590487 0.15855876 -0.023791786 0.13028184 -0.03520397 -0.18961087 0.037213475 -0.022754649 0.08348772 -0.04569807 0.10357745 -0.09323136 0.04841482 -0.13673729 -0.022909684 -0.026499987 0.2692111 -0.02946617 0.0809961 -0.019112812 0.07502536 0.010541721 -0.06621469 -0.24888387 0.15537536 -0.08083447 -0.012110492 -0.19699447 0.079206534 -0.032360885 -0.03702601 -0.017991621 0.02832571 0.06392966 -0.0029661502 -0.13207272 -0.1301634 0.10973675 0.0015148931 -0.22898918 0.09961497 -0.061143607 0.09092829 -0.06913315 -0.020139704
270 0.18485788 -0.1116638 0.14560533 0.18382214 -0.1304799 -0.018151991 -0.18193415 0.0076816054 -0.12932831 -0.10078739 -0.012312078 -0.08195767 0.08662774 -0.11056968 0.09566497 0.16521303 0.24463488 0.20019047 0.14650817 0.029802551 0.20210774 -0.24142501 -0.16686417 0.062565275 -0.01755368 -0.121595174 -0.17861032 -0.05890229 0.2859154 0.24674521 -0.091227286 0.104430534 -0.10647687 0.26974204 -0.036895152 -0.22876531 -0.032943223 -0.08313259 0.05156829 0.066302426 -0.15201232 0.17581663 -0.1718537 -0.046772055 -0.2922648 0.051912144 -0.01288979 -0.0073540267 -0.10898664 0.20805618 -0.122707926 -0.050530836 -0.021163708 -0.35953557 0.14644152 -0.08280775 -0.0026763366 -0.03834441 0.059699148 -0.013259711 -0.14517932 -0.100584425 0.21584679 0.28119808 0.15046892 0.0087667955 0.23474379 -0.023490183 0.08421945 -0.18718858 -0.29453096 -0.028802864 -0.015186265 0.01479642 0.033704817 -0.07532626 0.12409529 -0.03308749 0.077448875 0.015271796 0.025966028 -0.11335565 -0.11458402 0.0990469 0.04905593 -0.04233525 0.15763344 -0.018857613 -0.1961793 0.15034685 -0.15208149 0.08495377 -0.087683275 0.0788268 0.049852483 -0.06644112 -0.014867925 0.04081852 -0.15349162 0.1119636 0.061575923 0.022807492 0.096184626 -0.0744711 0.2516593 -0.08080656 -0.19964425 0.14214583 0.028093522 0.042737678 -0.115947545 0.090408 -0.10508165 -0.10074463 -0.07397509 0.08244069 -0.047304288 -0.005447868 -0.1990784 -0.028537272 0.10875122 0.08080229 -0.11073856 0.024421744 -0.07898646 -0.05754819 0.085823804 -0.1412688
745 0.17554718 -0.034006607 0.18250215 -0.10012644 -0.19217782 0.00975584 -0.1718723 0.04525981 -0.00160802 -0.0029183202 -0.016855499 0.09826917 -0.08478974 -0.1128991 0.16875188 0.057003453 0.2823287 -0.016935725 0.11465647 0.17100416 0.19918865 -0.16280527 -0.05182059 0.046959862 -0.17504512 -0.08497668 -0.20645362 0.09285181 0.1061973 0.08206985 -0.1761082 0.1449417 0.03156842 0.10688115 -0.020362064 -0.1487132 -0.020833889 -0.14430681 0.07732743 0.060923744 -0.023369575 0.13627927 0.034232285 0.07697945 -0.068274215 0.027603319 -0.15993983 0.08314427 -0.1261975 0.005975312 -0.079502426 0.0014868856 -0.12386034 -0.22624035 0.06513176 0.04208472 -0.12300758 0.007815236 0.09534732 -0.15899165 -0.08244902 0.09134934 0.18711779 0.023624297 0.23930505 -0.15294291 0.1781279 -0.023344897 0.085665055 -0.11835386 -0.20142885 -0.11927817 -0.14629821 -0.10133628 0.039101724 -0.039966542 0.10760752 -0.15209836 0.057556372 -0.052103177 -0.035232455 -0.028071746 -0.34215152 0.06449284 0.1880164 -0.0363278 0.09162565 0.029236166 -0.12708451 0.03431875 0.043940008 0.019011326 -0.0053281966 0.08252858 -0.02350987 0.10120708 -0.021035522 -0.046628077 -0.047679715 0.23953387 -0.035966936 0.11611302 0.059455324 -0.025079751 0.0970935 -0.06945935 -0.2570202 0.12705421 -0.109140724 -0.016173003 -0.14590698 0.004383324 0.009733828 -0.029480007 -0.037409842 -0.034806386 0.026950615 0.12063801 -0.038711425 -0.072932206 0.106644064 -0.08478394 -0.1902296 0.0956905 -0.05313333 0.0772218 -0.060961656 -0.04888178
339 0.12638892 -0.0075730463 0.2029599 -0.048462033 -0.11193546 0.0682052 -0.049442347 0.010180665 0.026784029 -0.023879344 -0.06445404 0.06320004 0.11789246 -0.06290206 0.044183575 0.12594622 0.09944825 0.098734275 0.020636488 0.1196104 -0.026239505 -0.14054431 -0.08052573 0.013782199 -0.049519368 -0.08312125 -0.24874689 0.009276391 0.21246411 0.10674554 -0.10881188 0.16374964 -0.0723709 0.2159901 -0.09080559 -0.06879312 -0.0016628411 -0.12553076 0.16228135 0.012985122 -0.09792153 0.24380718 -0.10234492 0.01246944 -0.14256856 0.0032977099 -0.035707362 0.074889995 -0.085327655 0.09417729 -0.15558787 0.06081185 -0.04143893 -0.31762433 0.20665103 -0.176815 -0.11536807 -0.0393695 0.051967226 -0.065141834 -0.094918676 -0.17517136 0.10299168 0.16921376 0.1164604 -0.054513663 0.031723354 -0.08906367 0.17064947 -0.04043669 -0.2479627 -0.05460316 -0.19573288 -0.06943626 0.05833866 -0.15028347 0.026436618 -0.13912608 0.041956443 -0.05325673 -0.015897902 -0.095004946 -0.273279 0.26503727 0.047854267 -0.08202229 0.1519383 -0.05005615 -0.24083577 0.06638811 0.054302614 0.18048324 -0.036229175 0.1273937 -0.1262133 -0.06896816 -0.095053986 0.0062107006 -0.042076014 0.22211781 0.044729415 0.008548122 0.041975502 0.051097482 -0.037706096 -0.026010057 -0.20933624 0.14941604 0.00016451924 0.022765618 -0.15961966 0.066042095 -0.120522365 -0.048482206 -0.0037549601 0.11462041 -0.0043654735 -0.010999197 -0.19614808 -0.068487234 0.1278121 -0.065911 -0.32518807 0.107381865 -0.07609939 0.05155709 -0.038634215 -0.05506896
350 0.13131204 0.055561125 0.24420735 -0.04867662 -0.15332505 -0.0010764641 -0.09478368 -0.0118530365 0.007492384 0.04285186 -0.013618577 0.029936282 0.07024922 -0.06689409 0.07314081 0.089769304 0.120959125 0.06220336 0.04051759 0.10446604 0.04174009 -0.13552015 -0.050451532 0.01884845 0.012445782 -0.07321288 -0.15998527 -0.017149517 0.15748256 0.122726806 -0.17394565 0.12040387 0.041332126 0.21665613 -0.06974029 -0.07422681 -0.020556713 -0.120271325 0.08122025 0.08172405 -0.09063861 0.29532614 -0.08663293 0.008166068 -0.10378236 0.05660976 -0.021779964 0.058887813 -0.130297 0.04124967 -0.09407661 0.021802757 -0.052149042 -0.25149915 0.26358292 -0.08892784 -0.05395721 -0.0064120037 0.0046740426 -0.09417493 -0.087363794 -0.08878524 0.1571033 0.15567529 0.22552052 -0.06452452 0.15616328 -0.115498506 0.19422556 -0.11920412 -0.22650035 -0.13459453 -0.13898858 -0.070272066 0.04733529 -0.11713663 0.042416908 -0.22930925 0.03570826 -0.03619291 -0.033562794 -0.075557716 -0.2546113 0.18634164 0.04514189 -0.010321597 0.15199065 -0.017904723 -0.1593768 0.05559946 -0.050801292 0.15606983 -0.018989056 0.10063323 -0.051086884 -0.003668498 -0.12459448 -0.037025373 -0.008157497 0.19099627 0.038386445 0.04409263 -0.021541135 0.028173221 0.029269557 -0.038203605 -0.18678324 0.16460484 -0.051623315 0.05817256 -0.15297835 0.07954206 -0.10197154 -0.08937318 -0.07832915 0.09864354 0.033476703 0.020921627 -0.10917987 -0.058774464 0.15620103 0.0009690944 -0.29382402 0.11173361 -0.12419666 -0.018059988 -0.00881025 0.0037404282
395 0.12080705 -0.059697386 0.19626497 -0.050080225 -0.1282954 -0.024975229 -0.11322214 0.025969924 -0.0145305265 -0.06818466 0.016809752 0.01656743 0.04097391 0.019525696 0.07312895 0.088861085 0.104807526 0.08341037 0.019525412 0.040088754 0.026792165 -0.16683637 -0.064262286 0.04573162 -0.048286587 -0.12340899 -0.23211265 -0.003042657 0.13370639 0.09338283 -0.094649404 0.10737362 -0.12214383 0.26694733 -0.042503703 -0.0989965 0.0006546825 -0.13288943 0.08810246 0.0071346234 -0.046756674 0.18754964 -0.0052040303 0.06290079 -0.14647886 0.014753036 -0.12512611 -0.012677663 -0.0065845847 0.10501984 -0.20235264 -0.04545304 0.0108843185 -0.2957849 0.11659231 -0.12368323 -0.056523517 -0.02859259 0.025569316 -0.13401534 -0.031821772 -0.09698882 0.11234557 0.27979723 0.14277007 -0.023265071 0.070805795 -0.08194125 0.062470168 -0.052097596 -0.14098139 0.042864066 -0.09558248 -0.10231637 0.071317114 -0.07450192 0.005756536 -0.06015463 0.05887461 -0.019114606 0.033424325 -0.061286677 -0.14342323 0.13264431 -0.02582003 -0.17199671 0.08675518 0.013869745 -0.27495122 0.0041875597 0.010039232 0.09808618 -0.040702134 0.10365814 -0.014162985 -0.12421117 0.03972364 0.054365605 -0.038377132 0.16927285 0.013088474 0.064411506 0.18800831 -0.011692665 0.1479944 -0.04772081 -0.13442758 0.17897879 0.030565245 0.032533422 -0.15794337 0.09649302 -0.10478833 -0.052183144 -2.4325462e-05 0.110088654 -0.04150468 0.026627254 -0.19312206 -0.09250594 0.08049803 -0.051188495 -0.22831759 0.033033136 -0.03439638 0.021020172 0.06574722 -0.13195458
816 0.16230558 -0.041125268 0.21229911 -0.08871585 -0.10261974 -0.026181377 -0.13424997 0.02743278 -0.004301771 0.07951352 0.034677383 -0.008929748 0.08921805 -0.039468393 0.049654376 0.020957237 0.13181022 0.07417356 0.1501572 0.1711209 0.08933674 -0.061004058 -0.0019513705 0.05051977 -0.06617509 -0.024276076 -0.16833715 0.06025067 0.2596112 0.086978175 -0.081630684 0.14968261 0.0039219027 0.15804863 -0.06554584 -0.056368284 0.03306263 -0.06786187 0.14233819 0.08799673 -0.028722838 0.122642405 -0.018292725 0.06467382 -0.118159235 -0.023202227 -0.09003043 0.04607623 -0.11679426 0.0390333 -0.054618962 0.082713254 -0.064353116 -0.18300983 0.21519668 -0.04691684 -0.07726882 -0.0028165262 -0.002298651 0.013147502 -0.04882478 0.0071932105 0.119884014 0.19120209 0.20921542 -0.06695193 0.17261323 -0.11198793 0.15428855 -0.052383162 -0.21818346 -0.037426658 -0.055669308 -0.14648876 0.042473294 -0.12624678 0.079386555 -0.1447233 -0.020186016 0.002331549 -0.043410707 -0.10175248 -0.17582889 0.1493147 0.12385634 -0.012559862 0.094537124 -0.053252783 -0.20731045 0.08842157 -0.08576726 0.09539779 -0.05229033 0.1100278 -0.070122406 0.008358174 -0.14051805 -0.007085466 -0.06390936 0.30960876 -0.0526176 0.12663838 -0.013055262 0.011309206 0.0438686 -0.04905749 -0.26732722 0.16902423 -0.060443826 0.029540742 -0.2261775 0.15836464 -0.05930235 -0.03581489 -0.0274119 0.024770528 0.0717083 -0.054570757 -0.123403125 -0.18786906 0.11315378 -0.016566416 -0.28034672 0.10836327 -0.05167672 0.049464647 -0.035492435 -0.03950501
347 0.11278384 -0.017447438 0.21718083 -0.06617635 -0.13667358 0.030610742 -0.09539666 0.036400683 -0.029964792 0.01768595 0.0023318776 0.050944716 0.07405585 0.006519602 0.022343526 0.09502358 0.1350889 0.13136348 0.06759943 0.08234649 0.020718979 -0.111938074 -0.057337817 0.009331978 -0.0124436235 -0.101841666 -0.20350145 0.020671932 0.22728102 0.07206751 -0.16077612 0.13581292 -0.05587233 0.23491018 -0.120808445 -0.03462211 0.04766536 -0.11488081 0.16342995 0.01051212 -0.06308435 0.19827908 -0.04084219 -0.013963317 -0.17480445 0.09219248 -0.043100577 0.05548918 -0.11588545 0.09297652 -0.11805544 -0.027878664 -0.07105331 -0.30331817 0.20633614 -0.12419625 -0.112511225 -0.0052388213 0.051830173 -0.055925097 -0.097043835 -0.13907523 0.039756406 0.25062317 0.120535806 -0.019770745 0.13202728 -0.006154649 0.14499371 -0.037890654 -0.1922181 0.052387483 -0.13403906 -0.090399705 0.05023592 -0.10012451 0.045779567 -0.124890305 0.060590006 -0.060285743 -0.012741461 -0.09110573 -0.15127206 0.23134059 0.08657544 -0.09031268 0.13243248 -0.044248354 -0.20835805 0.07986068 -0.014059637 0.16201554 -0.04645839 0.047543082 -0.1301542 -0.053412817 -0.010529477 0.03989634 -0.093629286 0.20879441 0.04857009 0.056109514 0.082675405 -0.05190739 0.04487223 -0.06934749 -0.23712388 0.21585478 -0.019658329 0.08026895 -0.12552817 0.077100135 -0.12630706 -0.06413743 0.014634059 0.0975291 -0.028336216 -0.039181307 -0.22141132 -0.115136005 0.15599836 -0.09464089 -0.2862017 0.09485501 -0.027895132 0.02988846 -0.008561809 -0.08574852
638 -0.024240209 0.07665952 -0.017675187 -0.094136074 -0.028178422 -0.06936441 -0.045970622 -0.14464957 -0.012971373 0.03588605 -0.04821895 0.0013088963 0.17841898 -0.15809302 -0.0149075175 0.08796412 -0.04131241 -0.017061573 -0.02267819 -0.027723664 -0.113375686 -0.10811087 -0.12165154 0.086832605 -0.03343479 -0.009480838 -0.2165305 0.1785502 0.21609709 0.12494173 -0.25795028 0.12776774 -0.07363474 0.10063937 -0.052006867 -0.023723982 -0.021626258 0.006479444 -0.020732308 -0.11727803 0.00069608574 0.014295291 -0.0018586777 0.062006082 -0.17273894 0.046357423 -0.2501906 -0.020264987 -0.035433598 0.052891728 0.011982315 -0.012731191 0.059638087 -0.25444052 0.08803834 0.14440851 0.0137955155 0.136066 0.050919924 -0.073186666 0.005726478 -0.12925643 -0.03973397 0.024229039 0.041814648 0.0018020365 0.11934491 -0.014890289 0.06658767 -0.10027016 -0.04216565 0.12081813 -0.085455224 -0.0762358 -0.09154536 -0.12402765 -0.02775632 -0.07763865 0.06498529 -0.079452135 0.08991339 -0.09878496 -0.11498371 0.09309667 -0.023388565 -0.12163462 0.2414011 0.21369159 -0.23673496 -0.030904707 -0.04987912 0.003907021 -0.09044407 0.029741157 -0.12838145 0.011106981 0.09561387 0.11734857 -0.09626256 0.18008572 -0.05269443 0.08035641 0.24396001 -0.08539757 0.06032157 -0.046211325 -0.2130889 0.3152713 -0.18843651 0.09410245 -0.25380602 0.07441162 -0.15219513 -0.04191011 0.049297974 0.088279955 -0.058482513 -0.015927527 -0.1996175 -0.04991438 0.19502173 0.10105711 -0.103106804 0.2311274 0.09349497 0.019089298 -0.02225085 0.020094633
679 0.20812507 -0.08739658 0.14814097 -0.086123824 -0.14246431 -0.07574004 -0.24638753 -0.017772032 -0.07237593 -0.02769157 -0.020807229 0.07845173 -0.031273477 -0.03593602 0.14027734 0.010092013 0.23682337 0.069352485 0.120701954 0.070240006 0.15538803 -0.18408132 -0.009430305 0.04206859 -0.15202178 -0.102720916 -0.21150821 0.064574346 0.038979057 0.16579449 -0.1257685 0.21064669 -0.03543296 0.12768568 0.015493589 -0.12872304 0.0022162895 -0.16355537 0.084443666 0.10241008 0.0303898 0.18948455 0.021669867 0.1354557 -0.1183331 -0.03638396 -0.22854406 0.1449732 -0.11325287 0.12356083 -0.1293307 -0.09403697 -0.13966063 -0.22288603 0.07296855 -0.09648755 -0.06731396 -0.02295136 0.03809203 -0.13289355 -0.03312939 0.06890367 0.16566195 0.14160208 0.2492898 -0.16247168 0.105056256 -0.082720995 0.079667225 -0.096400574 -0.20400941 -0.07069547 -0.097790256 -0.2015043 0.16165006 -0.01690698 0.1310661 -0.07340066 0.10834861 -0.0890017 -0.052229308 -0.029323936 -0.28195775 0.08245546 0.08730589 -0.061474983 0.049446754 0.04887042 -0.18305436 0.09532308 0.008633125 -0.0023035083 0.005813103 0.17008582 0.05021965 0.016828073 0.04873307 -0.06931055 -0.11221105 0.18342444 -0.023460576 0.12689596 0.17526333 -0.018632833 0.14696357 -0.09110776 -0.23078312 0.026896544 0.010143665 0.041648805 -0.22936325 0.103779145 0.025861701 -0.0686149 -0.06693976 -0.06967572 0.0382001 0.073022686 -0.09709128 -0.09986562 0.11312517 -0.07176774 -0.24248596 0.13649173 0.019266918 0.04015254 0.07672943 -0.11393845
752 0.16651396 -0.020756332 0.21954882 -0.09604322 -0.06042838 -0.06448505 -0.15966102 -0.062634856 0.028865209 0.025662934 -0.026073927 0.035579793 0.13641953 -0.03966225 0.051700838 0.07950641 0.07160665 0.040607553 0.06999819 0.12336886 -0.0127443345 -0.11812505 -0.03148897 0.022903642 -0.13174386 -0.021180175 -0.24003051 0.025174718 0.20895186 0.16036241 0.033244587 0.20848256 -0.13443086 0.14448771 0.037037037 -0.06513951 -0.016048873 -0.11555824 0.1437387 0.117789246 -0.020722205 0.2152822 -0.08348267 0.11020577 -0.15467484 -0.16364664 -0.120838106 0.103841275 -0.07179241 0.1224252 -0.17797974 0.07984777 -0.02944863 -0.20460081 0.18252209 -0.1855367 -0.111580335 -0.024179684 -0.0012218863 -0.000816576 -0.03666582 -0.029348155 0.14513288 0.18168695 0.22899687 -0.09001645 0.02901964 -0.22922516 0.17193258 -0.043392938 -0.2998415 -0.08219051 -0.06932073 -0.20567848 0.14391214 -0.17154148 0.06708769 -0.11906545 0.0077953665 0.020382022 -0.046437833 -0.0952534 -0.2746278 0.18571743 0.05889563 -0.025743552 0.08257291 0.015214643 -0.32059205 0.09729079 0.011298272 0.08026972 -0.07180884 0.20762573 -0.016936855 -0.039776653 -0.15560631 0.0003338294 -0.054914415 0.22766858 -0.019642856 0.10086777 0.026283687 0.08327517 -0.0346651 -0.07047867 -0.23183957 0.040951192 0.029618263 0.009120203 -0.3146844 0.1867516 -0.031264435 -0.03127645 -0.050385866 0.0032096521 0.08891882 -0.05773373 -0.13100658 -0.1589821 0.0027171355 0.017771944 -0.3460822 0.1298516 -0.05677 0.07887901 0.06675745 -0.05831802
504 0.32760817 -0.27862358 0.044857748 -0.20442998 -0.27250966 0.10355184 -0.07937603 0.22734657 -0.08384221 0.028985567 -0.012850698 0.054155234 -0.15561746 -0.117687404 0.20066883 -0.05018627 0.51557845 0.16916336 0.07134688 0.006913026 0.22069702 0.0013033827 -0.16206567 0.18209904 -0.09102012 -0.08643546 -0.4259263 0.14617431 0.06723419 -0.1433889 -0.23392572 0.19664025 0.13186945 0.19077705 -0.24876298 -0.087141216 0.18840991 -0.17864966 0.23686683 -0.21156408 -0.1457842 0.2189505 -0.039733175 -0.040907778 0.07384312 0.29944298 -0.054932028 0.16790976 -0.13286944 -0.099008396 -0.19151045 0.014817919 -0.36170143 -0.48670077 0.14735755 0.0053639067 -0.116667055 -0.011188305 0.23636755 -0.19818307 -0.1897874 0.03619958 0.012970373 0.12517141 0.22919317 -0.2112625 0.43275428 0.060368717 -0.039345987 -0.041744955 -0.07859012 0.2641097 -0.18297546 -0.19486143 0.066461414 -0.1416635 0.2846672 -0.24998301 -0.002915429 -0.08097775 -0.091021985 0.04172167 -0.24185541 0.20418203 0.4061325 0.050896175 -0.055411436 0.049837258 0.08104456 0.103179574 0.12619056 0.14352795 0.06677939 0.03830937 -0.18423529 0.28156096 0.12360488 -0.19448917 0.04797728 0.16695824 -0.046704005 0.12735479 -0.02241456 0.17953047 -0.031101849 -0.21704781 -0.37585282 0.10312659 -0.009965906 0.073517375 -0.064151116 0.12851486 0.15223083 0.010367724 0.007622964 0.16891366 0.055955634 0.16412906 -0.18726043 -0.24235103 0.31372917 -0.09566985 -0.08846421 0.018474126 0.0026370254 0.18611692 -0.15454923 -0.17675892
750 0.14037538 -0.09421445 0.19023195 -0.084528774 -0.021142576 -0.0051605967 -0.1534454 -0.0891977 0.019334543 0.016103266 -0.08070151 0.03592374 0.19649036 -0.05601025 0.03848612 0.13355274 0.09917164 0.0957027 0.07321825 0.13876681 -0.042422116 -0.08653632 -0.039033633 -0.017016998 -0.12409259 -0.0019436403 -0.29392457 0.03292798 0.31356183 0.17422459 0.095685475 0.27477163 -0.16356772 0.10815436 -0.0012636913 -0.02313261 -0.024885535 -0.14219521 0.22402082 0.09303273 -0.010546904 0.18782651 -0.17840782 0.15443592 -0.2187096 -0.1557357 -0.113069884 0.12864575 -0.06785343 0.13463412 -0.19573587 0.20179011 -0.02002691 -0.27410156 0.13326229 -0.19565523 -0.14518294 -0.04125327 0.017935842 0.036689937 -0.074064456 -0.01038784 0.12554309 0.091791056 0.16864747 -0.13429719 0.06698752 -0.17400452 0.1848663 -0.12019083 -0.39155027 -0.028784528 -0.14660051 -0.22456187 0.11765283 -0.20065023 0.120765954 -0.04898431 -0.009671531 0.017554622 -0.08446982 -0.13061297 -0.3013549 0.17981853 0.101346575 0.02757351 0.08119266 0.03737417 -0.33152127 0.13704434 0.059390415 0.14777094 -0.069529 0.20955887 -0.019397775 -0.02171169 -0.23460029 0.018158102 -0.123213135 0.27478775 -0.022763975 0.09162846 0.023176834 0.15056886 -0.040587377 -0.08653671 -0.28747723 -0.0016988445 0.058859542 -0.050853845 -0.26954928 0.20325038 -0.019308602 -0.012844545 -0.0031998295 0.008099111 0.1032575 -0.07680932 -0.15747954 -0.19931222 -0.051006407 -0.0012987866 -0.29173866 0.06949684 -0.05582879 0.12569508 0.02808544 -0.085181445
338 0.19110766 0.005851595 0.2299928 -0.025419408 -0.07380419 0.019629063 -0.021703105 0.068676576 0.0026330124 0.012103865 -0.061027892 0.04251815 0.14723957 -0.0021158806 0.072397634 0.009652745 0.13001592 0.11443156 0.1062263 0.19877236 0.10109732 -0.1716813 -0.055070966 0.00032704463 -0.025879556 -0.056945477 -0.17508383 -0.026298106 0.18047567 0.07534518 -0.15342614 0.2033289 0.04578439 0.20653692 -0.100336775 -0.082729995 0.009305604 -0.062734194 0.14629635 0.07200617 -0.13692528 0.27182162 0.0013626479 0.05642395 -0.08237118 -0.053114492 -0.00407287 0.13886839 -0.119228356 0.027246593 -0.115050256 0.03830081 -0.113874316 -0.22236525 0.2650471 -0.215856 -0.0721039 -0.042148843 -0.031334527 -0.093049526 -0.088523656 -0.08347933 0.14970419 0.22406724 0.16740803 -0.062471896 0.05676344 -0.13638277 0.26966888 -0.019341363 -0.23948726 -0.17356883 -0.12558979 -0.05190456 0.10167373 -0.17117466 0.018746035 -0.27909485 0.050043475 -0.059276074 -0.032607693 -0.07497924 -0.23841232 0.31870613 0.038179908 -0.044185102 0.17103581 -0.1556719 -0.16304053 0.09485561 -0.0889192 0.15285298 -0.0035077087 0.10640984 -0.12053525 -0.11087068 -0.16605783 -0.10843006 -0.06234801 0.26050672 0.049262077 0.09465552 0.0138395205 0.07480623 -0.06077098 -0.012571754 -0.24713203 0.16394061 -0.026315305 -0.024749685 -0.21282132 0.07464424 -0.041769728 -0.06375793 -0.061915644 0.10419649 0.07535419 -0.023298161 -0.18853892 -0.09172827 0.21393883 -0.034313075 -0.4311301 0.11799263 -0.099473774 0.0418124 -0.05635619 -0.0011038681
666 0.18310161 -0.086332865 0.15194367 -0.16425751 -0.16841426 0.02549495 -0.11949602 -0.010461693 -0.024842655 0.011574338 -0.024253866 0.053411115 0.016454943 -0.05384089 0.09526799 0.04385995 0.26059744 0.07555116 0.07068857 0.07355841 0.1047865 -0.106082395 -0.08657391 0.0051576737 -0.12462964 -0.06575012 -0.2376775 0.06571095 0.1635612 0.045853276 -0.14900582 0.16991176 0.00042512786 0.16143063 -0.06876552 -0.040785354 0.030062145 -0.10721027 0.13280635 -0.01534875 -0.04423809 0.15609011 -0.0041999663 0.04841987 -0.07403948 0.093146056 -0.14167798 0.10491402 -0.07310695 0.021051036 -0.12588608 0.007854648 -0.09594424 -0.31139344 0.09325214 -0.026632534 -0.11186659 -0.0071990057 0.077777885 -0.14374779 -0.08095649 0.0032542273 0.102720894 0.07547814 0.19133317 -0.12808417 0.16962567 -0.005181728 0.085757494 -0.07552151 -0.18115042 -0.0022286507 -0.14884228 -0.104683645 0.032070447 -0.0943997 0.09161386 -0.16141313 0.042039793 -0.05816446 -0.010861578 -0.052616026 -0.24919562 0.13310856 0.18125097 -0.040775184 0.098334126 0.061476495 -0.1396819 0.047414143 0.042529803 0.06838937 0.02463373 0.04258201 -0.09724023 0.054663356 0.010712521 -0.033105355 -0.06246446 0.19007076 0.013280068 0.10827292 0.07511106 0.00680812 0.005684088 -0.058836386 -0.23856594 0.13743512 -0.045496132 0.029648542 -0.12670803 0.043513276 -0.0041133645 -0.030563513 0.010128019 0.06513492 0.037825465 0.06625397 -0.10426006 -0.13906652 0.10626964 -0.10034186 -0.2107943 0.048812635 -0.036802754 0.08112461 -0.04525684 -0.04574814
611 0.012503613 0.09759712 -0.04260333 0.011315594 0.014858193 0.0145848235 -0.05962679 -0.08676673 -0.007422549 -0.040176563 -0.1552152 0.08171925 0.2687796 -0.16859628 -0.06835562 0.09433609 0.0085365595 -0.011972248 -0.018197747 -0.034493547 -0.13664237 -0.12872973 -0.22529611 0.04797206 0.002570318 0.023645122 -0.2642392 0.14723977 0.28141436 0.13239063 -0.31746042 0.21431725 -0.11385177 0.09390061 -0.07546121 -0.030254021 -0.015023197 -0.009235237 0.0046944735 -0.19162188 -0.09677345 0.09729118 -0.090354465 -0.048899524 -0.1716064 0.03971065 -0.16900238 0.11349935 -0.09051463 0.1800475 0.057393458 -0.11078114 -0.01349768 -0.32443994 0.1474069 -0.009348764 0.047706097 0.1197376 0.070925556 -0.10575096 -0.07405142 -0.21635735 -0.046462417 0.017581603 -0.0045573683 0.09180515 0.114449285 0.04007601 0.14044547 -0.07895765 -0.13509794 0.10868873 -0.10480875 -0.004897248 -0.040388852 -0.13318583 0.0038105121 -0.099188894 0.17633328 -0.1133197 0.029940002 -0.01744278 -0.12459618 0.23585373 -0.033409473 -0.07522712 0.29994628 0.13264956 -0.13862029 0.09561096 -0.108001254 0.033027526 -0.055894256 0.007261698 -0.19619764 -0.04920069 0.074608974 0.026477898 -0.1776704 0.1501754 0.037628725 0.0837948 0.24685656 -0.057189457 -0.002394552 -0.09202522 -0.24445558 0.2643105 -0.11189669 0.07869713 -0.18836148 0.010088288 -0.17831029 -0.057777938 0.015226514 0.11981873 -0.1094151 -0.10836927 -0.3322484 -0.028597942 0.28586128 0.051562816 -0.1408018 0.2756005 0.07863642 0.026847238 -0.060276214 0.06414913
784 0.17556556 -0.114366 0.15791298 -0.061785966 -0.057907376 -0.017232208 -0.123576984 -0.06188749 -0.018835759 -0.047812786 -0.07518835 0.012265995 0.1539143 -0.072677866 0.08930367 0.11988322 0.10051449 0.085420296 0.08188434 0.12639259 0.022929307 -0.1165704 -0.074400604 0.019645112 -0.16272092 -0.04104983 -0.2803381 0.043535747 0.2341406 0.15479232 0.033251066 0.22900584 -0.15735516 0.1800468 -0.008823383 -0.09231853 -0.021180188 -0.14511074 0.17286329 0.052426532 -0.024093557 0.19037941 -0.11218201 0.11408427 -0.22592716 -0.11997429 -0.14685068 0.0877379 -0.04004711 0.13131897 -0.20425865 0.11622797 -0.06005537 -0.30107236 0.09100746 -0.17167749 -0.13014565 -0.050795976 0.065309554 -0.02138732 -0.057246573 -0.043950304 0.15209326 0.15837474 0.18097731 -0.13784647 0.029904729 -0.14757691 0.14176746 -0.07640964 -0.34035367 -0.047468696 -0.12090169 -0.17467244 0.11905014 -0.14422674 0.08358314 -0.07704343 0.013872858 -0.0050336514 -0.01072375 -0.12957908 -0.32977268 0.18862632 0.091139406 -0.011818747 0.101400025 0.024807561 -0.31760123 0.09299711 0.09455311 0.09464859 -0.060605377 0.20712475 -0.03724079 -0.04290901 -0.13529126 -0.0137665365 -0.084943414 0.25229305 -0.013474687 0.06991439 0.05394078 0.119949825 -0.06280935 -0.0568512 -0.23655744 0.011117965 0.057324935 -0.02849958 -0.2579556 0.14868148 -0.003265981 -0.026194898 -0.0073449127 0.00651431 0.085129924 -0.024401532 -0.13813774 -0.1145411 -0.015712764 -0.011118783 -0.3124649 0.102388665 -0.03808318 0.13323069 0.030444074 -0.09707115
305 0.18222563 -0.1711286 0.13160262 0.18301132 -0.14064802 0.008175825 -0.1968052 -0.03745866 -0.185376 -0.13696276 -0.063669175 -0.10470405 0.14626993 -0.06845158 0.034139916 0.20163345 0.22107218 0.27577552 0.20486233 0.042099115 0.1341482 -0.25422058 -0.12469917 0.031939283 -0.05412846 -0.13825156 -0.19835743 -0.037827525 0.3552314 0.2193052 -0.0615126 0.09907153 -0.16053157 0.34532896 -0.05447657 -0.23461983 -0.02530017 -0.09756082 0.12550175 0.111630745 -0.074404284 0.14320667 -0.20231192 -0.011230531 -0.38194576 0.09554037 -0.056412656 -0.03304171 -0.10708836 0.28783417 -0.1644243 -0.019177461 0.007607676 -0.42791656 0.13086472 -0.11842307 -0.0475343 -0.04401634 0.067130424 0.016560031 -0.15355195 -0.18744895 0.18703954 0.37442598 0.08825664 -0.03456433 0.19324344 0.025501957 0.042655345 -0.20581666 -0.31242016 0.048765313 -0.08691328 -0.018077035 0.023159608 -0.05311941 0.18231381 0.02122064 0.12270481 -0.014760452 0.08262191 -0.19057746 -0.103506505 0.11765205 0.040098667 -0.065982826 0.16479878 0.03697263 -0.2557807 0.15937375 -0.115543865 0.09802021 -0.13943638 0.10634953 0.01724741 -0.13559557 0.021050885 0.12693876 -0.25095466 0.14102057 0.11429643 0.013480375 0.16796632 -0.11091816 0.22542983 -0.077079274 -0.18604007 0.14515796 0.05875603 0.07972395 -0.09621054 0.08574192 -0.11770707 -0.05440582 0.0072180103 0.06360002 -0.031421743 -0.058635164 -0.24032168 -0.010229172 0.085554935 0.012448207 -0.17727083 0.018847855 -0.05773802 -0.05393567 0.080806166 -0.17688218
374 0.08556702 -0.042156592 0.06557027 -0.047881033 -0.0904134 -0.042721484 -0.060867965 -0.07874107 -0.05290139 0.023192668 0.006700892 -0.088250004 0.11394925 -0.104161575 0.03378679 0.08947251 0.105333276 0.08342392 0.015974557 -0.031255953 0.019726805 -0.11019578 -0.1450971 0.056350555 0.012129937 -0.055471014 -0.19600493 0.06203101 0.21391322 0.105015896 -0.18287887 0.08968969 -0.05065064 0.20792404 -0.102699615 -0.06476586 0.018515438 -0.001620668 0.019980315 -0.08177518 -0.09275329 0.08407877 -0.06582396 -0.012200146 -0.13991004 0.12390781 -0.14486325 -0.026858488 -0.03462854 0.050775815 -0.06507408 -0.02001081 0.020491483 -0.35403192 0.12571426 0.083899505 0.027725229 0.044493843 0.056607194 -0.074312665 -0.045494817 -0.10024274 0.048160423 0.14790738 0.10328572 -0.003851531 0.197158 -0.041860513 0.03990098 -0.10640716 -0.08699585 0.10806642 -0.048291408 -0.03650066 -0.051023625 -0.101112545 0.009738075 -0.100557595 0.02090474 -0.0138700735 0.072776385 -0.1134145 -0.071521305 0.0877226 0.034546748 -0.058351018 0.15824062 0.12190864 -0.17410494 0.0077348067 -0.057057716 0.052578833 -0.057030864 0.0068130894 -0.075251885 0.001444796 0.08329379 0.07683594 -0.041452274 0.13220452 -0.024791185 0.056986418 0.16873962 -0.040808767 0.117733054 -0.030217545 -0.17299424 0.23251225 -0.06096235 0.09827345 -0.14670296 0.098194994 -0.11419135 -0.09020208 0.024640197 0.16645049 -0.041499853 0.028254846 -0.15511432 -0.08480188 0.14116865 0.05385437 -0.06761942 0.064850874 0.0066208034 -0.012071717 0.0040474734 -0.04434214
381 0.2319703 -0.054746415 0.2171853 -0.055943713 -0.1437132 0.057844155 0.0137856 0.11090714 0.010575896 0.0074251173 -0.07458035 0.07781455 0.078999974 -0.06807058 0.12138977 0.08478985 0.17499347 0.169085 0.12661152 0.22098091 0.119462624 -0.17407829 -0.065305494 0.0157401 -0.08374856 -0.08617369 -0.24637158 0.021246877 0.1391286 0.060887057 -0.121530704 0.20391046 0.019397747 0.20785768 -0.122275755 -0.09776499 0.00335774 -0.1094142 0.15816878 0.0520502 -0.13645762 0.24438153 -0.052736484 0.05399635 -0.09093838 -0.03000612 -0.012413542 0.11915915 -0.11996361 -0.030776668 -0.19484742 0.10038952 -0.17223999 -0.28858203 0.24395673 -0.16660438 -0.18825205 -0.052822016 0.044751674 -0.07059315 -0.13954563 -0.09514198 0.101958826 0.2283148 0.14511694 -0.13353811 0.07451256 -0.10125006 0.22083536 -0.015067144 -0.26132435 -0.13614745 -0.17749345 -0.051784217 0.09991753 -0.19332646 0.07086728 -0.2822036 0.0072904476 -0.06513805 -0.014904005 -0.12042066 -0.33527893 0.33984402 0.13360888 -0.05226556 0.11700777 -0.14501387 -0.18154442 0.0875092 0.041628752 0.20721106 -0.03059602 0.13778186 -0.16073687 -0.03161183 -0.12835358 -0.07365176 -0.038226847 0.27632657 0.042908125 0.025709743 -0.04040626 0.13531503 -0.13752167 -0.041566733 -0.2567805 0.14739405 -0.0624483 -0.042156085 -0.17301285 0.039395235 0.011749104 -0.044878446 0.013925407 0.11557772 0.12308792 0.028122965 -0.18340778 -0.08674466 0.18347862 -0.08847207 -0.40890706 0.10522819 -0.07928566 0.11841824 -0.0969069 -0.07196643
236 0.22666915 -0.23529382 0.057807278 0.2502929 -0.15774806 0.03476473 -0.2302607 -0.039179306 -0.22963335 -0.19107287 -0.10805446 -0.17007582 0.18190193 -0.12081115 0.028180731 0.24347995 0.25149584 0.3067581 0.21954224 -0.0065875435 0.15982851 -0.28357744 -0.19654797 0.059780516 -0.08036011 -0.12673572 -0.2338699 -0.025680587 0.37821248 0.25253445 -0.027449312 0.08585931 -0.20384534 0.37863922 -0.052339267 -0.29149273 -0.032463238 -0.08104256 0.083587006 0.0604112 -0.14100602 0.12184869 -0.26640642 -0.026194418 -0.43801478 0.11509183 -0.06337064 -0.05898804 -0.08116403 0.31763068 -0.18992564 -0.037294466 0.032503534 -0.49625438 0.09615302 -0.10715332 0.0005595739 -0.054195426 0.10387427 0.011837716 -0.16358472 -0.20907365 0.20868298 0.3824126 0.084043086 -0.017000388 0.20882146 0.014609902 -0.036987524 -0.2436693 -0.33648387 0.07918003 -0.048024617 0.026550986 0.013027514 -0.038241398 0.22990252 0.058364116 0.108034275 0.023806445 0.08783519 -0.18462996 -0.097566806 0.10039133 0.045012366 -0.050538085 0.14792104 0.07591699 -0.24400684 0.17521766 -0.14096428 0.043389417 -0.12521368 0.115575604 0.036896333 -0.12520833 0.049004406 0.12895 -0.26757327 0.09466389 0.13333617 0.0051014703 0.19189325 -0.057137385 0.26205593 -0.08466219 -0.1661418 0.07054436 0.13663895 0.0900885 -0.09462201 0.081807956 -0.11135834 -0.05070081 -0.019727243 0.07462666 -0.057256415 -0.037830364 -0.2668106 0.002641273 0.07567651 0.072616935 -0.094864465 -0.016509237 -0.07999345 -0.037507918 0.09179428 -0.22431554
366 0.078829736 -0.07497397 0.053885546 -0.052633632 -0.05106286 0.009169275 -0.13850151 -0.13719174 -0.054901317 0.0056219264 -0.0638601 -0.033921544 0.14076649 -0.00688661 -0.030531118 0.08841173 0.08444032 0.04430872 0.03215864 -0.031142438 -0.05387251 -0.053638726 -0.09821184 -0.046861675 -0.05250681 -0.040693898 -0.24722885 0.066900514 0.2531671 0.13338058 -0.08169396 0.17990835 -0.12351352 0.19517466 -0.047529407 0.022319375 0.0011648859 -0.09257746 0.09577858 -0.022044076 -0.046791308 0.12261947 -0.10753604 0.09894787 -0.19804765 0.07386859 -0.1951646 0.08886111 -0.03752601 0.15901634 -0.11017836 0.027622964 0.023489878 -0.3854206 0.06554879 -0.07220388 0.026086487 -0.0028801356 0.082867175 -0.09434567 -0.014091886 -0.044155486 0.0675436 0.045759674 0.16623381 -0.040028673 0.13759375 -0.04989708 0.059295807 -0.14770323 -0.23570277 0.095616445 -0.10772284 -0.15796363 0.04161591 -0.06002801 0.0765884 0.011735819 0.048412256 -0.01965948 -0.030146938 -0.07198558 -0.15988094 0.100692675 0.07141493 -0.02217063 0.13142729 0.13986023 -0.20801876 0.082544 -0.005735107 0.016141636 0.016827874 0.09243959 -0.028694145 -0.018308591 -0.013267961 0.04283513 -0.11961798 0.170751 -0.023250796 0.12700258 0.24647777 0.059935503 0.120374694 -0.030987939 -0.20471399 0.048724394 0.119959034 0.0657509 -0.15344611 0.13558573 -0.07663505 -0.066308446 0.0004948592 0.056978714 0.0010797987 -0.04770487 -0.16947626 -0.1725253 0.086665295 -0.049259234 -0.19559585 0.07931862 -0.0382929 0.07513337 0.046492238 -0.08314664
508 0.17545193 -0.112582386 0.11566891 -0.08240419 -0.11687501 0.06255046 -0.089801736 -0.018669372 -0.020709287 -0.0067583146 -0.040397905 -0.0011031544 0.06908251 -0.056514043 0.07116772 0.0854297 0.22785027 0.09450092 0.08433694 0.0624782 0.08198612 -0.10210258 -0.13572064 -0.025048906 -0.05152524 -0.07287128 -0.23268405 0.034003496 0.1951122 0.1047771 -0.12117667 0.18704909 -0.02362076 0.17026009 -0.08043209 -0.0140756555 0.012843471 -0.08594512 0.09122761 -0.04264206 -0.110905856 0.13701649 -0.08389686 0.038267482 -0.09179618 0.10298472 -0.13117458 0.124551676 -0.07393259 0.055618577 -0.09847771 0.0381359 -0.07834509 -0.3578397 0.116813086 -0.033100825 -0.06141119 -0.037894905 0.053281713 -0.11829527 -0.08432024 0.009706712 0.12532558 0.059237335 0.17625995 -0.0868893 0.14870414 -0.034925297 0.09352907 -0.13012967 -0.25188825 -0.019024294 -0.16148481 -0.065938644 0.02541717 -0.08683977 0.08575872 -0.11795907 0.025855241 -0.034785707 -0.025153324 -0.0629143 -0.24687867 0.13892457 0.14505653 -0.004553207 0.11953534 0.05391057 -0.1348133 0.07435658 0.042431116 0.089068376 0.023811476 0.06134024 -0.08209571 0.025975892 -0.030266337 -0.019077683 -0.06456333 0.21024984 0.0074270936 0.100251734 0.106032416 0.06982787 0.04910788 -0.028784385 -0.2122433 0.107047744 0.007953363 -0.0019744853 -0.11524919 0.053514674 -0.05487371 -0.067292415 0.010047497 0.121090055 0.053513084 0.033673763 -0.11747366 -0.14434166 0.13650478 -0.10273282 -0.1767876 0.01970974 -0.054390796 0.09639319 -0.08372039 -0.02597915
234 0.14992851 -0.046819404 0.18979032 -0.16422452 -0.06608633 -0.08635232 -0.146264 0.0421639 -0.009370007 -0.06581492 0.09407829 -0.05165562 -0.0027471164 -0.07896603 0.058791663 0.032409728 0.19034716 -0.034507476 -0.034169815 0.004053461 0.08503018 -0.10179092 -0.12760253 0.10064826 -0.15127496 -0.053365324 -0.25425935 0.05698894 0.18107031 0.022693481 -0.11278986 -0.017352771 -0.11619612 0.20813508 -0.02238665 -0.16761649 0.053848762 -0.04633684 0.018790925 -0.111628845 -0.07275741 0.04431885 0.10075589 -0.0004912403 -0.056482192 -0.013960358 -0.12320927 -0.11788104 0.10671356 0.07197607 -0.0943838 -0.10113899 0.09387858 -0.22856495 -0.016515873 0.056862 0.02118545 0.026822025 0.05339008 -0.13832553 -0.0067707784 -0.05065908 0.11043295 0.1739518 0.13818349 -0.018061152 0.120012075 -0.040093243 -0.056044374 0.031263027 -0.01212959 0.09818649 0.031210858 0.0023441901 0.038276408 -0.1596623 -0.08056799 -0.09045087 -0.012671024 0.044167873 0.104445234 -0.041954096 -0.07237153 0.012827848 0.048589114 -0.2761739 0.14357103 0.032429487 -0.250683 -0.1523809 -0.064545594 -0.053977 -0.071007125 -0.034598447 -0.04078014 -0.04420842 0.12842695 0.05306683 0.040730145 0.07302559 -0.0023920564 0.09614553 0.2043859 -0.13489933 0.1699364 -0.05968319 -0.15253422 0.27127197 -0.025558846 0.03952981 -0.23992872 0.07936858 -0.094176 -0.022187378 -0.037197564 0.11668255 -0.17342214 0.0878555 -0.17847419 -0.080539115 0.027879013 0.107778534 -0.049823545 -0.026287178 -0.012974142 -0.0734529 0.09636751 -0.08509868
686 0.25019065 -0.12854058 0.123727195 -0.04244855 -0.18353197 -0.040891327 -0.17734744 0.025028978 -0.109736964 -0.025071807 -0.0621971 0.03700652 -0.01206545 -0.079389825 0.17932546 0.02124205 0.29126748 0.13089952 0.19239667 0.14820358 0.2142531 -0.17503844 -0.025054019 0.084895074 -0.15055864 -0.102281824 -0.19852355 0.09203511 0.06532563 0.1146566 -0.16624735 0.2212723 0.048836008 0.15150048 -0.059330493 -0.15322113 -0.00094759295 -0.13353635 0.11686931 0.10271477 0.0023149059 0.18524706 -0.0008225979 0.099323824 -0.11019089 0.025779089 -0.18083856 0.14076571 -0.18047427 0.06749283 -0.106096365 -0.023484763 -0.20268019 -0.26441696 0.11107806 -0.05296956 -0.087219395 -0.044012252 0.07404782 -0.100268684 -0.059613973 0.06558931 0.15976508 0.12288454 0.24078496 -0.19021569 0.1678477 -0.051927123 0.1031304 -0.09691491 -0.21348715 -0.09303713 -0.12701614 -0.19267079 0.10327993 -0.03786738 0.18025751 -0.15991436 0.11311583 -0.106456585 -0.032272305 -0.081377886 -0.33700588 0.13749894 0.16058128 -0.0018779128 0.07367869 0.0118724415 -0.116063066 0.13292007 0.0044406108 0.010307269 0.0069437088 0.16434294 0.012955572 0.054505374 0.021346366 -0.1155257 -0.10718284 0.23851128 -0.023319557 0.11530855 0.08527221 0.02128295 0.074511096 -0.071270704 -0.24488306 0.04610584 -0.0518488 0.04994965 -0.19021271 0.06137037 0.059905265 -0.06150369 -0.029846814 -0.03173059 0.10819625 0.08273249 -0.07580962 -0.09983228 0.1844729 -0.08307035 -0.25177458 0.14044443 0.0042663906 0.08673586 -0.036765393 -0.08220169
462 0.2895516 -0.27486783 0.07668641 -0.24935077 -0.26686922 0.07333412 -0.13858092 0.08822457 -0.09467768 0.036432885 0.008255228 0.035472747 -0.12643667 -0.1138707 0.15506789 0.012065756 0.46655238 0.17363329 0.082555905 -0.015333225 0.18116426 0.011964032 -0.12761743 0.13281454 -0.09258295 -0.10321809 -0.3896317 0.1357761 0.09213999 -0.057085548 -0.18239748 0.18618608 0.060054287 0.20057242 -0.19941762 -0.055003583 0.16789721 -0.2044783 0.23346409 -0.14366429 -0.056529097 0.21302578 -0.069126934 -0.047516726 0.0076942286 0.29346597 -0.08353642 0.118860796 -0.13683943 -0.018343244 -0.18092373 -0.011500033 -0.27202934 -0.46414414 0.12645134 0.009694202 -0.11420521 -0.039536525 0.19530566 -0.14396092 -0.15578932 0.007699693 0.03072883 0.13636869 0.2282252 -0.19465247 0.35587096 0.037410147 -0.05080856 -0.07840111 -0.09012087 0.22188894 -0.1971343 -0.22409484 0.054722436 -0.07713074 0.2548451 -0.16110413 -0.012314654 -0.08801085 -0.07782339 -0.021502648 -0.24563797 0.13674422 0.37613967 0.03607042 -0.044081762 0.11283333 0.007185145 0.10061317 0.17994286 0.12853946 0.052738495 0.04932066 -0.13589282 0.26443526 0.11698305 -0.11292599 0.0041899486 0.14378044 -0.028860223 0.09168511 0.0061842096 0.11094814 -0.023159157 -0.16657698 -0.3060924 0.079704404 -0.003912733 0.12579864 -0.06893435 0.13750182 0.077548295 -0.009824398 0.022903807 0.1299322 0.05846128 0.14619674 -0.10651157 -0.22782338 0.21137683 -0.12471718 -0.07139629 0.012047394 0.0076270304 0.13027266 -0.0983394 -0.15089676
179 0.12668337 -0.038664088 0.0733116 -0.097919144 -0.02882118 0.011440371 -0.04596921 -0.061592225 0.022665363 0.02793723 0.012715131 -0.10217675 0.09347305 -0.083157025 0.047932573 0.014022867 0.1400437 -0.010461227 -0.0003733357 0.007255339 0.07467122 -0.07798191 -0.12002453 -0.009756891 -0.012331241 -0.020472595 -0.18559535 0.04938339 0.15420847 0.09800149 -0.19193159 0.14174686 0.030683469 0.12542607 -0.10898214 -0.04080831 0.05126653 -0.0014557157 0.006621121 -0.08029994 -0.14314544 0.11067184 -0.016437175 0.027498262 0.004612584 0.078630805 -0.17628264 0.05914873 -0.026884632 0.03275497 -0.019822413 -0.017413808 0.0143938 -0.29478917 0.08031789 0.048769087 0.0793989 -0.004202132 0.026334157 -0.15324351 0.003947512 0.03996431 0.13705784 0.017696718 0.19475013 -0.062345486 0.11485088 -0.14594316 0.09777881 -0.12538421 -0.13344562 -0.049616132 -0.09144772 -0.05498065 0.007303787 -0.11280112 -0.039594512 -0.14051059 -0.025897827 0.004497605 -0.016148318 -0.04264216 -0.16293494 0.06989336 0.054766256 -0.0402982 0.1480004 0.07827951 -0.11454102 -0.017923323 -0.030577905 0.02341699 0.028665245 0.005604063 -0.064900964 -0.001642853 0.011396266 -0.018691158 0.047372967 0.16175233 -0.057831816 0.1028195 0.17565061 0.02750322 0.10645512 0.04741932 -0.15939683 0.19327559 -0.0139945755 0.0118755195 -0.16447394 0.09966316 -0.08432963 -0.12889421 -0.012762563 0.17912805 -0.030184912 0.08102609 -0.086226165 -0.13776499 0.16090232 0.005790049 -0.109273255 0.029053107 -0.040186446 -0.00034248648 -0.028769862 0.023188824
345 0.097004764 -0.032576136 0.09448456 -0.08530081 -0.10452487 0.016434623 -0.049121838 -0.069837354 -0.0030456758 -0.02548833 -0.07274224 0.05922229 0.10739239 -0.13430218 0.07821798 0.12555833 0.14439456 0.07672452 0.015328287 0.0664593 0.020147271 -0.13725461 -0.08351474 0.05366597 -0.07771211 -0.06341759 -0.26126093 0.087243 0.16334389 0.09956369 -0.17860861 0.17153317 -0.033899788 0.13628602 -0.07620076 -0.08467886 -0.0052713673 -0.11968472 0.11722821 -0.01870938 -0.013984023 0.1993893 -0.0889585 0.026956825 -0.11793651 0.05044559 -0.1420171 0.06490891 -0.09826636 0.06215604 -0.1267564 0.04289486 -0.077433385 -0.32002872 0.14316027 -0.03752249 -0.12244031 0.008707873 0.072071336 -0.1035971 -0.08467594 -0.112060085 0.08300087 0.09644471 0.10831655 -0.09358772 0.10414496 -0.05885734 0.12441884 -0.092949264 -0.1795009 0.0028162566 -0.19698267 -0.11280347 0.013637078 -0.1137674 0.06930424 -0.11533667 0.06900578 -0.069183335 0.009880463 -0.1065055 -0.26964688 0.16681902 0.072407015 -0.05586227 0.13657784 0.0894921 -0.18594997 0.05633142 0.090603195 0.12851857 -0.03402126 0.10204156 -0.103233695 0.025679229 0.0025761388 0.00725427 -0.054986376 0.20342027 0.0036110037 0.034693092 0.07376424 0.0046152864 -0.05057953 -0.057856325 -0.22000593 0.16734825 -0.09282794 0.031766545 -0.16101936 0.06292674 -0.073779024 -0.038622268 0.025006618 0.09264676 0.0073767966 0.06403126 -0.115222044 -0.04276145 0.15049997 -0.032040577 -0.24841411 0.15321693 0.01038636 0.06557502 -0.061511554 -0.033742465
361 0.048619628 0.023413762 0.04337127 -0.039503828 -0.01207674 -0.055538073 -0.080258586 -0.03816889 -0.01052958 0.01757174 -0.03385984 -0.02998611 0.1463549 -0.09408691 -0.004445619 0.042879123 0.080777094 0.006652875 0.0002696986 -0.009641406 -0.011749999 -0.08598348 -0.115790375 0.088599585 0.0057854643 -0.0012737749 -0.21356015 0.101937704 0.20690931 0.06707699 -0.17942044 0.13814051 -0.056702644 0.15879044 -0.079974025 -0.068242304 0.00650036 -0.0018604611 0.030273901 -0.07905895 -0.08881859 0.115719564 -0.016930953 0.040337715 -0.1060642 0.02371302 -0.10761285 0.023347119 -0.062451288 0.061345372 -0.043760695 -0.04427755 0.014819916 -0.26541975 0.13667507 0.015264803 0.067949936 0.06771112 0.04480727 -0.07619926 -0.026066048 -0.07344543 0.04396644 0.09093773 0.14380583 0.034357995 0.21366088 -0.09107516 0.07490067 -0.06694808 -0.07753139 0.065990746 -0.028057883 -0.07477442 -0.006490672 -0.124975875 0.024491502 -0.12264297 0.050425764 0.0023486475 0.013122015 -0.027284915 -0.08912647 0.116017565 0.021799391 -0.07663839 0.15894116 0.073939264 -0.15735719 0.029352589 -0.13480733 0.007530894 -0.023395758 0.020155959 -0.072743796 -0.001271776 0.032731354 0.010952065 -0.044131145 0.15513168 -0.03435013 0.14115289 0.18531983 0.03012107 0.1152878 -0.056445923 -0.22110958 0.20041427 -0.024818419 0.06363791 -0.21217357 0.11421423 -0.07692021 -0.05740685 -0.03587957 0.119333506 -0.039609045 0.0012839731 -0.20329517 -0.12754536 0.1688365 0.09220512 -0.11016984 0.123069555 0.0075401976 0.016896728 0.006446063 -0.016512102
262 0.16264467 -0.1150434 0.15795399 0.13976717 -0.2017394 -0.009474619 -0.23753856 -0.09337011 -0.19061804 -0.061139826 -0.02163001 -0.119478494 0.074816704 -0.06435781 0.028407926 0.26185536 0.22107819 0.20674932 0.14466053 -0.040536948 0.10293186 -0.26652643 -0.19040106 -0.061800465 -0.011831494 -0.16653463 -0.16481496 -0.0636312 0.31978628 0.27588436 -0.010632246 0.07978139 -0.21793912 0.387882 -0.035869498 -0.15128192 -0.07997695 -0.06815777 0.052654564 0.08067874 -0.11820617 0.13522236 -0.25251418 -0.04988422 -0.37756234 0.17952521 -0.09283786 -0.04133318 -0.10452675 0.23287301 -0.16547228 -0.07896491 0.066552095 -0.52241564 0.13342854 -0.046829924 0.037443895 -0.024176117 0.10533153 -0.0087959 -0.15536536 -0.17032892 0.18780115 0.33266717 0.15057866 0.04454421 0.2571949 0.025047554 0.016097954 -0.23038909 -0.31791633 0.053814285 -0.010562666 0.034417585 -0.0026898538 -0.0024372633 0.14570116 0.026015064 0.123618044 0.031360075 0.10661287 -0.14505038 -0.08742811 0.06763612 0.06569922 -0.018291214 0.15449052 0.09891448 -0.2903208 0.1545267 -0.13373448 0.06285068 -0.105179965 0.10702416 0.054778956 -0.03412805 0.04962232 0.1533863 -0.16756375 0.034424637 0.066926464 -0.020940281 0.20012537 -0.0758253 0.32244402 -0.043086775 -0.16119055 0.09772214 0.16123115 0.1674206 -0.049700707 0.07268911 -0.15134542 -0.13944395 -0.006887768 0.081630915 -0.03540037 -0.039110072 -0.18239251 -0.032652773 0.046977635 -0.007891802 -0.13604021 0.014893453 -0.10471566 -0.037766542 0.13690442 -0.18624254
401 0.13251661 -0.029552303 0.16894627 -0.037640657 -0.13301262 -0.0031569335 -0.08229631 0.02442266 -0.027254177 -0.004932861 -0.026156748 0.015670283 0.042258043 -0.035025224 0.097301744 0.0936499 0.112478234 0.09195347 0.057725683 0.11132789 0.05190854 -0.13010848 -0.032578498 0.058459733 -0.07200583 -0.09278557 -0.21211994 0.041358013 0.15683837 0.083701655 -0.11728618 0.11117996 -0.038481865 0.25131646 -0.060545437 -0.09256974 -0.01298715 -0.11376966 0.11443522 0.048411816 -0.06358821 0.19281675 -0.032393273 0.066936165 -0.14790666 0.008775872 -0.089630164 0.012027861 -0.079733506 0.051953606 -0.14019528 0.034405526 -0.060865697 -0.27595484 0.15403081 -0.09350205 -0.08867646 -0.0037509028 0.08264178 -0.07639582 -0.049096316 -0.081275456 0.11396733 0.19698122 0.16857103 -0.08533117 0.094466224 -0.082216956 0.10522772 -0.040002424 -0.18412434 -0.016552933 -0.11065992 -0.11935038 0.046768595 -0.08809914 0.06743744 -0.14334501 0.026953055 -0.032984585 -0.0043074978 -0.10176337 -0.2304727 0.17060794 0.07842088 -0.10667127 0.09824432 -0.016300997 -0.22445406 0.025034988 0.0005955136 0.09311709 -0.029931536 0.12653129 -0.05646691 -0.039652348 -0.028035095 0.0046136766 -0.0348237 0.24068448 -0.0068570413 0.0649375 0.081714794 0.034630258 0.056542385 -0.02669764 -0.1961839 0.13846153 -0.005043021 0.03355584 -0.16561224 0.07559005 -0.075347595 -0.046153795 -0.018144539 0.051664744 0.023638334 0.038875036 -0.16418149 -0.08198528 0.13136311 -0.04017119 -0.30501583 0.10029565 -0.07531748 0.06678634 0.002621146 -0.09475571
804 0.12408972 -0.005322951 0.25267512 -0.1243933 -0.17472067 -0.053337898 -0.14763069 -0.012497896 0.020593127 -0.012820467 0.040342804 0.048780564 -0.0017802939 -0.0879216 0.11667178 0.1288561 0.121617205 0.011621169 0.035607405 0.13212892 0.04789601 -0.14923193 -0.052682627 0.049724467 -0.11981083 -0.10098203 -0.2238157 0.030946754 0.17589495 0.12878126 -0.08023479 0.082948305 -0.08961353 0.18184191 0.014770945 -0.07727576 -0.021373281 -0.14528413 0.0926104 0.05463412 -0.002092325 0.15302996 -0.030692173 0.042038478 -0.1349506 -0.014597299 -0.14341095 -0.037983414 -0.049984086 0.040886488 -0.14150736 0.050658703 -0.0062620267 -0.22731149 0.10590443 0.004848557 -0.1272274 0.0036266819 0.05190496 -0.07399744 -0.03841325 -0.039037764 0.15058322 0.15157537 0.16966291 -0.09465683 0.06735198 -0.070200995 0.086448304 -0.06850203 -0.18105125 -0.030334594 -0.11294415 -0.11331727 0.024695748 -0.107059814 0.043321017 -0.10170093 0.014852229 -0.019832632 0.020888377 -0.10431925 -0.26720008 0.07112549 0.07237026 -0.1282042 0.11013421 0.036415905 -0.31037754 -0.027351435 0.072460964 0.08556537 -0.0762119 0.13245383 -0.010868366 -0.0050721234 -0.061157085 0.059881575 0.007207485 0.21655534 -0.019821461 0.029559786 0.02704256 -0.048801254 0.075399205 -0.059318632 -0.16604216 0.18104741 -0.07998332 0.032279048 -0.19321023 0.07319533 -0.09515584 -0.020523595 -0.0023600468 0.03665551 -0.0013641341 0.05586327 -0.09619839 -0.076563604 -0.0010640959 -0.02176027 -0.2250988 0.07214909 -0.053747375 0.025748154 0.026474588 -0.05679903
601 0.07051231 -0.0343312 0.13723052 -0.20357276 -0.10107519 -0.04515652 -0.08292298 -0.007360191 0.048436522 -0.008184394 0.05225711 -0.0023911186 0.002830075 -0.025791405 0.07417115 0.045983743 0.11411833 0.0151825715 -0.029647885 0.007724466 0.012117899 -0.11581596 -0.09100176 0.0649114 -0.07494384 -0.09080966 -0.25256798 0.07135967 0.112599835 0.006703105 -0.15754981 0.07477383 -0.07997955 0.15774997 -0.054663714 -0.019524336 0.03341954 -0.0571301 0.033222545 -0.118489966 -0.04081471 0.017568456 0.096712284 0.08662126 -0.06951658 0.07516035 -0.21400289 -0.04577322 0.0582089 -0.027498877 -0.13825624 -0.0190578 0.060744744 -0.27474266 0.014146009 0.10022621 -0.04509752 0.048171848 0.047683705 -0.17087501 0.01247858 -0.00022412288 0.01594529 0.11610214 0.09887968 -0.03004697 0.11577949 -0.018286368 0.013173383 -0.05051782 -0.010043429 0.11914007 -0.11131027 -0.05475324 -0.0073726913 -0.10706863 -0.043159604 -0.07199923 -0.009835163 -0.015268246 0.07721984 -0.04792863 -0.08911394 0.030339897 0.04126126 -0.2185012 0.10141049 0.12346614 -0.26659307 -0.11808456 0.054328583 0.03811555 -0.023657868 -0.009618298 -0.0632296 -0.01914821 0.125734 0.10214835 0.017021243 0.15662211 -0.036292356 0.09734703 0.23125927 -0.062844306 0.15362597 -0.041337524 -0.18900177 0.300695 -0.09193638 0.009099784 -0.18177265 0.06221831 -0.07790136 -0.0093836095 0.046341844 0.13569254 -0.06317519 0.10795309 -0.13904797 -0.124946974 0.0853939 -0.031595815 -0.073344804 -0.015999794 0.026128028 0.025571797 -0.011815458 -0.067261
790 0.06896147 -0.045643914 0.112086535 -0.14396699 -0.04784287 -0.013668051 -0.116187684 -0.17742616 0.022942645 0.02682947 -0.07576175 0.034171037 0.17313816 -0.078238815 0.052358765 0.14483756 0.027068231 0.06231577 -0.001424254 0.06746065 -0.091337994 -0.057346623 -0.027681008 0.003249912 -0.110540494 -0.011329663 -0.28572443 0.081203446 0.23211654 0.16372478 -0.008087501 0.23842683 -0.1365994 0.12931114 0.00978154 0.01581829 -0.026365642 -0.14291887 0.1843468 0.057623167 0.057349667 0.19142312 -0.13874787 0.15446271 -0.20864907 -0.07091641 -0.19020706 0.08309147 -0.07170107 0.11360672 -0.17270592 0.16128238 -0.020409562 -0.30641815 0.109430075 -0.09712906 -0.12512246 0.0049648457 0.060845926 -0.01514802 -0.026011433 -0.04801942 0.08243138 0.035674904 0.1565902 -0.1338685 0.026760004 -0.15904626 0.14608936 -0.13138667 -0.2866337 0.0068385634 -0.18197486 -0.2514932 0.059842065 -0.13313541 0.07036086 -0.0151455095 -0.0037418022 -0.021479543 -0.047027748 -0.12832092 -0.31918642 0.13108566 0.07874858 0.0040915906 0.0959556 0.14697105 -0.32117802 0.08017966 0.124345206 0.12012567 -0.033759158 0.19829454 -0.042190593 0.022491012 -0.13980545 0.05282466 -0.089921966 0.25566748 -0.056633446 0.07562606 0.07641923 0.10420681 -0.05667444 -0.0380787 -0.24790786 0.043088358 0.0027535555 0.012546757 -0.25372 0.18176533 -0.04744185 -0.026379881 0.024531266 0.00411232 0.0879318 -0.02534269 -0.08882021 -0.14705016 0.0016976317 -0.0051880716 -0.31161085 0.16273403 -0.025848918 0.12514769 0.01802063 -0.06756668
806 0.12457324 -0.032153286 0.21062994 -0.10454665 -0.06854424 -0.11504338 -0.17408298 -0.10685387 -0.013119478 0.052559502 -0.022426793 0.0016413636 0.16627502 -0.030540813 0.04919984 0.1031346 0.04716881 0.07539396 0.01706969 0.081346504 -0.04302303 -0.08670001 -0.0075432956 0.052309908 -0.0774935 -0.00019681884 -0.21825275 0.025861716 0.25818953 0.14148067 0.05706478 0.16120748 -0.13891843 0.16241978 0.029586812 -0.040119063 -0.043661423 -0.12725063 0.1659702 0.1093747 0.017867917 0.22668536 -0.11472148 0.14059107 -0.18074425 -0.12343097 -0.096849896 0.043756995 -0.08262222 0.107430436 -0.17054294 0.10904799 0.017110318 -0.23192552 0.16546926 -0.13850406 -0.08402336 -0.013969179 -0.0033197736 0.02229758 -0.019576719 -0.040639233 0.11585073 0.15953666 0.21623485 -0.075655915 0.15356049 -0.17259541 0.1459226 -0.0731347 -0.26484904 0.013760907 -0.04204547 -0.21813045 0.084575765 -0.1766508 0.094157696 -0.10110597 0.02655582 0.050450183 -0.014927675 -0.122940056 -0.21257263 0.1061489 0.04545927 -0.02942199 0.06961573 0.061728682 -0.32629204 0.07602147 -0.050090622 0.07292316 -0.07186386 0.16665527 0.017399743 -0.021059738 -0.15319756 0.024793847 -0.074749835 0.19760291 -0.020336702 0.13040839 0.028230496 0.095237106 0.018171793 -0.09183865 -0.22401801 0.059213825 0.040913764 0.047479622 -0.3150248 0.23505373 -0.027251342 -0.0026980247 -0.03812648 0.026995776 0.061496247 -0.06456681 -0.17149627 -0.1792436 -0.024710864 0.091953896 -0.2944819 0.11921753 -0.055722713 0.060662597 0.10424496 -0.06275304
282 0.18756491 -0.18157747 0.09247802 0.21500438 -0.1628419 0.028458435 -0.23220426 -0.07003995 -0.19723232 -0.1540504 -0.080518916 -0.14980792 0.17916699 -0.119030386 0.0002544905 0.25364554 0.19783561 0.25482544 0.23649643 0.026063932 0.10052204 -0.2755805 -0.18874043 -0.0033038645 -0.07112572 -0.12281503 -0.21357422 -0.009250401 0.40681568 0.22827996 -0.038547892 0.059319366 -0.21412398 0.40794158 -0.038785625 -0.2249857 -0.052094374 -0.04037662 0.081327826 0.06221417 -0.099238396 0.050264053 -0.23902504 -0.03201052 -0.44936493 0.13095099 -0.10623683 -0.08785909 -0.05566387 0.29379785 -0.14862275 -0.0037175375 0.07565315 -0.49766618 0.098731875 -0.06587527 0.0004595556 -0.0059203506 0.12010687 0.033937503 -0.14314722 -0.22501162 0.22462027 0.3664587 0.045654945 0.0027759469 0.1922162 0.05798785 -0.018896488 -0.21828268 -0.3022463 0.08948421 -0.04231296 0.05438448 -0.038302988 -0.052482076 0.1786763 0.06310417 0.13255955 0.0011882253 0.12430231 -0.20261352 -0.09776858 0.088201255 0.039183248 -0.07140682 0.19239049 0.0859215 -0.2839245 0.12945876 -0.15114047 0.04894056 -0.16247106 0.09299867 -0.0050265053 -0.13600802 0.033350334 0.1676924 -0.25175294 0.12637836 0.10291076 -0.00074222416 0.18304856 -0.1009137 0.24764301 -0.057284024 -0.17145973 0.14375405 0.09680788 0.098991774 -0.065391384 0.055010136 -0.15474474 -0.03045832 0.037121367 0.06593718 -0.060366143 -0.083222784 -0.25255817 -0.007900243 0.06167919 0.01910791 -0.15429688 0.013802331 -0.09441535 -0.018901987 0.06724628 -0.1870198
758 0.13673568 -0.13673799 0.13704756 -0.13961038 -0.04041855 -0.040453304 -0.10952515 -0.14869645 0.000108488115 0.016221536 -0.06950931 0.030143907 0.23100124 -0.055129066 0.056501005 0.15861768 0.058241267 0.13457234 0.03895494 0.0981017 -0.07243399 -0.083081655 -0.03297288 0.015393787 -0.15272507 -0.008932247 -0.3138958 0.06734642 0.2765262 0.16231838 0.12950447 0.30175906 -0.2120659 0.1177542 0.0062458273 0.0010631712 -0.02909933 -0.15004128 0.25242865 0.07773539 0.039659854 0.21398109 -0.15571102 0.18981013 -0.22923787 -0.1707856 -0.16016908 0.11318431 -0.049591962 0.12777638 -0.27175054 0.20440361 -0.022898633 -0.29116336 0.10382808 -0.21185106 -0.17735945 -0.05483662 0.018899243 0.029806795 -0.04295905 -0.046377003 0.08918616 0.1411861 0.15568295 -0.13818783 0.016376281 -0.20616356 0.16144687 -0.07568783 -0.33127782 0.026021527 -0.14404517 -0.27737188 0.10822424 -0.2006478 0.10921215 -0.024515677 -0.0044528227 0.026585858 -0.030403208 -0.15759107 -0.29358137 0.16002019 0.078140944 -0.0028321482 0.03241154 0.112137124 -0.3896144 0.13470934 0.14256772 0.15158036 -0.06327393 0.24502152 -0.021558568 -0.030820174 -0.17845243 0.040089708 -0.10873045 0.26475027 -0.03220116 0.113444775 0.032458756 0.1640132 -0.09565919 -0.08239562 -0.26579568 -0.008928208 0.043014128 -0.034649823 -0.3261431 0.252496 0.0076096435 0.014113456 0.038092077 0.02875252 0.13311566 -0.062470503 -0.13832803 -0.2019797 -0.049641687 0.017189862 -0.3513589 0.13363388 -0.006341331 0.17445761 0.037675314 -0.121459186
326 0.17209212 -0.03890405 0.20866534 -0.013374698 -0.18123335 0.024382 -0.103530206 0.03941282 -0.040887464 -0.028455889 -0.0060735894 0.021726452 0.032270607 -0.0155583015 0.064753205 0.07080737 0.18767709 0.11039569 0.0747313 0.07052264 0.10798276 -0.16972674 -0.096128464 -0.012041005 -0.0098606665 -0.133655 -0.19478928 -0.047761157 0.15483013 0.12147729 -0.16893592 0.13109094 -0.01969685 0.26405162 -0.090980954 -0.09046808 0.0040154248 -0.11832737 0.08629864 0.041382704 -0.11351329 0.22498687 -0.074358314 -0.028614013 -0.09939732 0.10967456 -0.06001852 0.068717964 -0.1077214 0.0851047 -0.12647347 -0.045897327 -0.07836139 -0.334886 0.22645153 -0.11425563 -0.041841354 -0.053448416 0.02553109 -0.13246092 -0.09962902 -0.08255851 0.14026825 0.23302042 0.16740319 -0.019029025 0.12744968 -0.045919448 0.1248105 -0.0858134 -0.2013586 -0.051290352 -0.124059126 -0.041481648 0.06570524 -0.0676049 0.06895818 -0.13993971 0.063953154 -0.047613107 -0.0012614663 -0.055107478 -0.1867527 0.19856845 0.048103333 -0.060282495 0.12962414 -0.046009045 -0.17038019 0.08550567 -0.019939104 0.14391294 0.0015504701 0.097476766 -0.04712984 -0.054846905 -0.011151651 -0.008871052 -0.046885412 0.18465295 0.043609325 0.042710066 0.09483349 -0.026594505 0.11156407 -0.047135655 -0.18322176 0.171846 0.004370685 0.06664054 -0.088410705 0.046757434 -0.11175856 -0.10634163 -0.033776607 0.1259888 0.008728166 0.013397116 -0.14788853 -0.08147854 0.1754352 -0.11370947 -0.24874681 0.035749923 -0.07569977 -0.013839297 -0.007980061 -0.07649347
718 0.24078785 -0.121656366 0.110426985 -0.052246843 -0.1161679 -0.0053630844 -0.15546516 0.04998486 -0.06777946 -0.07029237 -0.06655634 0.064434454 0.029338665 -0.08341033 0.14566219 0.02981542 0.25715476 0.083789945 0.1342506 0.11463075 0.16016994 -0.17814238 -0.08212172 0.06829976 -0.17325228 -0.07350895 -0.2470033 0.10140855 0.06610725 0.11331985 -0.1327773 0.22419256 -0.027779186 0.112607025 -0.042184945 -0.176248 0.012392735 -0.14069599 0.08144079 0.014797747 -0.049965166 0.15708761 0.027193952 0.102114916 -0.11887274 -0.03787405 -0.17673083 0.15003374 -0.10315202 0.101202086 -0.14120756 -0.06551716 -0.15020172 -0.2357386 0.053690072 -0.106103025 -0.09590624 -0.032554686 0.06851335 -0.12662075 -0.057544064 0.04861232 0.14079536 0.11755332 0.20317705 -0.15847708 0.09981375 -0.06270676 0.09387077 -0.06135482 -0.23001924 -0.06314793 -0.109833285 -0.13313705 0.14510818 -0.04646794 0.11349112 -0.109075926 0.0764912 -0.083907805 -0.037698362 -0.03209776 -0.3122974 0.1573294 0.102995224 -0.060072415 0.082929604 -0.0076459274 -0.1468601 0.07979548 0.04031807 0.012914097 0.004173607 0.116489135 -0.021428982 -0.0022997102 0.06452408 -0.10331266 -0.10523853 0.20977171 0.00773879 0.11318013 0.18026653 0.049259815 0.061872743 -0.074569464 -0.24612023 0.03257412 0.005871 -0.0250634 -0.21711548 0.046187356 0.048021134 -0.058870915 -0.040947672 -0.02146645 0.038023125 0.086705536 -0.13937488 -0.069259904 0.1494837 -0.07553439 -0.22525121 0.113284506 0.025954058 0.105594896 -0.017795041 -0.08470109
349 0.10037737 -0.04760925 0.13141547 -0.06530667 -0.14256944 -0.042017993 -0.08358956 -0.06601242 -0.050936837 0.0058848094 -0.024559878 -0.016139917 0.105544984 -0.045078613 0.045015465 0.0817327 0.080595605 0.1169095 0.0024058083 0.015780838 -0.0013422655 -0.13388295 -0.045740377 0.044060268 -0.02596184 -0.07321748 -0.21641791 0.021848798 0.17970505 0.088041276 -0.07268404 0.09662015 -0.075301304 0.2842969 -0.04150632 -0.06304204 -0.022958402 -0.10098113 0.11650484 0.04154142 -0.04100943 0.19034168 -0.10652155 0.027129348 -0.15320972 0.04672502 -0.07910522 0.0057209423 -0.07393502 0.048115894 -0.17498524 0.04057417 -0.008711094 -0.3276524 0.18692812 -0.08934276 -0.06265085 -0.0018054966 0.052899998 -0.051854316 -0.065332316 -0.15127249 0.068179965 0.22677727 0.16042015 -0.045216553 0.16300586 -0.10649 0.099061355 -0.07337625 -0.16779867 0.05901227 -0.10215132 -0.12630516 0.037374437 -0.13316615 0.096429035 -0.15051942 0.044443 -0.026314989 0.049508356 -0.13198467 -0.20603675 0.16430828 0.05435974 -0.08020008 0.12351936 0.08558086 -0.25517172 0.04332234 -0.013368864 0.10152495 -0.046047527 0.1272215 -0.060047172 -0.027905157 -0.0007884323 0.053101208 -0.0405943 0.13826439 0.008989677 0.038239747 0.06591283 0.018842101 0.022287054 -0.061473295 -0.17226318 0.15768963 0.013301387 0.110322975 -0.16806228 0.14502347 -0.07042149 -0.044704452 -0.00031137562 0.115921296 0.042496078 -0.006020964 -0.16403389 -0.10011763 0.10153891 0.02147691 -0.2645791 0.10376844 -0.05151878 0.005170296 0.0417986 -0.07384454
386 0.14888804 -0.087787315 0.14341772 -0.037471004 -0.103902765 0.0493899 -0.109272294 0.04211282 -0.035054713 -0.05525546 -0.05569421 0.057646364 0.07233155 -0.077028185 0.058825556 0.08582394 0.19036104 0.090307735 0.056395978 0.05102218 0.04455883 -0.09869915 -0.1126165 0.028733661 -0.100035354 -0.06325279 -0.27850667 0.03473765 0.1998603 0.075392306 -0.095372744 0.18092701 -0.09695999 0.21191166 -0.086463355 -0.10379514 0.021909082 -0.13975823 0.15300424 -0.02102934 -0.08204927 0.20305946 -0.08509161 0.0028043946 -0.13882628 0.02896825 -0.071708106 0.09636798 -0.06930461 0.119129285 -0.15558721 -0.0009860074 -0.08448534 -0.33913955 0.146633 -0.14347318 -0.08528728 -0.04625478 0.0885029 -0.10665774 -0.11317565 -0.09089009 0.08798499 0.16987702 0.1351826 -0.051444452 0.13206422 -0.036715586 0.10516431 -0.026100684 -0.23904693 0.023252293 -0.124071226 -0.08754673 0.08253957 -0.1179599 0.087109804 -0.09207319 0.07076594 -0.03135838 -0.017109409 -0.05434431 -0.22603697 0.20437057 0.100865394 -0.06701572 0.11274732 -0.0032564525 -0.19574143 0.10024023 0.038064934 0.12150145 -0.017815076 0.09842118 -0.07977988 -0.022071734 -0.023896081 -0.03249919 -0.06797894 0.17586564 0.037230134 0.06281011 0.09542374 0.022939784 0.018707046 -0.092080854 -0.2435069 0.11817911 0.034434523 0.012620242 -0.1407278 0.0742134 -0.06623219 -0.041554347 -0.011821917 0.08862156 -0.0032980158 -0.0018996121 -0.18867938 -0.10894695 0.12793991 -0.06827968 -0.2586757 0.066675365 -0.027311591 0.06872213 -0.0034867276 -0.10924487
712 0.21539526 -0.07056605 0.106507525 -0.010533839 -0.12874478 0.0014402745 -0.13255541 0.084607296 -0.056548167 -0.055202503 -0.069908135 0.09445143 0.015810285 -0.094853446 0.15617768 0.0147709735 0.2616315 0.058939863 0.11999326 0.11485531 0.18123844 -0.18386436 -0.07343305 0.08765082 -0.13577324 -0.07603939 -0.22958699 0.073728055 0.06335237 0.08019845 -0.18930605 0.22737873 0.02392118 0.10566559 -0.060327142 -0.18132253 0.004300573 -0.10300072 0.07541525 0.022714008 -0.08395813 0.21165451 0.03276161 0.056619484 -0.053810164 -0.009013274 -0.13445765 0.15418918 -0.119409434 0.049905855 -0.12605673 -0.04137771 -0.18552908 -0.2289973 0.12412489 -0.09134027 -0.07361183 -0.023284521 0.054388117 -0.15911193 -0.09491487 0.053600367 0.13075908 0.13077936 0.2098766 -0.11032366 0.16509068 -0.06421027 0.111026585 -0.04292143 -0.19308943 -0.094900206 -0.10752354 -0.09945197 0.107963175 -0.09120122 0.108793944 -0.17243522 0.10571985 -0.05975177 -0.014589924 -0.006103387 -0.28980467 0.17521489 0.11651861 -0.038332656 0.10720329 -0.031148382 -0.10657617 0.11304559 -0.00898403 0.055654224 0.03651032 0.11733653 -0.020256465 0.025945965 0.026947 -0.12094587 -0.06583672 0.21509677 -0.0054260497 0.13146155 0.105409294 0.037195224 0.06391502 -0.11187716 -0.2563537 0.09149928 -0.086413525 -0.023435332 -0.1912928 0.024340592 0.022797585 -0.07206138 -0.06130045 0.029773662 0.053134136 0.08293232 -0.1369623 -0.09148097 0.17837551 -0.054329623 -0.19842885 0.10564194 0.0096828 0.07423088 -0.04016753 -0.06355586
440 0.241509 -0.16720857 0.19671589 -0.122528985 -0.20491165 0.05996504 -0.090760514 0.06558086 -0.05045133 -0.022743976 -0.019750642 0.026422355 0.00046386968 -0.054062515 0.11244559 0.075121865 0.32846493 0.19976968 0.10451098 0.082295604 0.13988364 -0.13313878 -0.08373831 0.021585854 -0.11059326 -0.092520945 -0.2527028 0.03664047 0.14479962 0.048257224 -0.10067889 0.15979517 -0.022719786 0.21279438 -0.14301102 -0.0995763 0.06279614 -0.122514196 0.19775097 0.015335299 -0.08228084 0.16986571 -0.06480859 0.0017039299 -0.1305347 0.11000748 -0.06546624 0.11550857 -0.09991528 0.048119668 -0.18454932 0.019120319 -0.14630738 -0.37760633 0.114148006 -0.07901661 -0.16702992 -0.049071584 0.08538487 -0.097302884 -0.1345011 -0.036396205 0.08578809 0.20829403 0.13694674 -0.14396396 0.17360935 -0.013592448 0.09500064 -0.06335006 -0.20950696 0.024102045 -0.19457026 -0.09699548 0.061450146 -0.09772419 0.115839005 -0.14999208 0.021946218 -0.04218544 -0.023284044 -0.091840416 -0.23982835 0.18695298 0.191467 -0.029177932 0.06004652 -0.0022664089 -0.15169269 0.08300922 0.08737874 0.16034992 -0.018372467 0.055344183 -0.108143255 0.046895016 0.04029382 -0.01919693 -0.069249146 0.17207554 0.03534887 0.055352464 0.06187679 0.019666793 0.018942123 -0.06489674 -0.24961323 0.121713795 -0.002124132 0.030545322 -0.10399487 0.0621251 0.0063885897 -0.040560998 0.052753367 0.11799915 0.017734539 0.06948457 -0.16137435 -0.10977403 0.1507025 -0.11121407 -0.25158933 0.026295017 -0.038668487 0.08036424 -0.03794368 -0.14199361
389 0.14006248 0.057094846 0.2889525 -0.0650926 -0.13507524 0.018039193 -0.13709728 0.10781164 0.020587387 0.011278062 0.01785188 0.07140369 -0.011449046 -0.026785254 0.059923187 0.030557921 0.15469542 -0.009110382 0.10531409 0.17813556 0.10384203 -0.109554194 -0.051823877 0.022860121 -0.042163804 -0.09121794 -0.16819791 0.007846576 0.2132692 0.10584396 -0.20443548 0.11444919 0.021576911 0.18156068 -0.05376084 -0.087885395 0.013774234 -0.11686458 0.091155395 0.046798583 -0.0895215 0.20840019 0.009127304 0.008522408 -0.10935487 0.027649 -0.01849293 0.05821369 -0.13226956 0.0505449 -0.013872083 -0.009224967 -0.071719654 -0.18597765 0.19184192 -0.06564253 -0.051542766 -0.003985805 0.049865928 -0.079746194 -0.07610402 -0.03609834 0.14465515 0.09864546 0.21541211 -0.0483069 0.13109049 -0.027103702 0.17307884 -0.08088796 -0.23714426 -0.13097338 -0.10376067 -0.05304916 0.062478367 -0.08570004 0.040892817 -0.18878408 0.027437603 -0.06570166 -0.0824059 -0.022345731 -0.2396027 0.18499179 0.094844185 -0.06943111 0.1738631 -0.10937694 -0.14394319 0.04572674 -0.0793721 0.08501815 -0.021623692 0.055227075 -0.07250487 -0.010562133 -0.12266973 -0.0376593 -0.04489071 0.23818968 0.019863926 0.057592466 0.04751434 -0.035034355 0.11136304 -0.047812097 -0.23253278 0.18189009 -0.048767637 0.038816966 -0.15033321 0.030180972 -0.0997927 -0.070924595 -0.08260172 0.0012662548 -0.010798201 -0.010683568 -0.14271785 -0.09693672 0.14846934 -0.051386215 -0.24483314 0.08202534 -0.10648606 -0.014923538 -0.02513797 0.009366496
677 0.16249892 -0.062027987 0.15192722 -0.13916741 -0.13211955 -0.030158501 -0.1854671 0.0035185334 -0.024434503 0.012127872 0.019370936 0.035316184 -0.036395896 -0.09527689 0.11211491 0.04491359 0.19252533 -0.00091483124 0.030017002 0.05226363 0.09234825 -0.067722015 -0.07234872 0.10682761 -0.13655528 -0.07090869 -0.26523304 0.08473589 0.13913213 0.073560014 -0.12296726 0.11351288 -0.047434278 0.15741478 -0.025645638 -0.09846489 0.024457851 -0.14308503 0.08996402 -0.01617922 -0.020390365 0.16866551 -0.0042391345 0.057110693 -0.08103 0.025990088 -0.1461468 0.015329121 -0.064068355 0.054861836 -0.11213151 -0.014946138 -0.07164855 -0.24255963 0.074031964 0.007611963 -0.04612957 0.016595831 0.10036274 -0.11232661 -0.02037212 0.011609813 0.114392735 0.07973943 0.254766 -0.11286356 0.17015786 -0.062075052 0.0146042 -0.055905942 -0.14218871 0.024297563 -0.050978955 -0.15481123 0.077191725 -0.074340455 0.11142107 -0.10536962 0.008213565 -0.024127433 -0.031169798 -0.025166715 -0.243697 0.06563846 0.15238446 -0.08172271 0.059359767 0.06747695 -0.17855263 -0.0020726053 0.027776511 -0.0056461245 0.0069217007 0.09708302 -0.005299555 0.08742905 0.0050592106 -0.0342165 0.0046064598 0.16955999 -0.035684515 0.113996215 0.07993997 0.015472544 0.09420826 -0.09093267 -0.21000908 0.08965252 -0.016575 0.06609887 -0.21205042 0.10381136 -0.016270312 -0.04211955 -0.06499977 -0.002676502 0.0076011494 0.08847788 -0.0811096 -0.12936239 0.051484294 0.0018506611 -0.124555595 0.06483679 -0.026469093 0.063871056 0.031550806 -0.07214229
396 0.2477851 -0.086931564 0.18696573 -0.03660425 -0.10255961 0.05362431 0.02858726 0.042118948 0.008133685 -0.031277683 -0.05796501 0.016336668 0.14903508 -0.098038584 0.1136286 0.0783857 0.17863072 0.1528773 0.099972665 0.1777648 0.098651074 -0.18381557 -0.106792435 -7.403292e-05 -0.07252615 -0.059356265 -0.24824712 -0.025017347 0.15548874 0.093737684 -0.09202578 0.20688847 0.00036602363 0.22580118 -0.12472528 -0.111297436 -0.00094990747 -0.06899524 0.1548234 0.022886423 -0.16619615 0.25238395 -0.09377987 -0.007877413 -0.092037134 -0.030640032 -0.02270904 0.10566282 -0.08290905 -0.0008432393 -0.19120088 0.104714744 -0.107865885 -0.3304335 0.22492069 -0.1854473 -0.11932783 -0.09784001 0.021705955 -0.09123912 -0.118723355 -0.10555014 0.16303895 0.23727159 0.13408257 -0.09933391 0.012263535 -0.16260476 0.21977419 -0.018302418 -0.25417438 -0.17292307 -0.19258314 -0.015377441 0.07319243 -0.20436828 0.028682902 -0.26784444 0.004206258 -0.029226221 0.012465569 -0.13407011 -0.32569802 0.3223791 0.082972184 -0.0375883 0.15069029 -0.120729834 -0.20205098 0.07730106 0.05891889 0.19353671 -0.022424413 0.1489038 -0.12853587 -0.075310625 -0.13960604 -0.06799362 0.0006542581 0.24238262 0.05069597 0.012219665 -0.04166251 0.13926476 -0.13548294 0.010503191 -0.19026144 0.1372153 -0.024235372 -0.044267066 -0.17429331 0.04230586 -0.024888372 -0.074552335 -0.011411013 0.17279603 0.100995235 0.043857027 -0.1501843 -0.06640271 0.14999358 -0.06843787 -0.3608133 0.070229284 -0.09115179 0.063786015 -0.088222355 -0.05084484
