832 128
346 -0.016987775 0.10524076 0.13088691 0.011234996 0.19850813 -0.030946102 -0.28681976 0.024921969 0.031324323 -0.11108745 0.15456645 0.114785604 0.05364657 0.327884 -0.14807425 0.09369367 0.015998432 -0.21133623 0.03174388 -0.021437526 0.07933325 0.101022504 -0.42644894 0.08238734 0.03129069 0.07494778 -0.18134515 -0.09868313 0.093730345 0.08478397 -0.12907812 0.2582576 -0.15058486 -0.05433837 0.122212075 0.2228252 0.106782526 -0.012780264 0.10382899 -0.0005256295 0.028772607 -0.22923547 -0.06275828 -0.19047146 0.14923441 0.064454526 0.20724812 -0.14124435 -0.030360252 -0.13224204 -0.005153675 -0.13105918 0.00481784 0.22803289 0.03804835 0.18356389 -0.027060648 -0.07974674 -0.18807143 -0.31487015 -0.07143197 0.027200462 0.023632014 -0.12501855 -0.037804615 0.062249243 -0.03275788 -0.15200344 -0.015471053 -0.045075957 -0.006048017 -0.14473099 -0.08848216 -0.03270078 -0.08672292 0.23777102 -0.18443973 -0.07896061 -0.19365512 -0.14401986 0.09157217 0.044296842 0.007988087 0.113321215 -0.100798346 0.14678608 -0.05322988 -0.045221772 -0.16277155 0.047151443 0.28400573 0.07687591 0.2068644 -0.047730625 0.15030847 -0.041241176 0.009588237 -0.04619392 0.043662157 -0.004154156 -0.16468121 -0.045985196 0.018041452 -0.06520134 -0.2091086 0.017632164 -0.1372732 -0.08075427 -0.058911957 -0.08045448 -0.07504661 -0.029534 -0.2865683 -0.055460766 0.019011807 -0.05947081 -0.0036614109 0.16799301 -0.16550817 0.06562952 0.062546834 0.3262982 -0.0015285837 -0.15990822 -0.30222467 -0.07745027 0.086623564 0.16299264
365 0.053277586 0.15469113 0.12206263 0.06361352 0.2850256 -0.11077863 -0.21809126 0.05687996 -0.04441285 -0.103240035 0.08205297 0.122865945 0.13258164 0.29748473 -0.15208948 0.14729063 -0.116176695 -0.27849814 0.12294414 -0.0046976213 0.10732898 0.20185052 -0.3836607 0.09316381 0.057914875 0.07188141 -0.1297227 -0.17705184 0.09970801 0.13774455 -0.18354577 0.31622157 -0.05392301 -0.089747295 0.19608912 0.2845726 0.09490508 -0.16115306 0.14974199 -0.05356254 -0.0395109 -0.2710826 -0.11768338 -0.17701977 0.27896383 0.025182031 0.30123043 -0.081369184 -0.039595194 -0.15029632 -0.10378227 -0.11027525 0.10381549 0.17717178 0.031498868 0.20376146 0.06616189 -0.08970335 -0.19618234 -0.3502721 -0.17066976 -0.02581015 -0.0012394303 -0.27951315 0.048767105 -0.057512343 -0.10848512 -0.13607837 0.06437513 0.014662494 0.040163264 -0.1991295 -0.076003335 0.018404026 -0.075115316 0.28748554 -0.27887172 -0.19691163 -0.2702446 -0.1920318 0.11139241 0.09107643 0.056457896 0.120636486 -0.038582645 0.089086406 -0.095854916 -0.0878192 -0.19469447 -0.008864563 0.18998948 0.116616555 0.3290581 -0.07167097 0.12831566 -0.070244305 0.030352842 -0.14600036 -0.034599144 -0.023190262 -0.18448119 0.015149284 -0.05850758 -0.1245738 -0.097051956 0.07329708 -0.09573074 -0.06730951 -0.08931633 0.011403578 -0.07640946 -0.059686832 -0.22860618 -0.02043988 0.0945772 -0.07771549 0.037111178 0.1914468 -0.17861104 0.028636156 0.12563422 0.3490031 -0.118692905 -0.09238147 -0.31577104 -0.08384992 0.058021065 0.06378973
742 -0.062444836 0.06111132 0.033405066 -0.02776365 0.2524732 -0.0299681 -0.28776073 0.061093334 -0.04364066 -0.0042957477 0.06515333 0.12696633 0.13391098 0.25970882 -0.21753237 0.028879896 0.06700873 -0.107126206 -0.040342476 0.08884317 0.15318187 0.1803642 -0.27320465 0.063167304 0.049556457 -0.029459335 -0.18096635 0.03720938 0.03354523 0.06759313 -0.11143358 0.157672 -0.12830772 -0.07835587 0.09038783 0.13368143 0.007120488 -0.08392701 0.10235209 -0.047236 0.039989594 -0.113995224 -0.041724358 -0.19285673 0.111454785 0.09500302 0.024180522 -0.11673767 -0.03378683 -0.04288851 -0.05067356 -0.13484487 0.016077675 0.10613335 0.035490103 0.040209115 -0.09898025 -0.10184506 -0.04402147 -0.17553607 -0.034813695 -0.05040986 -0.018787635 -0.06878854 -0.022309594 -0.009993401 0.013864085 -0.047598273 0.02195396 -0.100777864 -0.02474526 -0.027818153 -0.023756584 0.12909459 0.025370618 0.37314638 -0.112379715 -0.0653212 -0.19618382 0.033202577 0.049525525 0.018023299 -0.032560598 0.06477589 -0.024648217 0.12686087 -0.084055915 -0.023819035 -0.08509824 0.18258807 0.23822765 0.024204547 0.051164713 -0.061034285 0.1676589 -0.06360666 0.047201704 0.10608896 0.1879148 -0.022434106 -0.1388694 -0.029993635 0.09761864 -0.102169305 -0.15774764 0.03270534 -0.066280395 -0.053417016 0.050062962 -0.098465 -0.12702772 -0.073967054 -0.22338526 -0.009608659 0.12037249 -0.007944986 0.14400522 0.09446261 -0.14151907 0.08719824 0.06965081 0.31592345 -0.005729811 0.009094699 -0.0686684 -0.058537703 0.11983233 0.14455682
367 -0.0949388 -0.042494796 0.061721288 0.015682723 0.31489173 0.0057190177 -0.1908329 0.088368125 0.01917036 -0.13667996 0.12042572 0.016724983 0.05566286 0.19451253 -0.09731069 0.114570916 0.030310228 -0.16632971 0.05963956 0.08781443 0.045147497 0.10356334 -0.3773079 0.20219144 -0.013776458 0.054751523 -0.18445705 -0.27047986 0.07814865 0.11460855 -0.13234454 0.2546673 -0.12383506 -0.014124799 0.09935964 0.19118871 0.061241485 -0.079153724 0.07383597 -0.073705845 0.017698944 -0.22326687 -0.16385981 -0.23581709 0.2352199 0.08141056 0.30991307 -0.110659614 -0.091401085 -0.10801177 0.0037346873 -0.073441334 0.033812694 0.096144594 0.024195954 0.10220986 -0.00588561 -0.09287156 -0.09060959 -0.39512822 -0.15799841 0.028324232 0.05947191 -0.16714711 0.08145715 0.019013865 -0.031741384 -0.19166556 0.10138451 -0.06861877 -0.006375967 -0.21038969 -0.106507875 -0.047699742 0.017325567 0.22047907 -0.15675174 -0.076657906 -0.31061843 -0.20655926 0.1354562 0.09517801 0.037136246 0.02696478 -0.06173211 0.12569837 -0.072617844 -0.08619883 -0.15736188 0.012608075 0.1825005 0.05406418 0.27739096 0.026530324 0.2787348 0.08929177 0.034845516 -0.11602307 -0.079940796 -0.07240536 -0.07938629 -0.01835528 -0.10280446 -0.16836819 -0.15938579 0.10635291 -0.11589391 -0.08021956 -0.10469039 0.07344949 -0.025706317 0.00024577824 -0.32785538 0.025669182 0.032212798 -0.027991548 -0.058955222 0.16214019 -0.19204782 -0.01865906 0.17395827 0.21413998 -0.004019723 -0.03617497 -0.297979 0.035966147 0.08187941 0.12595753
829 -0.052563027 0.11747876 0.018619476 0.01010779 0.2783569 -0.053318754 -0.20868392 0.13151792 -0.079500206 -0.09586713 0.051292248 0.03990979 0.11465391 0.26570648 -0.081018634 0.043066446 0.060992472 -0.058051486 0.04193342 0.08139858 0.03711598 0.068710074 -0.28367135 0.13354217 0.03585853 -0.03684062 -0.116255276 -0.084446244 0.09362095 0.08904524 -0.13308978 0.2670093 -0.044001352 -0.10911739 0.1209536 0.11771493 0.04610488 0.015018425 0.07057141 -0.09098009 0.049021717 -0.17598635 -0.03804273 -0.2484296 0.12805916 0.1117265 0.18215032 -0.063108735 -0.012773078 -0.11020701 0.030073134 -0.05759733 0.054380488 0.14615749 0.09257665 0.050663333 -0.054644328 -0.112535544 -0.023433423 -0.3333732 -0.07455103 -0.039384104 -0.020442026 -0.065266535 0.15140386 -0.015241366 -0.029981984 -0.12340416 0.10588767 -0.085959174 0.036544893 -0.11287189 -0.14601372 0.047815066 -0.10669529 0.31874707 -0.080953866 -0.01932075 -0.23300248 -0.06571001 0.12896164 0.07581357 0.010742522 0.05660421 -0.024271337 0.117770575 -0.065678194 -0.013914726 -0.16888839 0.09420263 0.15412296 -0.035598803 0.020018835 -0.05109773 0.16138601 -0.006486502 0.029864503 -0.023663897 0.025355546 -0.069348074 -0.06365758 -0.020777164 0.077895045 -0.09864891 -0.08964456 0.010307553 -0.047241304 -0.049674988 0.053194787 -0.078569084 -0.09728842 -0.09879451 -0.28043285 0.006832663 0.10894626 -0.1006841 -0.033345174 0.05162773 -0.14481616 -0.006461029 0.07055009 0.30553138 -0.007870867 0.0065798275 -0.20845495 -0.01970257 0.10813632 0.08386835
357 0.026145535 0.16227226 0.074332684 -0.047757346 0.30411434 -0.042775378 -0.34287816 0.016954903 0.0036018216 -0.083205305 0.16423169 0.16931963 0.065076604 0.35367563 -0.108663656 0.06327597 -0.019220136 -0.23415802 0.03127835 -0.06496458 0.05607292 0.12490739 -0.3357383 0.108424515 0.09560209 -0.034838423 -0.2057003 -0.09684605 0.08304542 0.127933 -0.08689383 0.15662238 -0.08632121 -0.029443357 0.12186178 0.17645022 0.038715962 -0.07443842 0.114481226 -0.007576156 0.02619649 -0.2482987 -0.09892586 -0.24361405 0.25923562 0.041369542 0.15238652 -0.12806891 0.015410878 -0.069384634 -0.076396964 -0.101441726 0.0192252 0.19389257 0.08671128 0.18889733 0.079558834 -0.041740667 -0.14460714 -0.26717803 -0.0305376 -0.034139767 -0.03734723 -0.16831496 0.06329242 0.057604156 -0.04577884 -0.117894754 0.042600255 0.017074648 0.04558877 -0.09661227 -0.1262143 0.017017448 -0.16760853 0.30722064 -0.12512581 -0.12331555 -0.18485293 -0.11068165 0.14780188 0.0402141 -0.025032341 0.09837435 -0.038165644 0.06737172 0.008204664 -0.081652485 -0.21588399 -0.0008353504 0.28127533 0.0919819 0.20624524 -0.03078293 0.14978462 -0.054248147 -0.048724283 -0.06627644 0.07984874 -0.050049555 -0.15157533 -0.13357319 0.06423639 -0.043723732 -0.21021457 0.0608988 -0.046908785 -0.052867483 -0.033728223 -0.06546768 -0.061322622 -0.04124009 -0.30996236 -0.05285467 0.11294807 -0.079917416 -0.022270031 0.07829513 -0.17184429 0.060884364 0.010690882 0.3893385 -0.05236636 -0.113672614 -0.24933985 -0.081169724 0.08938709 0.098029055
824 -0.043764964 0.080601 -0.0005332224 -0.079554535 0.27641994 -0.013605904 -0.2445578 0.13283382 -0.12328343 -0.14865015 0.15866935 0.039566375 0.05900064 0.25259 -0.04037097 0.066742614 0.09226602 -0.18682276 0.20780589 -0.05376905 0.0047469353 0.09860421 -0.3324926 0.15688178 0.0037451934 -0.020175522 -0.16266243 -0.2585001 0.094707906 0.13904108 -0.19598104 0.2484398 0.07648726 -0.072994865 0.21797112 0.2786112 0.12260554 -0.07497479 0.12685393 -0.0837121 0.024068136 -0.3125614 -0.09762705 -0.31309423 0.18529005 0.035482384 0.3166421 -0.14808586 -0.14342403 -0.11330303 0.02333907 -0.11040033 0.047501706 0.18191555 0.08376166 0.16673459 -0.008454947 -0.11874138 -0.14273831 -0.3100858 -0.071831115 0.0014100402 -0.022110289 -0.1551007 0.15549077 -0.035354238 -0.0054287734 -0.12842123 0.11696401 0.046534333 0.078125134 -0.14637104 -0.22666515 0.0031448437 -0.23441778 0.25794718 -0.23058274 -0.12595923 -0.2848765 -0.19868596 0.08482775 0.1471747 0.06422748 0.10626704 -0.14827476 0.14084755 -0.059610296 -0.07816007 -0.12140413 0.020568034 0.14455998 0.10652198 0.21465161 0.07030612 0.25384158 0.02506742 -0.0042280364 -0.11289941 0.0012180769 -0.12220162 -0.062982336 -0.0957508 -0.043898262 -0.12291727 -0.121240325 0.10672961 -0.09791902 -0.01140192 -0.09694222 -0.079677016 -0.039398123 -0.017439881 -0.39776096 -0.06265249 0.098165035 -0.08170659 -0.21824059 0.10747575 -0.16739036 -0.028802691 0.104992226 0.41951388 -0.09404931 -0.1439575 -0.36401695 0.047534708 0.07476946 0.062363487
289 0.0786537 0.18167552 0.16308454 0.104158126 0.12404142 0.0010335738 -0.21000643 0.12956443 0.060766086 -0.14547771 0.15280926 0.20549849 0.016906114 0.38208312 -0.20978153 0.10238181 -0.033357523 -0.24835028 0.11591321 -0.0037621614 -0.0032312043 0.19286509 -0.43097103 -0.004298458 -0.044289127 0.11876933 -0.16430357 -0.15501635 0.06745503 0.11269878 -0.1852438 0.37455297 0.017957682 -0.0477984 0.17166688 0.26148373 0.099664435 0.09829562 0.068835534 0.08640655 -0.023434918 -0.29804966 0.011386573 -0.06431354 0.14957869 0.05200043 0.28489718 -0.20234044 -0.14456697 -0.21954131 0.030139986 -0.16140181 0.031993706 0.21395603 0.10197931 0.14773549 0.08835342 0.03200273 -0.19493581 -0.41833717 0.041625246 -0.02956864 0.047323816 -0.2862624 0.046667464 -0.032696918 -0.11597368 -0.025115445 0.10721464 0.089815795 0.047894664 -0.17441799 -0.06691619 -0.021401467 -0.20733297 0.32754433 -0.20738669 -0.037580773 -0.14800009 -0.11288837 0.08749631 0.15374932 0.105982065 0.18307094 -0.17553104 0.020522825 -0.05828481 -0.08736562 -0.2637157 -0.11355157 0.2995667 0.0070602307 0.19498838 -0.009485489 0.06133904 -0.033296764 -0.05330028 0.017334528 0.06307061 -0.03868915 -0.07722055 -0.047933605 0.05374487 0.10522448 -0.18042977 -0.007687562 0.048527263 -0.09464445 -0.051406574 -0.016045189 -0.14470458 -0.17641304 -0.28494543 -0.069677345 -0.037455063 -0.07135353 -0.014516334 0.22433834 -0.008756977 0.12747456 0.107461065 0.4371538 -0.0466844 -0.22271678 -0.2704143 -0.15639494 0.07623897 0.04634554
769 -0.051195595 0.06006635 0.07897484 -0.13309103 0.13622047 -0.015831426 -0.2686087 0.07624149 -0.10139092 -0.24023128 0.17019114 -9.028914e-05 -0.044999957 0.33547065 -0.04947428 -0.027558783 0.218605 -0.21175583 0.14242263 -0.08365715 0.056408595 -0.07981924 -0.31033933 0.0678238 -0.037510153 -0.06796832 -0.18651673 -0.13997126 0.11876291 0.13383113 -0.1616254 0.14964843 0.016479407 -0.03466741 0.0670699 0.23223548 0.17560151 -0.044811185 0.028573059 0.02634254 0.08633226 -0.22892547 -0.13673146 -0.33685726 0.13741216 0.09661506 0.17438164 -0.14135714 -0.10189289 -0.107883014 0.025409853 -0.118737854 -0.039680265 0.13050021 0.07450264 0.19880423 -0.12302268 -0.1486415 -0.09562479 -0.34109673 0.032067727 0.10431513 -0.036241185 -0.0018877466 0.09260547 0.07878108 -0.029626222 -0.19431408 0.034085978 -0.015696948 0.09392676 -0.058831703 -0.18065135 -0.13360925 -0.22298989 0.20341533 -0.054626722 -0.032717723 -0.2702458 -0.08233625 0.08879125 0.1672498 0.044751342 0.10694141 -0.13239773 0.22806154 -0.0019099633 -0.060498673 -0.13421653 0.07869126 0.3307535 0.013796981 0.12890449 0.0475117 0.3270029 0.071315296 0.0054453537 0.03117563 0.059186403 -0.034044195 -0.07901872 -0.13688223 0.051222418 -0.14904763 -0.35493004 -0.043882567 -0.13828066 -0.096255094 0.020693399 -0.19167605 -0.24738966 -0.036858346 -0.5318733 0.02966327 0.051486596 -0.03694189 -0.14426428 0.093181506 -0.24567854 -0.013007939 0.1763368 0.45070684 0.02604758 -0.19895661 -0.3119572 0.030870631 0.17237915 0.13711716
679 -0.026775585 0.003067185 0.073554054 -0.10899253 0.1904431 -0.098252624 -0.18956466 -0.084221765 -0.073830575 -0.08926822 0.117922515 0.16880178 0.116725415 0.2551845 -0.1697845 0.046282623 0.14154518 -0.1764171 0.018884001 0.107413724 0.24209145 0.2149681 -0.26015753 0.16638742 0.001045044 -0.06780749 -0.18559486 -0.112898685 0.15602669 0.030115977 -0.14824766 0.19183704 -0.15452969 -0.17056443 0.120104305 0.21511066 0.12330955 0.017224986 0.14256619 -0.10919295 0.09146233 -0.2232669 -0.15838985 -0.083113916 0.1030637 0.21535204 0.07448189 -0.1849351 -0.08234287 -0.007658974 0.11566774 -0.10921514 0.017131949 0.13011159 -0.10919237 0.11108376 -0.28666633 -0.29409558 -0.08989913 -0.23276581 -0.15819651 0.009579319 0.11602381 -0.0017176848 -0.07860678 -0.04376519 0.12663579 -0.103442825 0.031111216 -0.14732598 -0.05690275 0.097702526 0.04442168 0.12295169 -0.112573065 0.40688 -0.2655774 0.010520301 -0.23926178 -0.07105532 0.07257749 0.0049166935 0.022883983 0.08303864 -0.039145578 0.24457277 -0.100430176 -0.092171855 0.030491965 0.32016528 0.22866192 -0.032806654 -0.05282852 -0.11148772 0.23200446 -0.093721226 0.13676737 -0.016575472 0.033799905 -0.013492316 -0.091094725 0.037186958 -0.0048806886 -0.24605945 -0.059693713 -0.03713824 -0.28064352 -0.0993907 0.01714055 -0.17124338 -0.25065342 -0.14934897 -0.30143762 -0.12593122 0.13743694 -0.040287733 0.08928855 0.07909192 -0.22139356 0.047858775 0.006809441 0.26442975 0.15394835 -0.0051347436 -0.1496007 -0.15559366 0.15406395 0.20681599
828 -0.14144006 0.076427154 -0.06730125 0.028196253 0.36664245 -0.015729055 -0.16290013 0.14832945 -0.24285011 -0.14436905 0.11656641 -0.08272287 0.10773452 0.27874473 0.0055518597 -0.017375335 0.029828116 -0.0288905 0.06962114 0.01671207 0.09220734 0.02724847 -0.22343908 0.19963852 -0.021964183 -0.020276446 -0.1626015 -0.1989361 0.0760977 0.14832191 -0.08937921 0.19442093 0.06551627 -0.04219745 0.20955211 0.19687502 0.0887187 -0.17342703 0.1354083 -0.27627748 0.029349241 -0.21513356 -0.04598615 -0.35560519 0.07502081 -0.067122504 0.19390851 -0.040748775 -0.05071458 -0.090837866 -0.05879268 -0.1275134 0.07394733 0.1309819 0.19199969 0.039616358 0.01246302 -0.08126667 -0.13784318 -0.22257388 0.1098999 -0.01887911 -0.081733935 -0.09250818 0.22655125 -0.042731468 -0.034074306 -0.1010057 0.099406615 -0.00029254978 -0.029381193 -0.2024483 -0.18845764 -0.0022794637 -0.03544879 0.2204558 -0.09827138 -0.069252126 -0.3432992 -0.13458447 0.07338397 0.094922066 -0.057914153 -0.05410572 -0.049165215 0.08838414 -0.15885186 0.03860612 -0.06800732 0.15129656 0.0736373 0.07843579 0.084066436 0.023496212 0.24205011 -0.017611576 -0.010676863 0.0017481726 0.09965782 -0.12261673 -0.05305648 -0.016475208 0.042409353 -0.10431018 -0.13849793 0.08940401 -0.05466514 -0.0029528914 -0.026557023 -0.12725519 0.012647756 0.053031366 -0.29015276 0.0047370032 0.12243345 -0.051794156 -0.12598342 0.015297512 -0.0957776 -0.10414108 0.07705445 0.3442438 -0.10849013 -0.077834025 -0.28389952 0.14681631 0.10624349 0.018319689
345 -0.11048005 0.12597734 0.06531794 -0.04454177 0.26848724 0.038085155 -0.2527463 0.14906318 -0.0025147751 -0.08276014 0.13418841 0.061922215 0.06115434 0.24825554 -0.12054132 0.115746886 0.014621917 -0.07761506 0.048527524 0.09852527 0.03389073 0.0781736 -0.39174995 0.20666277 0.055871516 0.101162106 -0.23722687 -0.12619662 -0.021426316 0.1018696 -0.09793651 0.19529226 -0.037630517 -0.04993736 0.059220955 0.32789662 0.017309064 -0.033570495 0.06293846 -0.036378622 0.043681856 -0.21078698 -0.038097937 -0.28559598 0.15710436 0.037627377 0.17901553 -0.112366796 -0.038981304 -0.15294085 -0.06439945 -0.07658456 0.0671486 0.12643124 0.050215915 0.07387968 0.06398805 -0.046653673 -0.15516509 -0.25040868 -0.041581355 -0.004785141 -0.022222327 -0.12148775 0.115313955 -0.014326652 -0.08057467 -0.092967615 0.10092239 0.0045318548 -0.04975234 -0.1306793 -0.11037493 -0.05473397 -0.0058315345 0.32119358 -0.07893877 -0.010143267 -0.20839846 -0.12828907 0.13861991 0.029880172 0.016430976 0.079645 0.0062212693 0.053023875 -0.011739864 -0.11829283 -0.17727213 0.055522595 0.232173 0.044250242 0.2046215 0.07208428 0.21302077 0.1068181 -0.13326733 0.015294699 0.079768166 -0.11869221 -0.10655751 -0.10384435 0.060363453 -0.051608782 -0.23800802 0.26086554 0.023737472 -0.08711027 -0.15244304 -0.014458208 -0.03735101 -0.02705882 -0.31480289 -0.038324118 0.081553675 -0.13994052 -0.06561106 0.20481311 -0.17470366 -0.031930793 0.12843569 0.32931054 -0.10318687 -0.0029072606 -0.2060684 -0.014417027 0.11815185 0.1498763
680 -0.012254086 -0.11996151 -0.0032097455 -0.15777917 0.19084321 0.09102667 -0.3134095 -0.05631322 -0.044710368 -0.075741865 0.18414523 0.1452254 -0.032170285 0.15380844 -0.20193061 0.17469034 0.27102914 -0.178607 0.1061855 0.08275246 0.094603375 0.22128889 -0.28445202 0.1591905 0.07698135 0.04295221 -0.25955537 -0.071419105 0.01623207 -0.034422133 -0.14844073 0.10323615 -0.18833004 -0.052581668 0.087154455 0.2791385 0.1251886 0.09803289 0.09575179 -0.06638035 0.069604926 -0.33939493 -0.24152698 -0.11939185 0.20413482 0.16751152 0.10174166 -0.293422 -0.0598776 -0.033263378 0.15157063 -0.14539903 0.02070914 0.08927176 -0.18268742 0.07547798 -0.17430203 -0.26200035 -0.12221115 -0.27252477 -0.18318662 0.017927349 0.11874199 -0.0026235336 -0.09818535 0.0053862077 0.10961935 0.032689683 -0.025865464 -0.19606431 -0.111840494 0.064190194 0.08283368 0.021475198 -0.11440796 0.40969902 -0.15437098 0.083046265 -0.20770425 -0.06090339 0.12151546 -0.058937386 0.060704667 0.13394752 -0.07668123 0.34990945 -0.0060849395 -0.12393151 0.048559383 0.23243468 0.23114282 -0.016499883 -0.00026974647 0.12960462 0.19574861 0.12402009 0.033936642 -0.019164307 0.065785915 -0.13196632 -0.10852331 -0.063854 0.028246706 -0.28829354 -0.2227998 0.14032128 -0.3031388 -0.123961695 -0.06743403 -0.10562639 -0.24852479 -0.18477441 -0.45988643 -0.1179781 0.09281247 -0.0704074 0.054517284 0.2046177 -0.2281139 0.076610826 0.082181655 0.29604504 0.17322296 0.008933916 -0.12822427 -0.072480336 0.058408543 0.27997518
395 -0.033275582 0.22815962 0.23698816 0.24079268 0.21077172 -0.12842241 -0.20063075 0.09992933 0.030727375 -0.009263166 0.10036349 0.1942521 0.080284305 0.26797956 -0.09302668 -0.030589473 -0.13221648 -0.12158617 -0.034329947 -0.011090136 0.102876954 0.18782915 -0.39338717 0.13318087 0.00035985274 -0.03869158 -0.191141 -0.17083764 0.051936053 0.07408606 -0.06831518 0.30940533 -0.107749164 -0.012568057 0.2934803 0.19918941 0.06211793 0.0030976248 0.2026155 -0.123069815 -0.02489389 -0.28150728 0.043724284 -0.13164762 0.13025157 -0.05861459 0.24635692 -0.1631204 -0.13270856 -0.19485393 -0.043076843 -0.08957557 0.023343721 0.19379662 0.07503522 0.168412 0.1213082 0.012199588 -0.1740568 -0.32703254 -0.005489349 -0.12377995 -0.022888158 -0.31889892 0.06334438 0.024965161 -0.069558345 -0.07285234 0.07707549 0.03782315 -0.036025718 -0.20215237 -0.16038747 0.06983927 -0.12287414 0.21254678 -0.19429725 -0.117290035 -0.19100256 -0.23392056 -0.01434789 0.02717217 -0.12570311 0.108343795 -0.12427506 -0.0100160325 -0.110367656 -0.079647936 -0.17924495 -0.08786468 0.31473055 0.083793156 0.24821052 -0.10985206 0.15369058 -0.090687945 -0.0608503 -0.031033004 0.060600363 -0.030216793 -0.07392292 0.029184284 0.04555314 0.1475836 -0.09805646 -0.040357023 -0.0068568517 0.00010110498 0.00050972134 -0.013597915 0.061118416 -0.039744224 -0.18789122 -0.18486144 -0.0113176275 -0.075083494 -0.03506215 0.1211247 -0.011703919 0.0016528517 -0.0027350362 0.2657358 -0.07152192 -0.22205546 -0.32107717 -0.054370873 0.090258114 0.0132628465
746 -0.09630318 0.058081605 0.013178641 -0.12263372 0.16101143 0.00057496526 -0.2502615 0.021871034 -0.10885226 -0.177978 0.118118346 0.051069003 -0.105167545 0.27069384 -0.14370862 0.012321666 0.23715515 -0.15374392 0.0067228023 0.02822471 0.16345483 0.014365196 -0.24238029 0.15945263 -0.014647952 -0.08458251 -0.18377192 -0.010841462 0.055627085 0.10952868 -0.031698436 0.104846105 -0.056615345 0.00026888406 0.046629928 0.17313747 0.07290658 -0.045311693 0.06339716 -0.079215854 0.029994296 -0.21907929 -0.13121372 -0.20999093 0.17780101 0.10774775 0.060492817 -0.20696071 -0.080976285 -0.045503817 -0.009040316 -0.1707634 0.07153239 0.039376102 -0.058724016 0.113267615 -0.13115612 -0.11817727 -0.14292717 -0.2356208 0.043348625 0.013248407 0.037853647 -0.079670556 0.021712579 0.03134812 0.087591134 -0.063284904 -0.0024970854 -0.10152538 -0.030179195 0.035258453 -0.012644199 -0.083630405 -0.122352324 0.27945605 -0.009982938 0.01944837 -0.23353429 0.020219717 0.09910476 0.032615244 -0.02052335 0.08141429 -0.090550534 0.16122702 -0.01615962 -0.08845594 -0.093060754 0.13816418 0.30543727 -0.08821239 0.08983214 0.062326316 0.28714076 -0.03349262 0.018199494 0.07639277 0.099646755 -0.037044346 -0.0456658 -0.04679024 0.06498794 -0.1528517 -0.41078073 0.031165594 -0.14550284 -0.114103496 -0.00063608476 -0.1414117 -0.27984217 -0.15234843 -0.4756454 0.005822312 0.086028606 0.0724435 0.0075448435 0.11188985 -0.22045693 0.036039565 0.06471614 0.43811876 0.059438523 -0.08619629 -0.14162956 -0.03819965 0.2309369 0.19982548
350 -0.016727677 -0.06354531 0.0813261 0.057498068 0.22851673 -0.026546637 -0.13569532 -0.038785517 -0.07345584 -0.07349029 0.1710236 0.08300664 -0.0047671893 0.11685093 0.024463369 -0.04574046 0.2347405 -0.11944458 0.078549564 -0.0675912 0.14156185 -0.026135873 -0.35527468 0.15965663 -0.027727293 -0.02142815 -0.29171714 -0.18521123 0.017251246 -0.067910396 -0.034812238 0.16119912 -0.031187158 0.043657035 0.09164244 0.2734041 0.22916052 -0.034171 0.20562032 -0.2721835 0.048974536 -0.35796028 -0.16746917 -0.22847557 0.21902256 -0.056993075 0.18467472 -0.19098306 0.01804558 -0.12123285 0.003929448 -0.08219659 -0.049901213 0.14103313 -0.082738444 0.19407919 -0.058104265 -0.10235678 -0.19886467 -0.32791096 -0.07863838 0.025601774 0.06818487 -0.10406683 -0.13379806 0.17784923 0.07545713 -0.1729625 -0.038416564 -0.15012625 -0.20341364 -0.16799766 -0.09993861 -0.11435487 -0.0844052 0.17538564 -0.12665139 0.018442458 -0.2647437 -0.220909 -0.0082233595 0.03798851 -0.0025321734 0.03852948 -0.10779602 0.28974974 -0.08745389 -0.071581356 0.07598046 -0.004571745 0.35685036 0.0894152 0.19156593 0.10420219 0.41597757 0.07085029 0.005091428 -0.049453434 0.052356005 -0.047893662 0.03167886 0.032723807 -0.012771642 -0.18839936 -0.29041326 0.05089312 -0.27120492 -0.031419195 -0.027277814 -0.066090345 -0.1220861 -0.04061646 -0.47480863 0.005974097 0.040450558 -0.016451463 -0.06497582 0.12111582 -0.26030594 -0.020672306 0.07028692 0.18106316 0.10039372 -0.18849981 -0.2822927 0.061305005 0.067708574 0.15098202
661 0.060272474 0.036198344 0.063478805 -0.06871461 0.19226404 -0.06991235 -0.26736894 -0.024299564 -0.08917114 -0.018599251 0.13299349 0.12343241 0.002567773 0.251961 -0.17137259 0.035770014 0.0972353 -0.15403756 0.08488655 -0.09755559 0.123196244 0.056359347 -0.26772073 0.06752465 0.06287852 -0.026376998 -0.17383517 -0.0048483876 0.050437093 0.047141276 -0.09185222 0.1530907 -0.018751062 -0.05215315 0.07538434 0.17773522 0.113400616 -0.0904823 0.13483584 -0.04082324 0.02592498 -0.21496393 -0.1094673 -0.20895335 0.23155114 0.049227264 0.057316355 -0.18146615 0.02760291 -0.07743849 -0.057882793 -0.12025291 0.022705581 0.054411396 -0.010301022 0.13071816 -0.035948113 -0.11239329 -0.11732089 -0.23920786 0.05022126 0.017155254 0.032414872 -0.1221631 -0.074566126 0.0142111285 0.015576503 -0.07997247 0.0041509457 -0.05838111 -0.074411556 -0.015085152 -0.025903169 0.04459152 -0.11359269 0.35217237 -0.06090983 -0.06553121 -0.21945578 -0.026431562 0.0872418 0.055341855 -0.0022598372 0.12977107 -0.10657621 0.23275393 -0.042722307 -0.048791416 -0.13002688 0.10161205 0.34744602 0.03905888 0.06988835 0.017749112 0.25145894 -0.04407475 -0.0075314664 -0.011581938 0.17525834 0.016477754 -0.09584004 -0.023634866 0.14088395 -0.116697654 -0.37482154 0.05234391 -0.101410486 -0.056862988 -0.03977373 -0.20818916 -0.22649343 -0.092676714 -0.37500018 0.041469082 0.1828342 0.009337657 0.03893751 0.07525664 -0.23074219 0.06072448 0.032581203 0.36708063 0.014659249 -0.13962048 -0.20414817 -0.06910369 0.14012085 0.19256952
804 -0.04281734 0.043234345 0.10184431 0.025333684 0.23884045 -0.10587731 -0.19475666 -0.042840518 -0.058384437 -0.1397098 0.10963859 0.05405934 -0.025455851 0.26890594 -0.057046182 -0.050367776 0.062126026 -0.16075607 -0.02860436 -0.0050091124 0.2314917 0.03414583 -0.29580942 0.1956371 -0.0020704293 -0.10860578 -0.21521945 -0.055386387 0.15215889 0.100792065 -0.049331456 0.19806473 -0.06498797 -0.0146135725 0.08576472 0.22213317 0.056831546 -0.10355298 0.16297007 -0.17121564 0.012351954 -0.2520606 -0.07332516 -0.23009072 0.1372001 0.042228792 0.056020007 -0.23208922 -0.05818868 -0.08823273 0.03690084 -0.15528402 -0.0044325115 0.09964348 -0.028994853 0.16107991 -0.08069826 -0.084200576 -0.13739976 -0.2940281 0.08288935 0.046388663 0.0828377 -0.13146378 0.040499706 0.08101399 0.076271355 -0.18381321 0.058493584 -0.08969837 -0.11040932 -0.14632246 -0.1294956 -0.0038263414 -0.10582624 0.24928011 -0.13355401 -0.055320863 -0.3730335 -0.13234906 0.05560768 0.06953899 -0.13048898 0.042626306 -0.13365681 0.13284943 -0.16276044 -0.052549787 -0.09883103 0.17598195 0.34872124 0.0030614058 0.1301404 0.001988155 0.24897718 -0.14360769 0.0027964383 -0.021000708 0.03945439 -0.02195128 -0.0799352 0.04877474 0.024726978 -0.06586726 -0.33136648 -0.03682259 -0.17387949 -0.08530439 -0.040723853 -0.19773635 -0.1445266 -0.017580852 -0.34044975 -0.0483647 0.10568207 0.00764417 -0.021806186 -0.002048052 -0.17174834 0.015676387 -0.0010575281 0.3047468 0.028069297 -0.15755461 -0.25552464 -0.07905006 0.1901748 0.114278995
666 -0.062286526 0.055247936 0.037487112 -0.13012576 0.34358817 -0.07857187 -0.20522659 -0.0724824 -0.11451114 -0.011796125 0.016485212 0.15965965 0.08294564 0.14742151 -0.080873884 0.11027484 0.09047534 -0.1519872 0.058987997 0.061000086 0.26972115 0.23697713 -0.19900654 0.1624705 0.07151226 -0.092622645 -0.30938327 -0.07040994 0.030807592 0.007812552 -0.037477545 0.031150514 -0.055997685 -0.052242517 0.11298222 0.30490425 0.0006205958 -0.25980142 0.21817037 -0.15637384 -0.014827791 -0.20003957 -0.2954333 -0.18041518 0.22729935 0.116093956 0.100543186 -0.18439622 0.071632825 -0.06718103 -0.110336445 -0.14235054 0.11365224 0.0838431 -0.11243961 0.16273196 -0.05006761 -0.16832364 -0.1558708 -0.07544292 -0.13340516 -0.05659562 0.039987832 -0.18162125 -0.018202705 -0.04321276 0.03720113 -0.042250432 -0.01639967 -0.0670301 -0.058241483 0.0038576885 0.08466782 0.0020445213 0.0034474977 0.28151888 -0.14786741 -0.09872727 -0.27587977 -0.037931103 0.05852815 0.00044789218 -0.042973135 0.036001384 0.03163982 0.0315479 -0.023569047 -0.13876161 -0.04378714 0.2380764 0.27752677 0.060077123 0.19752516 0.033258833 0.26837406 -0.08490177 -0.050198164 -0.044670675 0.09502586 -0.044048 -0.07357843 -0.069888845 -0.045831967 -0.28998393 -0.30732155 0.18020688 -0.16122335 -0.07587753 -0.113091856 -0.07609498 -0.21312855 -0.09199006 -0.3240307 0.0031937219 0.16340038 0.026491072 0.055018328 0.15549888 -0.2988181 -0.012417634 0.03395748 0.32767633 0.0273057 0.06660999 -0.019007599 -0.07293935 0.14958696 0.21406983
723 -0.015098041 0.0022877462 -0.03018707 -0.03483405 0.2473296 -0.0118242875 -0.2508528 0.015532303 -0.05018942 0.009598024 0.078198574 0.18831931 0.08276614 0.18461265 -0.06603176 -0.017325578 0.061248776 -0.05242425 0.05354624 0.058916654 0.17142868 0.1376041 -0.25906608 0.14500092 0.07286374 -0.050185136 -0.36197308 0.037638057 -0.08540089 0.0026735882 -0.070872344 0.12538949 -0.09308162 -0.079781964 0.05914064 0.17139147 0.055058252 -0.12073887 0.1594435 -0.106083214 0.02395173 -0.1898316 -0.105397545 -0.2451029 0.20993836 0.055018753 0.016230829 -0.14982018 0.07866545 -0.073175974 -0.11586035 -0.112118565 -0.0078222975 0.08595054 -0.022077737 0.035057064 -0.01201298 -0.07784612 -0.07850297 -0.19783472 0.0047931406 -0.077025846 0.013454169 -0.14886099 -0.018086132 0.0044077355 -0.018396325 0.013581912 0.0600647 -0.10854126 -0.18816234 -0.13842997 -0.0019068271 0.09187406 -0.0066672354 0.3601287 -0.04249957 0.0090828845 -0.21033858 -0.023666713 0.079975165 -0.031908073 -0.08327699 0.070742495 -0.017740114 0.12742257 -0.07156616 -0.061120003 0.045834683 0.17507629 0.28834775 0.064057104 0.06525273 0.0044185277 0.21700712 -0.07436632 -0.06294875 0.10695232 0.22823851 -0.054088358 -0.06675501 -0.07551876 0.097432345 -0.17127305 -0.1587888 0.13767375 -0.032830507 0.0023965838 -0.016636763 -0.102620676 -0.18645509 -0.10932094 -0.3770248 0.022929568 0.18353274 0.029699089 0.076642476 0.04078405 -0.15501624 0.06961958 0.07587475 0.3062233 0.010138921 0.042588927 -0.06759769 -0.07068045 0.14327668 0.18323281
401 0.025980854 0.16509908 0.20709309 -0.010963297 0.22259186 -0.119405806 -0.23300037 0.11341868 0.043088038 -0.0010606268 0.109223075 0.18085973 0.12372564 0.28739342 -0.19552524 0.043338116 0.02372967 -0.12273354 0.069023505 -0.0010462446 0.041213386 0.017059453 -0.45440063 0.11053655 0.08322174 0.006058927 -0.17595638 -0.086754024 0.02303113 0.01361035 -0.15987734 0.27462167 -0.17427272 -0.107034534 0.03149674 0.12594411 0.10696536 -0.010129809 0.07542078 0.053549457 0.07075062 -0.19401172 -0.041237712 -0.21516123 0.27350265 0.11213119 0.2024544 -0.06309696 0.05816464 -0.15256904 -0.067001134 0.0095534725 0.0031617363 0.09976627 0.019498603 0.12326307 -0.026883889 -0.098349385 -0.026894122 -0.41246048 -0.17335488 -0.054808695 0.002099472 -0.16104272 -0.01679856 0.06756498 -0.096864924 -0.173647 0.030319888 -0.09343837 -0.020450607 -0.07567439 -0.06508521 -0.0009218825 -0.05576011 0.37414554 -0.050634015 -0.019170199 -0.12858905 -0.13024507 0.16661733 0.033322636 0.06832685 0.21626136 0.0425663 0.21112306 0.052917015 -0.152106 -0.121458694 -0.005022043 0.34137046 0.05888905 0.12953626 -0.0953345 0.23500673 0.02149749 -0.008123283 -0.080631815 0.041509643 -0.010735546 -0.13680501 -0.038632944 0.07919164 -0.11357424 -0.18569574 0.12020746 -0.02683245 -0.038158637 -0.012746258 0.021025075 -0.10828059 -0.10200731 -0.30710343 -0.027803047 0.12765297 -0.14694647 0.014475373 0.124598846 -0.2955191 0.050723564 0.100385234 0.24256282 -0.038522024 -0.004548278 -0.23353228 -0.08873607 0.14556333 0.23775472
374 0.045017473 0.010904214 -0.044705324 0.11788707 0.20836571 -0.08276003 -0.026413659 -0.05027454 -0.07519007 0.003356228 -0.016312666 0.13950469 0.17213582 0.1773244 -0.0557414 -0.008515445 -0.050539754 -0.030911546 0.0695941 -0.11444824 0.16726603 0.07438251 -0.25320828 0.06704578 -0.0070601683 -0.0014424522 -0.25588128 -0.01728647 0.060822032 -0.02330178 -0.10518686 0.27045354 0.014350876 -0.15540658 0.25689432 0.0761174 0.16146933 -0.12161766 0.22259143 -0.1137851 -0.03533974 -0.18114337 -0.032723904 -0.14888954 0.11573931 0.01846523 0.09532076 -0.11303201 0.08894801 -0.17744917 -0.004954161 -0.1348907 0.051458646 0.092921816 0.080542766 0.085861534 0.08125979 -0.02957721 -0.12914978 -0.1795574 0.105604716 -0.09234464 0.06555869 -0.30378574 -0.11992344 -0.051418666 -0.078675754 -0.08846571 0.046850555 -0.032669034 -0.09302594 -0.1886138 -0.034825146 0.06748456 -0.086359985 0.1851352 -0.10258665 0.0032767712 -0.14372578 -0.061370753 -0.017435133 0.10279096 -0.09139787 0.010093328 -0.16459599 0.1022752 -0.1324635 0.08511678 -0.01689467 0.11884879 0.26395115 0.04015129 0.026529247 -0.122719064 0.15055947 -0.23837791 0.026513126 -0.019507915 0.17781177 0.03105303 0.03274745 0.07750987 0.07022873 -0.08969821 -0.10683407 -0.08609428 -0.06242379 0.011928619 0.009455324 -0.209016 -0.14293118 -0.09736926 -0.22064716 0.12866043 0.04722213 0.111105256 -0.018390473 0.02837135 -0.08736863 0.04979949 -0.0071435 0.21572918 0.10249974 -0.084517494 -0.17266205 -0.0501534 0.072706975 0.090972655
823 -0.12459706 0.113789566 -0.07577978 -0.03635764 0.38954204 -0.041007545 -0.26006246 0.12729736 -0.14790523 -0.19703108 0.124380834 -0.07831568 0.11986654 0.2968223 -0.022017824 0.116142645 0.005564588 -0.22622669 0.13254902 0.12222443 0.046866663 0.18761915 -0.29602107 0.19404359 -0.02636639 -0.005168733 -0.07778217 -0.33784494 0.17526785 0.25131106 -0.22625011 0.24778914 0.05734775 -0.09146442 0.20462258 0.23778227 -0.012296299 -0.17233138 0.088985026 -0.1668641 0.038255643 -0.2728704 -0.105621725 -0.31932676 0.17450073 0.05987806 0.37150204 -0.07921471 -0.24122493 -0.055456463 -0.015923686 -0.09736182 0.09821617 0.19660424 0.15034841 0.10710584 -0.04882422 -0.12340056 -0.1246232 -0.42590347 -0.18295562 -0.013886519 -0.05182389 -0.145466 0.31373355 -0.080803566 -0.008122101 -0.18685324 0.18784752 0.020684296 0.12461412 -0.22012001 -0.28642294 0.058678243 -0.12669693 0.2940136 -0.2974305 -0.21212418 -0.4252591 -0.1623597 0.084748924 0.2109151 0.048321225 -0.0027326753 -0.080872014 0.045678575 -0.15730238 -0.023383288 -0.2404782 0.049024723 -0.01629896 0.07269795 0.3110849 0.009499336 0.22655167 0.023791129 0.07936308 -0.1002714 -0.11901107 -0.15594766 -0.081482105 -0.013529892 -0.1550545 -0.15206441 0.051462386 0.012576136 -0.12477328 -0.04701456 -0.047800343 0.01094075 -0.007365524 0.025416123 -0.27050233 -0.009959174 0.108206466 -0.060176022 -0.104304366 0.08884817 -0.10399679 -0.06098806 0.16886057 0.3657728 -0.15311372 -0.081914954 -0.36755118 0.056144193 0.04377749 -0.07343609
288 0.053912356 0.063526325 0.23689921 0.23163728 0.1910779 -0.07436798 -0.207408 0.19072415 0.028594928 -0.040135402 0.08542953 0.14002028 0.03197967 0.24981783 -0.30283442 0.14617234 0.00031849966 -0.07295301 0.0058145844 -0.07207554 0.06399088 0.20721512 -0.45717162 -0.008832744 0.060620587 0.07021817 -0.16437075 0.041960202 0.08754523 -0.010130527 -0.07831808 0.38845918 0.024306169 -0.027645571 0.2892365 0.28853747 0.14363065 0.08851397 0.21318495 -0.03027074 -0.108569354 -0.31793272 0.009712166 -0.0382325 0.06379956 0.01642909 0.16762118 -0.3304819 -0.0816944 -0.279985 0.06196995 -0.29470155 0.060108922 0.14346881 0.015213914 0.1964314 0.13884799 0.1791413 -0.26080215 -0.1528354 0.15839137 -0.10789289 0.107724965 -0.38136002 -0.096403 0.040935062 0.008395248 -0.004523716 -0.06974498 0.005243766 0.020156642 -0.17150177 0.015054856 -0.06626638 -0.1818009 0.15765071 -0.20122226 -0.08498705 -0.085427225 -0.09751866 -0.03902597 0.088137716 -0.047008183 0.124660335 -0.27464482 -0.047676653 -0.062034596 -0.09463485 -0.18726306 -0.119901694 0.41489106 -0.045518253 0.17740116 0.06851532 -0.037248667 -0.19285192 -0.12454547 0.031583544 0.19252563 0.017158767 -0.04695008 -0.029313104 0.1787079 0.1868492 -0.5067882 0.046063617 -0.010790308 -0.09738132 -0.14985852 -0.120248914 -0.06592077 -0.17879057 -0.23521459 -0.09283411 -0.14257123 -0.011735444 0.00026195304 0.19141543 0.028050851 0.13763185 -0.06494341 0.5126314 -0.025807956 -0.25144285 -0.16645971 -0.13528875 0.025165983 0.19833957
767 -0.1050047 0.1315224 0.07673707 0.02363676 0.34794632 -0.043363627 -0.2837162 0.2658754 -0.07857382 -0.15065628 0.16120875 0.0051865447 0.074792854 0.31064588 -0.03868576 0.08864112 0.14503528 -0.11223847 0.021461267 0.09469584 0.038375106 0.019752981 -0.37705228 0.16558944 0.16100568 0.020275157 -0.11006721 -0.12586142 0.05835916 0.19262303 -0.1154624 0.22438176 -0.030091735 -0.042883802 0.05603792 0.13041568 0.1091032 -0.089581765 0.063480236 -0.110329695 0.07464921 -0.29161114 -0.07911312 -0.3069689 0.25096798 0.038460568 0.16884354 -0.041061256 -0.049692027 -0.05539097 -0.08150515 -0.044919893 0.09531155 0.08609211 0.058771957 0.09228197 0.030556805 0.008704651 -0.0036779717 -0.30957285 -0.105795346 -0.10896798 -0.10719372 -0.114195086 0.2181542 0.050996892 0.010318794 -0.108175844 0.0728901 -0.01945803 0.09001426 -0.115047865 -0.18109907 -0.07254765 -0.16910906 0.3330336 -0.08492227 -0.12417407 -0.24588364 -0.054847784 0.18753572 0.06480886 0.058710475 0.09827756 0.051028963 0.1924056 0.0630239 -0.15606767 -0.20405512 -0.15021767 0.14834437 -0.02478054 0.24468848 0.03872207 0.1698268 0.042729452 -0.0116885435 0.02414562 -0.007668638 -0.08601044 -0.119042456 -0.10953994 0.100932404 -0.07660727 -0.1483766 0.13827616 -0.010925484 -0.075257555 0.016778955 0.054778595 -0.031904884 -0.12515217 -0.35779372 0.013257439 0.091113836 -0.17213723 -0.015855132 0.08966017 -0.25285745 0.0070816604 0.110423 0.42095158 -0.15373574 -0.037376974 -0.23366785 -0.02234201 -0.00651442 0.11710334
813 -0.025889514 0.054845072 0.12431802 -0.108659305 0.27535558 -0.10195556 -0.3630292 0.1364387 -0.026811587 -0.04895071 0.118961506 0.10182325 -0.050639406 0.27072653 -0.20499846 0.09532687 0.14897178 -0.12835419 0.040084716 -0.0161498 0.0686799 0.11301111 -0.34517416 0.19043921 0.087395094 -0.10313768 -0.17352495 -0.02962669 -0.01075723 0.07323614 -0.0698696 0.14503096 -0.06978683 -0.0024670647 0.08522622 0.19513527 -0.019020317 -0.11779398 0.11064921 0.014185856 -0.012876569 -0.25941128 -0.08359232 -0.28046617 0.24277766 0.09936168 0.0818132 -0.28960383 -0.088867284 -0.0573752 -0.080130905 -0.16851966 -0.0071465354 0.0033615513 -0.04654705 0.20333044 0.013063717 0.028526157 -0.08129843 -0.1089058 -0.008711038 -0.06922798 0.045841966 -0.13196263 0.08142486 0.04649019 0.00780462 -0.037768874 -0.039894607 -0.037320234 0.059692588 -0.014817242 -0.03137833 -0.005017592 -0.07572582 0.32803637 -0.060069017 -0.16023129 -0.1807165 -0.06839589 0.08323619 0.087234154 -0.05900162 0.19116871 -0.07676462 0.020334585 0.08181312 -0.17435151 -0.14177917 0.046930134 0.4261453 0.0487357 0.2427084 0.12031752 0.15000448 -0.031074317 -0.079415694 0.10590789 0.15260452 -0.042745553 -0.12993848 -0.1323445 0.07179957 -0.05891664 -0.5014361 0.19838753 0.021435715 -0.07530275 -0.15217093 -0.06634937 -0.15928996 -0.0635234 -0.41718838 -0.0786513 0.12638749 -0.053213414 -0.06143339 0.12060188 -0.22453047 0.034139913 0.084916525 0.53606784 -0.09817627 -0.06474383 -0.17273812 -0.06292864 0.1840695 0.24494676
391 -0.0912132 -0.06299017 0.0044912263 0.077064246 0.34455106 0.06515844 -0.14584984 0.12000593 -0.022034772 -0.09784892 0.11937045 0.09338724 0.11612507 0.25307056 -0.06003985 0.05861538 0.13109834 -0.07419703 -0.0047470997 0.11976746 0.11925328 0.11785164 -0.3030426 0.1686284 0.10108507 0.08024734 -0.26171792 -0.14063282 -0.052078437 0.11435772 -0.051763907 0.18280134 0.020646857 0.014411164 0.03780333 0.22460806 0.07779853 -0.095655896 0.11177185 -0.17935172 0.0023172288 -0.23030977 -0.1401538 -0.18141772 0.1745866 -0.010010875 0.12917268 -0.10058283 0.014634937 -0.08641285 -0.073484875 -0.10955222 0.09755718 0.057818677 0.02503383 0.019026268 0.10413197 0.007971042 -0.10378651 -0.23333663 0.036446102 -0.09466966 0.0061027375 -0.20103714 0.07501918 0.022331063 0.019751774 -0.009740568 0.13511758 -0.015694937 -0.054999623 -0.20816945 -0.025132265 -0.07087255 0.007599269 0.30097932 -0.09025269 -0.015083768 -0.29585245 -0.038764376 0.14309809 0.040091164 0.025340673 -0.014116875 -0.014947425 0.10238682 -0.07684993 -0.08189276 -0.12108488 -0.017749613 0.14659242 0.004326391 0.15894091 0.06095358 0.16083 -0.016037434 -0.07151053 0.0691277 0.12806612 -0.09974137 -0.0067576934 -0.026083857 0.040470235 -0.08845333 -0.1424461 0.17313918 -0.041168876 -0.074125715 -0.035851445 0.07815017 -0.07452724 -0.12441636 -0.29502398 0.08586228 0.072516784 0.023927743 0.07482096 0.12536556 -0.11246861 0.0101018585 0.06575368 0.26738432 -0.07682873 0.012637201 -0.054951444 0.014810378 0.032452807 0.08241883
688 0.0037763037 -0.028553715 0.08562091 -0.1339394 0.23431228 -0.06713878 -0.26999995 -0.01792367 -0.05334671 -0.029078031 0.0762937 0.24376749 0.13052332 0.22345622 -0.11925762 -0.016400682 0.06521317 -0.19303252 0.14875339 0.013078701 0.21035022 0.27278534 -0.2605967 0.073472254 0.024059702 -0.13027954 -0.28817403 -0.09280074 0.053010155 0.0520865 -0.1862235 0.17834984 -0.11171353 -0.14867488 0.13966109 0.23883088 0.08755442 -0.058380447 0.12903892 -0.005239034 0.046497494 -0.19024976 -0.1394397 -0.13417983 0.14183494 0.21873385 0.09840421 -0.1780851 -0.12506586 -0.0600199 0.06857173 -0.08647505 -0.05238224 0.10988275 -0.07285352 0.11901943 -0.22072525 -0.27021864 -0.018777154 -0.25426227 -0.11901525 -0.026092155 0.064834885 -0.087893024 -0.032232378 -0.04536319 0.05005657 -0.034320686 0.09524777 -0.06310477 -0.030263262 0.020678798 -0.013088812 0.13176051 -0.11471523 0.40739462 -0.2764248 -0.06950512 -0.28005084 -0.1009638 0.04549784 0.047370564 -0.0017466241 0.16457956 -0.06974947 0.20537247 -0.109502204 -0.12738891 0.08113452 0.26475707 0.29787332 0.05255142 0.028974375 -0.05110499 0.23318148 -0.05585418 0.06097476 0.004382898 0.0758688 -0.034327436 -0.16101569 -0.033291258 -0.040734738 -0.23790845 -0.05108262 0.020261727 -0.14454487 -0.014499752 -0.031512212 -0.129081 -0.23056509 -0.081135266 -0.38520277 -0.16639894 0.18596113 -0.03683832 0.0023530088 0.09180917 -0.22777306 0.04160984 0.09643505 0.32454598 0.03686197 0.0055529117 -0.16874231 -0.17243282 0.20854746 0.19688025
349 -0.020552866 0.021994483 0.05675867 0.025434164 0.3646658 -0.10443257 -0.10753815 0.052069247 -0.018195637 -0.029430036 -0.002870398 0.13468689 0.1832356 0.171406 -0.02842478 0.14055613 -0.06292301 -0.15753616 0.12735195 -0.033147346 0.1453163 0.2051384 -0.36979967 0.12769224 0.08439036 0.028042756 -0.2081153 -0.15453093 0.06517394 0.020463739 -0.13101602 0.2999992 -0.029993178 -0.09041855 0.20236827 0.23616053 0.10601483 -0.1857273 0.18126076 -0.10811613 -0.09153511 -0.24915524 -0.12511191 -0.16024876 0.1601981 0.07002949 0.29264358 -0.06473264 -0.038278803 -0.16280022 -0.039255083 -0.089044206 0.08979527 0.15883735 -0.0115455855 0.1715939 0.07131748 -0.043329787 -0.109725624 -0.23910779 -0.1516457 -0.07488052 0.037498433 -0.30205175 0.009714724 -0.059911042 -0.090867996 -0.12242585 0.051456474 -0.006565774 0.0008357872 -0.21369463 -0.032005314 -0.03524531 -0.046586383 0.1473915 -0.26047015 -0.15727347 -0.18339233 -0.19327225 0.03566203 0.15947269 0.02078942 0.073493175 -0.07415673 0.07931218 -0.07254224 -0.035637993 -0.079062425 -0.013090753 0.2162998 0.07017005 0.24083254 -0.015570246 0.15101491 -0.07342645 -0.01116983 -0.09246802 -0.058425013 -0.04382302 -0.1106355 0.017071074 -0.096693575 -0.19328499 -0.064240485 0.086572476 -0.09999683 -0.05033384 -0.08032993 -0.048789825 -0.07728126 -0.058355328 -0.2110566 0.0323322 0.042968273 -0.036815703 -0.04951095 0.17691042 -0.2177374 0.0064011374 0.07371299 0.2508958 -0.04535472 0.008980492 -0.2543886 -0.07502126 0.05012839 0.08536688
797 -0.12133934 0.084586866 0.13317183 0.09920413 0.22674218 -0.12160335 -0.121111825 0.08536722 -0.11911442 -0.10398016 0.041385654 0.039232295 0.0009321354 0.23505104 -0.052009847 0.0033265178 0.08431107 -0.038030744 -0.017101943 -0.009212497 0.13668044 0.045854986 -0.3079478 0.14251623 -0.027543483 -0.08312319 -0.19257887 -0.044403538 0.110744774 0.043061316 -0.06903605 0.25493225 -0.069366425 0.002800676 0.21839657 0.19385241 0.05258292 -0.016281653 0.17481233 -0.20979811 0.008412169 -0.23653601 -0.03933384 -0.25215515 0.07475898 0.034359526 0.104243614 -0.21017903 -0.080860496 -0.15530969 0.045572605 -0.15639646 0.00040417293 0.10538646 -0.03788158 0.124022424 -0.053686917 -0.03618472 -0.14391968 -0.20985983 0.0337385 -0.032443162 0.088045165 -0.15987359 0.06962766 0.090486236 -0.009474728 -0.1324678 -0.02794822 -0.07027209 -0.04193774 -0.18633601 -0.08719672 0.0122056715 -0.09585509 0.16018994 -0.11930627 -0.0456788 -0.27808312 -0.14372367 0.0083489735 0.11239834 -0.11334274 0.054173067 -0.120531194 0.068627514 -0.13581678 -0.041986264 -0.06931893 0.1165602 0.3320752 0.012404492 0.102526546 -0.018752046 0.14797983 -0.12538983 -0.026240295 0.018945923 0.062120616 -0.009068612 -0.014803549 0.04402775 0.07636666 0.0060835443 -0.31410065 -0.0561677 -0.122637235 -0.09069588 0.027965935 -0.116185814 -0.07553547 -0.047058497 -0.28881723 -0.018710786 -0.00059163885 -0.0643841 -0.11964416 0.05497471 -0.14945652 -0.00071367866 0.010825777 0.33334938 0.053778134 -0.13879591 -0.21305692 -0.007039277 0.15621091 0.14214587
786 -0.19910142 0.061711207 -0.0072205155 -0.12338476 0.31239444 -0.018279059 -0.35761574 0.14230587 -0.09559646 -0.20530848 0.2816792 -0.023599401 0.0037849343 0.2756425 -0.039790954 0.039286446 0.097974144 -0.24263519 0.11010197 0.118688904 0.12166518 0.17840865 -0.31107953 0.30584648 -0.023689518 -0.02221642 -0.17046596 -0.30325937 0.11459191 0.25966087 -0.21078092 0.18156861 0.0073242127 -0.08833958 0.1459864 0.29816562 0.092311956 -0.10381671 0.032809764 -0.14256269 0.1193121 -0.31212088 -0.04402359 -0.3485795 0.15231927 0.06478995 0.2253326 -0.14852269 -0.36357 -0.014689158 0.011288586 -0.09592442 0.06517848 0.13323133 0.05511249 0.07830469 -0.2145539 -0.16317524 -0.10109149 -0.3617918 -0.101241864 0.057472527 -0.09150044 -0.054253872 0.25739515 -0.06757241 0.08334297 -0.15277843 0.1840508 -0.0006613141 0.03598417 -0.08355315 -0.31575024 0.03236839 -0.12906718 0.30891222 -0.30691013 -0.20715259 -0.399679 -0.19225478 0.055279125 0.1138458 0.032177314 0.06863056 -0.10888291 0.1896939 -0.109466106 -0.098188646 -0.08366252 0.05751609 0.13137992 0.07509454 0.32771608 0.08710937 0.35751915 0.093077205 0.078292705 0.0038910038 -0.039951984 -0.16168855 -0.12838016 -0.08499746 -0.1123492 -0.13744096 -0.03331429 0.11248702 -0.140825 -0.06192881 -0.13475396 -0.07592506 -0.0069063464 0.054049812 -0.43913016 -0.14023903 0.12080915 -0.083217286 -0.11577176 0.11270384 -0.18236305 -0.028263247 0.18536429 0.41379267 -0.16088714 -0.14329112 -0.43818557 0.031684376 0.12294596 0.05944401
716 -0.009283642 0.08632645 0.12424999 -0.0090316655 0.20765345 -0.03590925 -0.35768637 -0.03192648 0.021459784 0.025942506 0.15716822 0.24698508 0.10156459 0.2927335 -0.22626907 -0.01127621 -0.0123356385 -0.19671968 -0.04455789 0.03297943 0.18583699 0.24871394 -0.28341085 0.039563045 0.0547549 -0.06491838 -0.2719758 0.04872765 0.008638034 0.1110754 -0.08359422 0.13178629 -0.19684684 -0.045966215 0.16393156 0.1323755 -0.0041928645 -0.03958143 0.12773268 0.013533391 0.08404829 -0.14741015 -0.08229225 -0.15320897 0.18548016 0.08004884 -0.03627541 -0.20112552 -0.008566929 -0.03216281 -0.039993092 -0.15049288 -0.016116315 0.105889045 0.014607578 0.091221176 -0.08662278 -0.13910073 -0.09180956 -0.20033705 0.020898474 -0.036819633 0.014377178 -0.10180319 -0.0749417 0.0094442945 0.053729787 -0.0123918895 0.011412329 -0.022421766 -0.05962937 0.016163548 0.016080843 0.17237422 -0.04193625 0.40685964 -0.14595544 -0.1150827 -0.22599119 0.0008303002 0.056890186 -0.0478624 -0.06488922 0.092373274 -0.044795983 0.12714614 -0.06562543 -0.08125168 -0.12243611 0.1650699 0.33177647 0.08493462 0.10937529 -0.10487721 0.16886322 -0.11762932 0.0069202962 0.07781842 0.21587822 0.055727944 -0.16294925 -0.06309223 0.1307615 -0.022081573 -0.2068491 0.009692326 -0.056649383 -0.05117083 0.031759094 -0.081783004 -0.11304133 -0.06960739 -0.2695889 -0.11322716 0.13193513 -0.0008905381 0.13789715 0.081682265 -0.132966 0.12147485 0.01588682 0.3521808 0.036223676 -0.07652932 -0.11570163 -0.15711716 0.15253967 0.15039901
766 -0.042418476 -0.015848262 0.03780816 -0.09872383 0.21756989 0.0050597857 -0.31819576 0.08205278 0.03668612 -0.054257255 0.10760458 0.043076217 0.023845509 0.17100412 -0.17977023 0.09318583 0.05575326 -0.14990804 0.11839818 0.064400345 -0.0018586036 0.121007465 -0.32265353 0.14503106 0.036340483 0.027655108 -0.15541692 -0.17383394 0.06325982 0.073034264 -0.23916207 0.16199014 -0.022067556 -0.1447369 0.08353478 0.21372707 0.0013907078 -0.060374178 0.056933068 0.1185217 0.035693318 -0.16716316 -0.09469009 -0.24720797 0.15919366 0.19952485 0.20106886 -0.22140087 -0.17587921 -0.080570415 0.055227097 -0.06999463 0.041464638 0.04701239 0.023985974 0.11343041 -0.027574785 -0.092908874 -0.012124167 -0.28587878 -0.10830213 0.032836784 -0.003029539 -0.15305221 0.07512338 -0.050406486 0.035111785 -0.11914425 0.14042564 -0.03152271 0.07601981 -0.054803725 -0.15865034 0.038108647 -0.08771526 0.272203 -0.16913144 -0.11732213 -0.2599166 -0.10100734 0.07670616 0.105249435 0.010744309 0.12604594 -0.14318375 0.107952334 -0.030397631 -0.13275221 -0.17200702 0.03027338 0.21186867 0.040936623 0.21508719 0.025422903 0.25680524 0.04604023 -0.0005382364 -0.04775112 0.025765525 -0.06327272 -0.07073229 -0.08786021 -0.03157974 -0.13629134 -0.20993343 0.11801331 -0.06210964 -0.038568225 -0.16304497 -0.089213274 -0.11150493 -0.0107121365 -0.3697461 -0.034581717 0.11970571 0.014706377 -0.073212065 0.14786527 -0.1636497 -0.001099946 0.16401494 0.30265847 -0.044166524 -0.07121217 -0.24377373 0.03168869 0.08817821 0.14078364
270 -0.08129575 -0.19067729 0.271729 0.25771224 0.20880577 -0.07256508 -0.15236637 0.24678928 0.0067509343 -0.07257144 0.19463116 0.18302599 0.06271494 0.09922954 -0.23007567 0.12789248 0.20610945 -0.14278302 -0.07450142 0.052678064 0.12006407 0.39955318 -0.3331562 0.07192386 0.030818783 -0.041336395 -0.23372614 -0.07311084 0.081462875 -0.021545447 -0.16317691 0.27543584 -0.019542124 0.009608782 0.30526084 0.35352913 0.22739178 0.115688354 0.2035232 -0.15431233 -0.029342769 -0.37565768 -0.09685016 0.022156293 -0.014012534 0.003827662 0.18114033 -0.38700858 -0.25859037 -0.26408944 0.16986707 -0.31436062 0.12898251 0.057389155 -0.12555161 0.09425091 -0.06748401 0.083844185 -0.16527963 -0.13169594 0.05656951 -0.10948979 0.11744221 -0.32216072 -0.04656886 0.029247813 0.14309599 -0.0198984 0.03284598 -0.034461055 0.05749184 -0.17035142 0.043963794 -0.012558725 -0.039730236 0.18923472 -0.30217442 -0.1130594 -0.13145907 -0.12668562 -0.13424128 0.14542845 0.06996699 0.061221164 -0.21369092 -0.010018737 -0.026930504 -0.22848107 -0.04168319 -0.099839725 0.38941333 -0.039031964 0.26190877 0.15014817 0.048179276 -0.09767476 -0.08039233 0.10508111 0.18641616 -0.07965349 0.092962004 -0.06768952 0.086157106 0.098207675 -0.3277554 0.054035936 -0.15240668 -0.11618358 -0.13984843 0.058323316 -0.049772494 -0.24219467 -0.28888 -0.14355054 -0.3065256 0.032049444 0.10958297 0.14904198 0.022427175 0.15109003 0.10139691 0.37172097 0.03638827 -0.15193808 0.03376104 -0.09364303 -0.0037995144 0.17131038
422 -0.120293096 0.061807532 0.07511903 0.085690774 0.31860942 0.031910665 -0.2941276 0.15550004 -0.028111657 -0.021960847 0.13417347 0.08441243 0.025865411 0.1697766 -0.21030413 0.13992049 0.12791277 0.028770758 -0.008975672 0.24691604 0.05437485 0.15135667 -0.29248944 0.16329294 0.038898166 0.11011536 -0.20393474 -0.045925625 -0.07051474 -0.02069699 -0.07149643 0.120451726 -0.08359569 -0.012878037 -0.009852238 0.2681874 0.026479784 0.010253469 0.031920094 -0.09369308 0.09815359 -0.23916578 -0.100643426 -0.16100003 0.14320756 0.051720906 0.07905529 -0.18480118 -0.0085803345 -0.10184555 -0.054874107 -0.12396596 0.07718979 0.010036107 0.009107344 -0.027694225 0.010317853 -0.050986607 -0.08220784 -0.275967 -0.10680327 -0.031415954 -0.0077863466 -0.074115165 0.036116704 -0.012221247 -0.03364367 0.04724248 0.036927614 -0.14252818 -0.15776287 -0.06106398 0.048714112 0.0011175722 0.0647359 0.3947991 -0.0082420595 0.0693353 -0.20900068 -0.024460854 0.060556754 -0.053488538 0.011170624 0.10386292 0.023806527 0.079791024 -0.019908337 -0.13118002 -0.06689672 0.062317412 0.19057392 -0.046397872 0.09716546 0.14638971 0.1682326 0.11132902 -0.07992704 0.0818156 0.12976074 -0.094879806 -0.07818906 -0.091704786 0.1360611 -0.11463403 -0.28297085 0.22138165 -0.0071446053 -0.091884695 -0.11604567 0.01616345 -0.15354235 -0.120400056 -0.29872334 -0.022876734 0.058883723 -0.11911955 0.10123149 0.19013259 -0.08129852 0.03151337 0.13852623 0.25799996 -0.027556159 -0.013747147 -0.080289505 -0.059534177 0.062009297 0.1713699
508 0.014552531 -0.02802402 -0.09139013 -0.15224655 0.23899172 0.012210113 -0.26897067 -0.022272082 -0.12206843 0.0005811786 0.13056667 0.10466805 0.041564282 0.18976393 -0.11726815 0.12578888 0.08458934 -0.1581653 0.111175135 -0.051701378 0.15142392 0.17139311 -0.20882608 0.06708852 0.09770287 0.002143082 -0.26511404 -0.01650805 0.0641279 0.0029979774 -0.13584097 0.024592048 0.050549027 -0.060468517 0.06700401 0.27501428 0.04817085 -0.22065148 0.18994272 -0.08465943 -0.02383069 -0.24134809 -0.19110894 -0.260716 0.18210882 0.02189313 0.078070715 -0.21164453 0.03148113 -0.07721094 -0.10364137 -0.20531757 0.110951446 0.097995155 -0.0032712747 0.1503108 0.075296775 -0.091040105 -0.09698149 -0.09854121 -0.025958648 -0.013868383 -0.0205616 -0.19834858 -0.01211483 -0.043552 0.013507292 -0.0047792047 0.03387261 -0.035192143 -0.025563003 -0.07410253 -0.024797108 0.027102202 -0.035553943 0.3466482 -0.14121209 -0.08091816 -0.26238638 -0.022247186 0.061353493 0.06648936 0.008682278 0.07371506 -0.06114974 0.10645275 -0.012166265 -0.10606101 -0.104479596 0.10904941 0.23397335 0.10761833 0.19402207 0.10123486 0.17304544 -0.06342158 -0.08643109 0.018193148 0.20750737 -0.063861474 -0.09796158 -0.11669812 0.08141719 -0.22458787 -0.30942902 0.23975137 -0.14502463 -0.024419935 -0.1337439 -0.18575495 -0.22005534 -0.086024754 -0.39542502 0.0571201 0.17219383 0.011578145 0.07029029 0.11364559 -0.21611543 0.04685606 0.06402409 0.41727194 -0.03598566 -0.021327654 -0.050331064 -0.033484228 0.06928565 0.14694585
199 -0.100248076 -0.14819174 -0.046757746 -0.05057304 0.35549426 0.026106028 -0.08979601 -0.03916285 0.0052220877 -0.053080976 0.062069256 0.21216466 0.10964302 0.1588964 -0.046963997 0.084099405 0.0942601 -0.15459214 -0.059675876 0.07978907 0.19868815 0.2828998 -0.09735981 0.17805786 -0.0113872755 -0.059582945 -0.29928094 -0.1466897 -0.0035899358 0.04736291 -0.014970756 -0.003177156 -0.11101207 0.0978058 0.077794425 0.10609642 0.008414727 -0.16837442 0.13041553 -0.22346559 -0.0010955549 -0.14813331 -0.2854341 -0.15127927 0.16582695 -0.03219591 0.121478036 -0.12554438 0.0045720786 0.0035807113 -0.07551408 -0.15005751 0.07477499 0.018980686 0.010281269 0.045057278 0.0537114 -0.08582071 -0.0018066217 -0.13857111 -0.07700307 -0.084633745 0.029780913 -0.11782592 0.01197943 0.008890423 -0.11508394 0.022695284 0.018487686 -0.043840438 -0.046521656 -0.09934426 0.1603541 -0.013229553 0.13245149 0.25938642 -0.055204 -0.049513176 -0.18568811 -0.049372353 0.0881643 0.106981345 0.02127013 -0.11330157 0.038527977 0.029288605 0.013586906 -0.0058703218 -0.052819114 0.122192256 0.24516286 0.019789653 0.07122778 0.038535137 0.21694164 -0.033837557 -0.0078987265 0.10371617 0.1234267 -0.063299626 -0.059687458 -0.09273645 -0.028339656 -0.23067099 -0.22137138 0.103535816 -0.112407215 -0.053599037 0.03694194 0.03494006 -0.25643295 -0.09892969 -0.3211087 0.14581244 0.04904559 0.07539531 0.1235517 0.01932641 -0.20731938 0.05719898 0.086346604 0.22328417 0.08677098 0.12332085 0.044011705 -0.053555366 0.06839931 0.09899584
816 -0.023033928 0.021201823 0.09185013 -0.018082885 0.20832455 -0.01957667 -0.19948177 0.087361366 -0.09751165 -0.22478025 0.13586113 0.016559737 -0.012774742 0.3699288 -0.08543527 -0.008324988 0.23041199 -0.15394323 0.035127316 -0.004457941 0.059659135 -0.09690051 -0.2532186 0.09230576 -0.003098039 -0.03274468 -0.15533823 -0.09935471 0.101152785 0.084158845 -0.06781377 0.15988125 -0.018840099 0.013781916 0.012084123 0.1905355 0.13190916 -0.023804972 0.07636344 -0.09191059 0.06712577 -0.22688526 -0.17542471 -0.2835363 0.17718796 0.023153212 0.104265034 -0.123408064 0.037192278 -0.05360146 0.022599615 -0.08525188 -0.036376614 0.062235415 0.057642914 0.12084866 -0.041263826 -0.091954954 -0.08712415 -0.32234403 0.08691206 0.030573018 0.013305719 -0.0005693592 0.10455098 0.13328767 -0.014158079 -0.15526511 0.009881778 -0.06758284 0.0058536506 -0.094254114 -0.1004304 -0.10588972 -0.17513773 0.3018351 0.043225303 0.03516878 -0.28924537 -0.031215623 0.15281974 0.10378522 0.02681282 0.038085442 -0.037076145 0.23882422 -0.02086021 -0.059245896 -0.14593376 0.052851696 0.2991802 -0.043008294 -0.008622899 0.034810513 0.23736604 0.02120423 0.005352989 0.07453352 0.086573035 -0.050832856 -0.035482924 -0.04891167 0.12852627 -0.07188711 -0.3851178 -0.014095393 -0.12635216 -0.12325222 0.07353344 -0.12391635 -0.2593845 -0.0996447 -0.4560134 0.08293785 0.113935485 -0.034228716 -0.0124398805 0.019205889 -0.22486499 -0.01355888 0.10545306 0.3893336 0.02935388 -0.099671826 -0.16960584 0.049302276 0.13763769 0.11884522
721 -0.06987229 0.00861385 0.07216865 0.06213273 0.20759353 -0.019494843 -0.214609 0.028630674 -9.3989176e-05 0.001091352 0.057360835 0.16501302 0.12110003 0.10629639 -0.12889539 -0.034850195 0.08864217 -0.030108722 -0.041594956 0.14060192 0.20693168 0.22548974 -0.2733931 0.14022094 0.011454339 -0.055254526 -0.23700573 -0.05706462 0.017424367 -0.008222624 -0.04893235 0.20426421 -0.11037842 -0.06435986 0.12793858 0.24632263 0.052802525 -0.047247756 0.14454293 -0.17088208 0.0121558085 -0.20533659 -0.029218862 -0.125037 0.04650027 0.053693555 0.092843816 -0.13862005 -0.14186524 -0.08232482 0.038808573 -0.12827314 -0.017766159 0.11632739 -0.01807757 0.042342193 -0.07771518 -0.13397515 -0.083231516 -0.23603956 -0.08052379 -0.108261704 0.020880649 -0.09891022 -0.053227697 0.019859403 0.047316868 -0.009678453 0.04587481 -0.11588823 -0.15219374 -0.0441766 -0.038946807 0.08146974 0.027430803 0.3261085 -0.19188741 -0.020827476 -0.21790189 -0.10321629 -0.03477073 -0.012901333 -0.08511202 0.051690973 -0.08731427 0.14606811 -0.16859643 -0.07092825 0.07968895 0.15366094 0.2134094 -0.0015823562 0.039397705 -0.004230583 0.22134893 -0.02673134 0.036876146 0.0753318 0.13460961 -0.04198302 -0.12985846 0.054168627 0.035257407 -0.086737335 -0.08659552 0.020713106 -0.10057251 -0.015487173 0.00022571775 -0.08955496 -0.08753655 -0.061477937 -0.23316385 -0.15697256 0.08431876 -0.042680945 0.08783157 0.11787249 -0.070076674 0.040583104 0.053633254 0.21729393 0.029011784 -0.043719858 -0.1314713 -0.067941636 0.107973985 0.09949851
314 0.033416606 -0.006753179 0.16162938 0.085192315 0.18036303 -0.11211896 -0.15104526 0.11400083 0.027085364 -0.09353604 0.1293033 0.15387066 0.08737228 0.20765352 -0.17307776 0.15017097 0.06585107 -0.2330143 0.0035003154 0.016774965 0.12610212 0.29981285 -0.31571648 0.13032897 0.05796081 0.055816453 -0.12340519 -0.08764183 0.13832839 0.052283533 -0.19359764 0.33483443 -0.039406918 -0.14331682 0.21186163 0.2230399 0.19564281 -0.0051062535 0.1208718 -0.024295028 -0.036435235 -0.31452975 -0.031093417 0.0067041507 0.10723011 0.10599916 0.2268711 -0.23259197 -0.18805727 -0.18109801 0.08780581 -0.17240639 0.16723426 0.12541126 -0.091352664 0.109596066 -0.056221463 0.0043504955 -0.14184152 -0.21081057 -0.046202943 -0.075348504 0.07079117 -0.28817624 0.010165854 -0.0756396 0.030719498 -0.100267544 0.100324094 -0.026593512 0.06627825 -0.13125177 -0.012451453 0.02170044 -0.10469622 0.27103102 -0.27129123 -0.13850565 -0.10820042 -0.09341775 0.0034455697 0.1299433 0.08770972 0.12661421 -0.14281265 0.07887829 -0.040787067 -0.1397907 -0.12929711 -0.043031305 0.3071911 -0.052406028 0.22124548 -0.0111212 0.052427944 -0.14651835 0.04871256 0.011731015 0.07089182 -0.03312941 -0.021150457 0.01433972 0.005249955 -0.015318822 -0.10377729 -0.011333698 -0.13592361 -0.092410974 -0.11416583 -0.061000377 -0.12952174 -0.22997674 -0.23073027 -0.054422744 -0.10757396 -0.0036887513 0.1537662 0.16163509 -0.08318373 0.14805956 0.09264599 0.31566474 0.014363095 -0.10599951 -0.13726662 -0.16412021 0.023549946 0.13738881
389 0.016529419 -0.11198266 0.12319721 -0.021562014 0.21610525 -0.029244844 -0.123645775 0.032253955 0.046485156 -0.0710984 0.12512335 0.13387261 0.10464996 0.15426861 -0.14203165 0.058092516 0.17357044 -0.15615109 0.061016154 -0.03195855 0.09871071 0.02155239 -0.38551152 0.12722936 0.04217773 0.022568434 -0.22986874 -0.09755675 0.029403236 -0.074149415 -0.09762593 0.21460146 -0.16895035 -0.12160648 0.020100558 0.15263368 0.23472933 -0.03674962 0.11299356 -0.02588533 0.022412784 -0.22955483 -0.1629949 -0.13689409 0.24728434 0.13998523 0.20223635 -0.08082504 0.08183621 -0.115242966 0.046492577 -0.042700667 0.040516064 0.09434853 -0.11777379 0.10368531 -0.08236165 -0.13444361 -0.10165762 -0.34181488 -0.1263456 0.001027691 0.08831822 -0.17469484 -0.16974543 0.096190795 0.042043217 -0.19993499 0.017178165 -0.18342274 -0.08771046 -0.11713617 0.031111406 -0.112836994 -0.027187046 0.23243384 -0.072708294 0.050842363 -0.14081448 -0.12243021 0.14026432 0.012535593 0.101748414 0.11873507 -0.06110401 0.32919824 0.006931167 -0.12223162 0.014429956 0.051550105 0.33050638 0.0005875468 0.12063279 -0.020956768 0.31651968 0.00306083 0.0681529 -0.10461179 0.025386292 -0.0030591234 -0.0066823224 0.011955518 -0.022100614 -0.25599286 -0.20172524 0.077304184 -0.2221821 -0.05472843 -0.043954767 -0.0061491574 -0.17246148 -0.146519 -0.382501 0.09723954 0.058231663 0.06258239 0.05626654 0.1635487 -0.29562503 0.06993806 0.09825848 0.14917755 0.13253865 0.010023828 -0.15353651 0.017243838 0.10479142 0.2889536
718 -0.08049369 0.054722097 0.06596617 -0.19843917 0.31152466 0.011716628 -0.41681167 0.092193834 -0.05046983 -0.057568256 0.20894569 0.1574223 0.04389588 0.24312468 -0.15818861 0.13406031 0.22290806 -0.19136919 0.021470403 0.10327953 0.100855656 0.24226336 -0.32742554 0.20099166 0.19720683 -0.08254847 -0.27044505 -0.05057552 -0.010108039 0.16250417 -0.12649044 0.09829575 -0.1263872 -0.050111227 0.082266845 0.2767443 -0.009209798 -0.009623163 0.08329936 -0.015639234 0.11513099 -0.2836085 -0.15397784 -0.3048691 0.25635305 0.14807485 0.02719941 -0.20258045 -0.090853326 0.027057556 0.009507314 -0.11440589 0.06137125 0.09017209 -0.09699174 0.10219156 -0.14268272 -0.21732871 -0.04659684 -0.17242114 -0.17290637 -0.05304113 -0.032758705 0.021023871 0.118716046 -0.02173817 0.10065016 -0.006581187 0.08556386 -0.076485015 0.02417846 0.0754874 -0.06988755 0.11960065 -0.14513241 0.5442237 -0.15627459 -0.09350942 -0.26210207 0.0024137746 0.17338593 -0.04147755 0.04596124 0.16897815 0.03517938 0.20193918 0.08987343 -0.21008503 -0.10498398 0.14684376 0.22299284 0.015565275 0.13709082 0.105090916 0.20603149 0.10515171 -0.06511803 0.045349512 0.11816582 -0.1540612 -0.15531911 -0.17497802 0.07516883 -0.18496725 -0.17135128 0.21245624 -0.12492639 -0.1217398 -0.04437628 -0.024319578 -0.09886985 -0.16037007 -0.41797668 -0.14877015 0.17103101 -0.16575933 0.0034417342 0.13280211 -0.26058108 0.047006246 0.0818351 0.47258192 -0.050677937 0.061000668 -0.08074993 -0.112941265 0.12704778 0.2135237
386 -0.10700214 -0.032644555 0.08377691 0.008324839 0.36056793 -0.084564455 -0.24937828 0.20832409 -0.016675347 -0.04608639 0.11313672 0.042686887 0.13869664 0.20238508 -0.104760006 0.17049176 0.08356188 -0.08180146 0.013335505 0.0566108 0.05180566 0.113381766 -0.42501488 0.21120113 0.14817582 0.04871496 -0.16115543 -0.14961906 0.03953103 0.02230345 -0.12498303 0.21602578 -0.06647955 -0.024461748 0.052380502 0.27840337 0.086134456 -0.1302847 0.09542104 -0.10407854 -0.027242372 -0.25789973 -0.120963946 -0.30027547 0.17282617 0.045609836 0.27035317 -0.117953174 -0.044365562 -0.14771648 -0.072817415 -0.098812036 0.080046386 0.108541876 0.0032744494 0.14735223 0.074168704 0.031228151 -0.028482243 -0.20051983 -0.16953127 -0.083295286 -0.027344724 -0.16950051 0.11177679 0.08168843 -0.061153658 -0.16828665 0.012890309 -0.07712187 0.029474067 -0.19067869 -0.11368551 -0.10629551 0.087878294 0.2685373 -0.17748225 -0.17284736 -0.20156732 -0.20332587 0.104950696 0.08493362 0.046259932 0.097096846 0.024001494 0.042032856 0.051019825 -0.16909026 -0.09563933 -0.061625134 0.23031655 0.0948504 0.3160396 0.12468575 0.12282626 0.03268413 -0.08887595 -0.004019655 0.038110387 -0.110378265 -0.16616705 -0.10460846 0.01820539 -0.12989037 -0.25400645 0.30168167 -0.03797649 -0.050728384 -0.20214877 0.03597597 -0.009415789 -0.028934037 -0.33555666 -0.015759828 0.02654308 -0.17383733 -0.006252687 0.14680281 -0.2348803 -0.015786441 0.1472355 0.35031873 -0.1744134 0.032110818 -0.15861163 -0.004566667 0.019229915 0.1964514
442 -0.09168964 0.04856402 -0.118160345 -0.0814097 0.33982188 -0.0492547 -0.06553061 0.010351899 -0.20126727 0.038990203 -0.01611436 0.083125666 0.12123557 0.053580493 -0.013031315 0.22737098 0.00887785 -0.0056804833 0.107485734 0.05128452 0.20909268 0.22280683 -0.20561537 0.18233737 0.095683314 0.040726233 -0.27877852 -0.05563595 -0.04647147 -0.034330335 -0.07853593 0.12575169 0.051708616 -0.06359357 0.20641679 0.24869819 0.034389902 -0.24286918 0.24360241 -0.2676573 -0.049686294 -0.2688093 -0.17770359 -0.21905877 0.16230556 -0.013703207 0.109329484 -0.11228119 0.09155094 -0.11099747 -0.12131033 -0.16533884 0.2039694 0.10551285 -0.07127131 0.08845125 0.083914146 -0.10103877 -0.16670859 -0.04994352 -0.1613757 -0.12920952 0.004451163 -0.25186267 -0.020910561 -0.15968266 -0.07701235 0.05092216 -0.014923297 -0.048054025 -0.14185622 -0.13449109 0.08977264 0.044405177 0.033828538 0.28030708 -0.16198821 -0.05740226 -0.19790983 -0.04591585 0.03120184 0.063933186 0.009697751 0.032022662 -0.00640591 0.040084857 -0.02486581 -0.017051438 -0.022234106 0.11087192 0.14816643 0.063058324 0.18040048 0.072578594 0.1885874 -0.042505022 -0.08260123 -0.008436141 0.08642612 -0.107291654 -0.025808835 -0.04245042 0.009100776 -0.28832245 -0.1590781 0.24560596 -0.09768886 -0.06857714 -0.081488766 -0.10041037 -0.15124454 -0.14635938 -0.2846981 0.119943865 0.12365173 -0.03520506 -0.0073469956 0.18244806 -0.2484842 -0.05318774 0.03494721 0.3209978 0.0032962356 0.10744183 -0.07004922 -0.040956654 0.07150585 0.1341528
339 0.016467549 0.003810715 0.18623027 0.035589106 0.23399201 -0.02409192 -0.26068783 0.12154503 0.105690904 -0.09269262 0.21087852 0.13299596 0.13877952 0.2677414 -0.15501298 0.17459857 0.073235326 -0.2052498 0.008917375 -0.059831727 0.018889926 0.036098294 -0.52214974 0.14510244 0.17705509 0.16076161 -0.19646396 -0.14887454 0.11835714 0.03896671 -0.1933116 0.28510678 -0.09109399 -0.11228458 0.04415628 0.30758372 0.19453724 0.011455578 0.12418134 0.0066282316 -0.029180186 -0.27525792 -0.08404623 -0.2776577 0.25242734 0.052250218 0.22044049 -0.0841321 0.022734318 -0.14923227 0.0053381044 -0.02173356 0.07072885 0.22105162 -0.03668922 0.18867736 0.11318746 -0.046984274 -0.12356862 -0.3279023 -0.09589008 0.011668183 -0.022802148 -0.21159017 -0.046876 0.12002333 -0.043661807 -0.24202374 0.067153655 -0.041254092 -0.0105522955 -0.24097596 -0.17589347 -0.10195248 -0.09725516 0.28102368 -0.15996341 -0.07646276 -0.18715824 -0.17148626 0.1622652 0.042539492 0.10076938 0.137832 -0.059830327 0.2788835 0.06527149 -0.15114903 -0.19854933 -0.16183852 0.28191596 0.061422378 0.24246776 -8.6564425e-05 0.13440533 0.057102945 -0.055046953 -0.07628651 0.026110131 -0.07340802 -0.089780495 -0.071088076 0.06740274 -0.023244819 -0.18364759 0.15396531 -0.17261182 -0.1271846 -0.101430334 -0.043031592 -0.027722025 -0.1110374 -0.32812357 0.03308601 0.026106153 -0.1458237 0.050823554 0.14729066 -0.24094163 0.038173944 0.0808645 0.24285999 -0.05434518 -0.045506924 -0.17949733 -0.0060036955 -0.015726084 0.17685351
685 -0.05838355 0.10875135 -0.0039004302 -0.17351687 0.24003156 -0.1189446 -0.26348844 -0.018558647 -0.17882411 0.018119678 0.043752894 0.12830627 -0.013980697 0.16914327 -0.21312407 0.08700469 0.009270649 -0.06955591 0.07099149 0.09025184 0.23092306 0.2618828 -0.17057998 0.18345685 0.026366204 -0.10863037 -0.20310527 0.02669491 0.008123582 0.030724064 -0.066149555 0.07947559 -0.050499167 -0.05214282 0.1789873 0.23417811 -0.05725502 -0.18517756 0.14876589 -0.09042397 0.026613548 -0.17270552 -0.14334777 -0.20379098 0.14796615 0.06874482 0.027937531 -0.23863459 -0.045541026 -0.06623487 -0.09074656 -0.22530204 0.11041422 0.028440706 -0.03945535 0.1173178 -0.11572921 -0.1738507 -0.1251565 -0.10864955 -0.10570357 -0.050328664 0.0305147 -0.14421068 0.011231185 -0.17427401 0.00019513538 0.05465033 -0.056607965 -0.09614517 -0.09640682 0.11593016 0.1136146 0.12293827 0.013788961 0.3766091 -0.14118072 -0.10580355 -0.23649436 -0.009610182 0.018125491 0.01825448 -0.07906025 0.16822824 -0.060255215 -0.011273739 -0.046634663 -0.070973136 -0.042141005 0.290574 0.26595432 0.07418321 0.11706974 0.0263337 0.2071378 -0.11750839 -0.029795256 0.019997885 0.14890741 -0.03140583 -0.1519495 -0.063061826 0.03614954 -0.22068132 -0.35820213 0.16200718 -0.02558694 -0.07002263 -0.09847934 -0.20278615 -0.23290911 -0.07216628 -0.30402392 -0.08551482 0.23840858 0.0103218565 0.018741028 0.12539268 -0.19866717 -0.0062369746 0.02580015 0.464359 -0.027204568 -0.011104693 -0.14915332 -0.10275661 0.26406732 0.19486727
706 0.010329482 0.1254065 0.076226324 -0.015265331 0.21315925 -0.027629843 -0.37582687 -0.010278367 -0.018349014 -0.031595293 0.11587897 0.1439125 -0.012997546 0.3012969 -0.22015226 0.02813456 0.015017092 -0.15137275 0.06479324 0.004275102 0.05653643 0.042513013 -0.2795748 0.07166642 -0.015829897 0.009963057 -0.22176233 -0.0013274883 0.051887877 0.018737081 -0.11592669 0.09218897 -0.14033747 -0.05428725 0.005612888 0.16515577 0.04335513 -0.057353336 0.05957454 0.035782326 0.066835746 -0.17437324 -0.11473568 -0.25156167 0.2620341 0.08720068 0.080967985 -0.18973984 0.07069 -0.09933374 -0.097347654 -0.10923664 -0.027864458 0.059954964 0.08005411 0.06585513 0.013219435 -0.07395872 -0.10523404 -0.36609107 0.007938202 0.036269024 -0.0055425894 -0.13159569 -0.015706304 0.07475027 -0.07207941 -0.0682239 0.0037874675 -0.07622069 -0.08557958 -0.046937972 -0.014792826 0.041416585 -0.08465784 0.35551986 0.039327417 0.024893485 -0.2249388 -0.02410782 0.13090634 -0.014751921 -0.05593436 0.117866494 -0.04213969 0.12796773 -0.037612047 -0.07510371 -0.15229295 0.12174347 0.31489128 0.058574636 0.0840914 0.0012745459 0.19440044 -0.027708724 -0.025660463 -0.008683631 0.14586897 0.046016872 -0.12608086 -0.09710657 0.14027622 -0.081390545 -0.37204573 0.042293984 -0.038139164 -0.032027654 -0.053085998 -0.13323113 -0.22341518 -0.027529784 -0.34254268 0.02459886 0.18255797 -0.009732567 0.07796812 0.07990809 -0.14644532 0.087433845 0.09534649 0.29771093 0.007035993 -0.12976044 -0.19668354 -0.074219264 0.13020565 0.18535928
745 -0.01880817 0.029776452 0.037200976 -0.09260915 0.2951827 -0.0967734 -0.20325787 0.0735451 -0.088958465 -0.046288818 0.07151678 0.109023765 0.026620401 0.21371554 -0.25084057 0.061276574 0.17182 -0.046031494 -0.07319348 0.20091014 0.20223719 0.14562663 -0.23216356 0.22686824 0.027156906 -0.10990992 -0.13601933 0.028412959 -0.005339416 0.04849596 0.01624898 0.18756752 -0.14334065 -0.001969473 -0.046223108 0.1273185 -0.018169034 -0.107531235 0.09172258 -0.12099291 0.07470077 -0.18916197 -0.13226174 -0.12177887 0.24464214 0.08199737 0.042726997 -0.16140153 0.0073128487 -0.04010634 -0.08413102 -0.1881886 0.07726735 -0.07888498 -0.07291784 0.04218841 -0.1472968 -0.08399619 -0.06338703 -0.2723935 -0.07324442 -0.02590094 0.12702936 -0.05244861 -0.0036413735 -0.049857702 0.04239747 -0.026989656 0.014452737 -0.19905832 -0.13524605 0.020057015 0.16699584 0.0660854 0.10206542 0.52991676 -0.01783502 0.02273685 -0.2203408 0.021813385 0.14826387 0.018076878 -0.012645347 0.11596964 -0.0031638665 0.05347646 -0.060017355 -0.0946632 -0.1045838 0.22099212 0.31972784 -0.1060901 0.026540378 0.05883112 0.2916352 -0.036362138 0.019769356 0.027404932 0.1093453 -0.041441437 -0.09792894 0.01500419 0.069744796 -0.23100097 -0.39411965 0.1620733 -0.014523119 -0.109959275 -0.058207747 -0.026893334 -0.2908229 -0.18034533 -0.33438304 0.006745137 0.21767002 0.037052825 0.15793847 0.07163848 -0.18448147 0.04865573 0.08103577 0.37350783 0.027652442 0.05803459 -0.10025028 -0.15068325 0.31329662 0.2543225
818 -0.099911466 0.06309536 -0.08467397 0.05313003 0.3087726 -0.06773986 -0.18045674 0.13892859 -0.21058935 -0.11749402 0.10511447 -0.064598374 0.14073594 0.23914565 -0.026633574 0.07897123 -0.004037712 -0.07650211 0.13488685 0.030136768 0.03247418 0.12215035 -0.28362396 0.17088848 0.00014499952 0.056274768 -0.11311607 -0.21598417 0.092588335 0.1349014 -0.22176608 0.27006513 0.0803529 -0.11843101 0.2564905 0.17857373 0.093377165 -0.13194096 0.129697 -0.2366267 0.04800649 -0.27004546 -0.03101616 -0.33114251 0.13136669 -0.037332747 0.22909726 -0.07892358 -0.11602898 -0.08503891 -0.045198716 -0.09894657 0.05636058 0.14903314 0.15084757 0.05229201 -0.0114701055 -0.05476827 -0.09314959 -0.26378125 -0.06269103 -0.049502164 -0.064294145 -0.13223581 0.22573873 -0.06410879 -0.09274416 -0.09054044 0.116597295 0.0049986504 -0.007631241 -0.24874927 -0.21091825 0.12172006 -0.109747685 0.28797534 -0.22506939 -0.15717705 -0.32971922 -0.15506586 0.037850507 0.15643014 0.0116936555 0.010626752 -0.08072355 0.12747777 -0.1540402 0.041713722 -0.100315265 0.05094075 0.04456317 0.113705866 0.17566673 0.0055483812 0.15246853 -0.022492839 0.053189814 0.010267397 0.072019555 -0.12781478 -0.038601533 -0.031111816 0.010031577 -0.089550845 0.019257536 0.029485878 -0.066371284 -0.013625812 0.009050288 -0.09203294 -0.0077204937 -0.012249227 -0.2674508 0.038673628 0.09370208 -0.09354643 -0.09522709 0.049766593 -0.097610764 -0.03822072 0.13333656 0.36268672 -0.116125174 -0.0929244 -0.31893393 0.07804207 0.009392171 -0.0025375
347 0.0865309 0.10441407 0.1733166 0.007172513 0.0858691 -0.026333923 -0.31873128 0.048266675 0.120776795 -0.06664379 0.19286211 0.17118196 0.050199304 0.35345477 -0.23562077 0.023264442 0.007040165 -0.22228982 0.03892049 -0.107949935 0.028692298 0.025014522 -0.5091354 0.052838217 0.079525165 0.08175925 -0.18872786 -0.013730675 0.05533921 0.056391608 -0.13597696 0.30644062 -0.14243066 -0.07719476 0.09992874 0.21732289 0.160298 0.06274408 0.081117615 0.120784715 0.0055603525 -0.22734076 0.025848998 -0.21969113 0.21868375 0.06763946 0.17774588 -0.14837293 -0.0017572835 -0.16402243 0.0031127497 -0.09449521 -0.057710942 0.23949005 0.045627195 0.17313285 0.04848895 -0.057876397 -0.18199478 -0.3492013 0.039778806 0.02922267 0.015285948 -0.17074224 -0.101728156 0.08947752 -0.060495544 -0.17133328 0.012070835 -0.034365494 -0.020763 -0.12607701 -0.13422714 -0.03638864 -0.13001785 0.2773915 -0.114602126 -0.051830254 -0.12201616 -0.14826937 0.13086483 0.004176904 0.014551142 0.18479191 -0.13024248 0.22078604 -0.026966529 -0.07087091 -0.19570805 -0.020323586 0.3964307 0.09105989 0.16009137 -0.08303956 0.15439282 -0.019367937 -0.021670876 -0.02191196 0.13310777 0.0062850066 -0.1753578 -0.05197361 0.105827495 0.041887097 -0.27776346 0.051900245 -0.048095994 -0.05947939 -0.053650483 -0.13251723 -0.051620375 -0.043767307 -0.33848834 -0.06601122 0.0712264 -0.06495458 0.018680636 0.16521078 -0.16226684 0.08762082 0.05324547 0.35192633 0.0018701528 -0.16644977 -0.31764203 -0.04812549 0.10964662 0.18125722
472 -0.04977016 0.1601249 -0.06484461 -0.021309685 0.241665 0.042608537 -0.38957763 -0.022721743 -0.09349043 0.019827534 0.1015744 0.06886296 0.021671828 0.2575368 -0.23445705 0.1607682 -0.015775492 -0.07850723 0.07097788 0.1136429 0.13743456 0.24901111 -0.32876292 0.068317235 0.07601836 0.13399114 -0.24103676 0.034686703 0.074509874 0.009683919 -0.1720497 0.12128425 -0.09143389 -0.119304195 0.07895163 0.31957668 -0.045226187 -0.092856795 0.09701849 -0.03679192 -0.01487865 -0.19614294 -0.08772817 -0.20714642 0.144167 0.08209639 0.05007557 -0.22765613 0.03977486 -0.0694757 -0.10809921 -0.17590123 0.04137527 0.16505036 0.04274299 0.060473382 0.02289645 -0.1511404 -0.17488758 -0.18996134 -0.050961766 0.0042590625 -0.013134257 -0.15666878 -0.03074365 -0.10148816 -0.004778767 0.0848923 0.0358455 -0.10986035 -0.15859951 -0.080740094 0.030649085 0.13284244 0.031291455 0.4503268 -0.1361709 0.043553647 -0.29689786 0.0057701366 0.04135979 -0.08296616 -0.11516993 0.13480242 -0.04678562 0.07745042 -0.13122088 -0.077838935 -0.08683247 0.29660568 0.1095293 0.07869779 0.11009496 0.038094 0.042359017 -0.04242678 -0.070897184 0.03150555 0.22350839 -0.06302063 -0.17678599 -0.033828836 0.108698584 -0.1303933 -0.18923996 0.2002218 -0.11105589 -0.064836234 -0.12935464 -0.21485819 -0.12359263 -0.062379934 -0.23247573 -0.071144864 0.1437639 -0.06491166 0.1504649 0.25208136 -0.08529068 0.069635846 0.054796126 0.3522348 -0.051121537 -0.040892735 -0.09490336 -0.067143224 0.085913084 0.16460893
731 -0.044829156 0.005382724 0.020011287 -0.08494078 0.12661023 -0.027084436 -0.17541046 -0.10749587 -0.051556427 -0.066920266 0.08044506 0.18835805 0.060654845 0.17131022 -0.10165373 -0.038567986 0.08020173 -0.12518588 0.065968655 0.031447496 0.2732932 0.1807546 -0.25222903 0.1191795 -0.031985328 -0.09629943 -0.29749456 -0.040102284 0.078996934 0.0076344847 -0.09947899 0.1990407 -0.17170843 -0.13572444 0.16752613 0.21367267 0.12693118 -0.011030079 0.13672324 -0.09793146 0.05227383 -0.2177343 -0.10240921 -0.084925786 0.076599784 0.16806363 0.06909154 -0.1795239 -0.07976018 -0.07846646 0.11507286 -0.14664476 -0.035027355 0.14653412 -0.07967779 0.07669098 -0.26245737 -0.28209946 -0.1357092 -0.26210853 -0.06272909 -0.0017232737 0.1072735 -0.062380303 -0.1500191 -0.04587287 0.092530005 -0.055196635 0.023910452 -0.13297825 -0.15217417 0.035446785 0.033567343 0.09126734 -0.0875368 0.31289566 -0.21542035 0.08182718 -0.21365698 -0.09545205 0.003453229 -0.004481793 -0.044254504 0.08818633 -0.12529413 0.24505019 -0.1749618 -0.043284487 0.13381305 0.3429327 0.28691602 -0.006528554 -0.033989444 -0.07997756 0.3098302 -0.096744254 0.107153654 -0.0007450513 0.08818442 -0.023171566 -0.098567285 0.053592667 -0.006585791 -0.23573552 -0.08223761 -0.05018565 -0.23361887 -0.045592453 0.0051366277 -0.2107513 -0.20524506 -0.09806692 -0.34085557 -0.1461216 0.08942294 0.018383525 0.016886069 0.121202305 -0.1940223 0.053589977 0.016050538 0.24815995 0.15638193 -0.056246165 -0.22822341 -0.13323802 0.21121046 0.21919063
406 -0.054788955 -0.16698238 -0.029942738 -0.07984333 0.3839542 0.07464929 -0.20767976 0.060022842 -0.097333126 -0.08605506 0.10997988 0.043611333 -0.038337495 0.18498935 -0.09247046 0.18557933 0.2144319 -0.10299246 0.16099973 -0.06028611 0.006464747 0.006054045 -0.31054685 0.13914372 0.10245602 0.07063095 -0.29995516 -0.090092525 -0.0257027 -0.076564826 -0.080470175 0.03471219 -0.004223936 0.04664355 -0.0019153641 0.22244677 0.119800545 -0.08390332 0.12885837 -0.107359014 -0.027394138 -0.26794964 -0.32354033 -0.28066534 0.26444095 0.061669573 0.18939413 -0.23247543 0.15759847 -0.11970432 -0.057235602 -0.10644814 0.08101312 0.06299882 -0.06703697 0.117390476 0.10576221 -0.015702354 -0.109457865 -0.17792383 -0.051468544 0.026090713 0.086991765 -0.18159634 -0.008713662 0.10641103 -0.00042595356 -0.06698439 -0.027485888 -0.09317166 -0.0554076 -0.15742034 0.053126693 -0.19655387 -0.039103396 0.1791647 0.052094422 0.032677587 -0.21740326 -0.065127835 0.15706947 0.060573194 0.051147062 0.041945472 -0.02949091 0.1238852 0.09051345 -0.10360435 -0.11603942 0.014103856 0.30710715 0.073999204 0.17099734 0.22639357 0.18401821 0.07366335 -0.14489529 -0.023511527 0.083356835 -0.0785512 0.05055717 -0.1733137 0.09066893 -0.24566102 -0.4884988 0.29899132 -0.12622027 -0.10116156 -0.15134194 -0.03960864 -0.26061732 -0.10434122 -0.51624835 0.17563947 0.077793814 0.027002722 -0.07380192 0.1550955 -0.30446303 0.0014186588 0.10300893 0.3008905 0.039074246 0.022285754 -0.042523045 0.077255644 0.03688006 0.27361238
440 -0.022578584 0.08886904 0.024734356 -0.13572927 0.2313712 0.11061535 -0.45197755 -0.03910653 -0.06545373 0.019356102 0.13709214 0.10803565 -0.10499618 0.19363648 -0.31083962 0.23622207 0.0828226 -0.15366855 0.13409774 0.032502733 0.045290828 0.18566531 -0.33603817 0.059131887 0.049038876 0.14248745 -0.2312433 0.0015163114 -0.00392065 -0.03846481 -0.13040574 0.03678657 -0.090837486 0.031210048 0.019530926 0.3639184 -0.0046631875 -0.0050604274 0.036364295 0.026824605 0.03338931 -0.22581245 -0.19555539 -0.22543173 0.24713829 0.10878544 0.09661401 -0.26979938 0.030166011 -0.106946506 -0.11019504 -0.18580072 0.03136672 0.114838995 -0.0026207 0.1288127 0.010515978 -0.1674639 -0.18654233 -0.269723 -0.14117442 0.08497466 0.0030804633 -0.107795164 -0.108538985 -0.024647351 -0.039423566 0.060239118 -0.082112774 -0.119203985 -0.14548244 0.059057564 0.09842788 -0.02047009 -0.018417502 0.37363437 -0.06009635 0.026509715 -0.23104727 -0.014218822 0.08940492 -0.061293572 0.002558747 0.20373428 -0.07897329 0.13205057 0.009474383 -0.094577625 -0.15897869 0.16083552 0.26571164 0.1144653 0.15092103 0.17304783 0.16849813 0.15740354 -0.09829097 -0.04527714 0.15020381 -0.012973342 -0.21878406 -0.14519009 0.111964755 -0.20676856 -0.50752383 0.24807438 -0.101185344 -0.12864226 -0.1686235 -0.17682989 -0.23227805 -0.023136383 -0.40261555 -0.04750822 0.15348774 -0.08618433 0.06567711 0.3398999 -0.21829358 0.068318106 0.120639294 0.37651765 0.0048377584 -0.14002615 -0.17970623 -0.06047751 0.11364442 0.27161604
179 -0.051374745 -0.0010898575 0.03248272 0.0728809 0.25171003 0.057716195 -0.18224736 0.09061793 -0.0044802953 -0.11390888 0.12661718 0.08256437 0.17388201 0.29901707 -0.04344962 0.049390983 0.07433281 -0.09166137 0.02331559 0.004632657 0.068122625 -0.014653266 -0.3072767 0.065778516 0.07606774 0.11839223 -0.2944875 -0.046804328 0.04767827 0.008640818 -0.17035662 0.12746042 -0.037236217 -0.11888921 0.020126391 0.14009987 0.18072966 -0.061779786 0.07211808 -0.034493137 0.033957925 -0.11707302 -0.13268827 -0.27605945 0.110229 0.018642537 0.11181058 -0.027932351 0.15601768 -0.10169479 -0.08204086 -0.054438226 0.06397933 0.22945218 0.14599591 0.033855915 0.06788841 0.005961183 -0.079148114 -0.19780846 0.076261915 0.00042879084 -0.08710997 -0.12870215 -0.004952005 0.106789395 -0.086724594 -0.12647972 0.071774535 -0.06409573 -0.051814046 -0.25731692 -0.088393405 -0.06655599 -0.022901438 0.20217584 0.017325489 0.028077217 -0.15460348 0.025790237 0.08376539 0.05256734 0.032460757 -0.023616819 -0.002121563 0.13814633 0.03069689 -0.014639481 -0.123409994 0.012569965 0.24781127 0.09002082 0.08071758 -0.056560617 0.11727297 -0.08550514 -0.055544723 0.15270858 0.2278282 -0.015202995 0.051253725 -0.17422575 0.17796959 -0.06808834 -0.10826454 0.02460928 -0.07455238 -0.06586999 0.054340385 -0.10236479 -0.18764405 -0.10329151 -0.35113823 0.18458377 0.0075590555 0.021046268 0.14411768 0.045421932 -0.16898263 0.081758216 0.11787096 0.23596813 0.001977231 -0.029367274 0.00085226126 0.059577312 -0.030489549 0.13054504
693 0.017841838 0.015014331 0.022171514 -0.12154713 0.26320595 -0.07485114 -0.19836967 -0.0364933 -0.05360769 0.03635447 -0.0055566956 0.22947508 0.19613193 0.22349797 -0.10388202 0.0067750555 0.05119029 -0.16039358 0.12697819 0.075774156 0.26685578 0.28159678 -0.2796765 0.072737105 0.042268664 -0.1298159 -0.27296317 -0.046233293 0.06473866 0.04090467 -0.21448174 0.26822183 -0.16409965 -0.19597988 0.113831624 0.155976 0.04974416 -0.11627462 0.12430774 -0.023708927 0.028505825 -0.14942485 -0.11198601 -0.12602465 0.15868443 0.2594176 0.11971565 -0.110973984 -0.06791168 -0.042123083 0.069623455 -0.05843058 -0.041230142 0.118053555 -0.08247028 0.054785088 -0.23422371 -0.30481485 0.050953362 -0.3141827 -0.20026562 -0.0839893 0.053716794 -0.07954243 -0.04359562 -0.08819937 0.006956591 -0.04548364 0.110055536 -0.13217877 -0.044460997 -0.036515098 0.0134776635 0.19823854 -0.024027608 0.47420964 -0.26040384 -0.040482696 -0.28862947 -0.07588346 0.07359959 0.07431922 -0.015861498 0.14184502 -0.022558134 0.27149156 -0.16015184 -0.06213624 0.09862504 0.33143103 0.23603715 0.013926698 -0.027127493 -0.12971593 0.22364566 -0.10850783 0.146717 -0.00038320452 0.06697874 -0.031755038 -0.19466215 0.065500624 -0.07583836 -0.31916395 0.11314079 -0.01826771 -0.15273944 -0.011310498 0.06720358 -0.11295226 -0.21550499 -0.12651916 -0.29048783 -0.09210515 0.20556274 -0.059280157 0.076780975 0.09673707 -0.26495868 0.05448416 0.12513557 0.23415458 0.040855095 0.1292689 -0.14289567 -0.18794468 0.17716874 0.1794636
814 -0.28061092 -0.0077661993 0.07672157 -0.012914216 0.35614574 -0.0272792 -0.33371803 0.15143695 -0.07157218 -0.12212526 0.2389722 -0.04692572 -0.006293717 0.24494232 -0.084172234 0.030162046 0.1515153 -0.07777561 -0.11558039 0.24057418 0.23662683 0.110738315 -0.3278478 0.36059964 0.09693661 0.02852761 -0.19451925 -0.11410184 -0.020082556 0.17791075 -0.04844492 0.10576279 -0.011402939 0.0115008345 0.043881644 0.3198481 0.016919931 -0.11597235 0.111691676 -0.24580461 0.13362731 -0.23527564 -0.071948595 -0.31849635 0.08984908 0.012325486 -0.010901756 -0.1869817 -0.20333712 -0.0060323756 -0.078478366 -0.14578924 0.082935 0.0072191646 -0.032252517 0.028159887 -0.113005355 -0.027718926 -0.11195118 -0.119946286 0.02871493 -0.010091636 -0.04754034 -0.019117171 0.16838147 0.026346056 0.1410611 -0.08933143 0.05687804 -0.050656553 -0.112030536 -0.067659505 -0.15434647 -0.022732908 0.054611113 0.30711254 -0.19328368 -0.17518106 -0.3801217 -0.08722101 0.056828752 -0.016507728 -0.06377599 0.00064034393 -0.0021923229 0.08761696 -0.061186876 -0.147902 -0.06353538 0.11992823 0.21025719 0.030484946 0.26822057 0.10974448 0.27083573 0.029890921 -0.054445654 0.16121317 0.106520414 -0.10436044 -0.11255673 -0.04333209 0.053457398 -0.03760959 -0.2709638 0.21483868 -0.087095164 -0.11424463 -0.14679137 -0.034126546 -0.018140277 0.03603212 -0.33724427 -0.09070803 0.11527416 -0.0679625 0.026533987 0.10151471 -0.1558307 -0.055912297 0.09256267 0.38062516 -0.1513701 -0.06719158 -0.18660514 0.014807949 0.1077393 0.15324228
366 0.044736102 0.06503659 -0.038112063 -0.016127277 0.3306891 -0.08249788 -0.1041852 -0.023933562 -0.0061114314 -0.0044418257 0.028562285 0.15749393 0.2735013 0.29025352 -0.080176435 0.22080648 -0.08418539 -0.23838662 0.10910263 0.054626953 0.13639909 0.25394744 -0.3520765 0.095169574 0.13772786 0.1309815 -0.16175802 -0.10924194 0.032806925 0.096626826 -0.20949093 0.30288976 -0.10589993 -0.13313869 0.16340703 0.09460668 0.0810021 -0.19789843 0.12130979 -0.053814285 -0.0069692084 -0.22004694 -0.13094313 -0.16079342 0.28544134 0.082380734 0.21668498 0.0029854923 0.1104422 -0.100710236 -0.10320999 -0.06744279 0.16954109 0.17704195 0.011391482 0.070516706 0.047675442 -0.12228255 -0.077434815 -0.34214994 -0.2534567 -0.080647744 0.0010825372 -0.25864732 0.017099975 -0.11669815 -0.15552193 -0.10385031 0.121496655 -0.032461774 -0.014721737 -0.25239116 0.032396458 0.108626485 -0.0019457148 0.37065184 -0.2164531 -0.08893183 -0.19695306 -0.06398756 0.18547715 0.12294859 0.1032006 0.074207895 0.057498455 0.1427104 -0.02414777 -0.012586539 -0.18160883 0.044884365 0.1131264 0.08374242 0.22062933 -0.1338711 0.071811736 -0.107466154 0.07357274 -0.069244154 -0.027885443 -0.05044741 -0.07256589 0.020112883 -0.055984046 -0.2673364 0.15166497 0.060794573 -0.10284722 -0.08429593 0.053319193 0.04490662 -0.14111625 -0.17935304 -0.19401431 0.15479125 0.10586062 -0.06284026 0.1363071 0.14717932 -0.22580911 0.0845303 0.12163652 0.19831854 -0.029124213 0.10718838 -0.15747072 -0.14359486 0.017090417 0.07652298
326 0.01325813 -0.072817884 0.09996891 0.05348399 0.2098661 -0.028650172 -0.0746714 -0.017734136 -0.048520446 -0.06251568 0.15418662 0.10310521 0.09059801 0.17470005 -0.07195049 0.10314699 0.06830042 -0.17290609 0.095552884 -0.10923307 0.09251109 0.10186334 -0.34891057 0.092847236 0.006007156 0.07372353 -0.23796505 -0.19448721 0.12165495 -0.045356065 -0.12760791 0.23040828 -0.069912 -0.043624945 0.19793999 0.28138196 0.22877 -0.04981553 0.2084353 -0.14771779 -0.03301944 -0.31405878 -0.1624136 -0.1756848 0.17745815 -0.007580131 0.28072223 -0.15649134 0.025798742 -0.16619806 0.059601355 -0.107297026 0.020822432 0.20024616 -0.024855215 0.18567415 0.019523477 -0.1406942 -0.20487587 -0.28399384 -0.062048007 0.007137922 0.07684631 -0.20851316 -0.10156309 0.043295655 -0.043903314 -0.1905306 -0.016285982 -0.06674471 -0.09188546 -0.22236845 -0.039466273 -0.082405105 -0.05873325 0.16567086 -0.18767428 -0.0064705056 -0.2060007 -0.21297562 0.032612026 0.095838234 0.05583554 0.04532532 -0.105325796 0.24304858 -0.055443782 -0.03306005 -0.036705587 0.020784406 0.2775306 0.113074735 0.16943322 0.029693844 0.20287709 0.020978883 0.0020214948 -0.14819084 0.019060824 -0.04482691 -0.005310288 0.044507217 -0.015818035 -0.1443628 -0.1740704 0.052949693 -0.25338832 -0.062400173 -0.071172155 -0.07521638 -0.06847996 -0.056050967 -0.30773684 0.037223145 -0.017582454 -0.035077054 -0.041342787 0.1542105 -0.21160997 0.025692832 0.070013724 0.16536117 0.09744074 -0.10553482 -0.24226429 0.052664887 0.032612987 0.1530595
497 0.07687771 0.11026849 -0.05018104 -0.057746165 0.18308364 0.0064535122 -0.21955046 0.02057518 -0.109593004 0.04434531 0.08027169 0.12065867 0.091504075 0.1047002 -0.21352851 0.06764367 0.06407802 0.03157116 0.0997241 0.08685951 0.09513342 0.095890686 -0.24795385 0.112064354 0.022112496 0.08554403 -0.17915687 0.017995352 -0.091593675 -0.10488267 -0.08136495 0.16202947 0.043023784 -0.15520382 0.017588215 0.28182152 0.11863822 -0.06314337 0.11474541 -0.08652041 0.058440756 -0.21810082 -0.07481327 -0.15389988 0.1811496 0.039094858 0.07859754 -0.07277473 0.0958936 -0.12791629 -0.12784037 -0.14786518 0.09188296 0.120998144 0.05051517 0.04263119 -0.010837239 -0.133927 -0.1789028 -0.2995662 -0.069037944 0.01659314 -0.012246578 -0.105346605 -0.13458407 -0.10088303 -0.046969727 0.013022829 0.062356357 -0.18863417 -0.267322 -0.03622909 0.033244833 0.06790712 0.015275013 0.4584183 -0.04434414 0.073295735 -0.11323973 0.0052585113 0.030494038 -0.07778352 0.015859274 0.13025664 -0.06676525 0.14020596 -0.07856547 -0.008907623 -0.007180025 0.15556195 0.18110223 0.020511514 -0.03732524 0.042682976 0.2948576 0.033609457 -0.05273301 -0.0014906477 0.20453739 -0.07313075 -0.04130268 -0.053546075 0.14869393 -0.22946374 -0.23596185 0.19069238 -0.037477534 -0.015503158 -0.10098847 -0.1788732 -0.25848064 -0.11935996 -0.31736398 0.025949558 0.23423852 0.007743937 0.14040075 0.11438014 -0.10595835 0.0062318197 0.06963402 0.2786127 -0.015127307 -0.025661794 -0.12399363 -0.051790543 0.14467394 0.16594338
784 -0.07658465 0.07415491 -0.0047213202 -0.14776513 0.34953654 -0.0075370255 -0.3665314 0.18375531 -0.1211488 -0.17633273 0.22332719 0.01813825 0.059757892 0.2546138 -0.040690813 0.1742801 0.19713217 -0.2624356 0.14471978 0.048820194 0.023810554 0.15067255 -0.31891164 0.17217013 0.14854962 -0.008373883 -0.13059253 -0.23756397 0.12139272 0.22397983 -0.1947701 0.14958967 0.065731116 -0.09418519 0.10641832 0.25422117 0.11966732 -0.05642764 0.054987714 -0.060214028 0.09471318 -0.34745714 -0.19032049 -0.29206067 0.3014129 0.11076653 0.22148784 -0.10657964 -0.11432814 -0.02476481 -0.002087485 -0.05941435 0.14370973 0.15235667 0.026432913 0.12375439 -0.07518318 -0.15436381 -0.05617043 -0.29828915 -0.17716514 0.0013498879 -0.11342021 -0.09464318 0.21236129 -0.05247241 0.10350767 -0.11509455 0.14869012 -0.007184926 0.18085511 -0.004239969 -0.22608519 -0.030802945 -0.29638165 0.3545335 -0.19994593 -0.16331255 -0.2962619 -0.07141133 0.19769828 0.065815814 0.16337876 0.12993163 -0.016554462 0.2482251 0.07279915 -0.1678093 -0.22160871 -0.08489383 0.08567432 0.006592489 0.29050785 0.12075206 0.27405548 0.11904723 0.00068267627 -0.116997406 -0.059069585 -0.16566436 -0.07122568 -0.19235685 -0.01431372 -0.21238421 -0.09657836 0.18061206 -0.15970957 -0.09492802 -0.05581074 -0.0013491514 -0.068175025 -0.15102415 -0.45691752 -0.026337182 0.11516403 -0.11781963 -0.07274238 0.14200684 -0.29250172 0.00089510926 0.1125957 0.46134803 -0.11725464 -0.06112627 -0.2577674 0.004803978 -0.005181582 0.10053427
359 -0.035368197 -0.10069728 0.09642175 0.05292959 0.2263763 -0.018978935 -0.20465331 0.026921237 -0.09783565 -0.07607567 0.11127222 0.11799338 -0.012376461 0.18154038 -0.026072966 -0.058010194 0.22344814 -0.10070014 0.13780072 -0.18163228 0.10723664 -0.07507444 -0.3405159 0.06758691 -0.017384361 -0.039361686 -0.3393541 -0.09116564 -0.0025135046 -0.12202704 -0.06989544 0.10142939 -0.019119808 0.021276379 0.035020575 0.2919879 0.24560827 -0.0623879 0.15834948 -0.14194657 -0.021928672 -0.256163 -0.19180577 -0.25043356 0.17260088 0.0063084816 0.1659417 -0.21318333 0.071317926 -0.15905441 -0.03804696 -0.10314344 -0.09538119 0.133471 -0.022370676 0.19084635 -0.026291903 -0.07405945 -0.14814022 -0.26483396 0.058137182 -0.0074605662 0.02799985 -0.13230076 -0.12811807 0.20043516 -0.02727008 -0.1327895 -0.071933195 -0.12737326 -0.15592295 -0.16241269 -0.05533652 -0.18818425 -0.058179237 0.14432818 -0.019620977 0.040048875 -0.20295763 -0.16053985 -0.005200888 0.06321701 -0.019552365 0.07763625 -0.09341651 0.26336065 -0.023902966 -0.06883486 0.10846649 0.051600546 0.4287732 0.116016105 0.12595408 0.14839998 0.3109817 0.028329637 -0.06716375 0.04964466 0.17934634 -0.027438153 -0.015604947 -0.08114232 0.06627421 -0.16772933 -0.4119984 0.09007553 -0.17266035 -0.0059860623 -0.04434317 -0.12206577 -0.22035202 -0.04883791 -0.5348528 0.05168389 0.004290886 -0.003279618 -0.06388136 0.11339194 -0.29068464 0.019378083 0.12768577 0.27479455 0.04492353 -0.14956607 -0.15010749 0.073501825 0.097101025 0.24606471
790 0.005750696 0.13187782 -0.033152092 -0.030921193 0.28474408 -0.09974923 -0.22768894 0.12749715 -0.16866577 -0.13316134 0.10337828 -0.017169543 0.11988841 0.29508638 -0.07470182 0.030126426 0.06645301 -0.13259657 0.13232487 0.06518965 0.018565103 0.04638188 -0.29313362 0.18399316 -0.0047562434 -0.018944964 -0.05703987 -0.21210235 0.09714553 0.15455313 -0.1970169 0.27378726 0.03371229 -0.13142693 0.13035809 0.14783685 0.08495736 -0.122637644 0.0903286 -0.12343316 0.08294296 -0.25400922 -0.056612995 -0.3304942 0.23215008 0.041486453 0.29651326 -0.043493547 -0.07517899 -0.08769671 -0.041980483 -0.062122274 0.06428426 0.14810932 0.16379395 0.09971318 -0.052595485 -0.12529518 -0.09020346 -0.47287405 -0.13717136 -0.027105525 -0.058077864 -0.08132907 0.24076468 -0.033149123 -0.06299256 -0.16893181 0.15643339 -0.06157488 0.032886397 -0.17279814 -0.23914988 0.0918952 -0.14750437 0.38891312 -0.14750658 -0.11126054 -0.30665466 -0.12959659 0.12806821 0.1365213 0.047554705 0.08207376 -0.043256555 0.14016129 -0.08526921 -0.03243006 -0.1546894 0.059571598 0.07826417 0.049866814 0.14237405 -0.03756193 0.24145223 -0.0086125005 0.09742209 -0.07766049 -0.019311672 -0.10246823 -0.060719065 -0.035578914 -0.015015519 -0.16285552 -0.019261776 0.004485574 -0.0615527 0.00965888 0.0035451239 -0.039465647 -0.105856 -0.03843166 -0.3366506 -0.0013905334 0.19170515 -0.09392908 -0.07820646 -0.0034887118 -0.13379247 -0.0389335 0.15929128 0.35765624 -0.1060547 -0.08811841 -0.3471675 0.038116988 0.10540615 0.013512907
686 -0.11836974 -0.056255307 0.05107789 -0.16447648 0.33709544 0.008602656 -0.24882373 0.04019257 -0.14333086 -0.027362678 0.12157858 0.13641882 0.078574255 0.13983797 -0.13150339 0.22747138 0.22849435 -0.16476923 0.08653428 0.117571436 0.17177966 0.32313848 -0.2742177 0.18660922 0.13308755 -0.011115914 -0.2943597 -0.10888934 -0.0036616977 0.03377774 -0.12568775 0.11994821 -0.10216857 -0.061166707 0.16548198 0.383428 0.04467796 -0.0068781828 0.14551577 -0.14149055 0.0448609 -0.30259362 -0.26781744 -0.17932276 0.18736017 0.16246876 0.06585825 -0.22895098 -0.032860756 -0.036384884 0.063084416 -0.09800809 0.099485934 0.0845144 -0.20641041 0.1013436 -0.1732367 -0.32385215 -0.097450756 -0.11748076 -0.2088517 -0.05193139 0.041741908 -0.01125233 0.03529554 -0.13267724 0.07825827 0.033976812 0.01476521 -0.09245374 -0.061064467 0.06311521 0.09227056 0.071134105 -0.06617734 0.49010274 -0.19434763 -0.013219117 -0.2819161 -0.03760634 0.123468176 -0.004216912 0.09776087 0.15141916 0.045292288 0.2719693 0.042831514 -0.14806303 -0.017527934 0.24221195 0.17904155 -0.003624924 0.07019606 0.11659296 0.18260787 0.18090947 -0.05713286 -0.013692981 0.04311811 -0.18726806 -0.08728291 -0.06167417 -0.010032846 -0.30322248 -0.13997754 0.22471654 -0.23972388 -0.19630444 -0.04558343 -0.050994765 -0.16912277 -0.21188146 -0.38521126 -0.07441244 0.116723575 -0.1410742 0.024566649 0.25882912 -0.31500453 -0.037743293 0.1076964 0.34484956 0.07271699 0.13565642 -0.008601535 -0.084247306 0.1214746 0.20857514
343 0.009887689 0.027614145 0.13367543 -0.059394993 0.24425364 -0.0051158364 -0.21315637 0.03067 0.020901266 -0.13381098 0.1730043 0.077129155 0.08546559 0.25707555 -0.15607946 0.234907 0.14060983 -0.20586182 0.07559546 -0.0012465201 0.032452576 0.050334346 -0.4452658 0.14992647 0.08793259 0.16721156 -0.16635218 -0.16305156 0.10728286 0.012272594 -0.16925775 0.22879098 -0.08689331 -0.075986214 0.06257678 0.3142303 0.12365586 0.0033457787 0.10891824 -0.02414684 0.022284886 -0.29036015 -0.13682473 -0.23713742 0.22146678 0.10493096 0.20487459 -0.1443741 0.022878384 -0.12478313 0.04692685 -0.07536401 0.06990916 0.19247307 -0.06320014 0.18966652 0.002905897 -0.091361694 -0.16854824 -0.26953125 -0.1904269 0.07718081 0.057026252 -0.07922071 -0.03816891 0.088857986 -0.03754176 -0.2075924 0.0017826894 -0.06294852 0.0057170354 -0.14150822 -0.10629397 -0.083192095 -0.089879975 0.27639666 -0.19608335 -0.059578557 -0.20483601 -0.15467651 0.126337 0.084715225 0.10888871 0.10536578 -0.06064927 0.22306521 0.02412289 -0.10028369 -0.18117596 -0.002909438 0.28767565 0.056401137 0.21125379 0.05633282 0.18297257 0.061031636 -0.016146664 -0.08348253 -0.010560576 -0.06574775 -0.11602737 -0.055180807 0.026451558 -0.1609604 -0.29032746 0.14429267 -0.20488358 -0.17035507 -0.1231293 -0.07536611 -0.12940347 -0.07647354 -0.34023952 0.04366259 0.03737208 -0.14081503 -0.020373799 0.20678316 -0.2917252 0.010375596 0.11728763 0.2872817 0.04449914 -0.0534393 -0.22621168 -0.047774438 0.02198672 0.19899343
452 0.022688678 0.08784668 -0.070728764 -0.06383148 0.17462121 -0.019306969 -0.2200746 -0.030080914 -0.04525742 0.1243716 -0.0032301086 0.21386553 0.119962834 0.14378259 -0.26120332 0.04409377 -0.078968525 -0.0728181 0.061565194 0.14255087 0.2703848 0.29673862 -0.25252455 0.10617595 0.01793877 0.05295622 -0.20990969 -0.00044052562 -0.10006722 0.0043111895 -0.09519906 0.22490937 0.023920354 -0.04824755 0.078675956 0.21792993 -0.05104083 -0.17512065 0.12668468 -0.14277986 -0.06140994 -0.13829874 0.00771572 -0.12183491 0.1702241 0.0015550682 0.07275736 -0.096268155 -0.10302015 -0.05880927 -0.18250085 -0.15661184 0.06322672 0.08221595 -0.013000051 0.024309086 -0.0063591846 -0.16152065 -0.11733096 -0.30880684 -0.11035296 -0.08487948 -0.046216127 -0.21237 -0.13202353 -0.19655974 -0.092261285 0.1320852 0.07851122 -0.11086271 -0.2409681 -0.052821223 0.057790276 0.18824251 0.13188212 0.47533494 -0.2170447 -0.08570453 -0.23980515 -0.046199515 0.0072120344 0.0076832827 -0.03836766 0.13742386 -0.106974564 0.16302103 -0.21572497 0.053553678 0.027155891 0.15386082 0.14844574 0.04292209 0.07033596 -0.048692215 0.26158276 -0.05713368 0.042928096 0.08290345 0.17954803 -0.033255525 -0.2273253 0.1045853 -0.0062682154 -0.18395835 -0.034783468 0.1396957 0.016235663 0.008600698 0.021703823 -0.12895128 -0.18484686 -0.088800974 -0.23200196 -0.0018561927 0.28233495 0.025561428 0.21098557 0.17104761 -0.082382575 0.03985921 0.08392309 0.271653 -0.10489583 0.04322536 -0.14578289 -0.0971044 0.18516327 0.047447573
